{"structure": [9, 8, 9], "networkWeights": [[[-1.4772955200858389, -43.72948951583779, -1.3053567857044484, 1.4402679731494903, 0.3245186651652879, 24.940026010905537, 9.26873691773178, 51.843596073561436], [-4.553765128121899, -2.0112449749214916, -14.177085533373603, -13.770747190265332, -7.871756706898988, -20.359996104611888, -18.41482334555791, -24.0604161699145], [-13.433381555778439, -3.7132880186608466, 4.432153977634516, -13.327197417317468, -8.748909646097259, -6.437364188084316, 34.99446990236228, -9.487259563690152], [44.0532506461264, 19.177828559677693, 10.754338557765886, -13.274818051220596, 20.071730834232806, -1.171122524020018, -7.506729299505567, 52.77216928993125], [-34.60721627779488, -5.0778794297130805, -36.82702338840445, -3.2297704954278545, -17.040666318756866, 18.02367443363647, 4.212108232014764, 31.442125867339623], [1.555778338529552, -26.494527643772802, 47.11496114354853, -14.173763969379785, 19.317495261725096, -28.952657686666804, 5.072091333731825, 41.72219385377278], [-10.900746887876473, 29.46999239566034, -30.045208378362627, 32.49440165507491, 25.954085425194, -30.822803987962146, -13.798235187598621, 24.17448037566753], [-34.94911866355622, 42.95542556627715, -23.520855599488524, 27.926110466214645, -1.202106513615001, -0.06174221339002717, 2.105076025548699, -17.733348547710857], [-15.238757960315041, 21.93622500619963, 69.75519987520298, -20.374344289774868, 7.753418028933777, -22.486446980306738, -16.709161991654806, -23.288957110508562]], [[2.143847661021758, -39.50752345156065, -15.537405783241478, -14.686362062589417, -39.986686065880484, -2.02385152379595, -1.949063774360139, -4.458309585527968, -21.972314078462745], [7.684867690659715, 0.2962535571256536, -17.319781450140496, -43.37957551462525, 52.07596544302068, 31.94428317293014, -36.402291799223654, 13.764819961550568, -9.923580809747214], [-44.92463479403405, -19.520452832393254, -9.630836919362066, -9.963822902391861, -40.65420041068593, 16.35482628998372, 14.533631246847374, 26.95590587268207, -21.29442145359806], [-30.74438716351842, 5.6274515944507355, -3.17296189646171, 34.35153242205431, 12.029305712358031, -18.523010477743874, -31.25591017017844, -21.274820876618218, 49.582783889493506], [55.94994729767532, -22.511538225808057, 3.956074470379342, 4.595075498100985, -41.13350722151784, -44.57058210762686, 19.831090689869853, 9.170786108445554, -4.795997697414982], [-33.856955189390554, -6.420982943188085, 0.07609474568951696, 28.486721104593023, 32.908973193031194, -6.551489336591097, 30.840180221441233, -35.91775943331508, 17.22728504032143], [-10.661056145576863, -4.867288524790943, 11.942552950757836, -5.007931501243126, -14.650408572842817, -18.483813282858062, 79.31744169148243, -76.83986150620572, 17.984997699649913], [23.279204393907744, -3.7368990586496884, 26.143234223192188, 25.718754248058083, -24.498620235747175, -26.864798073741362, -11.108372524752804, -48.89510052216753, -4.782599681006653]]], "networkBiases": [[-2.3398322804759744, 3.6994153189030587, 3.4108935915244913, 2.9517212897524128, 2.900732384662596, -0.0810432173608166, 2.528717228124107, 5.987905212113607], [-3.776526313179692, 5.730071747542314, -1.4098212949933044, -2.9705913929782866, 5.668998692826249, 3.8092002638717886, -2.975301542858185, 2.5979867398802994, 1.8770708574406225]]}