{"structure": [9, 8, 9], "networkWeights": [[[-1.4772955200858389, -43.72948951583779, -1.3053567857044484, 1.4402679731494903, 0.12399384035564415, 24.777053858580302, 9.26873691773178, 51.843596073561436], [-4.553765128121899, -2.234952864702059, -14.177085533373603, -13.770747190265332, -7.871756706898988, -20.327539232334356, -18.41482334555791, -24.0604161699145], [-13.64196116154301, -3.7130875713030562, 4.432153977634516, -13.21707004955377, -8.748909646097259, -6.437364188084316, 34.99446990236228, -9.391651591365532], [44.0532506461264, 18.98789836082461, 10.637287747577853, -13.423385661947187, 20.071730834232806, -1.171122524020018, -7.506729299505567, 52.77216928993125], [-34.631464718976936, -5.256743083604648, -36.82702338840445, -3.2297704954278545, -17.040666318756866, 18.02367443363647, 4.212108232014764, 31.442125867339623], [1.555778338529552, -26.494527643772802, 47.11496114354853, -14.173763969379785, 19.317495261725096, -28.92197417929221, 5.072091333731825, 41.72219385377278], [-10.900746887876473, 29.46999239566034, -30.045208378362627, 32.49440165507491, 25.954085425194, -30.822803987962146, -13.715738953714574, 24.17448037566753], [-34.94911866355622, 42.95542556627715, -23.520855599488524, 27.926110466214645, -1.202106513615001, -0.06174221339002717, 2.105076025548699, -17.733348547710857], [-15.238757960315041, 21.93622500619963, 69.75519987520298, -20.374344289774868, 7.753418028933777, -22.486446980306738, -16.75678654244367, -23.416663272961845]], [[2.143847661021758, -39.50752345156065, -15.537405783241478, -14.45383534050682, -39.986686065880484, -1.8865022687529343, -1.9431576846987415, -4.458309585527968, -21.972314078462745], [7.684867690659715, 0.2962535571256536, -17.319781450140496, -43.37957551462525, 52.07596544302068, 31.94428317293014, -36.44927314384794, 13.764819961550568, -9.923580809747214], [-44.731835411202226, -19.29456305514139, -9.630836919362066, -9.963822902391861, -40.65420041068593, 16.35482628998372, 14.598672690896308, 26.95590587268207, -21.29442145359806], [-30.562112553334817, 5.6274515944507355, -3.233993331533834, 34.35153242205431, 12.029305712358031, -18.523010477743874, -31.25591017017844, -21.274820876618218, 49.370057998155275], [55.94994729767532, -22.511538225808057, 4.019050594232952, 4.5244031804170834, -41.13350722151784, -44.57058210762686, 19.831090689869853, 9.170786108445554, -4.795997697414982], [-33.856955189390554, -6.420982943188085, 0.07609474568951696, 28.50051895680188, 32.91286493583806, -6.551489336591097, 30.68269934787488, -35.92714890457256, 17.22728504032143], [-10.827891961714348, -4.641189050975872, 11.881948955861176, -5.007931501243126, -14.650408572842817, -18.381512570625286, 79.31744169148243, -76.83986150620572, 17.984997699649913], [23.279204393907744, -3.7368990586496884, 25.959621374454333, 25.614094709149644, -24.498620235747175, -26.61625842629693, -11.108372524752804, -48.89510052216753, -4.782599681006653]]], "networkBiases": [[-2.4096561282677476, 3.7840339417535165, 3.2393671838291134, 2.8059092321098373, 3.114356872275379, -0.030061470622735287, 2.350802773900042, 6.0198123577813565], [-4.018816371421359, 6.083620692375042, -1.3918340258958972, -2.803238336630298, 5.480712226288236, 3.690993057297679, -2.975301542858185, 2.6397007412248157, 2.1994558498907493]]}