{"structure": [9, 8, 9], "networkWeights": [[[0.16445724500464376, -42.668239866301185, -2.533451395189395, 0.49740605753889167, -0.2117431476052396, 23.341400415711128, 8.804444961022183, 51.23356979326714], [-6.5580763083581335, -1.0421154260757133, -13.404970848437245, -13.173119107789839, -8.052160362200436, -19.246943683876154, -18.265839918287856, -25.595709306128487], [-13.342074194430849, -4.57369949446178, 4.411471800163037, -12.457436040596416, -8.136994804303324, -5.927178555082288, 34.40881593956872, -9.949638076876953], [45.14022364504573, 18.42816928357408, 10.028143159093025, -13.571431766889276, 20.377399079795115, -0.3892511860453769, -5.5913119929730115, 53.77685006097241], [-34.970024279976144, -5.930994931569307, -37.265941380715624, -3.128444698709793, -17.727889753562145, 16.78747758041705, 3.36166256463624, 32.59387064857202], [0.5337056581062356, -25.110784606659436, 45.675352846114514, -14.931947666672665, 19.09492296819089, -27.50896073810807, 4.18301796118479, 41.28877488660899], [-9.656567508289498, 28.534775939577298, -30.109699304865188, 32.482034849829276, 26.681167740238763, -30.65521545812207, -12.985984366469982, 25.094025676852123], [-35.461752645395585, 41.89013194504081, -20.396123513174704, 27.410749251282702, -1.8247544117438235, -0.409384437458989, 2.8294268759657744, -18.37018571453991], [-17.554539765201216, 22.185187815608607, 69.13222646813176, -18.797777778068617, 8.156723406478852, -21.03117602387652, -17.605819424830205, -23.363910643858286]], [[3.691547714730884, -38.77667159495301, -15.648362041783223, -14.075515758717373, -39.327850335168975, -2.5134210118044127, -1.3666478494232983, -3.6139975849541006, -20.772624660433188], [5.973135822863918, 0.5660118521873196, -18.28313862902532, -42.15481061314515, 52.01279425820913, 32.94113416642816, -36.84593770880907, 14.133751091802633, -11.035205682815452], [-44.52929570164636, -18.99858561713738, -10.072588556911837, -9.218020146795581, -39.28953704267491, 16.17760930581883, 14.696898944721882, 27.845205686600732, -23.5110259696696], [-29.37647778630099, 4.693682552856753, -3.2617312062838226, 35.256287387610215, 11.581681475832866, -19.53767560891091, -32.63035566939128, -22.38481879518885, 49.83189772042989], [55.15449840073289, -23.709527602441103, 4.038300147516613, 4.456384092120367, -40.830946520293125, -45.309841611417376, 20.60939783074193, 9.632648819405519, -4.680126490184774], [-32.83216135836275, -6.258430608245782, 0.25606495570859256, 28.049389948353713, 33.65380441680721, -4.823841694142953, 30.08847600294797, -35.008780425579126, 15.245170762306035], [-11.67346714015404, -4.6729928049117415, 10.446985693579137, -4.128852963010324, -15.25565038389429, -20.193168902074778, 80.12703555517162, -77.65385220076323, 20.604651230888646], [23.91412228083039, -0.1299961649250556, 24.206535446205045, 24.480054451696738, -25.559521372410902, -26.189367252344034, -11.561780121971417, -49.48888629130524, -3.975878490417979]]], "networkBiases": [[0.8730496043364719, 2.1447797996025075, 1.4154919588637342, 2.8285035654873782, 0.6490089308939027, 1.4146945248306142, 3.7489824016716344, 3.0955910652296517], [1.470565889495021, 3.3429036175553257, -0.8994098310614613, 0.6147941033366566, 1.5477949784558274, 1.2709382228215083, -0.9696789302589699, 3.1789562796403845, 1.7607819131457225]]}