{"structure": [9, 8, 9], "networkWeights": [[[4.896885006020375, -1.7892693602841747, 6.360547542693067, 8.73136881436304, 1.1013522954167958, 20.457948728971708, 18.892768098130325, 22.895289042846073], [0.5168028125110402, 12.167019744741694, -11.256593890584067, -6.760716110793744, 10.149007118537938, -7.157588109174023, 5.710431081212664, -8.233413078759614], [-8.821214871595467, 15.77241687169504, 11.306600981695144, -2.645987402081981, -10.405813260198777, -11.63490602592424, -2.1247106811435277, -13.803792612647115], [20.87535305461401, -9.59528946800767, 11.786912182364455, -3.5615229991160677, -0.7091951335892528, -7.065105569778561, -4.516591691160775, 11.225638181146618], [-19.317389722983986, -1.8505532211068123, -9.537751076958477, 22.54671196593905, -5.549213558017845, 4.368009055295595, 1.8355213834289006, 21.784194532502653], [-4.629527548974715, -22.081976226711284, 22.860864756340696, -1.3296536301637696, 12.77682020762688, -14.608947078512134, 23.26573438765722, 24.648544630808978], [-0.7190773918271252, 15.819934015999493, -33.26713573686509, 27.231562216234277, 13.278687273183582, -27.14840353794435, -30.666973490553126, 30.832807192930474], [-9.656986628270335, 18.73885808194772, -9.335086434119297, 0.1440149935927082, 0.38649160800654125, -15.753580493525885, 0.7682633917062405, -16.274765432851446], [-10.402235323004716, -5.438606396595578, 60.917566836002784, -4.322304855013675, 5.41086832439413, -3.799569549048323, 5.597925796377069, -2.31911536736195]], [[-2.9673392535652017, -13.589548552017558, -4.330765334318203, -5.428201931566113, -17.494939646130632, -10.764811353111241, -5.267180637788989, -7.8423132990930755, -28.377586119592728], [3.8299575102837218, -2.1105080276339003, -11.122031459906498, -5.824707038312548, 26.890702315099844, 19.01215343291876, 0.4403882964019219, -0.009941044307490987, -8.031852691616834], [-31.01908754155788, -24.52114009695895, 8.539605962908796, 6.244786079246323, -28.71915346645934, -6.095070844400611, 24.820871083532616, 3.817527434012893, -0.40952753495459127], [-23.847746238673057, 4.63788214955004, -0.6857121328028961, 15.609423198280565, 10.183551370669543, -7.979075586929008, -36.56751108797578, -7.516093993851417, 24.398628146952777], [36.584733867515176, -25.76615106034302, 1.5797860307058902, -6.270408215290762, -24.276422320037966, -25.747686524163882, -3.173853912670942, 33.165300382651274, 6.135010277487029], [-23.984043984670105, 5.635302599029625, 1.585606840608694, 16.476087167993924, 26.37145757747969, 3.4097603405509664, 39.790746083296824, -14.857204692904347, 0.07211240279855935], [-0.14829056097898707, -8.595239291603088, -1.2283191058920695, 13.334437814822252, -6.395217801615932, -31.90376194729361, 34.8875585821625, -27.731067808543308, 20.54099940347147], [-3.8809989531542444, -8.080598484970533, 4.049077732647116, -1.2594783909742757, -11.971650215595245, -29.04678080527073, -21.603895128688134, -45.290070137831655, -4.106134209446493]]], "networkBiases": [[1.0, 1.0, 1.0, 1.0, 1.0, 1.0, 1.0, 1.0], [1.0, 1.0, 1.0, 1.0, 1.0, 1.0, 1.0, 1.0, 1.0]]}