{"structure": [9, 8, 9], "networkWeights": [[[6.370403133982518, -1.3889004766668882, 6.303079529717265, 7.738002109163094, 1.6050791844638561, 20.457948728971708, 18.892768098130325, 23.490495560715285], [-0.5812646745518124, 12.100177462171699, -11.373324642227079, -5.9452756780752125, 10.055086686843564, -7.157588109174023, 5.710431081212664, -8.200266953988459], [-8.21713460625952, 14.721825277751401, 12.061924686619472, -1.6537517199893434, -11.383801292588812, -10.869302824719668, -2.1247106811435277, -13.803792612647115], [20.87535305461401, -9.845796800207982, 13.044434734120658, -3.63639052782779, 0.04945165083564129, -7.483501569603627, -4.516591691160775, 10.005656938476363], [-19.317389722983986, -0.8769676875984826, -10.144879209996029, 24.259392291656336, -4.656275331913147, 4.593621684075369, 3.2606973540478315, 21.646599383341226], [-4.319490592931258, -23.243283343584935, 21.95779433682922, -1.0481015807513594, 12.733519524122325, -15.329318970100585, 23.834361328458698, 25.060634663430918], [-2.2299848515675627, 16.813510503303387, -32.76067725444834, 28.589831450015605, 12.91733678767639, -26.98419672718138, -32.19431998067665, 31.828432424649353], [-10.0708999377475, 19.275365750045733, -8.416552046098897, 0.7217995537335551, -0.3125768091660428, -16.010763634959517, 0.11827938878710831, -16.230371133444407], [-10.265738128572757, -4.565132928980828, 58.692981659945595, -4.861450642352025, 5.04978219999494, -2.270880951885876, 6.408236083636453, -5.375688441120152]], [[-3.324028859531185, -13.589548552017558, -4.5971273920902025, -4.449073087665997, -17.730800583541775, -10.600929178712134, -5.267208376109261, -7.8423132990930755, -27.739433065116653], [4.086081318785071, -2.1105080276339003, -9.234408413976817, -5.996896320370672, 27.253106529778563, 19.662681013368775, 0.2292368084014338, -0.347832149466617, -8.285656026716685], [-29.77515917073288, -24.52114009695895, 9.75877421905359, 6.244786079246323, -28.743561770380218, -6.095070844400611, 24.37273097517149, 6.586987775900544, -0.40952753495459127], [-23.821880226266522, 5.331527927038438, -1.7166485127163025, 15.947742107785679, 10.183551370669543, -7.346863274187618, -35.93132891837898, -6.99245784057242, 24.016039171797974], [37.56323748641015, -25.36835775116367, 0.809841189589863, -6.270408215290762, -23.188533237860376, -26.47121764503628, -2.7928268985167595, 32.8244955828876, 6.332522507341217], [-24.613677720544057, 6.128926982295599, 1.3932999061231106, 16.7211547919197, 25.719370258994164, 3.4785426877131806, 40.65309965589053, -15.35008562573574, -0.38940944596723037], [-0.37767724525603064, -9.384067174315982, -2.0709715972379152, 12.736934055229504, -6.731572127006798, -33.41068720610428, 34.05618489676063, -28.505593621126152, 20.68565878028156], [-4.5747010952137, -7.681996205787354, 4.028952000879878, -2.5285939754073645, -12.19775417644996, -29.750784108738312, -21.14035466257352, -44.95148156614417, -3.520618309933018]]], "networkBiases": [[1.0, 1.0, 1.0, 1.0, 1.0, 1.0, 1.0, 1.0], [1.0, 1.0, 1.0, 1.0, 1.0, 1.0, 1.0, 1.0, 1.0]]}