{"structure": [9, 8, 9], "networkWeights": [[[4.896885006020375, -1.3126609623470151, 6.360547542693067, 8.73136881436304, 1.1013522954167958, 20.457948728971708, 18.892768098130325, 22.895289042846073], [0.5168028125110402, 13.053988572109539, -11.904445493140454, -6.760716110793744, 10.149007118537938, -7.157588109174023, 5.710431081212664, -8.233413078759614], [-9.002111160673813, 16.162236551295635, 11.306600981695144, -1.9410269014542452, -10.405813260198777, -11.63490602592424, -2.1247106811435277, -13.803792612647115], [20.87535305461401, -9.59528946800767, 11.786912182364455, -3.5615229991160677, -0.7091951335892528, -6.932715037615855, -4.516591691160775, 11.225638181146618], [-19.317389722983986, -1.8505532211068123, -9.537751076958477, 22.54671196593905, -5.05710959129801, 4.368009055295595, 1.8355213834289006, 21.784194532502653], [-4.629527548974715, -21.502383902473916, 22.007773353947556, -1.0271843964133986, 12.77682020762688, -14.608947078512134, 23.26573438765722, 24.648544630808978], [-0.7190773918271252, 15.819934015999493, -33.48416367254399, 27.231562216234277, 13.278687273183582, -27.14840353794435, -29.885649847923077, 30.832807192930474], [-9.656986628270335, 18.73885808194772, -8.743729681360538, -0.7119401537877506, 0.38649160800654125, -15.753580493525885, 0.7682633917062405, -16.274765432851446], [-9.986429224606475, -5.438606396595578, 59.988929930421925, -4.637354507091525, 5.41086832439413, -2.9821352055954624, 6.450393974806774, -3.1919397444089093]], [[-2.9673392535652017, -13.589548552017558, -4.330765334318203, -5.428201931566113, -17.494939646130632, -11.718116469123688, -5.267180637788989, -7.8423132990930755, -28.39449414058943], [3.8299575102837218, -1.8579586338101666, -11.396156724113984, -5.824707038312548, 26.54342770642178, 19.01215343291876, 0.4403882964019219, -0.9765261713312077, -7.850451361886112], [-31.01908754155788, -24.52114009695895, 7.843402807197117, 6.244786079246323, -28.71915346645934, -6.095070844400611, 24.820871083532616, 3.817527434012893, -0.40952753495459127], [-23.847746238673057, 4.213012954407983, -0.6857121328028961, 15.609423198280565, 10.183551370669543, -7.834979831373179, -36.56751108797578, -7.516093993851417, 24.398628146952777], [36.584733867515176, -25.76615106034302, 1.5797860307058902, -6.270408215290762, -24.0312326058463, -25.747686524163882, -3.173853912670942, 32.8244955828876, 6.135010277487029], [-23.984043984670105, 5.635302599029625, 1.585606840608694, 16.476087167993924, 26.37145757747969, 3.4097603405509664, 39.75501405058806, -15.775985356967238, 0.07211240279855935], [-0.8805056393583697, -9.345537498659827, -2.0709715972379152, 13.334437814822252, -6.395217801615932, -31.90376194729361, 34.8875585821625, -27.731067808543308, 20.54099940347147], [-4.173427813582912, -7.681996205787354, 4.049077732647116, -1.2594783909742757, -11.971650215595245, -29.04678080527073, -20.413839838171203, -45.290070137831655, -4.106134209446493]]], "networkBiases": [[1.0, 1.0, 1.0, 1.0, 1.0, 1.0, 1.0, 1.0], [1.0, 1.0, 1.0, 1.0, 1.0, 1.0, 1.0, 1.0, 1.0]]}