{"structure": [9, 8, 9], "networkWeights": [[[6.370403133982518, -1.3889004766668882, 7.016846158651193, 8.893357469692443, 1.6050791844638561, 20.457948728971708, 18.892768098130325, 22.895289042846073], [-0.5812646745518124, 12.100177462171699, -10.906851692334472, -5.9452756780752125, 10.055086686843564, -7.157588109174023, 5.348782984659585, -7.980698648959218], [-9.002111160673813, 14.721825277751401, 12.061924686619472, -1.6537517199893434, -11.383801292588812, -11.625791283515618, -2.1247106811435277, -13.803792612647115], [20.87535305461401, -9.845796800207982, 12.534797740068845, -2.646192614266057, -0.8858212806596755, -7.483501569603627, -4.516591691160775, 10.005656938476363], [-18.646475077948512, -1.8505532211068123, -10.144879209996029, 24.259392291656336, -4.506709052356664, 4.593621684075369, 3.2606973540478315, 21.646599383341226], [-3.881278878576257, -24.06450294150242, 21.95779433682922, -0.6989208097000084, 11.866750277698351, -15.329318970100585, 23.834361328458698, 25.03767031269529], [-2.3061538140257865, 16.271364622243677, -32.76067725444834, 28.589831450015605, 13.703105462238918, -26.67141734255469, -33.38653782693053, 31.828432424649353], [-10.0708999377475, 18.52631397503949, -9.051829472499483, 0.9008341823384707, -0.3125768091660428, -16.010763634959517, 0.11827938878710831, -16.230371133444407], [-10.265738128572757, -4.565132928980828, 58.71351177204208, -5.6036108830633475, 5.04978219999494, -1.8446917350605363, 6.408236083636453, -5.302948368860504]], [[-3.1652839378351425, -12.675550728487051, -4.433037094161789, -5.345760212169486, -17.730800583541775, -10.600929178712134, -5.774765308238296, -7.250750626501749, -26.92346806508479], [4.086081318785071, -2.1105080276339003, -10.135487027043276, -5.996896320370672, 27.463394683600516, 19.01215343291876, 0.2292368084014338, -0.347832149466617, -8.250834870900325], [-28.83971629397044, -24.882891184659112, 9.75877421905359, 6.41801233777815, -28.743561770380218, -5.398538120114044, 24.754703497698898, 6.953041257544706, -0.40952753495459127], [-23.821880226266522, 5.331527927038438, -1.5962886245681083, 14.453834184166132, 9.222325102583268, -7.825283585085216, -35.740044709547476, -6.5780374025055375, 24.016039171797974], [37.56323748641015, -25.36835775116367, 1.7340794687055037, -6.270408215290762, -22.514580440463284, -25.747686524163882, -2.8506432436927014, 32.8244955828876, 6.332522507341217], [-25.396199357215597, 6.280066632705317, 0.7750986564207158, 17.43578721292069, 25.719370258994164, 3.4785426877131806, 40.99106643996557, -15.35008562573574, -1.0890625896133386], [-0.12267004600851217, -9.384067174315982, -2.0709715972379152, 12.736934055229504, -6.947540043812771, -33.41068720610428, 34.05618489676063, -28.163860029976, 20.67690481488165], [-3.263617416759028, -8.223921770192995, 4.028952000879878, -2.5285939754073645, -12.19775417644996, -28.975402612059792, -20.828875767925307, -45.290070137831655, -4.173122175154196]]], "networkBiases": [[1.0, 1.0, 1.0, 1.0, 1.0, 1.0, 1.0, 1.0], [1.0, 1.0, 1.0, 1.0, 1.0, 1.0, 1.0, 1.0, 1.0]]}