{"structure": [9, 8, 9], "networkWeights": [[[-0.6013489584438602, -43.8624275868353, -1.1450724385746247, 1.9521797438224828, 0.9329323520722159, 25.24254932652631, 9.074692092808606, 51.16802579506066], [-4.035225508793853, -1.72496676081775, -14.049511772172476, -13.745772597849058, -7.216546297244915, -19.83249713321764, -18.17611567992811, -23.61875967736424], [-12.398909563040672, -4.140765748122201, 5.267486741641567, -13.69736531693708, -7.703172852170752, -6.577678075693358, 35.07410992413543, -9.418266143167987], [44.67324155029476, 18.76910331254188, 10.87675808268561, -13.772330923655227, 20.345466162113482, -0.9385617299408204, -7.7220100066182376, 53.03301373101293], [-34.76526378464967, -4.715194415421168, -36.54902546562612, -2.281923475484045, -16.43023336090647, 17.667352844295078, 3.973703911954669, 31.096879189027945], [2.060861103974576, -26.079489566734647, 47.47415301810072, -13.659325516749648, 19.271515596322594, -28.416827672078234, 4.338483630895459, 40.784072457766975], [-11.693846404806061, 29.10898127438105, -30.096017707399746, 32.391822544258346, 26.140579057173724, -30.31549572913013, -13.432580191224265, 25.014597673413835], [-35.23538726370103, 42.48045662813533, -23.708316189421566, 27.95929537407149, -1.1585739062979903, 0.17922984911895978, 2.348920025936756, -18.039334066148992], [-15.471316398549714, 22.54377507194819, 69.75265566245798, -20.96209923919112, 7.7444007781925945, -21.89935596760009, -16.44023471885142, -22.770886233573417]], [[2.5265050065858965, -39.439281637738226, -15.049054533061442, -14.153054446052248, -41.04236429611337, -1.3628039253838544, -1.529939187436127, -4.488229840146943, -22.199883045022922], [7.69611460897908, -0.6991743704416254, -17.399120532237408, -44.191374337080205, 51.909018442293956, 32.20048872492627, -36.64759466694497, 14.07383307375163, -9.978524491671253], [-45.94001064454415, -19.759655829060602, -10.744221182131042, -9.967255849917162, -40.06592060601669, 16.5603419146767, 15.19303834714616, 27.027691919297787, -21.875942882722832], [-31.602807257299585, 5.093770269638435, -2.1502533501401335, 34.01969278446488, 12.262462351682428, -18.789778709495547, -31.977637024714795, -21.199949519718576, 48.81338897324165], [55.720652326990255, -22.308093031524113, 4.703219891892926, 4.856396268392285, -41.53175551696266, -44.761545432714044, 19.57982751884851, 10.35774797064307, -5.263049115455035], [-33.5421492820466, -6.523211339203785, 1.4184034668113148, 28.448384539457233, 33.335340848961664, -6.4387896275295295, 30.538608925844322, -35.47012821444516, 16.952880099272342], [-10.772678348779706, -4.822937736238067, 11.455046669045199, -4.529515264019938, -15.068132658591537, -18.09258354144025, 79.31174624045121, -76.31739359884554, 18.836692955951357], [23.548675163606752, -2.94152798887145, 26.70258042828145, 26.144978806616184, -24.503504031674378, -26.946492179453713, -11.024626622589594, -48.87508302317744, -5.596309307227782]]], "networkBiases": [[-2.051216247140722, 3.257070650034835, 4.73588681229716, 1.5977520088672643, 4.638013635681365, -1.9082597483061896, 1.8937456446105108, 5.12428877966654], [-3.8358134855350294, 6.560042991895649, -2.776255823867571, -2.2847570091067113, 5.768080218074144, 2.5033939370875586, -1.4375582459054885, 3.38426939717322, 2.381385943968529]]}