{"structure": [9, 8, 9], "networkWeights": [[[-1.4772955200858389, -43.72948951583779, -1.3053567857044484, 1.4402679731494903, 0.3522803412197121, 25.10839381187337, 9.26873691773178, 51.843596073561436], [-4.553765128121899, -2.0112449749214916, -14.321324274538277, -13.351379085069647, -7.871756706898988, -20.45952919582576, -18.41482334555791, -24.0604161699145], [-13.53687850108867, -3.7130875713030562, 4.432153977634516, -13.327197417317468, -8.929638607320081, -6.437364188084316, 35.20114514143175, -9.487259563690152], [44.0532506461264, 18.73872325818884, 10.762054536002461, -13.19089076304089, 19.747864783689547, -1.171122524020018, -7.4603445880565005, 52.77216928993125], [-34.677983262627635, -5.0778794297130805, -36.82702338840445, -3.2297704954278545, -16.797024344090648, 18.02367443363647, 4.212108232014764, 31.63368838095407], [1.555778338529552, -26.494527643772802, 47.11496114354853, -14.276369316550685, 19.317495261725096, -28.932797127529092, 4.995359786778712, 41.72219385377278], [-10.900746887876473, 29.640118249889888, -30.13167248672602, 32.50353042003309, 26.110855959719917, -30.597519816485136, -13.512142472628263, 24.17448037566753], [-34.84588944576852, 42.95542556627715, -23.429364001933603, 27.926110466214645, -1.202106513615001, -0.03164713444164269, 2.284570100416007, -17.733348547710857], [-15.42386705800162, 21.884689813750768, 69.75519987520298, -20.577142042258927, 7.753418028933777, -22.486446980306738, -16.750994830963158, -23.286960544069363]], [[2.143847661021758, -39.50752345156065, -15.537405783241478, -14.565238206729008, -39.986686065880484, -1.8865022687529343, -1.9473033348920954, -4.702551372097124, -21.972314078462745], [7.57958801260934, 0.3164242781415161, -17.319781450140496, -43.37957551462525, 52.07596544302068, 31.94428317293014, -36.44927314384794, 13.864298206656956, -9.923580809747214], [-44.92463479403405, -19.520452832393254, -9.630836919362066, -9.963822902391861, -40.53403516140168, 16.470256602450206, 14.533631246847374, 26.95590587268207, -21.26402922019704], [-30.74438716351842, 5.82618776613619, -3.277292344672496, 34.538055710773975, 12.029305712358031, -18.610986750702644, -31.105362016484086, -21.274820876618218, 49.582783889493506], [55.94994729767532, -22.758272206055842, 4.1095735705113245, 4.5170974830991835, -41.13350722151784, -44.44177748990439, 19.831090689869853, 9.191111222349974, -4.671775317211866], [-33.964652641010865, -6.420982943188085, 0.07609474568951696, 28.540064178822874, 32.90365718804521, -6.551489336591097, 30.62346948388543, -36.10589886870281, 17.22728504032143], [-10.661056145576863, -4.641189050975872, 11.881948955861176, -4.65490530873636, -14.650408572842817, -18.381512570625286, 79.31744169148243, -76.83986150620572, 18.054696207746012], [23.36355089529426, -3.7368990586496884, 26.066995822084813, 25.718754248058083, -24.537605034737187, -26.713478931885454, -11.108372524752804, -49.10246507398225, -4.782599681006653]]], "networkBiases": [[-2.6533390967511368, 3.895151093296197, 3.6299795669793635, 2.8192361056015134, 2.8375935359315574, 0.37382820396197736, 2.1311944015375817, 6.038344402393662], [-4.50968820152699, 5.399782655514479, -1.3052952065882308, -2.62501442168168, 5.772128448487341, 4.475576086717187, -2.843624377432541, 2.600997452686193, 1.8667505925090648]]}