{"structure": [9, 8, 9], "networkWeights": [[[-1.5618622991418492, -43.91279874045696, -1.3830161089908892, 0.9242696546153615, 0.2480385172470731, 24.790511601673252, 9.604420667290354, 51.699037588158305], [-5.067144245701805, -2.109041414692012, -14.49804735495093, -13.487181319039859, -8.325465750205664, -20.31108560673716, -18.489614697242178, -23.649242131160236], [-13.710547373618708, -3.545956637681798, 4.432284483460177, -13.768371602074966, -8.799811289283387, -6.552006287469881, 34.76675534264731, -9.489552317470638], [44.0532506461264, 18.73872325818884, 10.147568463556883, -13.338387013463182, 20.24513506732083, -1.2444914452004434, -6.666019548150875, 52.51995259594039], [-34.591955361590266, -5.79972636582167, -37.33143923667289, -3.4172891621563553, -16.693108091945497, 17.899159049921472, 3.8662044923848025, 31.353282314885707], [1.590592185721385, -26.1916981287106, 47.4054094402633, -14.234275880653138, 19.128518257189995, -29.027396585781233, 4.989121736350708, 41.711614544464126], [-10.301606858821653, 29.631234232095597, -29.906475235296114, 32.41742966835567, 25.8000401404238, -30.71327765325591, -13.470168112846016, 23.915666910889197], [-34.54033960020683, 43.01049345754198, -23.353212066311087, 27.658375885781936, -1.1705030304322401, -0.09121990989514156, 2.3648119709258077, -17.99348960395608], [-15.49839729510109, 21.83444627133795, 69.09177118770576, -20.34129396156782, 7.523496553982622, -22.855279570260578, -17.02637715104319, -23.367427775633953]], [[2.0622969101259865, -39.10287654712889, -15.720852575077906, -14.161349141648142, -39.2978533260879, -2.0112247706024453, -2.091173842745056, -4.551326939585976, -21.892401867866468], [7.367366670379306, 0.3638972063507575, -17.007533595140654, -43.39770912512604, 52.233548915666695, 32.40539613500949, -36.198737505839446, 14.137834793731706, -10.219822834298109], [-44.87678446370282, -19.437700075071582, -9.529786131135186, -9.778243161050861, -40.77923825179999, 16.0314065207239, 13.801193007181961, 26.466517209690153, -21.20911203954998], [-30.53052534589822, 5.952780390228309, -3.461169202584179, 34.75104545586457, 12.417660718942718, -18.73694681840794, -31.32978408715632, -21.1706134192389, 48.919361061831346], [56.251260237881425, -22.626946558972303, 4.563712955933761, 4.324911297297835, -41.11131861249684, -44.73216539181267, 20.01928251049966, 9.387558407744116, -4.605826391901389], [-33.50696571941156, -6.246540202593377, -0.0058713830205505135, 28.242538277250897, 32.85457638473916, -6.44429445286208, 30.777422555853093, -35.6813598698979, 17.143090271806937], [-10.652072850730013, -4.571944002965422, 11.857012047075285, -5.120515912484606, -14.351082469031972, -18.444564980419877, 79.39266736027272, -76.70834964691429, 18.434166861571526], [23.268680769057813, -3.690978615351886, 26.35568568863302, 25.710381764747787, -25.116097607015103, -26.60054515246779, -11.032520082154235, -48.8774484361346, -4.27840615508747]]], "networkBiases": [[-2.9994012255846974, 2.992201248285896, 3.341165070995782, 1.9213990805969363, 1.7950226062005474, -0.3676377267950672, 3.427396587028915, 7.486984804892318], [-3.4461634119377207, 6.026025495083022, -1.9305455470375996, -2.5685868465052586, 5.938691463269929, 4.356802064612224, -2.3914132042299197, 2.759817735812494, 1.889072391848422]]}