{"structure": [9, 8, 9], "networkWeights": [[[-1.7086838194078453, -43.88992322286874, -1.4462380108538326, 1.0402763627961473, -0.5254859831488645, 24.585784107866736, 8.76100840434539, 52.122282141641485], [-4.890040801515325, -1.5205759460063435, -14.396052780710939, -13.790417756518124, -8.187426878166091, -20.33335598609614, -18.412617986330105, -24.19825966077971], [-13.549496168261802, -4.226084808751477, 4.34667099851929, -13.749105516648036, -8.748616032425256, -6.114913943702535, 34.84297648888793, -9.754980291072114], [44.02761886160297, 18.637467135983215, 9.245273037325354, -13.642686463391708, 20.483832073425987, -1.3888684284573283, -6.546946532514665, 51.86838119600534], [-34.065301990239064, -6.080949052407461, -37.50539738533366, -3.0059557116253575, -16.363310849384703, 18.486363325886963, 3.8174151818073905, 31.5193114302297], [1.314456919055771, -25.948231222097608, 47.080966000704045, -14.776792954868588, 18.90340125686807, -28.894321331796014, 4.031010240242454, 41.347740279338744], [-10.383203949628832, 29.35484954516939, -30.373585062134143, 32.27398110169029, 26.176907509361293, -30.817618026170305, -12.997540328478443, 24.242257426669696], [-34.93664101277409, 43.01637851614795, -22.110905420986942, 28.019647166703365, -1.98993751691321, -0.34188417724330333, 2.588068397548064, -18.393005556496718], [-16.066246744373913, 21.811557932623266, 69.28056347596113, -19.93541171204159, 7.630462351200933, -22.1520006764303, -16.76762535673482, -23.447509691018002]], [[1.7733647644861195, -38.734079927591885, -16.416874991279176, -14.904368257934236, -38.723797739856224, -2.1584800767031025, -1.7149803862980195, -3.9743658916915505, -21.331900983202548], [7.399619717810952, -0.6275279189780327, -17.177468668739746, -43.558305062025994, 52.356146039481565, 32.37403894771403, -36.021444355791694, 13.956578835499322, -10.644186375706308], [-45.008758617170784, -20.31310382873572, -9.72163499146165, -9.71037476680184, -41.047848470149304, 16.17912938895614, 14.327104006888636, 26.88728733474909, -21.529384643506955], [-30.3160472898223, 4.9303496049443565, -3.185026116425336, 34.78444998965191, 12.683548237891527, -18.512321691194288, -31.778756861617246, -21.800495496630102, 49.164128142298544], [55.80365532459501, -22.560305026696664, 3.840836610301242, 4.770601856048439, -40.316018763239406, -45.11306677734137, 20.83556785818363, 9.667306486042696, -5.639947044189517], [-33.8225430814651, -6.247157650610857, -0.605451658848968, 28.076098444322746, 32.4890585932741, -5.374260159187694, 30.87771683300011, -36.050126200647256, 17.358006182313268], [-10.464137749307977, -4.821070911668703, 12.135428771776738, -4.861044409585551, -14.80217753825373, -19.954897310795687, 80.1827218431107, -77.39254650759018, 18.82925049886386], [23.485733089403773, -2.8129369916408016, 25.356219567414247, 25.30431884024859, -25.467154162261334, -27.06742839618948, -11.244679740322232, -49.3985242692718, -4.005968170511872]]], "networkBiases": [[-3.3181947378620174, 2.833431219748454, 2.359454845650151, 1.9482141494274825, 1.8633611522169282, -0.42556797388790907, 2.917924591527775, 6.909571107626909], [-0.9933212200674728, 5.952815571540239, -3.5958163492806454, -1.2799851123249035, 7.240312243300221, 1.9500357950373821, -3.1677180240321783, 1.442073555563625, 2.198192439116056]]}