{"structure": [9, 8, 9], "networkWeights": [[[-1.7086838194078453, -43.88992322286874, -1.4462380108538326, 1.0402763627961473, -0.4057558674439148, 24.585784107866736, 8.76100840434539, 52.122282141641485], [-4.890040801515325, -1.5205759460063435, -14.396052780710939, -13.790417756518124, -8.187426878166091, -20.54697395947524, -18.412617986330105, -24.19825966077971], [-13.549496168261802, -4.214750605446585, 4.34667099851929, -13.749105516648036, -8.748616032425256, -5.978813310269629, 34.84297648888793, -9.754980291072114], [44.02761886160297, 18.637467135983215, 9.245273037325354, -13.642686463391708, 20.483832073425987, -1.3888684284573283, -6.546946532514665, 51.86838119600534], [-34.065301990239064, -6.080949052407461, -37.50539738533366, -3.0059557116253575, -16.363310849384703, 18.486363325886963, 3.8174151818073905, 31.5193114302297], [1.314456919055771, -25.948231222097608, 47.080966000704045, -14.776792954868588, 18.90340125686807, -28.894321331796014, 4.031010240242454, 41.347740279338744], [-10.383203949628832, 29.35484954516939, -30.373585062134143, 32.27398110169029, 25.934177551902845, -30.817618026170305, -12.997540328478443, 24.242257426669696], [-34.93664101277409, 43.01637851614795, -22.110905420986942, 28.019647166703365, -1.98993751691321, -0.34188417724330333, 2.588068397548064, -18.393005556496718], [-16.066246744373913, 21.811557932623266, 69.3951034795562, -19.93541171204159, 7.630462351200933, -22.318830117655594, -16.76762535673482, -23.447509691018002]], [[1.7733647644861195, -38.734079927591885, -16.416874991279176, -14.904368257934236, -38.723797739856224, -2.059914098860404, -1.7149803862980195, -3.9724863930356005, -21.331900983202548], [7.399619717810952, -0.6275279189780327, -17.177468668739746, -43.558305062025994, 52.48558166191882, 32.37403894771403, -36.021444355791694, 13.956578835499322, -10.644186375706308], [-45.008758617170784, -20.31310382873572, -9.72163499146165, -9.71037476680184, -41.047848470149304, 16.17912938895614, 14.327104006888636, 26.88728733474909, -21.529384643506955], [-30.3160472898223, 4.98783027476644, -3.185026116425336, 34.5693595938441, 12.683548237891527, -18.512321691194288, -31.778756861617246, -21.800495496630102, 49.164128142298544], [55.80365532459501, -22.560305026696664, 3.840836610301242, 4.866371394760898, -40.316018763239406, -45.11306677734137, 20.622033241021818, 9.667306486042696, -5.639947044189517], [-33.8225430814651, -6.247157650610857, -0.605451658848968, 28.076098444322746, 32.4890585932741, -5.498227645136187, 30.87771683300011, -36.050126200647256, 17.358006182313268], [-10.464137749307977, -4.8540569858693665, 12.135428771776738, -4.861044409585551, -14.80217753825373, -19.954897310795687, 80.1827218431107, -77.39254650759018, 18.82925049886386], [23.485733089403773, -2.8129369916408016, 25.356219567414247, 25.30431884024859, -25.467154162261334, -27.06742839618948, -11.244679740322232, -49.3985242692718, -4.005968170511872]]], "networkBiases": [[-3.3181947378620174, 2.6603070907406186, 2.359454845650151, 2.1164044484217257, 1.8633611522169282, -0.4716224154963326, 2.7239033920524944, 7.020659558082995], [-1.1987179052194294, 5.764938902327694, -3.485450687612978, -1.2799851123249035, 7.240312243300221, 2.1681774481273193, -3.1677180240321783, 1.442073555563625, 2.1825816451572524]]}