{"structure": [9, 8, 9], "networkWeights": [[[0.16445724500464376, -42.668239866301185, -1.6126869743947143, 0.49740605753889167, -0.3524561207269443, 23.341400415711128, 8.804444961022183, 51.570345150389514], [-6.445057265690328, -1.0421154260757133, -14.342253049335152, -13.173119107789839, -7.628306738643946, -20.134340207871855, -18.265839918287856, -24.797108016327638], [-13.342074194430849, -4.861021837765811, 4.411471800163037, -13.266129231529124, -8.136994804303324, -5.927178555082288, 35.21154729566225, -10.523299356285095], [45.14022364504573, 18.42816928357408, 10.148903071694983, -13.571431766889276, 20.377399079795115, -0.9242374783860405, -5.5913119929730115, 51.93401549596744], [-34.970024279976144, -5.930994931569307, -37.265941380715624, -3.128444698709793, -17.67787649465862, 16.648641558415285, 3.36166256463624, 32.215136940201916], [0.5337056581062356, -25.54942569562095, 45.89693066742393, -14.133753131848273, 19.09492296819089, -28.78468433222894, 4.18301796118479, 41.28877488660899], [-9.656567508289498, 27.072138461182625, -30.876686806182242, 32.40399761884499, 26.681167740238763, -30.761868987510322, -12.985984366469982, 25.094025676852123], [-35.461752645395585, 41.89013194504081, -21.3419493667523, 28.409921643890723, -1.6481659949838268, -0.409384437458989, 2.8294268759657744, -18.604206177855925], [-17.554539765201216, 21.661542586975116, 69.78525329661643, -18.797777778068617, 8.417347035410831, -21.85139636715264, -17.605819424830205, -23.363910643858286]], [[2.6384845249970548, -38.734079927591885, -16.378340676373874, -14.071858537894075, -39.327850335168975, -1.9191242579158674, -1.3666478494232983, -3.6139975849541006, -21.02491106087249], [6.856564016881585, -0.9540687765646889, -17.366770416133292, -42.15481061314515, 52.01279425820913, 33.895678983240316, -36.10283663009639, 14.133751091802633, -10.56641558948534], [-44.42246805195809, -18.976875474747327, -10.992896544411153, -9.218020146795581, -39.229269966334854, 16.17760930581883, 14.696898944721882, 26.987632790529936, -23.5110259696696], [-29.37647778630099, 4.693682552856753, -3.0576522559477306, 35.256287387610215, 10.93863605278391, -18.83280706906022, -32.63035566939128, -22.131263282046202, 49.23633833850906], [55.26065677191093, -23.361285372134056, 3.599423363482755, 4.456384092120367, -40.830946520293125, -45.309841611417376, 20.60939783074193, 9.632648819405519, -4.354322207072648], [-33.270212751772654, -6.258430608245782, 0.25606495570859256, 28.471973198200242, 33.37036930813149, -5.0287512779833925, 30.418410845843372, -35.008780425579126, 15.245170762306035], [-11.67346714015404, -4.883501468638055, 10.446985693579137, -4.128852963010324, -15.99327776807458, -20.193168902074778, 79.71471270153214, -77.65385220076323, 20.604651230888646], [23.750639192112256, -0.2543948742757396, 24.68588336488175, 24.480054451696738, -25.178077414326587, -26.190284556791543, -11.605328028488032, -48.517001053424764, -4.043377308874661]]], "networkBiases": [[-0.20302279581219662, 1.927183502731808, 0.24716300156561055, 3.3128940977251204, 2.4432818309200552, -0.7076902052540732, 2.6695822664396403, 6.639593358292895], [0.9840400818578325, 1.7995393503593038, -1.9946594682980838, 1.2974861162969522, 2.186239492669099, 0.8782711065689688, 0.1385677861619936, 0.5528975398803315, 1.7520014285359085]]}