{"structure": [9, 8, 9], "networkWeights": [[[0.16445724500464376, -42.668239866301185, -1.6126869743947143, 0.49740605753889167, -0.3524561207269443, 23.34123646519572, 8.804444961022183, 51.570345150389514], [-6.5580763083581335, -1.0421154260757133, -13.432082820371345, -13.173119107789839, -7.628306738643946, -20.134340207871855, -18.265839918287856, -24.797108016327638], [-13.342074194430849, -4.861021837765811, 4.411471800163037, -13.266129231529124, -8.136994804303324, -5.927178555082288, 35.21154729566225, -9.949638076876953], [45.14022364504573, 18.42816928357408, 10.554825111880952, -13.571431766889276, 20.377399079795115, -0.9242374783860405, -5.5913119929730115, 52.85381133424865], [-34.970024279976144, -5.930994931569307, -37.265941380715624, -3.128444698709793, -17.67787649465862, 16.99620092598181, 3.36166256463624, 32.59387064857202], [0.5337056581062356, -26.106688093142477, 45.89693066742393, -14.384670997985625, 19.09492296819089, -28.78468433222894, 4.18301796118479, 41.28877488660899], [-9.656567508289498, 27.942125879946207, -31.004822906958676, 32.40399761884499, 26.681167740238763, -30.78726020519292, -12.985984366469982, 25.094025676852123], [-34.607414697479385, 41.89013194504081, -21.3419493667523, 28.409921643890723, -1.6481659949838268, -0.409384437458989, 2.8294268759657744, -18.604206177855925], [-17.554539765201216, 21.661542586975116, 68.86853253538479, -18.797777778068617, 8.156723406478852, -21.85139636715264, -17.605819424830205, -23.363910643858286]], [[2.6384845249970548, -38.734079927591885, -16.378340676373874, -14.071858537894075, -39.327850335168975, -1.9191242579158674, -1.3666478494232983, -3.6139975849541006, -21.02491106087249], [6.856564016881585, -0.9540687765646889, -17.366770416133292, -42.15481061314515, 52.01279425820913, 32.91015524029721, -36.10283663009639, 14.133751091802633, -10.56641558948534], [-44.42246805195809, -19.04822023540796, -10.992896544411153, -9.218020146795581, -39.229269966334854, 16.17760930581883, 14.696898944721882, 27.72222043885511, -23.602405134312363], [-29.37647778630099, 4.693682552856753, -3.0576522559477306, 35.256287387610215, 10.93863605278391, -19.53767560891091, -32.63035566939128, -22.131263282046202, 49.23633833850906], [55.26065677191093, -22.378694928241398, 3.599423363482755, 3.83962830705813, -40.830946520293125, -45.309841611417376, 21.035571574942317, 9.632648819405519, -4.354322207072648], [-33.270212751772654, -6.258430608245782, 0.25606495570859256, 28.471973198200242, 33.37036930813149, -4.663714555521386, 30.08847600294797, -35.008780425579126, 15.245170762306035], [-11.67346714015404, -4.883501468638055, 10.446985693579137, -4.128852963010324, -15.708541104829324, -20.193168902074778, 79.71471270153214, -77.65385220076323, 20.604651230888646], [23.750639192112256, -0.2543948742757396, 24.68588336488175, 24.480054451696738, -25.178077414326587, -26.190284556791543, -11.605328028488032, -48.517001053424764, -4.043377308874661]]], "networkBiases": [[0.44676200864575, 2.3642235421873865, 0.17776270767486135, 3.0050521970452153, 1.5696812742512791, -0.7743248265511282, 1.8303821167196983, 5.578589807136728], [1.4416995905576502, 3.0800577609292725, -1.6513621689569205, 0.9435987567707755, 2.778081190710397, 0.8782711065689688, 0.1385677861619936, 1.2026023732917588, 0.5975911406370351]]}