{"structure": [9, 8, 9], "networkWeights": [[[-0.6558732846642688, -43.57767542155485, -1.7926154766892486, 1.6407372757264154, -0.8097836819021889, 19.818615113073264, 8.8831590838167, 48.62440882800678], [-5.373866834512895, 0.3047368085000668, -14.607531670623949, -14.273603165691547, -7.4734056325752, -19.078913881690937, -19.55641073006424, -25.300160158717745], [-14.562467359181348, -4.090345244177572, 3.8559943830288637, -12.430849704037215, -6.5138537370185094, -7.190768272977899, 32.59985003693374, -9.465121603888095], [44.56717341811206, 18.669946715402677, 8.846247825443566, -13.338065870626744, 21.607642608143177, -2.966671628286706, -4.088945371915013, 53.14254401881807], [-35.95246875593128, -3.5031593790386055, -34.00916097471051, -1.6305856705125972, -17.82744446406404, 16.969220483141147, 4.536784434294807, 33.792352465106845], [0.5155843777092652, -27.287720799663575, 48.5300505750782, -17.069750326901982, 22.420823497083816, -27.562768049388538, 3.1080977634034177, 41.26167799391458], [-9.261822754082461, 30.9843571134023, -32.5886371289676, 31.40442007821215, 25.253529683217256, -28.886698303077814, -11.344466640591857, 27.9911760168711], [-35.721107439665836, 38.814744674653625, -20.055268003134536, 27.736399116881227, -4.0040895708711925, -4.651735248201243, 0.1450055994650099, -16.794773339178004], [-19.469441938759402, 21.17639555933875, 71.23815210620707, -18.569797074004956, 10.267176153765828, -22.24054703651246, -18.6187031184399, -23.435921468218343]], [[2.757859681351799, -36.82298410887476, -17.805547210669978, -13.478321383314787, -42.02565255362902, -1.3659801022714213, 0.35441657149230066, -4.650435834832815, -23.23796995098272], [6.587429836249829, -1.2498647244143446, -17.244558634057224, -41.78180277099396, 47.97083894079992, 34.05658866620039, -36.621654997364786, 13.206866825285317, -11.08418524690246], [-43.19315750016407, -20.906440309602942, -12.349768936067154, -9.622970763781504, -40.43254342572375, 18.939245033132252, 16.936522554759648, 25.973867500054034, -19.839554747369196], [-29.945959609226108, 5.862954882254807, -2.7953912829127665, 36.062429414076924, 11.846579123681039, -16.804384391080166, -35.77880948249473, -15.635465937847187, 51.30537348624636], [57.184668996301596, -23.745068296914642, 3.272451194729571, 4.78124296127138, -40.76468147871756, -44.56442364496996, 19.170674727888667, 11.599167704102143, -5.339392849640632], [-33.05725206337698, -6.178902468978205, 0.7339916910690745, 30.355652789497384, 33.72035763501121, -1.6878869356261204, 29.817105705507434, -36.105105802213366, 16.6204133968496], [-12.751092075329822, -6.699669510759691, 10.987639732994838, -6.887157708970451, -15.996087646971235, -20.09824662809369, 83.53049794059, -75.87555458301307, 21.565895821771655], [22.68403745463129, -1.372585080631712, 23.197045016782408, 21.13645476828902, -26.447952289251205, -23.036955845053217, -14.718968967556895, -47.449802291477084, -2.885474079707948]]], "networkBiases": [[1.0, 1.0, 1.0, 1.0, 1.0, 1.0, 1.0, 1.0], [1.0, 1.0, 1.0, 1.0, 1.0, 1.0, 1.0, 1.0, 1.0]]}