{"structure": [9, 8, 9], "networkWeights": [[[-0.6798951493343138, -43.89887411225302, -1.10821683190435, 1.943984244073782, 0.9264236523974574, 25.256498444103524, 9.07758943715831, 51.28507375295957], [-3.924168894162189, -1.6985349189256573, -14.028958816046735, -13.688298864532094, -7.197362771372638, -19.842779346445433, -18.182275430815626, -23.62402221019876], [-12.363489853312748, -4.15141900602496, 5.242250059733484, -13.758501409436029, -7.828272260833227, -6.607860609030055, 35.24051072487783, -9.45047769548206], [44.66077225613556, 18.84543223049094, 10.809508447084898, -13.804973247655257, 20.317405113346364, -0.9015283890368961, -7.7727364781288495, 52.95931217895914], [-34.79100482050841, -4.618875612467008, -36.46019753682057, -2.1469512713735455, -16.39323329164413, 17.712849415741744, 4.021282543775552, 31.145039362382512], [2.0893311189089694, -26.189848080923202, 47.291031419553676, -13.602798647486017, 19.329492765908046, -28.45380716875078, 4.353212327306332, 40.8467006088753], [-11.766585795177816, 29.03299793015358, -30.071875114313595, 32.49439151853213, 26.16133621041585, -30.29367018049277, -13.367708631922884, 25.086951879180283], [-35.28328455031403, 42.538569613807105, -23.711408160195944, 27.998704063595294, -1.2019572429098013, 0.13048451314444529, 2.352808398897694, -18.122007138857136], [-15.406081918882494, 22.42758154563217, 69.78342422007833, -21.01662273025044, 7.691794559554763, -21.97624134356371, -16.43205880836469, -22.664658757197]], [[2.4937417537447475, -39.49731349969289, -14.975986403908978, -14.160317789912678, -41.07649003788623, -1.355828623919857, -1.4547128710125812, -4.436046252678438, -22.28705692826235], [7.702253729270521, -0.6641865044930915, -17.468376953309217, -44.14028401751736, 51.88736681885316, 32.27044355142057, -36.64055216215616, 14.193973477985125, -10.014146091171632], [-45.94001064454415, -19.736462275940475, -10.821728085801132, -9.956704493005386, -40.06715773557964, 16.52789754369155, 15.197134817632476, 26.961519309309, -21.8801653051442], [-31.730353531042024, 5.070977876164212, -2.1645543000448972, 33.972648787095174, 12.381394146803833, -18.62941937720828, -31.95083097925163, -21.314269952917066, 48.73371847101117], [55.73805036189574, -22.3067793562562, 4.640169653472926, 4.880847510699795, -41.46795074883731, -44.73842628393423, 19.480624694328988, 10.432347836598002, -5.332021241952323], [-33.63084015554936, -6.600449550389535, 1.4827219906783555, 28.312586392930328, 33.362801443497524, -6.508428371647679, 30.546279183632166, -35.454298857915525, 16.93548725914242], [-10.84901445292368, -4.862964317530435, 11.49917669989189, -4.4259351584268565, -15.099283098555699, -18.124035605954052, 79.38619291454391, -76.32507966962805, 18.751503589707777], [23.579778593633115, -2.8999273187984556, 26.688723007458368, 26.132086508452662, -24.62245278874258, -26.989330169859805, -10.959180598311674, -48.796057421825516, -5.508665124749017]]], "networkBiases": [[-2.2473947230418148, 2.9269876180799943, 4.785521700242103, 1.7897833867117694, 4.707516077787314, -1.6727912514162397, 1.993139735293085, 4.883226373947984], [-3.6331811164907877, 6.580417358687714, -2.6352114507164006, -2.015860032753419, 5.548383262479493, 2.728317263575736, -1.4938246250821814, 3.004233389090259, 2.6039000198193683]]}