{"structure": [9, 8, 9], "networkWeights": [[[-1.4725637502091002, -43.97704172093404, -1.6540737225558737, 1.0396699318634255, 0.2480385172470731, 24.318864547613476, 9.31269176063391, 51.68392252801621], [-5.214879396740018, -1.6087778462601967, -14.573604343818227, -13.807564635650955, -8.072374201595116, -20.530778889571458, -18.37642558550621, -23.730975459715985], [-13.681338006635276, -3.6970259888745027, 4.204295325560417, -13.72359791771258, -8.995811739830538, -6.542219274956877, 34.958487283651294, -9.56799283519243], [44.0532506461264, 18.720816916242043, 9.810173630853551, -13.116427864998805, 20.39332118267082, -1.472157614703491, -6.520236756850055, 52.76565890523941], [-34.596294730109115, -6.009740521410361, -37.62880255017206, -3.175702834662677, -16.32219728595342, 18.23730151608243, 3.5799315464823085, 31.68689889197667], [1.4194755231407572, -26.085274450324736, 47.296300782876045, -14.42719489468104, 18.8904321726191, -29.099207361224156, 4.957567689210519, 41.51242851066557], [-10.27352517336379, 29.631234232095597, -30.023836118168767, 32.18479740080655, 25.900026071559143, -30.54459596108435, -13.203714549271192, 23.845450035698345], [-34.332881418825544, 42.831498288076624, -22.632383686382084, 28.137584409188918, -1.115993804193762, -0.09121990989514156, 2.4330384211987712, -18.08950975341557], [-15.579231142448505, 21.82116304142544, 69.0543303103008, -20.28704085532475, 7.538166252384164, -22.855279570260578, -16.817267684476718, -23.490997080775113]], [[1.8609543756727327, -39.0917106652797, -16.08792486096858, -14.161349141648142, -39.03527393810203, -2.214927668078108, -1.627163901193202, -4.580802444216425, -21.923788616485957], [7.060745556701152, 0.18473077331406657, -17.415162227810605, -43.16529802620123, 52.26945563022507, 32.246540690986016, -36.06381178711583, 14.04037389783787, -10.319077173894359], [-44.89905789210192, -19.61972888292255, -9.333332610126458, -9.778243161050861, -40.79909188563426, 16.631428418468307, 13.50625809801389, 26.42979001659242, -21.096381642776635], [-30.272305881054056, 5.386198736037666, -2.8542482550273522, 34.53594579584452, 12.445467259396649, -18.90953613899902, -31.330512486160615, -21.343375600021403, 48.89312664463156], [55.778738911811075, -23.16513948822726, 4.489608443129837, 4.415034903882246, -40.838740134558975, -44.73961629888805, 20.0554545584367, 9.397888803609924, -4.45208711062554], [-33.60140057681382, -6.450652997989191, -0.014352370622819743, 28.364818579510427, 32.66365556060136, -6.410105586960011, 31.29716486869279, -35.65638516867406, 17.42394826862481], [-10.542027169823601, -4.241455478493097, 12.204116226659808, -5.100130973353361, -14.400397186413853, -18.672553176207963, 79.59293007820162, -76.67133583435715, 18.45593954016392], [23.21044197467802, -3.404006499175712, 26.401403542575277, 25.631927200816094, -25.2481815061271, -26.60054515246779, -11.410046776496827, -48.80690427927495, -4.212319842444882]]], "networkBiases": [[-3.353811017184335, 2.9743442814154255, 2.316522000593545, 1.8055181928399957, 2.87066319551724, -0.5515189086525709, 3.0040151541420315, 6.797752439039174], [-3.001632851619047, 4.792474483459298, -2.0459799430939567, -1.7980334275807017, 5.8524382567290445, 2.695289262940443, -2.046444797184148, 3.120955067932708, 1.7850633583139108]]}