{"structure": [9, 8, 9], "networkWeights": [[[-0.5613528899855162, -43.85432632313973, -1.1484335357002668, 1.8001947886634595, 0.8290971562602942, 25.29980244186659, 9.122781112883235, 51.05791724200833], [-3.935325348711778, -1.9085959150669118, -14.01607939858768, -13.734024331164905, -7.20238157647736, -19.907717738698928, -18.217445429740106, -23.627276943579073], [-12.581771166120914, -4.188282110021551, 5.009245426030024, -13.641000762628348, -7.816096464258043, -6.451386005988208, 34.92293445926072, -9.519969518509434], [44.751936591219085, 18.809441486166964, 10.836003523791078, -13.847500019695886, 20.275722970523237, -1.0731691506020278, -7.818459201231721, 53.109130944777576], [-34.72054176697685, -4.701660045153559, -36.461789915752895, -2.296178388049652, -16.275233864071318, 17.63201044988804, 4.007483616061558, 31.02510429744714], [1.8833456265817883, -26.218643671708307, 47.36798188456471, -13.681939338847505, 19.2071389001343, -28.297393164275757, 4.1879435887045275, 40.827035895100266], [-11.551670857842554, 29.047850950338315, -30.237713350086203, 32.56164251754016, 26.40321568355544, -30.484852920723494, -13.616544637360722, 24.899070252454162], [-35.168947987080436, 42.43994047353326, -23.619705990937042, 27.872912518256506, -1.1112429306927212, 0.15313714657772073, 2.3184463789608305, -18.067746150939108], [-15.458369673461249, 22.482135647204952, 69.74704563039732, -20.974558698015716, 7.688660707868775, -22.00465666964303, -16.49775050297331, -22.723642808093917]], [[2.4627132475731415, -39.544651039195884, -15.018651954482126, -14.087483104661192, -41.030527324816305, -1.2689092256076726, -1.6732951042384547, -4.579072684343072, -22.384464874879917], [7.765403333233488, -0.7081591864294401, -17.432215824851845, -44.14288484677299, 51.88158908252939, 32.22084436349575, -36.66098842137088, 13.98776376554454, -9.970151127641465], [-45.78355957530609, -20.04778486959874, -10.784555123838855, -10.061408256702686, -40.05425256488457, 16.430924697412003, 14.949460355229805, 27.06858837322494, -21.85705010668849], [-31.50948256342286, 5.108451112237139, -2.303185802789323, 34.0054340349381, 12.231174538937092, -18.78602706619884, -31.88509725826282, -21.277216498696852, 48.735417979691576], [55.64592316732366, -22.351114044340424, 4.754957190211389, 4.8128254182410855, -41.41768448408306, -44.93707403832083, 19.59264353498989, 10.289909946189233, -5.3333759161587535], [-33.599967937475704, -6.475026521027007, 1.2639397838711077, 28.42445925711509, 33.2855451558408, -6.430767286873967, 30.71433468508771, -35.61220294048742, 16.935470516192826], [-10.683631809777914, -4.902621941340189, 11.463661452017869, -4.59014884849684, -15.141989924125884, -18.18545855443642, 79.26750048974449, -76.29230275485787, 18.678793006014786], [23.474699965021205, -2.770148499980903, 26.62518240372602, 26.200479288508653, -24.620664561751525, -26.99043383542236, -11.036851813955549, -49.04655050326776, -5.454209464207057]]], "networkBiases": [[-2.37665190496046, 3.2279899628046027, 5.015480799484628, 1.474365516243107, 4.545360941694467, -1.4705349339221971, 1.5484927009291207, 5.303087221564208], [-4.094900952127655, 6.693165134891206, -2.8165113589313218, -1.5386560137810972, 5.682765677185514, 2.49018240961939, -1.6219731920649125, 2.852906615534686, 2.2852155016103737]]}