{"structure": [9, 8, 9], "networkWeights": [[[-0.5613528899855162, -43.85432632313973, -1.1922144572260793, 1.8098631345088425, 0.8306882897204593, 25.29980244186659, 9.122781112883235, 51.05791724200833], [-3.935325348711778, -1.9085959150669118, -14.03692156811995, -13.734024331164905, -7.197776032303608, -19.907717738698928, -18.217445429740106, -23.627276943579073], [-12.581771166120914, -4.188282110021551, 4.993589778555688, -13.61178927832306, -7.773882611921179, -6.451386005988208, 34.873425191962454, -9.519969518509434], [44.751936591219085, 18.818679493169316, 10.86629965691016, -13.847500019695886, 20.275722970523237, -1.0731691506020278, -7.818459201231721, 53.10369866686064], [-34.701157801426696, -4.701660045153559, -36.461789915752895, -2.296178388049652, -16.238075728604983, 17.63201044988804, 4.007483616061558, 31.02510429744714], [1.881541140400321, -26.185738300108408, 47.36798188456471, -13.681939338847505, 19.2071389001343, -28.297393164275757, 4.1879435887045275, 40.827035895100266], [-11.509433261166993, 29.030055594278874, -30.223952275423276, 32.52504186449373, 26.40321568355544, -30.484852920723494, -13.616544637360722, 24.899070252454162], [-35.168947987080436, 42.47786909951408, -23.619705990937042, 27.9190682107821, -1.1112429306927212, 0.15313714657772073, 2.3184463789608305, -18.067746150939108], [-15.458369673461249, 22.472426790831275, 69.71473764852654, -20.974558698015716, 7.71784744045715, -22.00465666964303, -16.49775050297331, -22.723642808093917]], [[2.4899618605582923, -39.61092620799982, -15.05950966782324, -14.087483104661192, -41.030527324816305, -1.2689092256076726, -1.6732951042384547, -4.596123725971259, -22.36282843859932], [7.754512466432271, -0.7081591864294401, -17.432215824851845, -44.14288484677299, 51.88158908252939, 32.19683108418729, -36.66098842137088, 14.011469862257751, -9.970151127641465], [-45.771184821230946, -20.04778486959874, -10.784555123838855, -10.061408256702686, -40.05286953224383, 16.447575604315713, 14.949460355229805, 27.101615486621967, -21.89694245669784], [-31.5259591125807, 5.108451112237139, -2.303185802789323, 34.0054340349381, 12.25502555528688, -18.78602706619884, -31.84655675733452, -21.29709587721765, 48.76342853865823], [55.64592316732366, -22.351114044340424, 4.710855130145091, 4.785943204574543, -41.374789035954386, -44.93707403832083, 19.59264353498989, 10.289909946189233, -5.3333759161587535], [-33.529337479658516, -6.440922557950327, 1.2639397838711077, 28.42445925711509, 33.2855451558408, -6.40257301081939, 30.756391677591445, -35.58722425631, 16.925945082070136], [-10.69844649825439, -4.902621941340189, 11.46029388627313, -4.633788932999766, -15.141989924125884, -18.230683895776238, 79.28765828682532, -76.29271471692432, 18.678793006014786], [23.42147255838451, -2.7649939332791824, 26.62518240372602, 26.200479288508653, -24.620664561751525, -27.02746748154988, -11.036851813955549, -49.04655050326776, -5.454209464207057]]], "networkBiases": [[-2.3117490710027226, 3.2114873599493783, 4.985302313107327, 1.4717809756957672, 4.4447113645673495, -1.508916790257109, 1.609542334670727, 5.3295940177616075], [-4.0048056095616635, 6.616070745163452, -2.764487283220074, -1.436959165833418, 5.620664150753513, 2.494034085158893, -1.6690546462327212, 2.891230136219492, 2.24072740021587]]}