{"structure": [9, 8, 9], "networkWeights": [[[-0.6798951493343138, -43.972181233683806, -1.1185480362805131, 1.943984244073782, 0.8827469362752015, 25.256498444103524, 9.054613698995032, 51.210511810577394], [-3.9460613880562683, -1.6985349189256573, -14.072216341215027, -13.641076645285521, -7.216546297244915, -19.798310497303024, -18.163186639692253, -23.64413471436657], [-12.394998618812886, -4.109990368368787, 5.242250059733484, -13.777858310948252, -7.773316588552905, -6.597638515160253, 35.16299471529516, -9.406448158700528], [44.69626663814163, 18.75213454558914, 10.809508447084898, -13.74791493157959, 20.34718650849755, -0.8991083155020323, -7.746512075201124, 52.9698693576789], [-34.79100482050841, -4.625928576987611, -36.46019753682057, -2.184444607181811, -16.39323329164413, 17.72177891197452, 4.018426446994858, 31.148142102990498], [2.0893311189089694, -26.156094486229588, 47.38640108513071, -13.602798647486017, 19.323546508796056, -28.394915547651426, 4.303537242774909, 40.8631043704555], [-11.721417569976849, 29.078876859803902, -30.063251566662608, 32.49439151853213, 26.204640077656503, -30.29367018049277, -13.428312446577939, 25.086951879180283], [-35.28328455031403, 42.52293101887733, -23.80690759416222, 28.00974614118442, -1.2168014988553797, 0.1550119736608493, 2.370918410265049, -18.12429595423355], [-15.41001545664558, 22.45866136175121, 69.78342422007833, -21.01662273025044, 7.691794559554763, -21.97624134356371, -16.43205880836469, -22.71099945504579]], [[2.5363348110280595, -39.51688417315313, -14.975986403908978, -14.17882135398175, -41.08219164591905, -1.3308590026006777, -1.4882334179674763, -4.3757750626926954, -22.3262493509698], [7.702253729270521, -0.6621136085214392, -17.41936484142893, -44.14028401751736, 51.92167015869269, 32.19516216426732, -36.683699098647665, 14.152354360840189, -10.028708135747204], [-45.94001064454415, -19.736462275940475, -10.821728085801132, -9.968324884103946, -40.06715773557964, 16.488318965433226, 15.163069862433161, 27.03377980860133, -21.8801653051442], [-31.68576884432115, 5.070977876164212, -2.1645543000448972, 33.95208835964051, 12.352981143891245, -18.619031764746552, -31.95083097925163, -21.21796665579943, 48.73371847101117], [55.755516080509025, -22.31274390828438, 4.711725235271887, 4.894087889654037, -41.4743061893297, -44.691799826238686, 19.480624694328988, 10.41005013684504, -5.332021241952323], [-33.63084015554936, -6.609854286682699, 1.4762144393127514, 28.3400214956236, 33.319237149299546, -6.448271630712845, 30.5209261350128, -35.454298857915525, 16.926345472749755], [-10.83165609203223, -4.862964317530435, 11.530573559469644, -4.46239242704799, -15.058032205170077, -18.09896027580111, 79.38619291454391, -76.29808825577125, 18.751503589707777], [23.579778593633115, -2.8999273187984556, 26.726858356304003, 26.132086508452662, -24.564065432928505, -26.989330169859805, -10.990281442520493, -48.836488168825554, -5.545804459219376]]], "networkBiases": [[-2.2021911489625454, 2.9795926646486355, 4.900458801153412, 1.884521087426767, 4.479776953849771, -1.8416724234518655, 1.9107991459170421, 4.9935333492780565], [-3.852197373607226, 6.53501154408789, -2.869012962527945, -2.0586383378923863, 5.500984635320133, 2.536343117901798, -1.512829856362502, 3.1139634673911254, 2.574416567938856]]}