{"structure": [9, 8, 9], "networkWeights": [[[-0.6798951493343138, -43.97638643176205, -1.0950767997575084, 1.95314018519677, 0.8827469362752015, 25.256498444103524, 9.026329749984464, 51.210511810577394], [-3.9460613880562683, -1.6985349189256573, -14.098886403710685, -13.641076645285521, -7.216546297244915, -19.81946275227872, -18.150041796369443, -23.64413471436657], [-12.394998618812886, -4.15141900602496, 5.242250059733484, -13.728072096960794, -7.773316588552905, -6.597638515160253, 35.16299471529516, -9.43454068497823], [44.69626663814163, 18.75213454558914, 10.809508447084898, -13.74791493157959, 20.313342361630017, -0.8729798378246791, -7.746512075201124, 52.9698693576789], [-34.79100482050841, -4.625928576987611, -36.46019753682057, -2.184444607181811, -16.40379713599744, 17.72177891197452, 4.018426446994858, 31.148142102990498], [2.0893311189089694, -26.12833336474179, 47.38640108513071, -13.602798647486017, 19.330230501173535, -28.394915547651426, 4.303537242774909, 40.8631043704555], [-11.751767429545513, 29.078876859803902, -30.073551348705898, 32.49439151853213, 26.17115298346076, -30.29367018049277, -13.397654738312966, 25.086951879180283], [-35.28328455031403, 42.52293101887733, -23.80690759416222, 28.00974614118442, -1.2168014988553797, 0.18429771102088982, 2.370918410265049, -18.12429595423355], [-15.41001545664558, 22.45866136175121, 69.78342422007833, -21.024063415484513, 7.691794559554763, -21.97624134356371, -16.43205880836469, -22.664658757197]], [[2.5363348110280595, -39.55959423932564, -15.003958390199948, -14.17882135398175, -41.08219164591905, -1.3308590026006777, -1.4882334179674763, -4.4206736663453645, -22.31053423479405], [7.702253729270521, -0.6621136085214392, -17.41936484142893, -44.14028401751736, 51.92167015869269, 32.19516216426732, -36.683699098647665, 14.152354360840189, -10.057717376750846], [-45.91723528318756, -19.736462275940475, -10.821728085801132, -9.968324884103946, -40.06715773557964, 16.52789754369155, 15.163069862433161, 27.03377980860133, -21.8801653051442], [-31.68576884432115, 5.070977876164212, -2.1645543000448972, 33.95208835964051, 12.352981143891245, -18.619031764746552, -31.93971709497862, -21.199665169657518, 48.707754528657624], [55.755516080509025, -22.31274390828438, 4.731869906718357, 4.894087889654037, -41.4743061893297, -44.691799826238686, 19.480624694328988, 10.41005013684504, -5.332021241952323], [-33.6637820088988, -6.609854286682699, 1.4762144393127514, 28.3102691600543, 33.29895736535317, -6.448271630712845, 30.5209261350128, -35.454298857915525, 16.926345472749755], [-10.83165609203223, -4.874248801723072, 11.530573559469644, -4.50234328384704, -15.100332800447406, -18.09896027580111, 79.38619291454391, -76.29808825577125, 18.778850836664326], [23.579778593633115, -2.8999273187984556, 26.726858356304003, 26.1669316008966, -24.628333548362388, -26.989330169859805, -10.990281442520493, -48.836488168825554, -5.545804459219376]]], "networkBiases": [[-2.2021911489625454, 3.0057843455794897, 4.932022609922415, 1.9566388077865997, 4.462108876392231, -1.8202655958304073, 1.8883738990216403, 5.078606112828913], [-3.8131330492430875, 6.5558417906597075, -2.827502596316353, -2.0655153056895457, 5.589648523909113, 2.593182513464642, -1.5458245327130467, 3.076790302649082, 2.574416567938856]]}