{"structure": [9, 8, 9], "networkWeights": [[[-1.525498426386371, -43.91279874045696, -1.6120203288019503, 0.8893623266394226, 0.2480385172470731, 24.318864547613476, 9.31269176063391, 51.68392252801621], [-5.067144245701805, -1.8305897689566542, -14.637141622425986, -13.807564635650955, -8.267887657289583, -20.38937649881959, -18.37642558550621, -23.649242131160236], [-13.537718454523802, -3.5491497167599912, 4.454345310539677, -13.598181457373, -9.00699091482436, -6.552006287469881, 34.76675534264731, -9.56799283519243], [44.0532506461264, 18.79116019243224, 9.735919541688533, -13.102382038807228, 20.24513506732083, -1.472157614703491, -6.520236756850055, 52.76565890523941], [-34.71852030599826, -6.084781507989553, -37.29131807909998, -3.175702834662677, -16.4296133018864, 18.23730151608243, 3.6445563063233815, 31.293986339069757], [1.5092125119031756, -26.1916981287106, 47.37970764363743, -14.42719489468104, 18.71898695315485, -29.027396585781233, 4.957567689210519, 41.68178664013688], [-10.27352517336379, 29.631234232095597, -29.906475235296114, 32.41742966835567, 25.900026071559143, -30.54459596108435, -13.382537478620424, 23.845450035698345], [-34.332881418825544, 42.67584543883217, -22.73483737342806, 27.967037937664642, -1.1705030304322401, -0.09121990989514156, 2.3648119709258077, -18.11143967039821], [-15.49839729510109, 21.844287552799493, 69.0543303103008, -20.406360338982793, 7.715806892308497, -22.855279570260578, -16.817539567145733, -23.405356699220498]], [[1.8609543756727327, -39.24506675527424, -15.970418924526664, -14.161349141648142, -39.06897394423212, -2.021331558662011, -1.627163901193202, -4.673208083517489, -21.892401867866468], [7.392400990196986, 0.18473077331406657, -17.42864420842972, -43.30816514748055, 52.23813775394321, 32.305674087379266, -36.198737505839446, 14.173084667331894, -10.219822834298109], [-45.07298569788094, -19.61972888292255, -9.423385874721895, -9.764048918697465, -40.79909188563426, 16.20949747200158, 13.589859305519182, 26.488948473881194, -21.096381642776635], [-30.294644211545595, 5.995875471874701, -3.298839503874561, 34.75757858042864, 12.257293655056612, -18.763280711658837, -31.32978408715632, -21.36956731275334, 48.89312664463156], [55.81046846327521, -23.16513948822726, 4.489655219744346, 4.463965280659343, -40.737348236467334, -44.80618338685067, 20.0554545584367, 9.224914171829475, -4.45208711062554], [-33.74115861660591, -6.246540202593377, -0.014352370622819743, 28.242538277250897, 32.81094435648718, -6.410105586960011, 31.09327371108952, -35.515377140048486, 17.300761230433704], [-10.542027169823601, -4.776641777482228, 12.252891367718826, -5.120515912484606, -14.221416445317546, -18.506290915813082, 79.39266736027272, -76.89905148428615, 18.28909991815976], [23.268680769057813, -3.404006499175712, 26.401403542575277, 25.631927200816094, -25.27018516319719, -26.60054515246779, -11.279216689884226, -48.80690427927495, -4.27840615508747]]], "networkBiases": [[-2.7971989426786856, 3.3191859961074885, 2.9396957552115106, 1.5203502942730371, 2.7010611861431904, -0.3937811417198683, 3.4052056063284697, 7.496195141275074], [-1.6030851720641515, 5.54653111156393, -2.409559154071948, -1.3653563771042951, 5.577275846793952, 3.514670699355222, -2.1594467222070466, 2.7471452814371595, 1.6808052508461109]]}