{"structure": [9, 8, 9], "networkWeights": [[[-0.9155124274812105, -43.80993250270616, -1.046154052239343, 1.284079973690641, 0.9362076938943982, 25.06848878270541, 8.861179979323703, 51.785788669851044], [-4.533847076252654, -1.5826663411070119, -14.553325265159671, -13.588042262364851, -7.432784829870815, -19.957715177980514, -18.400242197225694, -23.88941828495569], [-12.956554070711807, -4.355955781970064, 4.429113851855126, -13.086462395345889, -8.294501223261623, -6.2512118647979245, 34.89458652178761, -9.622069495156556], [44.35518144855342, 18.939092217778896, 10.541533100734656, -13.68980675533798, 20.25828504252373, -1.0430917651066787, -7.334528727488624, 53.03923204682371], [-34.7944681335703, -4.99327864038907, -36.47888996175942, -2.9794999267128763, -17.04571864381632, 17.988027508411758, 4.174881129624535, 31.303361050163662], [1.9391002991045645, -26.312487980389953, 47.219988417023124, -13.691895346013066, 19.215432007497462, -28.71043267991361, 4.975571710716871, 41.57251638362665], [-11.646597666674383, 29.5212904478872, -30.203851223671343, 32.499704719410616, 26.018454948134984, -30.533531349995283, -13.915579723715071, 24.376078796385908], [-34.7555985412577, 42.89892044885871, -23.333213802261596, 27.71898460706934, -1.2932636555097772, 0.006219529870028884, 2.1142579232910768, -17.693605804819146], [-15.455554406831695, 21.86273461776973, 69.79281593419343, -20.81127487963653, 7.43515637445234, -22.30780717825144, -16.99784160737817, -23.186079273662564]], [[2.3302096520388416, -39.4103619736489, -14.79608491885628, -14.241786559537319, -39.912956250581814, -1.6837743367380138, -1.9475920707505807, -4.715110687356215, -22.28798602335208], [7.710883159813643, -0.2984569272666072, -17.39285873948694, -43.94476516723606, 51.85412603211987, 31.992380170920722, -36.39240331522076, 13.832896437647715, -10.028705500439205], [-44.718106690401896, -19.74289095321322, -9.98364718103856, -10.195655131286271, -40.0820232052162, 16.017008521284506, 14.747275047932431, 27.14142100844069, -21.531012289790645], [-30.87030502214642, 5.826037954513826, -2.541271187686394, 34.30495804090295, 12.139738343774136, -18.416123786339977, -31.94322074692907, -21.215270558131866, 49.40278061795901], [55.95351247658206, -22.164882541516075, 4.452036699425897, 4.551655254953052, -41.582397015036484, -44.52892392527165, 19.478515850142408, 9.585966990144609, -5.01912463660242], [-33.83121271149453, -6.568702774719318, 0.7585586326444445, 28.442328803903358, 32.91286493583806, -6.404644670727984, 30.68269934787488, -35.74765056085846, 17.477517304879417], [-11.03327644859712, -5.078719869851777, 12.063961166856258, -4.750492170499743, -15.089029884780814, -18.34932847707585, 79.31744169148243, -76.27382282880362, 18.096402438492373], [23.39236939584165, -3.4139834861599625, 26.19261999919674, 26.02356513128816, -24.705392309615608, -26.623881585808014, -11.121890073763026, -48.87149271428298, -5.420976009713501]]], "networkBiases": [[-2.4945646703306967, 2.3953112520178443, 4.0854121859247705, 2.072437761993548, 3.780510044103206, -0.7485267583725359, 2.362035584509711, 5.421824838288267], [-4.640290852561038, 6.2535750280532465, -1.9454488525022815, -2.0288121115821554, 5.457948043053306, 2.950825547029402, -2.5812916390925498, 1.7146987022283064, 2.5656030618540466]]}