{"structure": [9, 8, 9], "networkWeights": [[[-1.1588292466451071, -43.72545818966905, -1.2509582143732845, 1.284079973690641, 0.8766385502086309, 25.120235497124533, 9.300228417954528, 51.785788669851044], [-4.6137471970115564, -1.5818216530640017, -14.553325265159671, -13.588042262364851, -7.432784829870815, -20.062880184177683, -18.400242197225694, -23.88941828495569], [-13.146358893342978, -4.355955781970064, 4.429113851855126, -13.086462395345889, -8.294501223261623, -6.2512118647979245, 34.79601148475045, -9.622069495156556], [44.38973958189088, 18.939092217778896, 10.541533100734656, -13.68980675533798, 20.25828504252373, -1.0430917651066787, -7.334528727488624, 53.03923204682371], [-34.7944681335703, -4.99327864038907, -36.47888996175942, -2.85375575323297, -17.04571864381632, 18.088490063405775, 4.295090992151133, 31.303361050163662], [1.9391002991045645, -26.497333764624194, 47.45387446924083, -13.691895346013066, 19.45500701222303, -28.55111443897927, 4.975571710716871, 41.57251638362665], [-11.646597666674383, 29.5212904478872, -30.203851223671343, 32.471505315898156, 25.78712765823941, -30.533531349995283, -13.828141015530058, 24.430288273885104], [-34.7555985412577, 42.89892044885871, -23.333213802261596, 27.71898460706934, -1.2932636555097772, 0.006219529870028884, 2.1142579232910768, -17.693605804819146], [-15.455554406831695, 21.86273461776973, 69.79281593419343, -20.81127487963653, 7.43515637445234, -22.30780717825144, -17.113246737982696, -23.186079273662564]], [[2.3302096520388416, -39.47169033253455, -14.79608491885628, -14.241786559537319, -39.912956250581814, -1.6837743367380138, -1.9475920707505807, -4.715110687356215, -22.28798602335208], [7.710883159813643, -0.3865659745433485, -17.117380123132985, -43.94476516723606, 51.85412603211987, 31.992380170920722, -36.39240331522076, 13.832896437647715, -9.792745478648108], [-44.718106690401896, -19.94159559228266, -9.98364718103856, -10.195655131286271, -40.28604014010501, 16.233356568382867, 14.714294777672714, 27.14142100844069, -21.531012289790645], [-30.87030502214642, 6.033960342819292, -2.541271187686394, 34.15714117280394, 12.199396281742978, -18.416123786339977, -31.94322074692907, -21.41567744444804, 49.40278061795901], [55.90704326929264, -22.391268854501302, 4.681895884169183, 4.551655254953052, -41.76964820870144, -44.52892392527165, 19.60207782816794, 9.585966990144609, -5.01912463660242], [-33.83121271149453, -6.568702774719318, 0.6999614006421164, 28.442328803903358, 32.91286493583806, -6.404644670727984, 30.68269934787488, -35.74765056085846, 17.477517304879417], [-11.03327644859712, -5.078719869851777, 12.063961166856258, -4.750492170499743, -15.004213092561228, -18.34932847707585, 79.31744169148243, -76.25182754742524, 18.096402438492373], [23.39236939584165, -3.4139834861599625, 26.19261999919674, 26.02356513128816, -24.594630326331195, -26.623881585808014, -11.121890073763026, -48.87149271428298, -5.329655275734669]]], "networkBiases": [[-2.3227748665045183, 2.318853877398829, 4.185443121490129, 2.1351566630260828, 3.5522910499502145, -0.6939115364928847, 2.355912616196861, 5.314883391375954], [-4.789719534816304, 6.533377685289781, -2.2563901660502856, -1.805027789320908, 5.302969689268763, 3.0263218095924485, -2.760187535600361, 1.4956983071990186, 3.162962656478764]]}