{"structure": [9, 8, 9], "networkWeights": [[[-1.426428856632742, -43.72948951583779, -1.3830161089908892, 1.1641939210668915, 0.33474308433010136, 24.790511601673252, 9.593909523890115, 51.699037588158305], [-4.578975450018075, -2.08634975244998, -14.49804735495093, -13.434015908422829, -8.159805176185333, -20.45952919582576, -18.35189572044872, -23.733438322545243], [-13.710547373618708, -3.6254334056585877, 4.432284483460177, -13.768371602074966, -8.681496460524157, -6.726793065390866, 34.76675534264731, -9.489552317470638], [44.0532506461264, 18.73872325818884, 10.362355136121277, -13.338387013463182, 19.953322040439467, -1.2444914452004434, -6.887652333288148, 52.51995259594039], [-34.591955361590266, -5.452827189494471, -37.33143923667289, -3.4158304898207454, -16.693108091945497, 17.899159049921472, 4.201524087917087, 31.353282314885707], [1.7636809476706405, -26.353903160651246, 47.29560036073419, -14.282817076430712, 19.128518257189995, -28.875350336039432, 5.021942373372564, 41.711614544464126], [-10.620586294151076, 29.63860166628926, -30.136482246768132, 32.41742966835567, 25.850612270767776, -30.67368006579139, -13.470168112846016, 23.972156210193987], [-34.763071334180516, 42.8601267896392, -23.371321626434117, 27.6898459475864, -1.1705030304322401, -0.09121990989514156, 2.3648119709258077, -17.99348960395608], [-15.49839729510109, 21.83444627133795, 69.26741025152008, -20.5186013981736, 7.605660308866167, -22.855279570260578, -16.945526954600844, -23.367427775633953]], [[2.0622969101259865, -39.327771306621074, -15.540868658432451, -14.161349141648142, -39.65001125083962, -2.1775406316094275, -2.091173842745056, -4.551326939585976, -21.892401867866468], [7.38075304346123, 0.3638972063507575, -17.007533595140654, -43.39770912512604, 52.39116682147762, 32.11952842730067, -36.364982088326, 14.137834793731706, -9.90127796647193], [-44.86489189696977, -19.520452832393254, -9.415132763193418, -9.778243161050861, -40.68127350502869, 16.27851960686145, 14.070646434735597, 26.66938106856083, -21.118459696695812], [-30.614413897761736, 6.0568043104142895, -3.5741866957763535, 34.75104545586457, 12.043036287608633, -18.80747539332734, -31.21738740207838, -21.28970789967835, 49.13372968480944], [56.251260237881425, -22.844897112738472, 4.309733366745987, 4.358444245802575, -40.979316603144945, -44.740030185937265, 19.70722520530965, 9.387558407744116, -4.540411090570125], [-33.58223334377761, -6.246540202593377, -0.0058713830205505135, 28.153191145939747, 32.85457638473916, -6.711072237865696, 30.777422555853093, -36.10589886870281, 17.125898756583474], [-10.652072850730013, -4.571944002965422, 11.857012047075285, -5.120515912484606, -14.476069080908236, -18.499055720547528, 79.39266736027272, -76.70834964691429, 18.434166861571526], [23.513111662920352, -3.778485867617853, 26.290176016041933, 25.89728294999995, -25.116097607015103, -26.690061025672986, -11.156241038197312, -49.078812207314655, -4.401413467415377]]], "networkBiases": [[-3.173767973325824, 3.0098381427475216, 3.4168130692774703, 1.9923329966836938, 2.002996624349822, -0.4315357862113222, 3.1673567748533182, 7.062982992435146], [-3.785860619838595, 5.861566959385556, -1.3284073786908994, -2.3570079243599014, 5.7981425554329995, 4.193285998749496, -2.786858806434715, 2.6863284375534286, 1.951985308004255]]}