{"structure": [9, 8, 9], "networkWeights": [[[0.08653740967545809, -41.77170084566046, -2.9289402285519914, 0.6436170281928779, 0.05940121815079946, 21.356465458413883, 9.091854120266218, 49.76704728617513], [-6.242229226412842, -0.47973439910806737, -13.971732035769985, -14.004166770154777, -7.33035353327979, -19.918354508306187, -18.84813023074524, -24.994169619370872], [-14.730184573198038, -4.512945724041701, 4.644115986535514, -14.30768006328238, -7.782269631977222, -7.948265472880539, 33.74645211214153, -10.344359588470109], [44.56717341811206, 17.85656526910537, 9.98122157205821, -13.882123596316196, 21.607642608143177, -1.3670798878678858, -3.500970588270209, 51.85164535549613], [-36.47214523063623, -3.9205698913864824, -34.2508754775201, -0.6669169115807325, -18.130174937778847, 17.237755578723885, 4.314659396865665, 34.34179522927107], [0.9359190835012947, -25.865149652858413, 45.145890390104015, -15.435010398794834, 21.66725804647136, -27.637989544631353, 4.202070616455637, 41.397793823889316], [-8.208821353027734, 29.693003874204702, -31.90537862096541, 31.7921052717061, 25.2473836939668, -30.253386516067366, -12.955898409323128, 27.834128204704612], [-33.71235828829513, 39.53733630744774, -21.713587059561522, 27.6636552800447, -2.9814750930126963, -3.0384846919877484, 2.152824728660954, -17.864377216065936], [-17.094796516137272, 21.533467363309317, 69.25785986096245, -18.387026278640874, 10.320142093625442, -20.65470805510771, -18.270177290723915, -24.926387201066518]], [[3.990970013089342, -37.280155917028516, -15.89676127473669, -14.903433064968679, -41.65603932876129, -2.9017565245925088, 0.04214281302581413, -4.834212260261428, -23.261743702567184], [6.930328822761827, -0.28056584638549786, -16.503105373387534, -42.71263306230184, 49.2580936503655, 33.726091594837044, -36.27941690992601, 14.210906094678565, -9.71445733119433], [-42.814951520756686, -21.921401952420467, -11.504172474604589, -9.19965421346516, -40.61524411794171, 19.26274394144244, 14.91038826026518, 26.091819674790447, -20.798832907832857], [-29.85628505187769, 6.112945055132913, -2.785160621188457, 35.49466022475966, 10.7465982948982, -16.753516917494192, -33.816155396542456, -17.240326089789605, 49.85082740087741], [56.15963580087946, -24.763017400367414, 3.2734514539799084, 4.895574113635722, -40.406754793084524, -45.40437014197798, 20.366344188044202, 9.247719329914705, -5.357638492046419], [-33.390102615716664, -6.0991681586981015, 0.3121714840064851, 30.420274872527713, 33.07515847602215, -3.1133887467993793, 29.87663447054424, -36.4617708415542, 16.97483633668859], [-11.67346714015404, -5.818677465056785, 11.171634927967276, -5.537527579860722, -15.055059060512193, -19.66154255599191, 81.78258915413912, -77.42294972426494, 21.25535657494901], [22.769705022811475, -0.24042659932999566, 24.407371050550065, 22.939616418980094, -25.449579373167097, -25.23798074317629, -14.517120394180091, -48.36306257562423, -3.0359650337128308]]], "networkBiases": [[1.0, 1.0, 1.0, 1.0, 1.0, 1.0, 1.0, 1.0], [1.0, 1.0, 1.0, 1.0, 1.0, 1.0, 1.0, 1.0, 1.0]]}