{"structure": [9, 8, 9], "networkWeights": [[[-0.603585513982348, -42.232645069297995, -2.9289402285519914, 0.7749044750081171, 0.05940121815079946, 20.578550174920558, 8.167877542638657, 49.76704728617513], [-6.242229226412842, -0.48707149391611804, -13.971732035769985, -14.004166770154777, -7.048267222988569, -19.918354508306187, -18.84813023074524, -24.994169619370872], [-14.730184573198038, -5.259060345813474, 4.644115986535514, -14.30768006328238, -7.782269631977222, -7.804105948041206, 33.74645211214153, -10.344359588470109], [44.56717341811206, 17.85656526910537, 9.98122157205821, -13.882123596316196, 21.607642608143177, -1.3670798878678858, -3.500970588270209, 51.85164535549613], [-36.54532358303849, -4.502135518767666, -34.2508754775201, -0.7519412714356808, -18.130174937778847, 17.237755578723885, 4.314659396865665, 34.34179522927107], [0.5647837096214037, -25.865149652858413, 45.145890390104015, -15.435010398794834, 21.66725804647136, -28.28564524233731, 4.202070616455637, 41.397793823889316], [-8.371649748698193, 29.693003874204702, -31.90537862096541, 31.7921052717061, 25.2473836939668, -29.407443348062213, -12.955898409323128, 27.96205543686768], [-33.71235828829513, 39.53733630744774, -21.713587059561522, 27.6636552800447, -2.9814750930126963, -3.0384846919877484, 1.4321629572734504, -17.90148625451733], [-17.094796516137272, 21.533467363309317, 69.25785986096245, -18.387026278640874, 10.320142093625442, -20.65470805510771, -18.270177290723915, -24.459686363388023]], [[3.990970013089342, -37.280155917028516, -15.89676127473669, -14.903433064968679, -42.35295139777259, -3.479543347429588, 0.09372623054001461, -4.834212260261428, -23.261743702567184], [6.930328822761827, -0.28056584638549786, -16.503105373387534, -42.71263306230184, 48.43111837226037, 33.726091594837044, -36.27941690992601, 14.210906094678565, -9.71445733119433], [-43.74189752490766, -21.921401952420467, -11.504172474604589, -10.270254230188819, -40.61524411794171, 18.999152257621873, 14.91038826026518, 26.091819674790447, -20.798832907832857], [-29.817630041547627, 6.669190689788094, -3.051900335383581, 35.66841890935068, 10.777537939740869, -16.511290787698282, -33.816155396542456, -17.240326089789605, 49.85082740087741], [56.5324411584443, -24.39931095201998, 3.2734514539799084, 4.895574113635722, -40.406754793084524, -45.40437014197798, 20.396020047993463, 9.247719329914705, -5.357638492046419], [-33.390102615716664, -6.0991681586981015, 0.39693661494530397, 30.44769289501684, 33.07515847602215, -3.025139681714621, 30.755704163091927, -35.34332250217817, 16.97483633668859], [-12.506165493381591, -6.225887099337292, 11.65214039881497, -5.537527579860722, -15.055059060512193, -19.66154255599191, 82.7122870891435, -77.42294972426494, 21.25535657494901], [22.769705022811475, -0.24042659932999566, 24.407371050550065, 22.939616418980094, -25.449579373167097, -24.56646205121131, -14.517120394180091, -48.36306257562423, -3.0359650337128308]]], "networkBiases": [[1.0, 1.0, 1.0, 1.0, 1.0, 1.0, 1.0, 1.0], [1.0, 1.0, 1.0, 1.0, 1.0, 1.0, 1.0, 1.0, 1.0]]}