{"structure": [9, 8, 9], "networkWeights": [[[-0.603585513982348, -42.071657563572266, -2.9289402285519914, 0.7749044750081171, 0.05940121815079946, 22.0174739175997, 8.167877542638657, 49.76704728617513], [-6.242229226412842, -0.47973439910806737, -13.971732035769985, -14.004166770154777, -7.33035353327979, -19.918354508306187, -18.84813023074524, -24.994169619370872], [-14.730184573198038, -5.259060345813474, 4.644115986535514, -14.30768006328238, -7.782269631977222, -7.186764806446992, 33.74645211214153, -10.344359588470109], [44.56717341811206, 17.85656526910537, 9.98122157205821, -13.882123596316196, 21.476567389292327, -1.3670798878678858, -4.116407442364979, 51.85164535549613], [-36.47214523063623, -3.9205698913864824, -34.2508754775201, -0.6669169115807325, -18.130174937778847, 17.237755578723885, 4.314659396865665, 34.34179522927107], [0.9359190835012947, -25.865149652858413, 45.145890390104015, -15.435010398794834, 21.66725804647136, -28.28564524233731, 4.202070616455637, 41.397793823889316], [-8.208821353027734, 29.693003874204702, -31.90537862096541, 31.7921052717061, 25.2473836939668, -30.253386516067366, -12.955898409323128, 27.834128204704612], [-33.71235828829513, 39.53733630744774, -21.713587059561522, 27.6636552800447, -2.9814750930126963, -3.0384846919877484, 1.4321629572734504, -17.864377216065936], [-17.094796516137272, 21.533467363309317, 69.25785986096245, -18.387026278640874, 10.320142093625442, -20.65470805510771, -18.270177290723915, -24.926387201066518]], [[3.990970013089342, -37.280155917028516, -15.89676127473669, -14.903433064968679, -41.65603932876129, -2.9017565245925088, -0.5920047752898769, -4.834212260261428, -23.261743702567184], [6.930328822761827, -0.28056584638549786, -16.503105373387534, -42.71263306230184, 49.338244585629546, 33.726091594837044, -36.27941690992601, 14.210906094678565, -9.71445733119433], [-42.814951520756686, -21.921401952420467, -11.504172474604589, -10.270254230188819, -41.07499928833638, 19.26274394144244, 14.91038826026518, 26.091819674790447, -20.798832907832857], [-29.85628505187769, 6.669190689788094, -3.051900335383581, 35.49466022475966, 10.777537939740869, -16.753516917494192, -33.816155396542456, -17.240326089789605, 50.73244510287392], [56.37057139339755, -23.866145165083264, 2.879576532944246, 4.895574113635722, -40.406754793084524, -45.40437014197798, 20.366344188044202, 9.247719329914705, -5.357638492046419], [-33.390102615716664, -6.0991681586981015, 0.39693661494530397, 30.420274872527713, 33.07515847602215, -3.1133887467993793, 29.87663447054424, -35.586441451811524, 16.97483633668859], [-11.67346714015404, -5.818677465056785, 11.531264669339105, -5.537527579860722, -15.055059060512193, -19.66154255599191, 81.06570468932739, -77.42294972426494, 21.25535657494901], [22.769705022811475, -0.24042659932999566, 24.87123244969383, 22.939616418980094, -25.449579373167097, -25.23798074317629, -13.552411116619764, -47.458000718409735, -3.0359650337128308]]], "networkBiases": [[1.0, 1.0, 1.0, 1.0, 1.0, 1.0, 1.0, 1.0], [1.0, 1.0, 1.0, 1.0, 1.0, 1.0, 1.0, 1.0, 1.0]]}