{"structure": [9, 8, 9], "networkWeights": [[[-0.48505598188746696, -43.80993250270616, -1.046154052239343, 1.633681630681873, 0.902662591699387, 25.06848878270541, 8.833105892262214, 51.613401935886245], [-4.138631731631788, -1.5826663411070119, -14.443614673619035, -13.588042262364851, -7.5585424114171, -19.797250727289132, -18.35273125511027, -23.705138781431412], [-12.819597524624138, -4.448682523145503, 4.513986410223609, -13.086462395345889, -8.184867851821366, -6.2512118647979245, 34.9055633037157, -9.516026119290737], [44.35518144855342, 18.977410103768396, 10.609167944738328, -13.68980675533798, 19.89252548307234, -0.8675557219443921, -7.334528727488624, 53.33267808844714], [-34.7944681335703, -5.26056763565808, -36.53969732896649, -2.7489625554326156, -16.970808900680748, 17.86252928296992, 4.218883456159453, 31.584417555402172], [2.0542918010814755, -26.312487980389953, 47.219988417023124, -13.691895346013066, 19.27376388811686, -28.999777520326706, 4.636778711099361, 41.325240924906666], [-11.646597666674383, 29.358177567641672, -29.95342819468033, 32.499704719410616, 26.710140655651756, -30.533531349995283, -14.154677900966192, 24.4419306685685], [-34.77459634099302, 42.89892044885871, -23.333213802261596, 27.631924746648796, -1.0601090289216915, -0.03711259708904846, 1.9743015067416627, -17.607501714558065], [-15.350930931485468, 21.86273461776973, 69.98027887152156, -20.710115741292462, 7.623196997171053, -22.306770552162412, -16.99706116843033, -22.842176289765273]], [[2.3302096520388416, -39.4103619736489, -14.79608491885628, -14.241786559537319, -40.67174199271658, -1.6837743367380138, -2.0646686566535206, -4.525589968875217, -22.1299977225329], [7.907340106359883, -0.3882190047005167, -17.39285873948694, -43.98785485104819, 52.07267126197544, 32.0040048224481, -36.52119535197379, 13.832896437647715, -10.075182524035107], [-45.07479241138876, -19.74289095321322, -10.08016885013999, -10.275494884643761, -40.0820232052162, 15.947856750708503, 14.747275047932431, 27.082488852334286, -21.71989738769216], [-30.977489718133658, 5.648732325592693, -2.405065019070589, 34.30495804090295, 12.139738343774136, -18.63897504790321, -31.94322074692907, -20.975251253581117, 49.14344304497036], [55.89983297147274, -22.164882541516075, 4.238225449766468, 4.674417362093769, -41.483762554136675, -44.865825481469635, 19.52781928393904, 9.694260910068694, -5.156901547803358], [-33.80427405988893, -6.568702774719318, 0.9492970187030303, 28.690259368573724, 33.005446197031766, -6.499304034044753, 30.366440640460347, -35.74765056085846, 16.825164276153217], [-10.79418224821373, -4.861239727748096, 12.037675794552147, -4.710341942355718, -15.165152377992914, -18.434236057108347, 79.4107414386634, -76.13598720506812, 18.096402438492373], [23.540435661383963, -3.4123598937388566, 26.296039557897792, 26.02356513128816, -24.840800527440912, -26.810695024654304, -10.757708331051067, -48.77110656766838, -5.503969811152114]]], "networkBiases": [[-2.082903013863593, 2.6320471332366027, 4.421235722452029, 1.9760078279646411, 4.58970336320902, -0.7223248091338514, 3.0423701901405997, 5.230559049995922], [-4.453609293700736, 6.6347932487557, -2.6216663022921463, -2.8061142478102017, 5.527337310877481, 2.2965072559070694, -3.5478089328426323, 2.446362515630212, 2.4335990542077193]]}