{"structure": [9, 8, 9], "networkWeights": [[[-0.5691446936102782, -43.85432632313973, -1.1484335357002668, 1.8074544578373422, 0.7937030351109446, 25.29980244186659, 9.148143038848184, 51.05791724200833], [-3.9810277769327693, -1.8818907951184642, -13.96890122453239, -13.728665791476269, -7.20238157647736, -19.911565296598162, -18.16470368309675, -23.607702018576724], [-12.581771166120914, -4.177271878246035, 5.021603543011484, -13.641000762628348, -7.688552841270261, -6.451386005988208, 34.92293445926072, -9.517357360710676], [44.75628539402988, 18.85483470560779, 10.799324218482557, -13.847500019695886, 20.244876578414292, -1.0731691506020278, -7.836658543218357, 53.09566191040975], [-34.72054176697685, -4.734330765961959, -36.461789915752895, -2.296178388049652, -16.312363132497357, 17.63201044988804, 4.007483616061558, 31.01473096501015], [1.9775524057480969, -26.25359046310487, 47.369448456444864, -13.666711390740529, 19.2071389001343, -28.297393164275757, 4.180191691468444, 40.827035895100266], [-11.505793446879649, 29.07885662188707, -30.237713350086203, 32.52563607238812, 26.37037659986862, -30.484852920723494, -13.616544637360722, 24.946668613704684], [-35.22277469408005, 42.427734831827195, -23.651362235840296, 27.870074899226083, -1.121523261988572, 0.15313714657772073, 2.3697922113949703, -18.09314339128354], [-15.45769641574655, 22.497557149944157, 69.74704563039732, -20.974558698015716, 7.688660707868775, -21.96317145572896, -16.46506323158144, -22.75488162589404]], [[2.4627132475731415, -39.544651039195884, -14.990746566661763, -14.085284852452704, -41.04130481945267, -1.2802277731702907, -1.6732951042384547, -4.579072684343072, -22.384464874879917], [7.728002806491657, -0.691667080952492, -17.432215824851845, -44.14288484677299, 51.911634632389585, 32.17096796935962, -36.64608249794767, 13.955342492519327, -9.970151127641465], [-45.78355957530609, -20.014692276922375, -10.77400936525913, -10.051168753496013, -40.04247079225297, 16.52268037065923, 14.9687837016381, 27.06858837322494, -21.805818106155773], [-31.546387006970303, 5.108289818185129, -2.3154818574362603, 33.97764455307684, 12.272318385524164, -18.789885779649982, -31.89551056135403, -21.277216498696852, 48.70331045734352], [55.61548437531504, -22.32865608238141, 4.754957190211389, 4.861591134892687, -41.41768448408306, -44.90187174890827, 19.605658289556985, 10.330794640075698, -5.3333759161587535], [-33.59732529675199, -6.49096017155707, 1.2639397838711077, 28.42445925711509, 33.24219652504649, -6.398186288792823, 30.71761786444997, -35.55545076158603, 16.935470516192826], [-10.705287494727887, -4.901666133963729, 11.463661452017869, -4.59014884849684, -15.082287616299988, -18.18545855443642, 79.26750048974449, -76.29230275485787, 18.713680901290036], [23.474699965021205, -2.808374655441727, 26.62518240372602, 26.166977234113755, -24.581058808347972, -26.99043383542236, -11.036851813955549, -48.96866612485738, -5.4562691998157975]]], "networkBiases": [[-2.337163655123105, 3.136208384704994, 4.870691836847784, 1.4570020988057233, 4.548821993205532, -1.5203986627767805, 1.4930844118996236, 5.102456278287698], [-4.131150375922967, 6.742465677048067, -2.873953286723583, -1.5665676540497147, 5.776427058176762, 2.5128828071694276, -1.6992734099133646, 2.767911261543971, 2.2688670495915346]]}