{"structure": [9, 8, 9], "networkWeights": [[[-1.4772955200858389, -43.72948951583779, -1.3053567857044484, 1.4402679731494903, 0.3522803412197121, 25.10839381187337, 9.26873691773178, 51.843596073561436], [-4.553765128121899, -2.0112449749214916, -14.321324274538277, -13.770747190265332, -7.871756706898988, -20.327539232334356, -18.41482334555791, -24.0604161699145], [-13.433381555778439, -3.7130875713030562, 4.432153977634516, -13.327197417317468, -8.748909646097259, -6.437364188084316, 34.99446990236228, -9.487259563690152], [44.0532506461264, 18.98789836082461, 10.762054536002461, -13.19089076304089, 20.071730834232806, -1.171122524020018, -7.4603445880565005, 52.5331809661525], [-34.677983262627635, -5.0778794297130805, -36.82702338840445, -3.2297704954278545, -16.950581539579126, 18.02367443363647, 4.212108232014764, 31.442125867339623], [1.555778338529552, -26.494527643772802, 47.11496114354853, -14.173763969379785, 19.317495261725096, -29.158183118712383, 5.03390534349737, 41.72219385377278], [-10.900746887876473, 29.45300316059781, -30.045208378362627, 32.49440165507491, 25.954085425194, -30.597519816485136, -13.916283886246571, 24.17448037566753], [-34.94911866355622, 42.95542556627715, -23.520855599488524, 27.926110466214645, -1.202106513615001, -0.03164713444164269, 2.105076025548699, -17.733348547710857], [-15.42386705800162, 21.93622500619963, 69.75519987520298, -20.374344289774868, 7.753418028933777, -22.486446980306738, -16.709161991654806, -23.16787995828936]], [[1.9201002368474165, -39.50752345156065, -15.537405783241478, -14.45383534050682, -39.986686065880484, -1.8865022687529343, -1.9473033348920954, -4.458309585527968, -21.972314078462745], [7.684867690659715, 0.2962535571256536, -17.319781450140496, -43.37957551462525, 52.07596544302068, 31.94428317293014, -36.44927314384794, 13.764819961550568, -9.923580809747214], [-44.92463479403405, -19.520452832393254, -9.630836919362066, -9.963822902391861, -40.65420041068593, 16.470256602450206, 14.533631246847374, 26.95590587268207, -21.26402922019704], [-30.54908308020661, 5.6274515944507355, -3.17296189646171, 34.35153242205431, 12.029305712358031, -18.53298659752165, -31.25591017017844, -21.274820876618218, 49.582783889493506], [55.94994729767532, -22.758272206055842, 3.9115340254257065, 4.433811932280413, -41.13350722151784, -44.54859006233684, 19.831090689869853, 9.191111222349974, -4.795997697414982], [-33.856955189390554, -6.420982943188085, 0.07609474568951696, 28.46563701641465, 32.90365718804521, -6.551489336591097, 30.68269934787488, -35.91775943331508, 17.22728504032143], [-10.661056145576863, -4.641189050975872, 11.881948955861176, -5.007931501243126, -14.650408572842817, -18.381512570625286, 79.31744169148243, -76.83986150620572, 18.054696207746012], [23.279204393907744, -3.7368990586496884, 26.143234223192188, 25.718754248058083, -24.498620235747175, -26.864798073741362, -11.108372524752804, -48.89510052216753, -4.782599681006653]]], "networkBiases": [[-2.5481736584517622, 3.7779656729561593, 3.5848715851226323, 2.8192361056015134, 2.8040599474803014, -0.020721504700763393, 2.231571281629397, 6.276071761304803], [-3.8636531780178114, 5.788616997101348, -1.2957338264833864, -2.9191673612386717, 5.545338509014306, 3.473707408080436, -2.975301542858185, 2.602856980547578, 1.9289270054017442]]}