{"structure": [9, 8, 9], "networkWeights": [[[-1.2535179270661505, -43.77321799044211, -1.6019642106730148, 0.988342675386425, -0.4057558674439148, 24.65344510816123, 8.997360062665791, 51.99112314734543], [-4.977525018465263, -1.3740450166224334, -14.628560582019977, -13.747243011748607, -8.25006978380123, -20.344341747465478, -18.129161836926745, -23.939678695167835], [-13.853644790851373, -4.1872047948261955, 4.253651441330061, -13.66514890409618, -8.737205848112804, -6.194795300107518, 35.02557805153524, -9.317929564274717], [44.22985364902601, 18.51473756898217, 9.537810146301027, -13.527252430030382, 20.331443292933905, -1.1317679899601898, -6.546946532514665, 52.189726278083114], [-34.17626939802689, -6.0229675979999415, -37.62880255017206, -2.62511634773814, -16.57315856175672, 18.161886345691794, 3.7878087391906483, 31.516061329529364], [1.3286211422444918, -26.0148632273792, 47.1147039409338, -14.608273308811635, 18.965794627216006, -28.803948156993307, 4.050663925189023, 41.440428132673794], [-10.318488645989852, 29.55544511073719, -30.373585062134143, 32.379298882341764, 26.041916775711456, -30.608859046000752, -13.026146877410264, 24.322517909348807], [-35.163816112051606, 43.027607287193355, -22.280213954874668, 28.23708079019027, -1.7777707678690091, -0.1449431272650059, 2.1736275626439125, -18.134348137279346], [-15.782934941447946, 22.03887391192401, 69.17576814371682, -20.260083965396777, 7.808176259031747, -22.386389355914094, -16.602109251474804, -23.770142310470213]], [[1.9404117156861316, -38.98050012608281, -16.29144005577452, -14.788413931918257, -38.70732447993898, -2.0290471936728087, -1.6530397010364262, -4.001779843829645, -21.54594700553149], [7.385764391141122, -0.20022756069154934, -17.19335868764781, -43.43971430416904, 52.29008422998308, 32.197130565885224, -36.03037829180728, 13.487190122829762, -10.612621616429944], [-44.92577522243877, -20.31310382873572, -9.284170153426558, -9.601697799340261, -41.034413109810835, 16.353262639156437, 13.71095894791236, 26.88728733474909, -21.394381013556924], [-30.500584620198072, 5.498711016524014, -3.4541938648892336, 34.30017100001467, 12.95238278945251, -18.512321691194288, -31.55052647404143, -21.999075983074494, 48.99248574461495], [55.58204764465235, -22.79174378383018, 4.147557008422232, 4.493397565062164, -40.42091071030239, -45.09077989451731, 20.34724120999084, 9.377877895335457, -5.6081761233043474], [-33.74115861660591, -6.11087289265827, -0.500277268898399, 27.932442725461957, 32.46509373538958, -5.735033614237694, 30.87771683300011, -35.74201846351366, 17.32059473315592], [-10.01978096618778, -4.633846110737956, 11.859023406618475, -5.018867302171427, -14.70007846578589, -19.743424997775634, 80.07563947779073, -77.24555258091694, 19.042614542494206], [23.485733089403773, -2.5463505080011086, 25.435801399515192, 25.50088662506183, -25.12356310029804, -26.823425820290154, -11.244679740322232, -49.26995777142087, -4.414674414771268]]], "networkBiases": [[-3.5801591326917257, 3.0646739751318144, 2.043333338850552, 2.6621392485529483, 2.8999602599509573, -0.7297972707661466, 1.8636646170373279, 7.231602877931085], [-1.5783003283372505, 5.429469189406339, -3.334409086587072, -1.9980762878752354, 6.306023269599053, 2.7439961938958017, -1.5901337985873507, 1.9134954637568766, 1.867400853641513]]}