{"structure": [9, 8, 9], "networkWeights": [[[-1.5264770760926862, -43.950277267604505, -1.8298535078004556, 1.0942385600919886, -0.4057558674439148, 24.585784107866736, 8.87973459585612, 51.832360846965884], [-4.977525018465263, -1.3740450166224334, -14.396052780710939, -13.816431550864424, -8.187426878166091, -20.131636062454856, -18.41932838865771, -23.96993024891269], [-13.853644790851373, -4.15507672679365, 4.5015914659438065, -13.528052571661545, -8.748616032425256, -6.194795300107518, 34.96452785418801, -9.493886356151425], [44.275993322742956, 18.618614518714278, 9.245273037325354, -13.381137996246462, 20.331443292933905, -1.1757112309269213, -6.546946532514665, 52.024334189047934], [-34.065301990239064, -6.0229675979999415, -37.45410939819557, -2.65884029610918, -16.485885733110123, 18.46136665938189, 3.7878087391906483, 31.684780792936017], [1.1298643795625474, -25.948231222097608, 47.17166517341056, -14.608273308811635, 18.90340125686807, -28.992327786977476, 4.220979077203269, 41.347740279338744], [-10.243705357734065, 29.55544511073719, -30.373585062134143, 32.379298882341764, 26.069082359456345, -30.636812929662245, -12.997540328478443, 24.21545893020862], [-34.93664101277409, 42.857647309908565, -22.280213954874668, 28.491805335675178, -1.754537845171061, -0.34188417724330333, 2.1736275626439125, -18.38109232216191], [-15.782934941447946, 21.98302886649751, 69.00350296037952, -20.119680816817137, 7.805745722633637, -22.386389355914094, -16.602109251474804, -23.770142310470213]], [[1.9404117156861316, -38.52965454619673, -16.29144005577452, -14.684402704268754, -38.70732447993898, -2.0290471936728087, -1.7149803862980195, -4.001779843829645, -21.696273935621914], [7.4028805034872995, -0.444990710908587, -17.050777641815586, -43.6328519842133, 52.356146039481565, 32.18970861860678, -36.23808136223769, 13.704626036614194, -10.612621616429944], [-44.92577522243877, -20.31310382873572, -9.72163499146165, -9.682072635695995, -40.97765564916083, 16.354045438545143, 14.087086644334933, 26.88728733474909, -21.394381013556924], [-30.10527969550897, 5.5447903651146815, -3.336450611582116, 34.574327103280886, 12.741973957840806, -18.512321691194288, -31.778756861617246, -21.895339262463597, 48.99248574461495], [55.790967847087146, -22.560305026696664, 3.901822176704177, 4.3494739852825814, -40.42091071030239, -45.220284743399496, 20.316415967995823, 9.696517549970162, -5.693152679077333], [-33.74115861660591, -6.11087289265827, -0.46867094481272226, 27.932442725461957, 32.36739424466447, -5.630184788512729, 30.87771683300011, -35.84481072030736, 17.165194139613728], [-10.223347314069661, -4.821070911668703, 12.16478273672521, -4.827914431925291, -14.714525800380931, -19.954897310795687, 80.07563947779073, -77.26828400576971, 18.83716634825903], [23.485733089403773, -2.7199901430130513, 25.541595235768863, 25.273483959823775, -25.467154162261334, -26.938343487915397, -11.244679740322232, -49.17451448333672, -4.247042098218593]]], "networkBiases": [[-3.393160240153682, 3.330984885137642, 1.8851393660637812, 1.9393828492624547, 2.667726116680624, -0.22324659498782834, 2.431495375393253, 6.9029019124461515], [-1.2535769128677654, 5.818281061721169, -4.056517750120913, -1.8643653442113004, 6.509994687473001, 2.405361424101266, -2.288590790500765, 1.9680788109989256, 2.877791935857112]]}