{"structure": [9, 8, 9], "networkWeights": [[[-1.4725637502091002, -43.91279874045696, -1.6540737225558737, 0.8893623266394226, 0.2480385172470731, 24.318864547613476, 9.31269176063391, 51.83586316278573], [-5.375170306503222, -1.5330930090529098, -14.519592205445154, -13.807564635650955, -8.072374201595116, -20.530778889571458, -18.37642558550621, -23.618218697564007], [-13.56369948880569, -3.7253089302806117, 4.378850266609414, -13.598181457373, -9.00699091482436, -6.552006287469881, 34.76675534264731, -9.56799283519243], [43.828624748011535, 18.6935800642355, 9.735919541688533, -13.188127295625561, 20.24513506732083, -1.472157614703491, -6.520236756850055, 52.81043615453216], [-34.591955361590266, -6.009740521410361, -37.4979196147939, -3.175702834662677, -16.4296133018864, 18.23730151608243, 3.6445563063233815, 31.293986339069757], [1.5092125119031756, -26.1916981287106, 47.60857229114306, -14.42719489468104, 18.8904321726191, -29.099207361224156, 4.957567689210519, 41.68178664013688], [-10.27352517336379, 29.631234232095597, -29.906475235296114, 32.18479740080655, 25.900026071559143, -30.54459596108435, -13.382537478620424, 23.845450035698345], [-34.332881418825544, 42.60465743610817, -22.73483737342806, 27.967037937664642, -1.1705030304322401, -0.09121990989514156, 2.3648119709258077, -18.08950975341557], [-15.579231142448505, 21.785530588228415, 69.0543303103008, -20.23793899460894, 7.538166252384164, -22.855279570260578, -16.817539567145733, -23.3884871072859]], [[1.8609543756727327, -39.0917106652797, -15.970418924526664, -14.161349141648142, -39.03527393810203, -2.0112247706024453, -1.627163901193202, -4.673208083517489, -21.776722531492247], [7.252066970492245, 0.18473077331406657, -17.42864420842972, -43.30816514748055, 52.23813775394321, 32.293706989625505, -35.97494037512776, 14.173084667331894, -10.219822834298109], [-44.97381696784196, -19.61972888292255, -9.423385874721895, -9.778243161050861, -40.79909188563426, 16.20949747200158, 13.589859305519182, 26.488948473881194, -21.096381642776635], [-30.294644211545595, 5.995875471874701, -3.298839503874561, 34.53594579584452, 12.502488980517176, -18.763280711658837, -31.330512486160615, -21.343375600021403, 48.89312664463156], [55.928912059603356, -23.16513948822726, 4.26442878192084, 4.463965280659343, -40.89262069094969, -44.80618338685067, 20.0554545584367, 9.224914171829475, -4.45208711062554], [-33.74115861660591, -6.246540202593377, -0.014352370622819743, 28.364818579510427, 32.81094435648718, -6.410105586960011, 31.30387759260789, -35.65638516867406, 17.300761230433704], [-10.542027169823601, -4.5349238914943255, 12.197220264088413, -4.967613675469774, -14.332534524277914, -18.672553176207963, 79.39266736027272, -76.89905148428615, 18.28909991815976], [23.268680769057813, -3.404006499175712, 26.401403542575277, 25.356825564341083, -25.27018516319719, -26.60054515246779, -11.279216689884226, -48.80690427927495, -4.27840615508747]]], "networkBiases": [[-3.277413232826647, 2.992150970922341, 2.8086819435973953, 1.4087948937010728, 2.7317860836775454, 0.09303312969103267, 3.3856428847169067, 7.590047207017347], [-2.460236055631947, 5.386948016775832, -2.4569657738594657, -1.946038240995159, 5.653087675442465, 2.9005230122260968, -2.071631982353335, 2.705207943136464, 1.7513157298694648]]}