{"structure": [9, 8, 9], "networkWeights": [[[0.16445724500464376, -43.45577691171395, -1.8950859699591258, 0.49740605753889167, -0.3524561207269443, 24.35337268485218, 9.621558927591167, 52.00415394894504], [-5.898795964987264, -1.538742655304567, -13.432082820371345, -13.173119107789839, -8.139311641171735, -20.134340207871855, -18.265839918287856, -24.797108016327638], [-13.342074194430849, -4.861021837765811, 4.411471800163037, -13.266129231529124, -9.30414203819509, -5.927178555082288, 35.01097811264155, -9.535763743637162], [45.14022364504573, 18.42816928357408, 9.160156464343068, -13.571431766889276, 20.377399079795115, -1.785683244921238, -6.530896105407846, 52.85381133424865], [-34.14907954464961, -5.930994931569307, -37.265941380715624, -3.040215115801013, -17.67787649465862, 17.76685191181428, 3.36166256463624, 31.629023424482977], [1.4838458408775972, -26.106688093142477, 45.89693066742393, -14.92913583744082, 18.682347474063086, -28.78468433222894, 4.18301796118479, 41.28877488660899], [-9.925544067941194, 28.597355069993995, -31.32142758668035, 32.40399761884499, 26.681167740238763, -30.78726020519292, -12.985984366469982, 24.673237620802386], [-34.04019692461486, 41.89013194504081, -21.335364423324126, 28.409921643890723, -1.6481659949838268, -0.409384437458989, 2.7367854985153293, -19.285437451992266], [-17.144625551548057, 21.661542586975116, 69.50975895379487, -18.797777778068617, 7.7220895488631935, -21.85139636715264, -17.114274326100997, -23.363910643858286]], [[2.0153312085069386, -38.734079927591885, -16.378340676373874, -14.071858537894075, -38.93030170966865, -1.9191242579158674, -0.8206198334392252, -4.054334103245479, -20.101022589658452], [7.228443351877897, -0.5777708058352198, -17.366770416133292, -42.98455516755548, 52.38583972328337, 32.25804068744096, -36.10283663009639, 14.133751091802633, -10.56641558948534], [-44.42246805195809, -20.258574819108162, -10.992896544411153, -9.218020146795581, -40.17385545887466, 16.17760930581883, 14.696898944721882, 26.987632790529936, -21.630830057887863], [-29.37647778630099, 4.693682552856753, -3.0576522559477306, 35.256287387610215, 11.944257490710187, -18.426892281145403, -31.71325542108677, -21.529535568889933, 49.23633833850906], [55.26065677191093, -23.361285372134056, 5.0338123942617425, 4.456384092120367, -40.830946520293125, -45.309841611417376, 20.60939783074193, 9.632648819405519, -5.330590283789004], [-33.270212751772654, -6.258430608245782, -0.8629397642536702, 28.537117358035868, 32.49221580203593, -5.0287512779833925, 30.750637878494967, -35.75222460921605, 15.245170762306035], [-10.23987307280741, -4.883501468638055, 11.347018916418138, -4.128852963010324, -15.99327776807458, -20.193168902074778, 79.71471270153214, -77.65385220076323, 20.43240136602075], [22.816946765730368, -0.2543948742757396, 25.09373544728036, 24.37749756929242, -25.900245672720764, -26.387338812545543, -11.605328028488032, -48.844959835243905, -4.149816958551845]]], "networkBiases": [[-0.8080227226971157, 2.2348284074629676, 1.6222247032690984, 3.3086078284104827, 2.0698631781598698, -0.4870240869799958, 1.8622695850467115, 6.530090575869147], [0.39370500605512726, 4.7196452051431415, -1.5024231230416079, 1.6299889985840745, 2.548897517911096, 2.771980967786686, 0.06956475173877519, -0.011167006134355839, 2.1030828042714838]]}