{"structure": [9, 8, 9], "networkWeights": [[[-0.3811575942733576, -43.054349492600885, -1.6126869743947143, 0.9666630308430897, -0.3524561207269443, 24.927994148989903, 9.621558927591167, 52.89315756669895], [-5.898795964987264, -1.0421154260757133, -13.432082820371345, -11.978674166530379, -8.139311641171735, -20.134340207871855, -18.491932620013685, -24.797108016327638], [-13.342074194430849, -4.861021837765811, 4.411471800163037, -13.266129231529124, -8.188392849588874, -5.927178555082288, 35.93359584674444, -9.573383808207982], [45.14022364504573, 18.42816928357408, 10.148903071694983, -13.712487518911997, 20.377399079795115, -1.785683244921238, -6.043019984299338, 52.85381133424865], [-34.14907954464961, -5.930994931569307, -37.265941380715624, -3.128444698709793, -17.67787649465862, 17.76685191181428, 3.36166256463624, 31.629023424482977], [1.4838458408775972, -26.106688093142477, 45.89693066742393, -14.384670997985625, 19.16660345824476, -28.78468433222894, 4.18301796118479, 41.28877488660899], [-9.81972033722358, 28.597355069993995, -30.876686806182242, 32.40399761884499, 26.681167740238763, -30.78726020519292, -12.985984366469982, 24.673237620802386], [-34.04019692461486, 41.89013194504081, -21.335364423324126, 27.868058666281673, -0.026772426477777556, -0.409384437458989, 2.7367854985153293, -18.604206177855925], [-17.30165049183883, 21.661542586975116, 69.500038364556, -18.797777778068617, 7.7220895488631935, -21.85139636715264, -17.114274326100997, -23.363910643858286]], [[2.0153312085069386, -38.734079927591885, -16.378340676373874, -14.071858537894075, -38.93030170966865, -1.9191242579158674, 0.03249683482738819, -4.463202300277967, -20.101022589658452], [7.6095440009186035, -0.5777708058352198, -17.366770416133292, -42.15481061314515, 52.38583972328337, 32.25804068744096, -36.10283663009639, 14.133751091802633, -10.56641558948534], [-44.42246805195809, -18.976875474747327, -10.992896544411153, -9.218020146795581, -40.17385545887466, 16.17760930581883, 14.696898944721882, 26.987632790529936, -22.56284761324956], [-29.37647778630099, 4.78251232997166, -3.0576522559477306, 35.256287387610215, 11.887183547436555, -19.53767560891091, -31.71325542108677, -21.529535568889933, 49.72546193300592], [55.26065677191093, -23.361285372134056, 4.572662851466888, 4.456384092120367, -40.830946520293125, -45.309841611417376, 20.60939783074193, 9.632648819405519, -5.330590283789004], [-33.270212751772654, -6.258430608245782, 0.7110233935676167, 28.537117358035868, 32.49221580203593, -5.0287512779833925, 30.750637878494967, -35.75222460921605, 15.245170762306035], [-11.13656707178134, -4.883501468638055, 11.347018916418138, -4.128852963010324, -15.99327776807458, -20.299604653549434, 79.71471270153214, -77.65385220076323, 20.43240136602075], [23.750639192112256, -0.2543948742757396, 25.09373544728036, 24.37749756929242, -24.5214663394327, -26.387338812545543, -11.605328028488032, -48.613347748106925, -4.149816958551845]]], "networkBiases": [[-0.04007422816207362, 2.4056703456190434, 1.2818120288618962, 4.6443858400935465, 1.5416832621276928, -0.2493453469702842, 3.471307424310596, 5.20231722911825], [0.2903663315724827, 1.8637124982753503, -3.3798424140346706, 1.6299889985840745, 3.0222274179052135, 1.6083972752778184, -0.24069662227359157, 1.155679522876076, 2.1030828042714838]]}