{"structure": [9, 8, 9], "networkWeights": [[[-1.3233504839497772, -43.700325695198984, -1.8950859699591258, 1.3934547398723192, 0.46139236557174534, 24.35337268485218, 8.88623165331644, 52.04975117373077], [-4.929171965929852, -1.538742655304567, -13.950478513610193, -12.76621312310925, -8.139311641171735, -20.134340207871855, -18.265839918287856, -24.797108016327638], [-13.342074194430849, -4.327208510380462, 4.411471800163037, -13.72499031807471, -9.30414203819509, -5.927178555082288, 35.01097811264155, -9.535763743637162], [44.39278302716376, 18.42816928357408, 9.160156464343068, -13.694349085139029, 20.48017807897835, -1.785683244921238, -6.530896105407846, 51.85233384848224], [-34.14907954464961, -5.930994931569307, -37.265941380715624, -3.040215115801013, -16.83542210373756, 18.334355370817367, 3.36166256463624, 31.629023424482977], [1.4450198429853864, -26.004585952358767, 47.10178788250613, -14.92913583744082, 18.682347474063086, -28.78468433222894, 4.18301796118479, 40.50127725854418], [-10.383203949628832, 29.22090740330714, -30.709746333985947, 32.40399761884499, 26.10401717353823, -30.78726020519292, -12.985984366469982, 24.690221856887867], [-34.89785018315944, 42.23569713323515, -22.07904592117872, 28.409921643890723, -1.6481659949838268, -0.409384437458989, 2.7367854985153293, -18.3831983543381], [-16.343019123134734, 21.661542586975116, 69.50975895379487, -19.71914308681447, 7.7220895488631935, -21.85139636715264, -17.114274326100997, -23.363910643858286]], [[2.0153312085069386, -38.734079927591885, -16.378340676373874, -14.888906254048852, -38.74206223284485, -1.685930763798568, -1.5360874190875033, -4.054334103245479, -21.211780753010345], [7.228443351877897, -0.5777708058352198, -17.366770416133292, -43.27935313573782, 52.38583972328337, 32.583445368753075, -36.021444355791694, 14.029792512637897, -9.960053415613231], [-44.42246805195809, -20.258574819108162, -10.109009210701315, -9.71037476680184, -40.887137746966914, 16.17760930581883, 14.761666733213216, 26.987632790529936, -21.964782568716377], [-29.37647778630099, 4.693682552856753, -3.2635299478845043, 35.256287387610215, 12.609179322546481, -18.825265663816324, -31.71325542108677, -21.529535568889933, 49.23633833850906], [55.98019155498814, -22.805512663077636, 4.0938902953535035, 4.646080419993269, -40.320545753754885, -45.309841611417376, 20.60939783074193, 9.743535255910736, -5.635600775824004], [-33.90244505836143, -6.258430608245782, -0.6519296305627726, 28.150207597314512, 31.964214211249715, -5.771762066356144, 30.750637878494967, -35.979711272794255, 16.928974698209537], [-10.271573459009165, -4.883501468638055, 11.651377746099653, -4.851141618208766, -14.901631705091022, -20.040705720306406, 80.3821191345019, -77.398386910093, 18.81665395190489], [22.816946765730368, -2.806959990361464, 25.3573097837902, 25.148002157468568, -25.749794787289336, -27.119043227105468, -11.129199431938082, -49.172070283747885, -4.149816958551845]]], "networkBiases": [[-4.080326434950049, 1.002641165033774, 2.818571979149289, 2.092483092673744, 3.1939928828408957, -0.16224146976507514, 1.2906118773355226, 6.62349299926363], [-1.3644175884571879, 6.69593702384196, -2.2391491397958805, 0.3347237704412478, 5.958670828492093, 3.2984239463249883, -3.326514732249047, 1.225842471175986, 1.764757099930995]]}