{"structure": [9, 8, 9], "networkWeights": [[[4.1518985325812, -24.57409963204178, -13.553080965049041, 13.609949299613158, 19.436094612622117, 21.286858348268208, 10.572944218813591, 52.339917934550364], [8.680239306685394, 17.638572235612294, -20.19420569283866, -18.50430511340696, 7.3458530087272536, -8.072601025976638, 14.39599520841316, -10.382203610885552], [-15.832096965261176, 18.486368802226064, -1.904461478665005, -3.23136127527509, -25.785001589577313, -7.315431023616504, 12.418417787752889, -6.65865174500961], [37.62542311183615, -4.57292987373866, 1.9072261061738465, -6.455368586985536, 15.913647246351609, -11.009526709482211, -9.931266146189152, 43.344487052152274], [-27.12571754449733, -4.155207273806726, -4.06998048172353, 7.996664287312862, -11.587263716524937, 13.609892235393165, 11.524018568614373, 30.279566919910373], [-13.77685551521492, -11.445480184510481, 44.35282778987424, -19.76237873789344, 13.517557752759407, -34.23640819109237, 11.554163243663933, 20.86906217525476], [-11.162338632644733, 23.753527578919414, -40.24087756295768, 33.585346867503766, 28.39094503563834, -35.13044495379759, -19.071215666361176, 31.98925999798884], [-22.484274945913057, 15.20029183113539, -17.771774708139883, 9.895826946594457, -2.95206020344437, 2.804713959466026, -4.045927148891885, -11.164680034989953], [-22.53567996281505, 6.131170004820278, 71.03923996424271, -12.548127211773426, 14.434396746937216, 2.292322878792059, 2.4171985193714214, -20.377738667438873]], [[-19.303554879698513, -27.545153526299423, -17.838980176067658, -6.502390303679603, -45.60538090732024, -12.322507433819208, -5.677777528728717, -5.965183279946364, -31.478703395333177], [9.439163108831089, -3.301523756154115, -13.484838916403785, -36.44542886693021, 38.16686538115159, 18.67258572547904, -7.419483014448388, 15.529536042994595, -1.1100464689615461], [-56.68382749062689, -38.673235420083266, 3.4625153299942824, 7.163839128504851, -39.08367487530696, -4.064056550230011, 23.769586864063324, 4.916550886586188, -6.526782077349558], [-19.997338413860373, -13.532405272213667, -8.271603654318511, 11.004206680424826, 13.126967283744353, -23.957888387120942, -37.260540643792396, -11.857179830157412, 51.60600330490207], [44.223626092651095, -13.439450249392507, 4.547827277383215, 17.862425756066013, -30.821226280339054, -53.83656145008762, 27.238507400195004, 28.051937415227776, 3.09954954680483], [-46.64948675000902, -11.25995013618994, -3.4579671111978163, 33.174356097873606, 53.20678678331955, 0.2553032056900111, 48.28360270356172, -10.304964675937825, -15.300162765859788], [-18.444101574802524, -7.2777000434790935, -3.6130712279432036, 6.976600304679128, -2.819660514343127, -9.721299498294345, 80.17379119778582, -53.352977257585124, 28.540835810102763], [0.6325460798811968, 23.638372598639528, 28.089116471561315, -3.4001226207072475, -32.06370780733221, -8.131521868709651, -18.669181981916356, -39.47209900262081, 1.917407397760831]]], "networkBiases": [[1.0, 1.0, 1.0, 1.0, 1.0, 1.0, 1.0, 1.0], [1.0, 1.0, 1.0, 1.0, 1.0, 1.0, 1.0, 1.0, 1.0]]}