{"structure": [9, 8, 9], "networkWeights": [[[4.1518985325812, -24.57409963204178, -13.553080965049041, 13.609949299613158, 19.55627183838797, 21.286858348268208, 10.572944218813591, 52.339917934550364], [8.506810408376866, 17.638572235612294, -19.894059882691852, -18.50430511340696, 7.3458530087272536, -8.072601025976638, 14.39599520841316, -10.382203610885552], [-15.032140136090362, 18.486368802226064, -1.904461478665005, -2.320234856440634, -25.785001589577313, -6.946931976585805, 12.418417787752889, -5.56661130528779], [37.62542311183615, -4.57292987373866, 2.3629716267312784, -6.347488770016395, 15.48975537603569, -11.560346145187935, -9.931266146189152, 43.6094538183635], [-27.12571754449733, -3.997166569533705, -4.206709517970721, 8.715644977367232, -11.587263716524937, 13.609892235393165, 11.524018568614373, 31.141082915428388], [-13.822369124463586, -11.497660065753436, 44.35282778987424, -19.76237873789344, 12.597057704442365, -34.23640819109237, 11.986386111476648, 20.86906217525476], [-11.162338632644733, 23.753527578919414, -40.24087756295768, 33.585346867503766, 28.92378341257839, -34.30156983364366, -19.071215666361176, 31.98925999798884], [-23.278449311789544, 15.20029183113539, -16.900962594930874, 9.895826946594457, -3.0938638896527704, 2.804713959466026, -4.657586300044435, -12.293344598765746], [-22.748796578438398, 6.131170004820278, 70.1023764580784, -12.548127211773426, 14.434396746937216, 2.1704994027954934, 2.4171985193714214, -20.377738667438873]], [[-20.162479968787917, -27.545153526299423, -17.838980176067658, -6.502390303679603, -44.6158012691408, -11.323131503737525, -5.677777528728717, -5.965183279946364, -32.455466704755125], [9.439163108831089, -3.301523756154115, -13.484838916403785, -36.44542886693021, 37.55079120073738, 18.67258572547904, -7.419483014448388, 15.529536042994595, -0.2543251025304807], [-57.43449437801119, -38.673235420083266, 3.4625153299942824, 7.944161781568536, -39.679625523479125, -6.015808371333529, 23.769586864063324, 4.916550886586188, -5.847973949442722], [-20.138223199265873, -13.532405272213667, -8.271603654318511, 11.004206680424826, 13.747976049966459, -23.957888387120942, -37.260540643792396, -11.857179830157412, 52.08505668517493], [44.223626092651095, -13.439450249392507, 4.547827277383215, 18.711125747029673, -30.951643499967375, -53.20935148152886, 27.612048790127673, 28.33736993276447, 3.09954954680483], [-46.60029232025464, -11.25995013618994, -3.9688206046481893, 33.350383390414876, 53.77225893163961, 0.2553032056900111, 48.28360270356172, -10.304964675937825, -15.300162765859788], [-18.444101574802524, -7.159540381666432, -3.6130712279432036, 6.976600304679128, -2.819660514343127, -9.721299498294345, 80.17379119778582, -53.352977257585124, 28.540835810102763], [1.5839973663973086, 23.775906235377303, 28.089116471561315, -2.40509002006179, -32.06370780733221, -7.827132340268441, -18.998986772465493, -39.390129599542334, 1.917407397760831]]], "networkBiases": [[1.0, 1.0, 1.0, 1.0, 1.0, 1.0, 1.0, 1.0], [1.0, 1.0, 1.0, 1.0, 1.0, 1.0, 1.0, 1.0, 1.0]]}