{"structure": [9, 8, 9], "networkWeights": [[[4.1518985325812, -24.57409963204178, -13.553080965049041, 13.609949299613158, 19.55627183838797, 21.286858348268208, 10.572944218813591, 52.339917934550364], [8.162804638858931, 17.638572235612294, -19.894059882691852, -18.50430511340696, 7.3458530087272536, -8.072601025976638, 14.39599520841316, -10.382203610885552], [-15.832096965261176, 18.486368802226064, -1.904461478665005, -3.23136127527509, -25.785001589577313, -6.921714823141029, 12.418417787752889, -5.875652597226534], [37.62542311183615, -4.57292987373866, 1.9072261061738465, -6.962288824618959, 15.913647246351609, -11.009526709482211, -9.931266146189152, 43.344487052152274], [-27.12571754449733, -3.997166569533705, -4.06998048172353, 7.996664287312862, -11.587263716524937, 13.609892235393165, 11.524018568614373, 30.279566919910373], [-13.77685551521492, -11.064446252326505, 44.35282778987424, -19.76237873789344, 13.517557752759407, -34.23640819109237, 11.554163243663933, 20.86906217525476], [-11.162338632644733, 23.753527578919414, -40.24087756295768, 33.585346867503766, 28.39094503563834, -35.13044495379759, -19.071215666361176, 31.98925999798884], [-23.278449311789544, 15.450927145346608, -17.771774708139883, 9.895826946594457, -2.95206020344437, 2.804713959466026, -4.026869644151633, -11.164680034989953], [-22.53567996281505, 6.131170004820278, 71.03923996424271, -12.548127211773426, 14.434396746937216, 1.567362301576161, 2.4171985193714214, -20.377738667438873]], [[-18.873244540689907, -27.545153526299423, -17.838980176067658, -6.502390303679603, -44.6158012691408, -12.322507433819208, -5.677777528728717, -5.965183279946364, -32.455466704755125], [9.80202690682169, -3.301523756154115, -13.484838916403785, -36.44542886693021, 38.16686538115159, 18.67258572547904, -7.419483014448388, 15.529536042994595, -1.1100464689615461], [-57.43449437801119, -38.673235420083266, 3.4625153299942824, 7.163839128504851, -39.08367487530696, -3.2955662879779952, 23.769586864063324, 5.908195939777592, -6.526782077349558], [-19.997338413860373, -13.540162330988382, -8.932557178455067, 11.004206680424826, 13.747976049966459, -23.957888387120942, -37.80800733689696, -11.857179830157412, 51.59031540332956], [44.223626092651095, -13.439450249392507, 4.547827277383215, 18.711125747029673, -30.821226280339054, -53.83656145008762, 27.807168323610153, 28.051937415227776, 3.09954954680483], [-46.64948675000902, -11.47170971601342, -3.4579671111978163, 33.174356097873606, 53.20678678331955, 0.2553032056900111, 48.28360270356172, -10.304964675937825, -15.300162765859788], [-18.133428062103135, -7.2777000434790935, -3.6130712279432036, 6.976600304679128, -2.819660514343127, -9.721299498294345, 80.17379119778582, -53.352977257585124, 27.64403373005356], [0.159133206915423, 23.480077240710393, 28.089116471561315, -3.4001226207072475, -32.06370780733221, -8.131521868709651, -19.66048543711429, -39.222901229255896, 0.9781079149028173]]], "networkBiases": [[1.0, 1.0, 1.0, 1.0, 1.0, 1.0, 1.0, 1.0], [1.0, 1.0, 1.0, 1.0, 1.0, 1.0, 1.0, 1.0, 1.0]]}