{"structure": [9, 8, 9], "networkWeights": [[[-0.801929331269309, -42.9217612392375, -2.533451395189395, 0.5524840112860867, 0.4531032326484974, 23.341400415711128, 8.804444961022183, 50.46393337919914], [-5.486763106535728, -1.0421154260757133, -13.432082820371345, -12.563868125461772, -8.052160362200436, -19.944773896558353, -18.265839918287856, -25.926332582846246], [-13.342074194430849, -4.57369949446178, 3.6927789675019094, -12.457436040596416, -7.637312538529992, -6.762046727877594, 34.8045312888707, -9.949638076876953], [45.14022364504573, 18.582169678275804, 10.028143159093025, -13.571431766889276, 20.377399079795115, -0.3892511860453769, -5.162660502290511, 53.20179605446187], [-34.970024279976144, -5.930994931569307, -37.265941380715624, -3.273893361485591, -17.1400673331597, 15.956539131504911, 4.059763853294061, 32.59387064857202], [1.0994933634126365, -25.110784606659436, 45.675352846114514, -14.931947666672665, 19.47896858613704, -26.88839833868941, 4.18301796118479, 40.14718615791279], [-9.656567508289498, 28.534775939577298, -30.2872117080028, 32.482034849829276, 25.861058261707623, -29.86894914306826, -12.985984366469982, 25.851390745462478], [-35.461752645395585, 41.89013194504081, -20.898708303180538, 27.805175648151717, -2.2997354800089376, -0.409384437458989, 2.8294268759657744, -18.37018571453991], [-17.554539765201216, 22.185187815608607, 69.13222646813176, -18.797777778068617, 8.156723406478852, -21.03117602387652, -17.605819424830205, -23.363910643858286]], [[3.691547714730884, -37.939316126144696, -15.648362041783223, -13.335523752629904, -39.327850335168975, -2.826628795412191, -1.3666478494232983, -3.6139975849541006, -21.703414014402668], [7.367343292648795, -0.36248313131762266, -17.083936399797288, -42.15481061314515, 51.77187181954725, 32.94113416642816, -36.825586707314145, 14.133751091802633, -11.035205682815452], [-44.52929570164636, -19.93850872185609, -10.072588556911837, -9.218020146795581, -39.28953704267491, 16.17760930581883, 15.682520082827747, 26.987632790529936, -23.5110259696696], [-29.241458094978718, 6.089460788040888, -3.0576522559477306, 35.256287387610215, 12.454039180158412, -20.245504301302777, -33.29257493450608, -21.815147503750715, 49.83189772042989], [55.15449840073289, -23.709527602441103, 4.038300147516613, 4.456384092120367, -40.830946520293125, -45.309841611417376, 20.60939783074193, 9.632648819405519, -4.680126490184774], [-32.83216135836275, -6.258430608245782, 0.6280231988118838, 28.73199641224011, 34.106549593245894, -5.01411766468261, 30.08847600294797, -35.008780425579126, 15.456583600351125], [-11.67346714015404, -4.6729928049117415, 11.128126892286149, -4.128852963010324, -14.384422048102447, -20.193168902074778, 80.12703555517162, -78.11027505361929, 20.655909998142505], [23.91412228083039, -0.2543948742757396, 24.206535446205045, 23.585559285747912, -25.2258644737446, -27.02029036792804, -10.850377939251413, -49.48888629130524, -4.181384285881082]]], "networkBiases": [[0.3029383362988669, 1.7681713369445662, 0.7274171470091937, 1.2399258316177189, 1.717463455400053, 1.3710749756791172, 1.2125230114106034, 1.0], [1.620569581806111, 1.6080894194514532, 0.7514754462006044, 1.0, 1.5797001854541761, 0.5599322355632823, 0.2987305477114206, 1.333990098698643, 1.391586738282519]]}