{"structure": [9, 8, 9], "networkWeights": [[[-1.4725637502091002, -43.92702051523698, -1.6540737225558737, 1.0396699318634255, 0.42731363715131665, 24.177232378594855, 9.367034391080413, 51.68392252801621], [-5.063562076447596, -1.4047303189350815, -14.573604343818227, -13.807564635650955, -8.072374201595116, -20.530778889571458, -18.3231364848665, -23.771009898750705], [-13.681338006635276, -3.6970259888745027, 4.204295325560417, -13.507105363854203, -8.995811739830538, -6.60312007317433, 34.825502466774566, -9.44668040066483], [44.0532506461264, 18.575622718894156, 9.810173630853551, -13.086230501021829, 20.28343644069235, -1.472157614703491, -6.614759274122814, 52.76565890523941], [-34.596294730109115, -6.009740521410361, -37.62880255017206, -3.175702834662677, -16.62509296091422, 18.17671244819064, 3.5799315464823085, 31.65333724714443], [1.3979601198778489, -26.085274450324736, 47.31205417723458, -14.42719489468104, 18.81877366238518, -29.300251285186157, 4.7199740001072366, 41.450681654966175], [-10.27352517336379, 29.631234232095597, -30.37350604344784, 32.080792458939115, 25.690969104666575, -30.54459596108435, -13.203714549271192, 23.993935779886755], [-34.86030920821987, 42.90142414240225, -22.493840207436815, 28.01840733551591, -1.1756893255484018, -0.09121990989514156, 2.4330384211987712, -18.08950975341557], [-15.574479582950644, 21.82116304142544, 68.93605818555464, -20.28704085532475, 7.538166252384164, -22.855279570260578, -16.817267684476718, -23.488325810588748]], [[1.8609543756727327, -38.96507484774852, -16.08792486096858, -14.161349141648142, -39.029781756887516, -2.214927668078108, -1.627163901193202, -4.786262755404788, -21.923788616485957], [7.060745556701152, 0.01010930867710308, -17.415162227810605, -43.16529802620123, 52.339901174176696, 32.246540690986016, -36.06381178711583, 13.877391309770031, -10.23898489475288], [-44.89905789210192, -19.61972888292255, -9.333332610126458, -9.778243161050861, -40.79909188563426, 16.740333769136388, 13.688605905183824, 26.42979001659242, -21.159490077060287], [-30.39336983262108, 5.387664460863717, -2.9940124166801585, 34.53594579584452, 12.292244393125996, -18.909149998094936, -31.330512486160615, -21.551890333045794, 48.89312664463156], [55.778738911811075, -23.16513948822726, 4.489608443129837, 4.297910999949111, -40.722652222339256, -44.73961629888805, 20.0554545584367, 9.465548458933062, -4.6383412580726935], [-33.74115861660591, -6.450652997989191, -0.17245771598894427, 28.551302012825232, 32.66365556060136, -6.658191944779513, 31.395476527101728, -35.65638516867406, 17.42394826862481], [-10.456780819970177, -4.241455478493097, 12.204116226659808, -5.172016275380823, -14.580479396022465, -18.812625140685576, 79.78338440671784, -76.67133583435715, 18.45593954016392], [23.21044197467802, -3.2088156559591896, 26.402870208221323, 25.79975745156872, -25.2481815061271, -26.601288722399563, -11.410046776496827, -48.635182117895184, -4.375436719619763]]], "networkBiases": [[-3.3967739111748365, 2.3502956901957504, 2.48475360157142, 1.3038434087585962, 3.2725203456793586, -1.1015804710830996, 3.256798360382353, 6.836494767020041], [-2.857891208763479, 4.582653246514859, -2.263137406119479, -1.8646193638405568, 5.90044324764444, 2.6624641369919493, -1.5681712600127151, 3.2877888186071456, 2.1344608259491284]]}