{"structure": [9, 8, 9], "networkWeights": [[[-0.6798951493343138, -43.945385255780785, -1.0651446380431322, 1.9106117990432332, 0.8827469362752015, 25.256498444103524, 9.054613698995032, 51.23065875143264], [-3.9460613880562683, -1.6985349189256573, -14.072216341215027, -13.641076645285521, -7.216546297244915, -19.81946275227872, -18.150041796369443, -23.64413471436657], [-12.394998618812886, -4.1391072522513035, 5.22747269087615, -13.728072096960794, -7.773316588552905, -6.634156237713846, 35.144173731906264, -9.364639463131738], [44.68400051762704, 18.75213454558914, 10.80127509173137, -13.74791493157959, 20.392187658981825, -0.8991083155020323, -7.7425374170699035, 52.9698693576789], [-34.80514549435474, -4.625928576987611, -36.46019753682057, -2.2211835488323866, -16.40379713599744, 17.72177891197452, 4.018426446994858, 31.161522899756232], [2.0893311189089694, -26.12833336474179, 47.37099968017576, -13.643584534225965, 19.35546364112206, -28.394915547651426, 4.3192161886720415, 40.88979074232416], [-11.751767429545513, 29.078876859803902, -30.094025904778352, 32.49439151853213, 26.17115298346076, -30.29367018049277, -13.397654738312966, 25.086951879180283], [-35.28328455031403, 42.481613687740285, -23.80690759416222, 28.00974614118442, -1.2120426134907278, 0.18429771102088982, 2.3647192027779704, -18.12429595423355], [-15.387374745187826, 22.45866136175121, 69.78342422007833, -20.97144373878897, 7.691794559554763, -21.97624134356371, -16.43205880836469, -22.664658757197]], [[2.4873261734966796, -39.50287182777565, -14.98755853042947, -14.17882135398175, -41.08219164591905, -1.3308590026006777, -1.4882334179674763, -4.4206736663453645, -22.262543366788943], [7.702253729270521, -0.6734760787371568, -17.41936484142893, -44.09950618764342, 51.92167015869269, 32.20254680271061, -36.683699098647665, 14.152354360840189, -10.028708135747204], [-45.94001064454415, -19.736462275940475, -10.821728085801132, -9.927426115064277, -40.06715773557964, 16.52789754369155, 15.163069862433161, 27.07553643057744, -21.837426976390653], [-31.68576884432115, 5.070977876164212, -2.145880797480938, 33.95208835964051, 12.352981143891245, -18.620675320430724, -31.95083097925163, -21.207991984482913, 48.73371847101117], [55.755516080509025, -22.31274390828438, 4.703219891892926, 4.8696395639526235, -41.4743061893297, -44.691799826238686, 19.480624694328988, 10.370799412903803, -5.332021241952323], [-33.63084015554936, -6.609854286682699, 1.4762144393127514, 28.3102691600543, 33.319237149299546, -6.448271630712845, 30.560407682399596, -35.454298857915525, 16.960203786456955], [-10.83165609203223, -4.862964317530435, 11.556514570622006, -4.49586103095279, -15.092235305451988, -18.09896027580111, 79.38619291454391, -76.29808825577125, 18.751503589707777], [23.565875256434698, -2.8999273187984556, 26.726858356304003, 26.132086508452662, -24.564065432928505, -26.981147286708815, -10.990281442520493, -48.836488168825554, -5.550847159533724]]], "networkBiases": [[-2.2017949653659326, 2.9139943398902712, 4.828026425800441, 2.016073774652813, 4.531261785997909, -1.8407383721864767, 1.9537208918716051, 5.1146611437270115], [-3.685199052020452, 6.513071420502291, -2.7873470509499723, -2.0051946780279417, 5.662042375908177, 2.579594638875056, -1.49982332180412, 3.084445704573323, 2.529448721453682]]}