{"structure": [9, 8, 9], "networkWeights": [[[-1.7086838194078453, -44.031540930630094, -1.3364501579267167, 1.0402763627961473, -0.16126097713990784, 24.585784107866736, 8.88623165331644, 52.122282141641485], [-4.890040801515325, -1.5205759460063435, -14.179728541593423, -13.790417756518124, -8.40633620894736, -20.15659338764244, -18.412617986330105, -24.54191370897364], [-13.315949486157182, -4.226084808751477, 4.34667099851929, -13.630000986772199, -8.746996029112708, -5.92027505713172, 35.0785458784266, -9.754980291072114], [44.16571099329465, 18.637467135983215, 9.245273037325354, -13.642686463391708, 20.483832073425987, -1.630724172411214, -6.546946532514665, 51.764880780618974], [-34.309380838558916, -5.926646935067555, -37.4897877645242, -2.8671565485763724, -16.549138143186433, 18.486363325886963, 3.38293266190511, 31.46020645106772], [1.0727595905752922, -25.948231222097608, 47.042382619240556, -14.776792954868588, 19.223031137870095, -28.662978283928407, 4.031010240242454, 41.347740279338744], [-10.383203949628832, 29.35484954516939, -30.119635559657777, 32.3107835110535, 26.176907509361293, -30.817618026170305, -12.997540328478443, 24.242257426669696], [-34.8975618710402, 43.01637851614795, -22.26403351097855, 28.230076490350044, -2.335135336304674, -0.34188417724330333, 2.753491070685363, -18.3831983543381], [-16.138459829675583, 21.811557932623266, 69.28056347596113, -19.93541171204159, 7.630462351200933, -22.135688656674937, -16.76762535673482, -23.447509691018002]], [[1.9909713001411484, -38.734079927591885, -16.416874991279176, -14.904368257934236, -38.95051104908421, -2.0461008916054158, -1.7149803862980195, -3.7923996652019967, -21.395822082795007], [7.399619717810952, -0.6275279189780327, -17.189518287324862, -43.324284243540625, 52.48558166191882, 32.37403894771403, -36.021444355791694, 13.956578835499322, -10.674240766793346], [-44.754652267515375, -20.31310382873572, -9.72163499146165, -9.71037476680184, -41.047848470149304, 16.373439955556368, 14.656216428134744, 26.72735014666704, -21.342024253814287], [-30.18430313379907, 4.9303496049443565, -3.4101223906949656, 35.042034693235344, 12.683548237891527, -18.512321691194288, -31.778756861617246, -21.800495496630102, 49.164128142298544], [55.80365532459501, -22.560305026696664, 3.840836610301242, 4.645846925960257, -40.139115911115454, -45.105602581749324, 20.5852705350695, 9.667306486042696, -5.792151225611356], [-33.8225430814651, -6.368571965455164, -0.6227127718974316, 28.076098444322746, 32.38124890830284, -5.644025971466457, 30.988822608157136, -36.03057881432931, 17.144140752940462], [-10.249410689082097, -4.951221515710593, 11.99351360300328, -4.861044409585551, -14.80217753825373, -19.980313755719262, 80.39147710711377, -77.39254650759018, 19.00884540119835], [23.358003471746752, -2.8129369916408016, 25.393839375191803, 25.30431884024859, -25.471705146656557, -26.942505524504046, -11.070983338937896, -49.3985242692718, -4.005968170511872]]], "networkBiases": [[-3.646454828713652, 2.4887944741030834, 2.17610432739564, 2.2543889668852617, 2.27340307633387, -0.21409436596323356, 2.804352252224108, 6.852340029716294], [-0.2856421525385902, 6.4850685704113324, -3.8485564538047194, -0.8800966377132029, 6.86321227435138, 2.3269103057343186, -3.51868659759405, 1.5863166688128925, 1.871046465911754]]}