{"structure": [9, 8, 9], "networkWeights": [[[-0.5497074171238716, -43.79430635702046, -1.2081579192791478, 1.7729541732918865, 0.8334840755098737, 25.26133724387672, 9.163068016171316, 51.03572138219081], [-3.927043198958666, -2.0198021848623284, -14.071881486638018, -13.734024331164905, -7.225623681411343, -19.89124229213645, -18.16133611661402, -23.627998078014407], [-12.625369817804932, -4.1716789051340175, 5.02395697510589, -13.577836081243303, -7.894270068008004, -6.364187561074884, 34.84567812034486, -9.55074057150243], [44.59709554753755, 18.748278723817876, 10.819464106620979, -13.8152672546104, 20.30093789053557, -1.0780182741868651, -7.826378851814654, 53.10369866686064], [-34.73066800993212, -4.678728776362514, -36.45144820529686, -2.3432616671142137, -16.290420062313267, 17.621986387632194, 4.05475133016377, 31.057196097314428], [1.9013162385470173, -26.213096615060596, 47.368955233870686, -13.697316429104529, 19.21177647978948, -28.356133866651916, 4.164225234454006, 40.78341867905674], [-11.583477652078455, 29.08501355268307, -30.149576718569634, 32.52236702317066, 26.394557427652593, -30.48431114972489, -13.609394406284933, 24.921518970251704], [-35.0888322653494, 42.43994047353326, -23.6546578200018, 27.927986865887366, -1.1112429306927212, 0.15128540986080583, 2.367867701654535, -18.083459148126753], [-15.37164644164505, 22.38683587553979, 69.76707587216944, -20.95451557966755, 7.719350833732543, -22.049406965860385, -16.49419449857465, -22.768272315425595]], [[2.502474811547404, -39.61044231394424, -15.105955765172007, -14.148879737226686, -41.03573684013984, -1.3194371192590224, -1.762826405171354, -4.539918660148522, -22.39596498920482], [7.754512466432271, -0.6976553362034916, -17.429632164060685, -44.14055517305185, 51.87469231087139, 32.21366350056271, -36.65653324072495, 13.9466904752012, -10.026304601152365], [-45.771184821230946, -20.074325527898075, -10.784555123838855, -10.090765525167273, -40.06547241819689, 16.407419223836186, 15.002376244244829, 27.06858837322494, -21.89694245669784], [-31.601170324198353, 5.152587810742157, -2.282402203741656, 33.98289474702625, 12.2778279807913, -18.779148496231336, -31.90944849689648, -21.335514918928624, 48.7431355576393], [55.59633120208679, -22.30276738334261, 4.674230679699817, 4.819830157902219, -41.34771004412924, -45.02412096233694, 19.54550559288149, 10.248783367172294, -5.348827457039037], [-33.581819806065496, -6.488056525652796, 1.2204011119918492, 28.378811441108965, 33.28197233231038, -6.30356402378327, 30.767217171698835, -35.592538214461975, 17.007368148173562], [-10.722061735795497, -4.872566806576054, 11.471812587995164, -4.660765218918657, -15.149639980096385, -18.276450083139842, 79.28301403851316, -76.17969145850832, 18.687381621698893], [23.594786579808495, -2.7876994320212853, 26.674802722254334, 26.092632371709474, -24.66319336104511, -27.05958946167806, -11.088087032965364, -48.95244305815522, -5.5106784947592695]]], "networkBiases": [[-2.3379874777025305, 3.51141440367184, 5.0874923090405115, 1.4414494541348584, 4.772994372634702, -1.5779772132256558, 1.9376417147175022, 5.414942455197649], [-4.046930692768173, 6.7273846151928165, -2.9068434291510408, -1.6791795473125124, 5.71774293018616, 2.3261861244201745, -1.7003557412439387, 2.831239688581336, 2.383245690071359]]}