{"structure": [9, 8, 9], "networkWeights": [[[-0.5835206641723856, -43.79531719352812, -1.1726508849683497, 1.77453667690528, 0.9329323520722159, 25.270042984548503, 9.118337030152645, 51.03661170309075], [-3.9921377022716316, -1.72496676081775, -14.029091303756575, -13.727664364527662, -7.364808363229163, -19.857459930373892, -18.146694775368125, -23.654302535747746], [-12.440837782015794, -4.1725289118361015, 5.219637670657265, -13.613147029648937, -7.748595958732447, -6.4938648386234075, 35.07410992413543, -9.436869378771416], [44.751408781020515, 18.783722637721393, 10.844714182002871, -13.706461203057582, 20.341900913122185, -0.9605847348405888, -7.757606184483062, 53.11677799716842], [-34.76526378464967, -4.781353619416757, -36.46295954371024, -2.247670057924286, -16.50886998879857, 17.70479476000796, 4.044569399314952, 31.04834844055318], [1.9800686421064146, -26.175729596492104, 47.40037771909585, -13.688691484237724, 19.269999049944907, -28.354450115163257, 4.313487238937912, 40.78070263096351], [-11.60325956072443, 29.172823327926505, -30.217381136502034, 32.421604837638355, 26.277402371573338, -30.360683155970385, -13.568390129160772, 24.984282393334173], [-35.22986943582576, 42.47487197232135, -23.67635761162934, 27.983497958638896, -1.1786249774926747, 0.19360189791447904, 2.3632726785380966, -18.06437596692306], [-15.476739761285975, 22.55094710711195, 69.72380183392696, -20.962540284620385, 7.729263070164473, -21.899803882766097, -16.504648629573172, -22.680749714323074]], [[2.498593714202258, -39.41931732909789, -14.971411842112303, -14.09748801401065, -41.06941390446598, -1.3550803090650747, -1.561750934422375, -4.554446354172613, -22.282887384016675], [7.719910067317008, -0.7280687933998392, -17.398883712308745, -44.129389232269624, 51.91433376238095, 32.224083849828304, -36.64462542699548, 14.011049096036876, -9.965329137031581], [-45.98335127184669, -19.865722441846007, -10.794214698695464, -9.993118629760113, -40.037172689140625, 16.57048244121531, 15.209931409609352, 26.98120966566551, -21.87380351261601], [-31.484196631350656, 5.0806868846929545, -2.2593962376745864, 33.994004250924576, 12.270118768108972, -18.75176465856207, -31.97461850106566, -21.2407759153971, 48.77249783994391], [55.720444670622356, -22.439061070608513, 4.7329189929366, 4.890636776485027, -41.520822557409595, -44.76665450920454, 19.624878230656442, 10.245055410569051, -5.271837170702445], [-33.57670953339379, -6.536476316184049, 1.3803473465573814, 28.357694776305266, 33.235318639599114, -6.447406409307015, 30.74378128713469, -35.488884626231275, 16.909014260433835], [-10.758510394596833, -4.769742668045734, 11.408000477394822, -4.590557850803338, -15.104285560246414, -18.090394570658773, 79.31894339723614, -76.31839622323501, 18.838781033224638], [23.484698686071532, -2.934441172363349, 26.664527022465272, 26.173094638651534, -24.513545002289888, -26.912023211720516, -11.05671745699544, -48.88403749724078, -5.521231664862835]]], "networkBiases": [[-2.0854567236391626, 3.381426950668513, 4.946311707887354, 1.5859542711365653, 4.676762894468961, -1.7862432015047216, 1.7081461164222302, 5.188815898877603], [-3.9154075887486073, 6.540634968853276, -3.0017991642378528, -1.8212041923364255, 5.760724764727697, 2.312775972930498, -1.2036436789064668, 3.2981616794335245, 2.424292091342187]]}