{"structure": [9, 8, 9], "networkWeights": [[[-0.6226361632976262, -43.79531719352812, -1.1450724385746247, 1.8768774563237012, 0.9329323520722159, 25.270910865741033, 9.082570305234965, 51.11110800642409], [-4.0830250571603965, -1.72496676081775, -14.003678760278708, -13.757267991866064, -7.323546918758422, -19.83249713321764, -18.16512743886376, -23.661943602687742], [-12.440837782015794, -4.140765748122201, 5.17391814370347, -13.613147029648937, -7.748595958732447, -6.4938648386234075, 35.07410992413543, -9.449077096659385], [44.67324155029476, 18.7473339276427, 10.858968859861466, -13.81727519208749, 20.29857247718957, -0.9717183618965637, -7.7828066371048745, 53.09345095023153], [-34.76526378464967, -4.781353619416757, -36.50147825899129, -2.2600759305722953, -16.45755837220929, 17.6489368963218, 4.01284089607072, 31.003072519631946], [2.0113112520834684, -26.117473885564646, 47.40037771909585, -13.688767299933634, 19.269999049944907, -28.415338524861106, 4.341219882208129, 40.784072457766975], [-11.635353585811671, 29.172823327926505, -30.15368023207255, 32.4406752999706, 26.214839701545202, -30.31617430993672, -13.474877508999718, 24.943719810942532], [-35.265221761012796, 42.49191766759475, -23.716770250255085, 27.94521979826131, -1.1786249774926747, 0.15065920351902207, 2.3632726785380966, -18.057416804283417], [-15.476739761285975, 22.54377507194819, 69.75265566245798, -20.916000178517002, 7.770543335312276, -21.884193220784617, -16.504648629573172, -22.72089006102353]], [[2.5036979378676563, -39.42673497571193, -14.925321158933547, -14.09748801401065, -41.028850814977964, -1.3550803090650747, -1.5189389184284903, -4.551238036702471, -22.242033257815045], [7.719910067317008, -0.7343820854839551, -17.432669297566424, -44.129389232269624, 51.86844407768041, 32.224083849828304, -36.63001753704393, 14.060799524513499, -9.974277995035024], [-45.95629976578579, -19.892550566556352, -10.72450076343355, -9.967255849917162, -40.05661676078336, 16.57048244121531, 15.22234309326713, 26.977823943800747, -21.901051740496847], [-31.530275079299212, 5.0806868846929545, -2.200696275929291, 33.99142995586298, 12.270118768108972, -18.77355178627403, -31.91136882925291, -21.2407759153971, 48.75279476920859], [55.7025741318098, -22.439061070608513, 4.751465490316182, 4.856396268392285, -41.48224093645093, -44.761545432714044, 19.58356340268434, 10.239272470426643, -5.309745010747085], [-33.57670953339379, -6.549007903856875, 1.4293735643514505, 28.37065953258741, 33.26641733072107, -6.432247898753686, 30.694787163677763, -35.488884626231275, 16.929346982355643], [-10.758510394596833, -4.769742668045734, 11.468215790598231, -4.538631220889611, -15.132474282041233, -18.077368327066466, 79.31681717409327, -76.35855584532203, 18.803444370907663], [23.484698686071532, -2.973525995730951, 26.609599738399062, 26.199986913110006, -24.513545002289888, -26.946492179453713, -11.019545860149272, -48.87508302317744, -5.509841374536944]]], "networkBiases": [[-2.044768104046632, 3.3405143466938827, 4.912794979927389, 1.6048226309823297, 4.685120584099241, -1.7505243164338464, 1.7231199180466656, 5.169315588006902], [-3.8696764017442993, 6.591601332221949, -3.039471929753172, -1.929204515093069, 5.730702455706081, 2.331599223601707, -1.2576151064468428, 3.3869297894070005, 2.4382724876334394]]}