{"structure": [9, 8, 9], "networkWeights": [[[-0.6226361632976262, -43.79916016292696, -1.1052981959637052, 1.8328684148554684, 0.9329323520722159, 25.269842408432552, 9.082570305234965, 51.11110800642409], [-4.0830250571603965, -1.72496676081775, -14.003678760278708, -13.757267991866064, -7.358053500839585, -19.860476042369797, -18.16512743886376, -23.661943602687742], [-12.440837782015794, -4.140765748122201, 5.214090637449046, -13.613147029648937, -7.748595958732447, -6.4938648386234075, 35.07410992413543, -9.406482406810076], [44.67324155029476, 18.7622334085168, 10.844714182002871, -13.81727519208749, 20.29857247718957, -0.9717183618965637, -7.73969975024638, 53.09345095023153], [-34.76526378464967, -4.781353619416757, -36.50147825899129, -2.247670057924286, -16.45755837220929, 17.682103467664184, 4.044569399314952, 31.003072519631946], [2.0113112520834684, -26.117473885564646, 47.40037771909585, -13.694117259788811, 19.269999049944907, -28.415338524861106, 4.314839360530282, 40.784072457766975], [-11.635353585811671, 29.172823327926505, -30.15604208398153, 32.4406752999706, 26.2325263284043, -30.31617430993672, -13.510220317421487, 24.910495808432287], [-35.25582720171863, 42.49191766759475, -23.716770250255085, 27.94521979826131, -1.1786249774926747, 0.13260857904821044, 2.3632726785380966, -18.057416804283417], [-15.476739761285975, 22.500441491299227, 69.75265566245798, -20.916000178517002, 7.729263070164473, -21.884193220784617, -16.504648629573172, -22.72089006102353]], [[2.5036979378676563, -39.42673497571193, -14.925321158933547, -14.09748801401065, -41.028850814977964, -1.3550803090650747, -1.5189389184284903, -4.560874861182864, -22.242033257815045], [7.719910067317008, -0.7343820854839551, -17.398883712308745, -44.129389232269624, 51.88038409846217, 32.224083849828304, -36.63001753704393, 14.01239320218383, -9.974277995035024], [-45.99007058704104, -19.924326772765625, -10.72450076343355, -9.967255849917162, -40.05661676078336, 16.57048244121531, 15.22234309326713, 26.977823943800747, -21.901051740496847], [-31.530275079299212, 5.098696549576981, -2.200696275929291, 33.94926660644866, 12.221303484886473, -18.75176465856207, -31.91136882925291, -21.2407759153971, 48.76548140581258], [55.7025741318098, -22.439061070608513, 4.751465490316182, 4.840049538456509, -41.48224093645093, -44.78570604997848, 19.58356340268434, 10.276260455086067, -5.271837170702445], [-33.57670953339379, -6.549007903856875, 1.4293735643514505, 28.37065953258741, 33.25670160642652, -6.432247898753686, 30.694787163677763, -35.53828622301168, 16.918458419717854], [-10.758510394596833, -4.769742668045734, 11.464507329276488, -4.538631220889611, -15.132474282041233, -18.082276003890538, 79.31681717409327, -76.35855584532203, 18.844348178485625], [23.484698686071532, -2.9457752447623005, 26.609599738399062, 26.199986913110006, -24.497206213657567, -26.954188853509127, -11.040323261494665, -48.87508302317744, -5.509841374536944]]], "networkBiases": [[-2.092257635843365, 3.3716093078724994, 4.919297915297909, 1.6239389563092563, 4.644468708097719, -1.8296439136327995, 1.8437389181490982, 5.148273794908095], [-3.8894659250312613, 6.543456394150016, -3.069386974244249, -1.9040206052488695, 5.769558200806937, 2.340725874181332, -1.2253295247640863, 3.3740918721715194, 2.392752465674584]]}