{"structure": [9, 8, 9], "networkWeights": [[[-1.5105977886487898, -43.95877405913375, -1.6540737225558737, 1.0396699318634255, 0.3053107502282869, 24.318864547613476, 9.142271724663605, 51.76818246868313], [-5.068287190757255, -1.6087778462601967, -14.573604343818227, -13.807564635650955, -8.072374201595116, -20.405983213972547, -18.37642558550621, -23.56219268898341], [-13.923626605321862, -3.6970259888745027, 4.172534153549114, -13.72359791771258, -8.835163099697803, -6.383235825693435, 34.958487283651294, -9.56799283519243], [44.0532506461264, 18.720816916242043, 9.810173630853551, -13.116427864998805, 20.39332118267082, -1.6154134754969234, -6.520236756850055, 52.76565890523941], [-34.596294730109115, -6.009740521410361, -37.6339918455471, -3.09987746064473, -16.365060095053902, 18.23730151608243, 3.5799315464823085, 31.51227890974655], [1.5334894536243573, -26.291347197516867, 47.296300782876045, -14.262138211044709, 18.8904321726191, -29.099207361224156, 4.957567689210519, 41.51242851066557], [-10.27352517336379, 29.631234232095597, -30.023836118168767, 32.33299832422866, 25.900026071559143, -30.54459596108435, -13.203714549271192, 23.845450035698345], [-34.332881418825544, 42.72742495180272, -22.632383686382084, 28.137584409188918, -1.0221447642261847, -0.09121990989514156, 2.4330384211987712, -18.08950975341557], [-15.579231142448505, 21.82116304142544, 69.0543303103008, -20.187765284664227, 7.538166252384164, -22.855279570260578, -16.817267684476718, -23.558608840064927]], [[1.8609543756727327, -39.0917106652797, -16.08792486096858, -14.161349141648142, -38.84625705491046, -2.214927668078108, -1.627163901193202, -4.580802444216425, -21.8836516402285], [7.060745556701152, 0.18473077331406657, -17.415162227810605, -43.16529802620123, 52.26945563022507, 32.48568087560344, -36.06381178711583, 14.04037389783787, -10.319077173894359], [-45.13785805272207, -19.61972888292255, -9.333332610126458, -9.778243161050861, -40.79909188563426, 16.631428418468307, 13.50625809801389, 26.42979001659242, -20.991183588533534], [-30.272305881054056, 5.386198736037666, -3.025710585920765, 34.39576426360972, 12.201477181465727, -18.90953613899902, -31.330512486160615, -21.343375600021403, 48.89312664463156], [55.778738911811075, -22.97776069889202, 4.489608443129837, 4.415034903882246, -40.964192010473845, -44.493075244279396, 20.0554545584367, 9.397888803609924, -4.45208711062554], [-33.74115861660591, -6.667129418721402, 0.020614355792618166, 28.35120571333124, 32.66365556060136, -6.410105586960011, 31.29716486869279, -35.65638516867406, 17.42394826862481], [-10.542027169823601, -4.463754445354765, 12.204116226659808, -5.255339166521322, -14.400397186413853, -18.8997602457152, 79.59293007820162, -76.52283621982436, 18.45593954016392], [23.21044197467802, -3.311111275484029, 26.401403542575277, 25.631927200816094, -25.2481815061271, -26.60054515246779, -11.410046776496827, -48.80690427927495, -4.212319842444882]]], "networkBiases": [[-3.353811017184335, 3.3904130110737327, 2.3261402863817304, 1.808306287306859, 3.134460982100641, -0.5003027994232487, 3.2181922290322946, 6.76282865354704], [-2.851821803610438, 4.725620678817137, -1.9179938315948286, -1.7541158696168262, 6.064295592653101, 2.4631184610965735, -2.2030330158444085, 3.3461078267814433, 1.8262868489205637]]}