{"structure": [9, 8, 9], "networkWeights": [[[-0.7341993282239299, -42.071657563572266, -2.9289402285519914, 0.7749044750081171, 0.05940121815079946, 22.902104011301944, 8.167877542638657, 49.2310508625081], [-6.242229226412842, -0.47973439910806737, -13.3339279348803, -14.937955459424042, -7.33035353327979, -19.594842027703486, -18.84813023074524, -25.457582738474823], [-14.26887936307891, -5.259060345813474, 4.644115986535514, -13.624850913490087, -8.440942098749245, -7.186764806446992, 33.74645211214153, -10.344359588470109], [44.56717341811206, 17.85656526910537, 9.46717315608101, -13.882123596316196, 20.73549267048951, -1.3670798878678858, -4.279001177532194, 51.85164535549613], [-36.47214523063623, -4.4744011388448985, -34.2508754775201, -0.5480731713939428, -18.130174937778847, 17.237755578723885, 4.161362289187002, 33.62538210539854], [0.9359190835012947, -25.865149652858413, 45.95380339707816, -14.86465691974203, 21.66725804647136, -27.975964365527595, 4.202070616455637, 41.397793823889316], [-8.208821353027734, 29.648921201875932, -31.020362357903636, 31.742381753879776, 25.2473836939668, -29.9798266229821, -12.521950776759937, 27.119985632405033], [-33.71235828829513, 40.809497081168814, -21.713587059561522, 27.6636552800447, -1.9633256857122767, -1.6629599162865112, -0.07747521113103084, -16.90681370394795], [-17.094796516137272, 22.097760653810557, 69.25785986096245, -18.921925944948693, 9.735988369930226, -20.65470805510771, -18.270177290723915, -24.322588940661507]], [[3.990970013089342, -37.280155917028516, -15.375903303222834, -14.903433064968679, -41.65603932876129, -2.9017565245925088, -0.5920047752898769, -4.834212260261428, -23.261743702567184], [6.930328822761827, -0.28056584638549786, -16.503105373387534, -42.71263306230184, 49.338244585629546, 32.9932051570178, -36.69556903012603, 14.210906094678565, -10.520614423130002], [-43.88608872026307, -21.498251031851908, -11.560152888102628, -10.528880165381455, -41.07499928833638, 18.558455610162326, 15.433279457579363, 27.065373643894958, -20.798832907832857], [-29.85628505187769, 6.411077987294213, -3.051900335383581, 36.12942984353239, 10.777537939740869, -17.679044298015125, -34.1791667421084, -17.553772419943797, 49.85082740087741], [56.15963580087946, -23.852365609738932, 3.2734514539799084, 4.106435631241904, -41.36707100885795, -46.378056689458276, 20.34757682289297, 9.247719329914705, -5.357638492046419], [-33.390102615716664, -6.0991681586981015, 0.07232804907211965, 30.420274872527713, 33.07515847602215, -3.1133887467993793, 29.87663447054424, -35.52249719611332, 16.97483633668859], [-11.67346714015404, -5.818677465056785, 11.171634927967276, -5.537527579860722, -15.055059060512193, -20.36024999178102, 81.78258915413912, -77.96294833719517, 21.25535657494901], [22.263784660959487, -0.24042659932999566, 24.261597299904572, 22.998802109638994, -25.449579373167097, -25.917569165996788, -13.940581365008462, -47.458000718409735, -3.4155163024619215]]], "networkBiases": [[1.0, 1.0, 1.0, 1.0, 1.0, 1.0, 1.0, 1.0], [1.0, 1.0, 1.0, 1.0, 1.0, 1.0, 1.0, 1.0, 1.0]]}