{"structure": [9, 8, 9], "networkWeights": [[[-1.3233504839497772, -43.700325695198984, -1.8950859699591258, 1.3934547398723192, -0.3524561207269443, 24.35337268485218, 9.874579748515975, 52.04975117373077], [-5.2845154001850245, -1.538742655304567, -13.950478513610193, -13.666898009710863, -8.712063527965725, -20.134340207871855, -18.265839918287856, -24.797108016327638], [-13.342074194430849, -4.327208510380462, 4.411471800163037, -13.108421210231375, -9.30414203819509, -5.927178555082288, 35.01097811264155, -9.535763743637162], [45.254445479427574, 18.42816928357408, 9.160156464343068, -12.70280978922698, 20.48017807897835, -1.785683244921238, -6.530896105407846, 51.93398962165458], [-34.14907954464961, -5.930994931569307, -37.265941380715624, -3.040215115801013, -16.83542210373756, 17.76685191181428, 3.36166256463624, 31.629023424482977], [1.1099445112388544, -26.004585952358767, 47.86668913691092, -14.92913583744082, 18.682347474063086, -28.78468433222894, 4.18301796118479, 41.10318367150509], [-9.925544067941194, 29.22090740330714, -30.709746333985947, 32.40399761884499, 26.681167740238763, -30.78726020519292, -12.985984366469982, 24.690221856887867], [-34.89785018315944, 42.23569713323515, -22.07904592117872, 28.409921643890723, -1.6481659949838268, -0.409384437458989, 2.7367854985153293, -19.285437451992266], [-16.36222686045412, 20.745179604823324, 69.50975895379487, -19.71914308681447, 7.77820275303144, -21.85139636715264, -17.114274326100997, -23.363910643858286]], [[2.0153312085069386, -38.734079927591885, -15.592474878555057, -14.071858537894075, -38.74206223284485, -1.685930763798568, -0.8206198334392252, -4.054334103245479, -20.213481892633457], [7.228443351877897, -0.5777708058352198, -16.597497458595146, -43.27935313573782, 52.38583972328337, 32.85615276775041, -36.021444355791694, 14.885086252494242, -10.56641558948534], [-45.185319726737816, -20.258574819108162, -10.65993866717044, -9.647155033325081, -40.17385545887466, 16.266948143217817, 14.761666733213216, 26.987632790529936, -21.964782568716377], [-29.37647778630099, 4.693682552856753, -3.0576522559477306, 35.256287387610215, 12.609179322546481, -18.825265663816324, -31.71325542108677, -21.529535568889933, 49.23633833850906], [55.98019155498814, -23.361285372134056, 4.726067533819705, 4.456384092120367, -40.41837527731139, -45.309841611417376, 20.60939783074193, 9.632648819405519, -5.635600775824004], [-33.90244505836143, -6.258430608245782, -0.6519296305627726, 28.537117358035868, 32.56111111293903, -5.0287512779833925, 30.750637878494967, -35.780861590272764, 16.02936552219169], [-10.573707604358287, -4.883501468638055, 11.347018916418138, -4.128852963010324, -15.63343891620689, -20.040705720306406, 79.97276993663212, -77.65385220076323, 19.47086419753766], [22.816946765730368, -2.806959990361464, 25.3573097837902, 24.37749756929242, -25.749794787289336, -26.052432285172237, -11.129199431938082, -49.172070283747885, -3.582724987448124]]], "networkBiases": [[-3.8132315725823993, 1.6966893905466176, 2.057592760227551, 2.9437965361000904, 3.839607176649892, 0.5563122851384359, 3.00439240830354, 6.1023841052834715], [-0.09071315614976783, 5.8765478170022964, -0.32916519475678196, 1.8911205095051138, 5.062075751473861, 2.8794109712752953, -2.649156210441997, -0.7984171195157657, 2.1030828042714838]]}