{"structure": [9, 8, 9], "networkWeights": [[[-1.7086838194078453, -44.23024232718134, -1.4462380108538326, 1.0402763627961473, -0.005115066418531378, 24.585784107866736, 8.739384964386756, 52.122282141641485], [-4.890040801515325, -1.5205759460063435, -14.179728541593423, -13.790417756518124, -8.401851985480413, -20.15659338764244, -18.412617986330105, -24.54191370897364], [-13.315949486157182, -4.226084808751477, 4.34667099851929, -13.696251185857129, -8.746996029112708, -5.92027505713172, 34.84297648888793, -9.754980291072114], [44.078133087287235, 18.637467135983215, 9.245273037325354, -13.642686463391708, 20.483832073425987, -1.630724172411214, -6.546946532514665, 51.764880780618974], [-34.309380838558916, -5.926646935067555, -37.4897877645242, -2.8671565485763724, -16.549138143186433, 18.486363325886963, 3.6153027278016263, 31.5193114302297], [1.314456919055771, -25.948231222097608, 47.080966000704045, -14.776792954868588, 19.056641543317163, -29.020228610668674, 4.031010240242454, 41.347740279338744], [-10.383203949628832, 29.245302002254313, -30.27634902965541, 32.31939139212256, 26.23316351118655, -30.772334679022002, -12.997540328478443, 24.242257426669696], [-34.8975618710402, 43.01637851614795, -22.110905420986942, 27.96327258352567, -2.2135708387260107, -0.34188417724330333, 2.753491070685363, -18.306869989714276], [-16.12533612769448, 21.811557932623266, 69.28056347596113, -19.93541171204159, 7.630462351200933, -22.135688656674937, -16.76762535673482, -23.447509691018002]], [[1.9909713001411484, -38.734079927591885, -16.416874991279176, -14.904368257934236, -38.95051104908421, -2.059914098860404, -1.7149803862980195, -3.7923996652019967, -21.33751820170621], [7.399619717810952, -0.6275279189780327, -17.189518287324862, -43.263547301805, 52.48558166191882, 32.37403894771403, -36.021444355791694, 13.956578835499322, -10.644186375706308], [-44.754652267515375, -20.31310382873572, -9.72163499146165, -9.71037476680184, -41.047848470149304, 16.373439955556368, 14.461056023115843, 26.72735014666704, -21.342024253814287], [-30.241503048746683, 5.151827573773141, -3.185026116425336, 35.042034693235344, 12.683548237891527, -18.512321691194288, -31.778756861617246, -21.800495496630102, 49.164128142298544], [55.80365532459501, -22.560305026696664, 3.840836610301242, 4.645846925960257, -40.190611290635225, -45.105602581749324, 20.5852705350695, 9.667306486042696, -5.639947044189517], [-33.623948013377024, -6.368571965455164, -0.6227127718974316, 28.076098444322746, 32.38124890830284, -5.5551507344017805, 30.988822608157136, -36.050126200647256, 17.18854863711844], [-10.464137749307977, -4.951221515710593, 12.184430081907319, -4.861044409585551, -14.80217753825373, -19.954897310795687, 80.39147710711377, -77.39254650759018, 19.00884540119835], [23.358003471746752, -2.8129369916408016, 25.197741773127927, 25.30431884024859, -25.471705146656557, -26.942505524504046, -11.070983338937896, -49.3985242692718, -4.005968170511872]]], "networkBiases": [[-3.230215001270686, 2.477574366567297, 1.997147199815513, 2.0372963570023326, 2.038485521768235, -0.08252971841918832, 2.872186019079202, 7.024614330884072], [-0.9107127717679526, 5.4041494712864, -3.7366191455076634, -0.810181868043361, 7.228174957217956, 2.232612780925642, -3.460990669060497, 1.7319967407371564, 2.283915613192207]]}