{"structure": [9, 8, 9], "networkWeights": [[[-0.6610108006967417, -43.89887411225302, -1.10821683190435, 1.943984244073782, 0.9264236523974574, 25.24082384858923, 9.07758943715831, 51.28507375295957], [-3.924168894162189, -1.6985349189256573, -14.028958816046735, -13.688298864532094, -7.197362771372638, -19.842779346445433, -18.182275430815626, -23.62402221019876], [-12.363489853312748, -4.15141900602496, 5.210788635905493, -13.758501409436029, -7.864331799122445, -6.585218110870831, 35.24051072487783, -9.45047769548206], [44.688310986088425, 18.84543223049094, 10.809508447084898, -13.796696882882099, 20.317405113346364, -0.9015283890368961, -7.763816648067373, 52.95931217895914], [-34.79100482050841, -4.589512040955526, -36.477548427723164, -2.1469512713735455, -16.39323329164413, 17.712849415741744, 4.021282543775552, 31.145039362382512], [2.0893311189089694, -26.189848080923202, 47.291031419553676, -13.642600742618786, 19.29249192074837, -28.405802972309054, 4.353212327306332, 40.8631043704555], [-11.766585795177816, 28.96408252192555, -30.060218974144053, 32.52943237721132, 26.16133621041585, -30.29367018049277, -13.3386946135573, 25.086951879180283], [-35.32263217499076, 42.538569613807105, -23.711408160195944, 27.998704063595294, -1.2377993459636578, 0.13048451314444529, 2.359829697130823, -18.122007138857136], [-15.406081918882494, 22.42758154563217, 69.78342422007833, -21.01662273025044, 7.691794559554763, -21.97624134356371, -16.43205880836469, -22.664658757197]], [[2.4953377628636493, -39.49731349969289, -15.008609883313214, -14.160317789912678, -41.035533496380616, -1.355828623919857, -1.4547128710125812, -4.436046252678438, -22.28705692826235], [7.6997806762936625, -0.6641865044930915, -17.468376953309217, -44.14028401751736, 51.88736681885316, 32.230627238851966, -36.64055216215616, 14.222929457386345, -9.98440462621487], [-45.94001064454415, -19.736462275940475, -10.821728085801132, -9.956704493005386, -40.06715773557964, 16.470528155163016, 15.131094211044559, 27.00683629878356, -21.92073867567657], [-31.758083312695668, 5.055033680483077, -2.1211797699904715, 33.972648787095174, 12.320331527120308, -18.62941937720828, -31.95083097925163, -21.330524315619115, 48.773188844746194], [55.71698200085207, -22.3067793562562, 4.640169653472926, 4.880847510699795, -41.46795074883731, -44.73842628393423, 19.480624694328988, 10.39722227652434, -5.332021241952323], [-33.598496521165174, -6.627840829416607, 1.4827219906783555, 28.312586392930328, 33.362801443497524, -6.508428371647679, 30.559999131373782, -35.454298857915525, 16.93548725914242], [-10.84901445292368, -4.862964317530435, 11.50803429527453, -4.415416681259985, -15.099283098555699, -18.124035605954052, 79.38619291454391, -76.32507966962805, 18.68183112697981], [23.58357333968426, -2.8999273187984556, 26.688723007458368, 26.16198342401816, -24.62245278874258, -27.022423043327187, -10.959180598311674, -48.80115212256079, -5.508665124749017]]], "networkBiases": [[-2.2545396346464632, 2.940330024772948, 4.846335976161115, 1.8964291761026437, 4.6452207869156865, -1.7287780549432685, 1.938737235643993, 4.819945851952732], [-3.6402806598438064, 6.597150126272981, -2.610422687348171, -2.049679944302638, 5.558648041774739, 2.759866952463416, -1.4938246250821814, 3.0233014478763605, 2.5921859916801835]]}