{"structure": [9, 8, 9], "networkWeights": [[[-0.6568455804353989, -43.89887411225302, -1.156554488496306, 1.943984244073782, 0.9264236523974574, 25.256498444103524, 9.07758943715831, 51.28507375295957], [-3.924168894162189, -1.6985349189256573, -14.028958816046735, -13.688298864532094, -7.197362771372638, -19.822480129832602, -18.142791320845607, -23.62402221019876], [-12.363489853312748, -4.15141900602496, 5.210788635905493, -13.758501409436029, -7.864331799122445, -6.6213241706787676, 35.24051072487783, -9.425347581834327], [44.66077225613556, 18.84543223049094, 10.809508447084898, -13.796696882882099, 20.317405113346364, -0.9015283890368961, -7.763816648067373, 52.95931217895914], [-34.79100482050841, -4.589512040955526, -36.46019753682057, -2.1469512713735455, -16.39323329164413, 17.712849415741744, 4.000722533399629, 31.145039362382512], [2.1313292800884964, -26.189848080923202, 47.291031419553676, -13.602798647486017, 19.29249192074837, -28.45380716875078, 4.353212327306332, 40.8631043704555], [-11.766585795177816, 29.00795628912206, -30.060218974144053, 32.52943237721132, 26.16133621041585, -30.29367018049277, -13.30488080861151, 25.043665768702983], [-35.32263217499076, 42.538569613807105, -23.711408160195944, 27.998704063595294, -1.2377993459636578, 0.13048451314444529, 2.359829697130823, -18.109921122477008], [-15.406081918882494, 22.42758154563217, 69.78342422007833, -21.01662273025044, 7.691794559554763, -21.97624134356371, -16.422119778257986, -22.664658757197]], [[2.4843232144757503, -39.49731349969289, -14.975986403908978, -14.195665266451215, -41.07649003788623, -1.355828623919857, -1.4547128710125812, -4.436046252678438, -22.28705692826235], [7.702253729270521, -0.6641865044930915, -17.468376953309217, -44.14028401751736, 51.88736681885316, 32.27044355142057, -36.64055216215616, 14.193973477985125, -9.98440462621487], [-45.94001064454415, -19.736462275940475, -10.821728085801132, -9.956704493005386, -40.06715773557964, 16.516275846062342, 15.121728097229708, 26.998000946759504, -21.92073867567657], [-31.730353531042024, 5.025616752670481, -2.1645543000448972, 33.972648787095174, 12.320331527120308, -18.62941937720828, -31.95083097925163, -21.330524315619115, 48.805097880588], [55.71698200085207, -22.3067793562562, 4.640169653472926, 4.880847510699795, -41.46795074883731, -44.73842628393423, 19.480624694328988, 10.39722227652434, -5.332021241952323], [-33.63084015554936, -6.627840829416607, 1.4827219906783555, 28.312586392930328, 33.378871441141655, -6.508428371647679, 30.559999131373782, -35.454298857915525, 16.93548725914242], [-10.84901445292368, -4.832088623051871, 11.50803429527453, -4.415416681259985, -15.099283098555699, -18.124035605954052, 79.38619291454391, -76.32507966962805, 18.751503589707777], [23.579778593633115, -2.8999273187984556, 26.688723007458368, 26.12389048189535, -24.62245278874258, -26.989330169859805, -10.959180598311674, -48.807932918083985, -5.508665124749017]]], "networkBiases": [[-2.2590123568410974, 2.940330024772948, 4.869134768195443, 1.7870447937093787, 4.614406062737205, -1.7725068563654383, 1.8995409972338644, 4.894549516546079], [-3.677322757847087, 6.597150126272981, -2.5982901695131857, -2.0024558935017738, 5.558648041774739, 2.7866211489845965, -1.4664230080586647, 3.071199314579164, 2.5865961536736295]]}