{"structure": [9, 8, 9], "networkWeights": [[[-0.5355179233786027, -43.64102687892851, -1.2264894812723974, 1.6622980974159791, 0.9613817980304764, 25.2840245803918, 8.842758992249752, 51.411162942606936], [-3.932973642889881, -1.7615811766692564, -14.059906963784396, -13.5939876456173, -7.523771193001057, -19.729818558055353, -18.147474563660985, -23.955018029148846], [-13.066816959860144, -4.201646117348205, 4.706395490829334, -13.086462395345889, -7.9170709249314495, -6.2512118647979245, 34.81954884421952, -9.632697860679157], [44.35518144855342, 19.09884292635217, 10.590401370127628, -13.68980675533798, 20.270000684925712, -1.4297948245527152, -7.334528727488624, 53.1842883037797], [-34.8082415904997, -4.814394547466229, -36.318352846018456, -2.5631251295141593, -16.631316809183783, 17.86918297536409, 3.959552623249256, 31.206609639230386], [1.7115098581663513, -26.48022524910653, 47.05626330745675, -13.871885420445388, 19.27376388811686, -28.656948526649252, 4.273460487289815, 41.24235591931894], [-11.379797545841896, 29.13590130853811, -30.112430262672397, 32.613778781084775, 26.45085859862379, -30.423013791563072, -13.69241599812461, 24.626540326771245], [-35.08807415819536, 42.36774668379553, -23.657283832701538, 27.429840532835833, -1.0601090289216915, 0.12186386488109924, 2.1932902849056886, -17.681842421677914], [-15.286231816779356, 21.86273461776973, 69.4987207799601, -20.864917365449678, 7.728426212299672, -22.101085206905484, -16.85330610687961, -22.56838889388586]], [[2.345367033817, -39.44611955426061, -14.78961421682222, -14.108913825287848, -40.51983475667203, -1.739291595457349, -1.5543816269361899, -4.525589968875217, -22.284726786290197], [7.947124085600436, -0.42654297770597377, -17.306468275047806, -44.174726125070734, 51.86823507973595, 32.55131996178006, -36.52119535197379, 13.925853158448577, -9.975225663785068], [-45.19932815644738, -19.988240351849377, -10.434314767533504, -10.421288476300077, -40.12587141788527, 15.980585560739883, 14.833993606063572, 26.976286132855535, -21.874038112295544], [-31.161519251406034, 5.37445867423463, -2.477052799477421, 34.091488260743034, 12.045137213384558, -18.98794705966586, -31.851096455982127, -21.419112415662745, 49.14344304497036], [55.59547571417347, -22.54648058096028, 4.860678264616071, 4.769642517786378, -41.483762554136675, -44.70442420664484, 19.32329465640713, 9.858178077946123, -5.156901547803358], [-33.80427405988893, -6.718119649440597, 0.6854301693696394, 28.566098727774435, 33.048920547425034, -6.1832297737203, 30.777810172856558, -35.98148544404254, 17.096584969494568], [-10.930664680519806, -4.837656743557954, 11.831719472649267, -4.748471045850606, -15.132066131314799, -18.55158982147419, 79.41172690937451, -76.14400718354786, 18.018890407924918], [23.540435661383963, -3.0443470145327205, 26.641089061758745, 25.78278437225807, -25.07291937326519, -27.14878669725963, -11.142955615717577, -48.86995187230815, -5.503969811152114]]], "networkBiases": [[-2.922853031725501, 2.698502744886551, 5.074727570130656, 1.9256215938562145, 5.209890392546923, -0.85119469350917, 2.634089971122046, 5.199436453394718], [-3.7318381533876055, 6.46214269035675, -2.4587262478842016, -1.802750767676418, 5.366854741155406, 2.0815407873648195, -2.4625657326402015, 2.750196013088075, 2.343143804694254]]}