{"structure": [9, 8, 9], "networkWeights": [[[-0.7270715981497313, -43.80993250270616, -1.046154052239343, 1.5161873942413937, 0.9362076938943982, 25.06848878270541, 8.861179979323703, 51.613401935886245], [-4.138631731631788, -1.5826663411070119, -14.3485283145336, -13.588042262364851, -7.432784829870815, -19.957715177980514, -18.31431357685148, -23.88941828495569], [-12.956554070711807, -4.448682523145503, 4.356051604869938, -13.086462395345889, -8.184867851821366, -6.2512118647979245, 34.89458652178761, -9.622069495156556], [44.35518144855342, 18.993151676184713, 10.609167944738328, -13.68980675533798, 19.996900992938258, -0.8675557219443921, -7.334528727488624, 52.941314134400194], [-34.7944681335703, -5.034263240287875, -36.47888996175942, -2.9794999267128763, -16.970808900680748, 17.86252928296992, 4.295090992151133, 31.425528047248775], [1.9391002991045645, -26.312487980389953, 47.219988417023124, -13.691895346013066, 19.215432007497462, -28.898112420274888, 4.641612350938975, 41.325240924906666], [-11.646597666674383, 29.358177567641672, -29.95342819468033, 32.499704719410616, 26.45085859862379, -30.533531349995283, -14.154677900966192, 24.4419306685685], [-34.88368569845206, 42.89892044885871, -23.333213802261596, 27.631924746648796, -1.0601090289216915, -0.03711259708904846, 1.9743015067416627, -17.607501714558065], [-15.685722286647188, 21.86273461776973, 69.79281593419343, -20.81127487963653, 7.5281252568365735, -22.306770552162412, -16.896991803253805, -23.075349765063155]], [[2.3302096520388416, -39.4103619736489, -14.79608491885628, -14.241786559537319, -40.48956382305903, -1.76130686603098, -2.0646686566535206, -4.525589968875217, -22.144173616241048], [7.710883159813643, -0.38947731380590345, -17.39285873948694, -43.98785485104819, 52.08259884980234, 32.0040048224481, -36.48233127398707, 13.832896437647715, -9.971590554088461], [-45.07479241138876, -19.74289095321322, -10.08016885013999, -10.275494884643761, -40.0820232052162, 15.947856750708503, 14.747275047932431, 27.082488852334286, -21.71989738769216], [-30.977489718133658, 5.826037954513826, -2.541271187686394, 34.30495804090295, 12.139738343774136, -18.63897504790321, -31.94322074692907, -21.212182482506282, 49.40278061795901], [55.89983297147274, -22.164882541516075, 4.399052250402175, 4.674417362093769, -41.483762554136675, -44.52892392527165, 19.478515850142408, 9.592148782281619, -4.94130037989329], [-33.80427405988893, -6.568702774719318, 0.9492970187030303, 28.690259368573724, 33.005446197031766, -6.404644670727984, 30.366440640460347, -35.74765056085846, 16.825164276153217], [-11.03327644859712, -4.861239727748096, 12.063961166856258, -4.710341942355718, -15.089029884780814, -18.434236057108347, 79.31744169148243, -76.13598720506812, 18.096402438492373], [23.55665831121589, -3.4139834861599625, 26.19261999919674, 26.02356513128816, -24.999222345643986, -26.810695024654304, -10.96397704990699, -48.77110656766838, -5.711341222630717]]], "networkBiases": [[-2.3305857738508733, 2.653535867591561, 4.198952380145547, 1.5860573493740624, 4.6939098623231486, -0.34705674422818616, 2.702606463521783, 5.27934114718841], [-4.035266092066272, 6.189327547672293, -2.6337825743422294, -2.629018421010417, 5.615492040841683, 2.317300025163884, -2.840353790577621, 2.1799552905515562, 2.4128564634117384]]}