{"structure": [9, 8, 9], "networkWeights": [[[-0.6226361632976262, -43.81744616661661, -1.1450724385746247, 1.9521797438224828, 0.8840752846590656, 25.25762590578963, 9.091779955699456, 51.14645205574311], [-4.0830250571603965, -1.72496676081775, -14.053347674130436, -13.757267991866064, -7.266425292243084, -19.83249713321764, -18.21123990060522, -23.601675078268574], [-12.398909563040672, -4.140765748122201, 5.243785515115696, -13.684947679986998, -7.732369676789808, -6.550133025874242, 35.07410992413543, -9.418266143167987], [44.67324155029476, 18.7473339276427, 10.87675808268561, -13.772330923655227, 20.33176097742775, -0.9385617299408204, -7.7529898611215815, 53.05775664936608], [-34.76526378464967, -4.757704848547234, -36.54902546562612, -2.281923475484045, -16.464875205879103, 17.640538277107353, 3.973703911954669, 31.096879189027945], [2.09002862373622, -26.079489566734647, 47.47873312683736, -13.659325516749648, 19.271515596322594, -28.39930465994831, 4.360137448558066, 40.784072457766975], [-11.704831817281706, 29.10898127438105, -30.09016968781579, 32.424075955345025, 26.140579057173724, -30.315567288636597, -13.504494165827387, 24.994603074894833], [-35.23538726370103, 42.48045662813533, -23.708316189421566, 27.95929537407149, -1.1899579449806097, 0.18720237854994787, 2.348920025936756, -18.039334066148992], [-15.499668413845127, 22.50472614630582, 69.75265566245798, -20.96209923919112, 7.752674986953803, -21.88437431766532, -16.44023471885142, -22.770886233573417]], [[2.5036979378676563, -39.439281637738226, -15.05784256819171, -14.153054446052248, -41.07183543020142, -1.382162935392154, -1.529939187436127, -4.488229840146943, -22.232086623630313], [7.69611460897908, -0.6991743704416254, -17.44293459830036, -44.191374337080205, 51.90658912536694, 32.224083849828304, -36.64759466694497, 14.07383307375163, -9.978524491671253], [-45.95629976578579, -19.856849518959432, -10.744221182131042, -9.967255849917162, -40.05661676078336, 16.607528283175256, 15.20393826968118, 27.027691919297787, -21.87062766824621], [-31.602807257299585, 5.093770269638435, -2.1502533501401335, 34.01969278446488, 12.337492346426489, -18.77904385434446, -31.940245318557018, -21.21651175699069, 48.81338897324165], [55.719696311936616, -22.34777383714261, 4.703219891892926, 4.856396268392285, -41.52912285706899, -44.761545432714044, 19.57982751884851, 10.31304287809613, -5.280828023276104], [-33.5421492820466, -6.544905739159122, 1.4184034668113148, 28.42757269596372, 33.29833389906643, -6.4387896275295295, 30.591783894265337, -35.4518216263231, 16.92851759328569], [-10.772678348779706, -4.784437891594372, 11.502900661913696, -4.556271539547789, -15.068132658591537, -18.09258354144025, 79.31174624045121, -76.31739359884554, 18.823967236230587], [23.545624937113143, -3.0436868516397797, 26.658890177131614, 26.204308193955974, -24.497290045911562, -26.946492179453713, -11.024626622589594, -48.87508302317744, -5.672050630911156]]], "networkBiases": [[-1.9846839577591222, 3.1007958590853564, 4.79102215224763, 1.717881606443082, 4.541650849206923, -2.0181711236633886, 1.8760432393073223, 5.168264750027615], [-3.7518203525229774, 6.528401447917439, -2.9017857483213585, -2.187385028843361, 5.773047381970065, 2.430858791517617, -1.3750954482157467, 3.4167567286939016, 2.360820774414293]]}