{"structure": [9, 8, 9], "networkWeights": [[[-0.6226361632976262, -43.81744616661661, -1.1450724385746247, 1.9521797438224828, 0.9329323520722159, 25.24254932652631, 9.091779955699456, 51.16802579506066], [-4.0830250571603965, -1.72496676081775, -14.053347674130436, -13.757267991866064, -7.216546297244915, -19.83249713321764, -18.17611567992811, -23.61875967736424], [-12.398909563040672, -4.140765748122201, 5.267486741641567, -13.649511232312591, -7.732369676789808, -6.550133025874242, 35.07410992413543, -9.418266143167987], [44.67324155029476, 18.7473339276427, 10.87675808268561, -13.772330923655227, 20.345466162113482, -0.9385617299408204, -7.7529898611215815, 53.03301373101293], [-34.76526378464967, -4.757704848547234, -36.54902546562612, -2.281923475484045, -16.415922160107808, 17.640538277107353, 3.973703911954669, 31.096879189027945], [2.060861103974576, -26.079489566734647, 47.47415301810072, -13.659325516749648, 19.271515596322594, -28.416827672078234, 4.338483630895459, 40.784072457766975], [-11.693846404806061, 29.10898127438105, -30.096017707399746, 32.424075955345025, 26.140579057173724, -30.315567288636597, -13.454695280436741, 25.014597673413835], [-35.23538726370103, 42.48045662813533, -23.708316189421566, 27.95929537407149, -1.14495191780916, 0.17922984911895978, 2.348920025936756, -18.039334066148992], [-15.471316398549714, 22.54377507194819, 69.75265566245798, -20.96209923919112, 7.7444007781925945, -21.89935596760009, -16.44023471885142, -22.770886233573417]], [[2.4826535948041357, -39.439281637738226, -15.02929320417978, -14.153054446052248, -41.04236429611337, -1.382162935392154, -1.529939187436127, -4.488229840146943, -22.232086623630313], [7.69611460897908, -0.6991743704416254, -17.399120532237408, -44.191374337080205, 51.90658912536694, 32.224083849828304, -36.64759466694497, 14.07383307375163, -9.978524491671253], [-45.94001064454415, -19.856849518959432, -10.744221182131042, -9.967255849917162, -40.06592060601669, 16.5603419146767, 15.20393826968118, 27.027691919297787, -21.875942882722832], [-31.602807257299585, 5.093770269638435, -2.1502533501401335, 34.01969278446488, 12.262462351682428, -18.789778709495547, -31.977637024714795, -21.199949519718576, 48.81338897324165], [55.7025741318098, -22.308093031524113, 4.703219891892926, 4.856396268392285, -41.53175551696266, -44.761545432714044, 19.57982751884851, 10.31304287809613, -5.280828023276104], [-33.5421492820466, -6.523211339203785, 1.4184034668113148, 28.42757269596372, 33.317903627945995, -6.4387896275295295, 30.57274495146829, -35.47012821444516, 16.952880099272342], [-10.772678348779706, -4.784437891594372, 11.455046669045199, -4.556271539547789, -15.068132658591537, -18.09258354144025, 79.31174624045121, -76.31739359884554, 18.836692955951357], [23.548675163606752, -2.94152798887145, 26.70258042828145, 26.175735548274243, -24.48837861585077, -26.946492179453713, -11.024626622589594, -48.87508302317744, -5.596309307227782]]], "networkBiases": [[-2.062227042995548, 3.228319709007297, 4.7227508164666006, 1.6325101057954963, 4.586712733718338, -1.8729068465520626, 1.8744649439291716, 5.148664604329608], [-3.88249209732867, 6.547880837762365, -2.8254406832134005, -2.216115555788872, 5.757147554157628, 2.5033939370875586, -1.4285874655717556, 3.4135043020559, 2.447368073722227]]}