{"structure": [9, 8, 9], "networkWeights": [[[-1.586590189736373, -43.72948951583779, -1.3053567857044484, 1.3267383275476998, 0.3522803412197121, 25.10839381187337, 9.382580056748552, 51.843596073561436], [-4.553765128121899, -2.006457010546179, -14.504755541119923, -13.551870257492821, -7.968057410528337, -20.45952919582576, -18.291642497905986, -24.0604161699145], [-13.473327310278089, -3.6314512997521025, 4.66886383598648, -13.165897400012044, -8.624725047197805, -6.437364188084316, 35.246571157122034, -9.440100860168146], [44.03701610653577, 18.73872325818884, 10.665684244611288, -13.338387013463182, 19.84874497335508, -1.171122524020018, -7.318287948738725, 52.77216928993125], [-34.677983262627635, -5.0778794297130805, -36.82702338840445, -3.2297704954278545, -16.797024344090648, 18.02367443363647, 4.212108232014764, 31.63368838095407], [1.555778338529552, -26.494527643772802, 47.11496114354853, -14.354960532662718, 19.317495261725096, -28.932797127529092, 5.072091333731825, 41.77490055974779], [-10.900746887876473, 29.63860166628926, -30.045516427122866, 32.253085763394914, 26.110855959719917, -30.597519816485136, -13.512142472628263, 24.17448037566753], [-34.84588944576852, 42.95542556627715, -23.518552330114886, 28.004762852888156, -1.202106513615001, -0.03164713444164269, 1.8265227170433773, -17.808738403168263], [-15.824990801861862, 22.015951407140893, 69.9760274091285, -20.63284997991504, 7.753418028933777, -22.696109437561358, -16.7262531942477, -23.234929220781705]], [[2.143847661021758, -39.51370321972373, -15.537405783241478, -14.719839831937387, -39.986686065880484, -1.8865022687529343, -1.9473033348920954, -4.702551372097124, -21.972314078462745], [7.57958801260934, 0.3304877662856493, -17.08139686710345, -43.37957551462525, 52.07596544302068, 31.902822726563414, -36.48547329872127, 14.014281137236448, -9.923580809747214], [-44.92463479403405, -19.62974398361082, -9.69704318680242, -9.963822902391861, -40.710086294257394, 16.470256602450206, 14.533631246847374, 26.95590587268207, -21.26434815120985], [-30.515870899158514, 5.751842362621271, -3.277292344672496, 34.35153242205431, 11.76387978009307, -18.610986750702644, -31.105362016484086, -21.38896290991471, 49.582783889493506], [55.94994729767532, -22.929738747932984, 4.343896533721125, 4.5170974830991835, -40.90992559151615, -44.44177748990439, 19.831090689869853, 9.116587579392379, -4.530801355599591], [-33.92737634774176, -6.420982943188085, 0.07609474568951696, 28.540064178822874, 32.90365718804521, -6.551489336591097, 30.583380456228646, -36.10589886870281, 17.143019155636548], [-10.661056145576863, -4.641189050975872, 11.881948955861176, -4.834372133265553, -14.519901934297273, -18.381512570625286, 79.31744169148243, -76.83986150620572, 18.08152146235346], [23.513765439350724, -3.7368990586496884, 26.066995822084813, 25.718754248058083, -24.847386107198908, -26.839335940026405, -11.100715780373328, -48.89510052216753, -4.782599681006653]]], "networkBiases": [[-2.270027672246798, 3.8588940884694365, 4.053965979765788, 2.6191562619011926, 2.477351544317894, 0.46037946085862425, 1.8637678966257643, 6.484813733081108], [-4.083477918050046, 5.95417938639013, -1.7811211910394464, -2.764839936443077, 5.221215179092483, 3.901179508259677, -2.7954226885808344, 2.241948178278332, 2.5112499822542897]]}