{"structure": [9, 8, 9], "networkWeights": [[[-1.4772955200858389, -43.72948951583779, -1.3053567857044484, 1.3267383275476998, 0.3522803412197121, 25.10839381187337, 9.165847679649172, 51.843596073561436], [-4.553765128121899, -2.006457010546179, -14.504755541119923, -13.551870257492821, -7.968057410528337, -20.45952919582576, -18.291642497905986, -24.0604161699145], [-13.473327310278089, -3.565014278883995, 4.66886383598648, -13.327197417317468, -8.734245541083258, -6.437364188084316, 35.20114514143175, -9.440100860168146], [44.0532506461264, 18.73872325818884, 10.831055404513101, -13.338387013463182, 19.84874497335508, -1.171122524020018, -7.318287948738725, 52.77216928993125], [-34.677983262627635, -5.0778794297130805, -36.82702338840445, -3.2297704954278545, -16.797024344090648, 18.02367443363647, 4.212108232014764, 31.63368838095407], [1.555778338529552, -26.494527643772802, 47.11496114354853, -14.354960532662718, 19.317495261725096, -28.932797127529092, 5.072091333731825, 41.63012710493988], [-10.900746887876473, 29.63860166628926, -30.045516427122866, 32.253085763394914, 26.110855959719917, -30.597519816485136, -13.512142472628263, 24.17448037566753], [-34.84588944576852, 42.95542556627715, -23.429364001933603, 28.004762852888156, -1.202106513615001, -0.03164713444164269, 2.279278460595751, -17.808738403168263], [-15.824990801861862, 21.884689813750768, 69.75519987520298, -20.63284997991504, 7.753418028933777, -22.696109437561358, -16.7262531942477, -23.234929220781705]], [[2.143847661021758, -39.51370321972373, -15.537405783241478, -14.719839831937387, -39.986686065880484, -1.8865022687529343, -1.9473033348920954, -4.702551372097124, -21.972314078462745], [7.57958801260934, 0.42270990754631854, -17.319781450140496, -43.37957551462525, 52.07596544302068, 31.94428317293014, -36.48547329872127, 14.014281137236448, -9.923580809747214], [-44.92463479403405, -19.520452832393254, -9.69704318680242, -9.963822902391861, -40.710086294257394, 16.470256602450206, 14.533631246847374, 26.95590587268207, -21.26434815120985], [-30.74438716351842, 5.82618776613619, -3.277292344672496, 34.35153242205431, 11.937082606104447, -18.610986750702644, -31.105362016484086, -21.38896290991471, 49.582783889493506], [55.94994729767532, -22.929738747932984, 4.343896533721125, 4.5170974830991835, -40.90992559151615, -44.44177748990439, 19.831090689869853, 9.116587579392379, -4.530801355599591], [-33.92737634774176, -6.420982943188085, 0.07609474568951696, 28.540064178822874, 32.90365718804521, -6.551489336591097, 30.583380456228646, -36.10589886870281, 17.22728504032143], [-10.661056145576863, -4.641189050975872, 11.881948955861176, -4.834372133265553, -14.519901934297273, -18.381512570625286, 79.31744169148243, -76.83986150620572, 18.08152146235346], [23.513765439350724, -3.7368990586496884, 26.066995822084813, 25.718754248058083, -24.599057571910414, -26.839335940026405, -11.100715780373328, -48.89510052216753, -4.782599681006653]]], "networkBiases": [[-2.270027672246798, 4.114539719854349, 3.8259227584614486, 2.7209899648346667, 2.477351544317894, 0.36686817849581665, 1.963307580846116, 6.360312586024199], [-4.092087318880608, 5.574803919610818, -1.4790176961549029, -2.764839936443077, 5.348122332394668, 4.004819269177979, -3.0102377918181733, 2.5537996597237456, 2.451588563260511]]}