{"structure": [9, 8, 9], "networkWeights": [[[-1.7086838194078453, -43.674007895649275, -1.4462380108538326, 1.0402763627961473, -0.1924887966050653, 24.585784107866736, 8.76100840434539, 52.122282141641485], [-4.890040801515325, -1.5205759460063435, -14.396052780710939, -13.790417756518124, -8.187426878166091, -20.33335598609614, -18.412617986330105, -24.54191370897364], [-13.315949486157182, -4.226084808751477, 4.34667099851929, -13.749105516648036, -8.909295660317436, -5.945862206175299, 34.84297648888793, -9.754980291072114], [44.10368376374058, 18.637467135983215, 9.245273037325354, -13.642686463391708, 20.483832073425987, -1.494917772356438, -6.546946532514665, 51.764880780618974], [-34.309380838558916, -6.080949052407461, -37.50539738533366, -3.0059557116253575, -16.363310849384703, 18.486363325886963, 3.6153027278016263, 31.5193114302297], [1.314456919055771, -25.948231222097608, 47.080966000704045, -14.776792954868588, 18.93829067550026, -28.894321331796014, 4.031010240242454, 41.347740279338744], [-10.383203949628832, 29.35484954516939, -30.27634902965541, 32.27398110169029, 26.176907509361293, -30.817618026170305, -12.997540328478443, 24.242257426669696], [-34.93664101277409, 43.01637851614795, -22.110905420986942, 28.06435420485894, -2.13918446617012, -0.34188417724330333, 2.588068397548064, -18.23883573380838], [-15.824547825299316, 21.811557932623266, 69.28056347596113, -19.93541171204159, 7.630462351200933, -22.084517724278165, -16.76762535673482, -23.447509691018002]], [[1.9332690153583487, -38.734079927591885, -16.416874991279176, -14.904368257934236, -38.723797739856224, -2.059914098860404, -1.7149803862980195, -3.9743658916915505, -21.295042133563303], [7.399619717810952, -0.6275279189780327, -17.177468668739746, -43.3744234104639, 52.48558166191882, 32.37403894771403, -36.021444355791694, 13.956578835499322, -10.644186375706308], [-44.93652842421667, -20.31310382873572, -9.72163499146165, -9.71037476680184, -41.047848470149304, 16.373439955556368, 14.327104006888636, 26.72735014666704, -21.529384643506955], [-30.3160472898223, 4.9303496049443565, -3.185026116425336, 35.042034693235344, 12.683548237891527, -18.512321691194288, -31.778756861617246, -21.800495496630102, 49.164128142298544], [55.80365532459501, -22.560305026696664, 3.840836610301242, 4.645846925960257, -40.190611290635225, -45.105602581749324, 20.622033241021818, 9.667306486042696, -5.639947044189517], [-33.8225430814651, -6.247157650610857, -0.5268634075838908, 28.076098444322746, 32.38124890830284, -5.498227645136187, 30.87771683300011, -36.050126200647256, 17.18854863711844], [-10.464137749307977, -4.951221515710593, 12.184430081907319, -4.861044409585551, -14.80217753825373, -19.954897310795687, 80.20934326528683, -77.39254650759018, 18.82925049886386], [23.358003471746752, -2.8129369916408016, 25.356219567414247, 25.30431884024859, -25.51429796643416, -27.06742839618948, -11.070983338937896, -49.3985242692718, -4.005968170511872]]], "networkBiases": [[-3.3181947378620174, 2.6603070907406186, 2.0417199509275727, 1.8627210501194966, 1.9851664399063351, -0.3139554562809564, 2.7971848095956098, 6.977153943246172], [-0.9107127717679526, 5.764938902327694, -3.7495192695198734, -1.2799851123249035, 7.38804978906113, 2.5392436910726643, -3.4840943503950816, 1.4347480177640004, 2.198192439116056]]}