{"structure": [9, 8, 9], "networkWeights": [[[-0.6509807614496848, -43.901573582274146, -1.079072859096794, 1.9277204513598427, 0.8827469362752015, 25.250711445826795, 9.084811752558876, 51.209614532135035], [-4.043786597494536, -1.6603811315365422, -14.066535789289068, -13.658154657752418, -7.216546297244915, -19.82585344882808, -18.19592290105887, -23.61875967736424], [-12.383366475986863, -4.1369697363608795, 5.22747269087615, -13.728072096960794, -7.732369676789808, -6.616192194511478, 35.11962360828646, -9.42745587526096], [44.67324155029476, 18.75213454558914, 10.884466926524299, -13.731753867670573, 20.369958142204933, -0.9385617299408204, -7.7425374170699035, 52.9698693576789], [-34.75161981402622, -4.630720486762859, -36.53659865001641, -2.240477613817079, -16.426732825058338, 17.688771526941267, 4.018426446994858, 31.127369618663067], [2.0893311189089694, -26.123439143365584, 47.4062529135778, -13.643584534225965, 19.339435580174897, -28.434929355889544, 4.261338687579304, 40.846247059666815], [-11.735950616465928, 29.078876859803902, -30.050690876089142, 32.41299476264317, 26.162763627830856, -30.29367018049277, -13.397654738312966, 25.04790473362208], [-35.266562787317554, 42.46911236300092, -23.771974168243982, 27.94400719015669, -1.2146240196860583, 0.21508729126089632, 2.3647192027779704, -18.148495587572945], [-15.45742869704232, 22.54377507194819, 69.81081953967724, -20.935670968196813, 7.691794559554763, -21.97624134356371, -16.43205880836469, -22.788148583739197]], [[2.4700108337487015, -39.4677791128641, -14.988509654778948, -14.187082105973706, -41.12108689033762, -1.3604594939516177, -1.5008893191029684, -4.471146894618026, -22.22306338909505], [7.675016935576103, -0.6734760787371568, -17.37843680686339, -44.12593647676685, 51.92167015869269, 32.21865704322811, -36.631321636537926, 14.109447242845796, -9.994391376496306], [-45.94001064454415, -19.783997569420336, -10.79259657824324, -9.927426115064277, -40.06715773557964, 16.589245741398067, 15.158550435546044, 27.10348695066249, -21.85412643108745], [-31.665069705559123, 5.047423717213026, -2.1711778078143107, 33.97414918314235, 12.291543850686926, -18.68754198480097, -31.956989816904837, -21.210966486789534, 48.710347920022066], [55.755516080509025, -22.31274390828438, 4.703219891892926, 4.853854407960135, -41.49737884811925, -44.691799826238686, 19.519533677424693, 10.35774797064307, -5.294067353463829], [-33.60270792024099, -6.559151622555509, 1.4730593037873505, 28.395765983296087, 33.34327331595615, -6.448271630712845, 30.55701479775739, -35.40510628960977, 16.90395601558642], [-10.774852744873463, -4.863163332204075, 11.480108838447027, -4.550802157733175, -15.080201396908953, -18.09258354144025, 79.33855118024852, -76.27666997608014, 18.751503589707777], [23.565875256434698, -2.9055268469162625, 26.681723447542137, 26.122795510786915, -24.57722345039831, -26.976643810969538, -10.990281442520493, -48.88156086725406, -5.559004231363562]]], "networkBiases": [[-2.2101775095670737, 3.098782026575587, 4.8541327875968765, 1.8397807107298214, 4.657360548807268, -1.9522635666157417, 1.8929722664395978, 5.098913523971101], [-3.604618184580635, 6.6404039481403645, -2.7845553675858543, -2.024340211885536, 5.676235345135323, 2.6708663686705707, -1.4095760662009968, 3.2868794811254074, 2.6150661131861646]]}