{"structure": [9, 8, 9], "networkWeights": [[[-0.5613528899855162, -43.85432632313973, -1.1484335357002668, 1.8074544578373422, 0.8290971562602942, 25.29980244186659, 9.129113859282398, 51.05791724200833], [-3.935325348711778, -1.8818907951184642, -13.96890122453239, -13.753648516906889, -7.20238157647736, -19.911565296598162, -18.16470368309675, -23.636412076104182], [-12.581771166120914, -4.177271878246035, 4.987478194353783, -13.641000762628348, -7.734953202504902, -6.451386005988208, 34.92293445926072, -9.517357360710676], [44.761247994331136, 18.85820408093538, 10.799324218482557, -13.847500019695886, 20.244876578414292, -1.0731691506020278, -7.836658543218357, 53.09566191040975], [-34.72054176697685, -4.701660045153559, -36.461789915752895, -2.296178388049652, -16.312363132497357, 17.63201044988804, 4.007483616061558, 31.054362676837194], [1.9607095807431811, -26.25359046310487, 47.33938383229271, -13.666711390740529, 19.2071389001343, -28.297393164275757, 4.156218881356483, 40.827035895100266], [-11.551670857842554, 29.07885662188707, -30.237713350086203, 32.56164251754016, 26.37037659986862, -30.484852920723494, -13.616544637360722, 24.899070252454162], [-35.181518206205574, 42.43994047353326, -23.62240749478408, 27.870074899226083, -1.121523261988572, 0.15313714657772073, 2.3697922113949703, -18.05134915398948], [-15.45769641574655, 22.497557149944157, 69.74704563039732, -20.974558698015716, 7.688660707868775, -21.998423321701257, -16.45648754405244, -22.75488162589404]], [[2.4627132475731415, -39.544651039195884, -15.027018428862707, -14.085284852452704, -41.04130481945267, -1.2689092256076726, -1.6732951042384547, -4.579072684343072, -22.384464874879917], [7.765403333233488, -0.7081591864294401, -17.432215824851845, -44.14288484677299, 51.88158908252939, 32.17096796935962, -36.64608249794767, 13.955342492519327, -9.970151127641465], [-45.78355957530609, -20.014692276922375, -10.77400936525913, -10.051168753496013, -40.10418968352866, 16.52268037065923, 14.9687837016381, 27.06858837322494, -21.840271537183078], [-31.546387006970303, 5.108451112237139, -2.303185802789323, 33.97764455307684, 12.272318385524164, -18.83195412739407, -31.89551056135403, -21.242363606165824, 48.70331045734352], [55.61548437531504, -22.351114044340424, 4.754957190211389, 4.861591134892687, -41.41768448408306, -44.90187174890827, 19.605658289556985, 10.291476744460304, -5.3333759161587535], [-33.59732529675199, -6.4908930113123215, 1.2639397838711077, 28.42445925711509, 33.2855451558408, -6.398186288792823, 30.71433468508771, -35.55545076158603, 16.935470516192826], [-10.705287494727887, -4.901666133963729, 11.463661452017869, -4.59014884849684, -15.131587832157766, -18.18545855443642, 79.26750048974449, -76.29230275485787, 18.755238825029966], [23.474699965021205, -2.808374655441727, 26.62518240372602, 26.166977234113755, -24.581058808347972, -26.99043383542236, -11.036851813955549, -48.99216974391694, -5.454209464207057]]], "networkBiases": [[-2.3723631594624153, 3.0652224971326874, 4.89802263065473, 1.4145564587781816, 4.553787830315989, -1.5127292195953452, 1.471780133379674, 5.178448916125531], [-4.149622622319954, 6.742465677048067, -2.8414209049602297, -1.5984576648306215, 5.777217418130745, 2.428522139178168, -1.6336366921832473, 2.8124264831590637, 2.3003692459332745]]}