{"structure": [9, 8, 9], "networkWeights": [[[-0.6412392948283587, -43.945385255780785, -1.0651446380431322, 1.9277204513598427, 0.8827469362752015, 25.256498444103524, 9.054443798615619, 51.16949793190123], [-3.996774979383604, -1.6746872161200654, -14.146085132204783, -13.615203733475209, -7.216546297244915, -19.82585344882808, -18.208815860566304, -23.61875967736424], [-12.383366475986863, -4.1369697363608795, 5.199162182397664, -13.728072096960794, -7.732369676789808, -6.573727370797607, 35.11962360828646, -9.42745587526096], [44.67324155029476, 18.75213454558914, 10.84997930853994, -13.731753867670573, 20.392187658981825, -0.9385617299408204, -7.7425374170699035, 52.9698693576789], [-34.75161981402622, -4.630720486762859, -36.50238981235478, -2.262339446449919, -16.433484314467744, 17.653999548531996, 4.018426446994858, 31.13720342289543], [2.0893311189089694, -26.10196195088163, 47.37099968017576, -13.643584534225965, 19.339435580174897, -28.394915547651426, 4.261338687579304, 40.846247059666815], [-11.751767429545513, 29.078876859803902, -30.044358055949733, 32.41299476264317, 26.17115298346076, -30.29367018049277, -13.397654738312966, 25.04790473362208], [-35.266562787317554, 42.42346417509959, -23.786339126495825, 27.9166091830846, -1.2146240196860583, 0.21508729126089632, 2.3647192027779704, -18.10612177949739], [-15.45742869704232, 22.49585148636794, 69.76579687970977, -20.935670968196813, 7.691794559554763, -21.97624134356371, -16.43205880836469, -22.706609527772045]], [[2.4700108337487015, -39.4677791128641, -14.95119284550445, -14.17882135398175, -41.17017386655058, -1.3604594939516177, -1.529939187436127, -4.429824694966372, -22.248893690444525], [7.675016935576103, -0.6734760787371568, -17.37843680686339, -44.12593647676685, 51.92167015869269, 32.21865704322811, -36.67442217730338, 14.109447242845796, -10.000087671444609], [-45.94001064454415, -19.796689037511136, -10.79259657824324, -9.959579870199155, -40.06715773557964, 16.589245741398067, 15.158550435546044, 27.10348695066249, -21.85412643108745], [-31.64919905562631, 5.047423717213026, -2.1087539385687095, 33.95208835964051, 12.291543850686926, -18.620675320430724, -31.956989816904837, -21.207991984482913, 48.73371847101117], [55.755516080509025, -22.31274390828438, 4.703219891892926, 4.8833303031150885, -41.51027852952602, -44.691799826238686, 19.48822536085135, 10.35774797064307, -5.332021241952323], [-33.63962982134484, -6.559151622555509, 1.4879275397253788, 28.360259367993535, 33.29337973653027, -6.448271630712845, 30.55701479775739, -35.40510628960977, 16.93555082932356], [-10.82203147815104, -4.862964317530435, 11.480108838447027, -4.526288271618837, -15.105045765773077, -18.09258354144025, 79.37408975141277, -76.3095120004144, 18.751503589707777], [23.565875256434698, -2.925025388305746, 26.681723447542137, 26.122795510786915, -24.564065432928505, -27.00853091342469, -10.990281442520493, -48.88156086725406, -5.520228117536028]]], "networkBiases": [[-2.1210988300198985, 3.109156551672082, 4.868135268687533, 1.976683229062527, 4.657115804099605, -1.8928777150857923, 1.8865094573308852, 5.039398400770443], [-3.5926219387836524, 6.5809590616347755, -2.774600902242998, -1.9759249373728414, 5.6802307905624625, 2.621176006477311, -1.5015625735925209, 3.3127001004786596, 2.528723267126205]]}