{"structure": [9, 8, 9], "networkWeights": [[[-1.5618622991418492, -43.91279874045696, -1.3830161089908892, 0.710618859722391, 0.2480385172470731, 24.544224973578427, 9.31269176063391, 51.68392252801621], [-5.067144245701805, -1.7425614500179274, -14.637141622425986, -13.807564635650955, -8.325465750205664, -20.530778889571458, -18.457509372543807, -23.649242131160236], [-13.570134254158837, -3.5491497167599912, 4.378850266609414, -13.598181457373, -8.957392888338982, -6.552006287469881, 34.76675534264731, -9.36061546077263], [44.0532506461264, 18.830129751895925, 9.735919541688533, -13.102382038807228, 20.24513506732083, -1.6204847044540556, -6.666019548150875, 52.76565890523941], [-34.591955361590266, -6.084781507989553, -37.29131807909998, -3.175702834662677, -16.52952149596198, 18.23730151608243, 3.7353273503766427, 31.237104241139942], [1.4054403672837485, -26.1916981287106, 47.30338387027967, -14.42719489468104, 19.031521937201205, -29.027396585781233, 4.957567689210519, 41.68178664013688], [-10.27352517336379, 29.631234232095597, -29.906475235296114, 32.41742966835567, 25.8000401404238, -30.71327765325591, -13.247758092233466, 23.845450035698345], [-34.332881418825544, 43.01049345754198, -23.211251435687213, 27.967037937664642, -1.1705030304322401, -0.09121990989514156, 2.3648119709258077, -18.295178753413207], [-15.49839729510109, 21.650275170740688, 68.86187938300588, -20.196014673427268, 7.445805152263272, -22.855279570260578, -17.02637715104319, -23.512036741364806]], [[2.070186465811904, -39.28819613904202, -15.720852575077906, -14.161349141648142, -39.07422221286786, -2.0112247706024453, -1.8501012528957195, -4.45884132176094, -21.892401867866468], [7.411487371082014, 0.18473077331406657, -16.93744860928509, -43.289133418861915, 52.233548915666695, 32.305674087379266, -36.198737505839446, 14.02421721982172, -10.219822834298109], [-45.07298569788094, -19.61972888292255, -9.666852557926035, -9.778243161050861, -40.762172213028386, 16.20949747200158, 13.589859305519182, 26.488948473881194, -21.096381642776635], [-30.476554268814805, 5.995875471874701, -3.453317982163745, 34.75757858042864, 12.484224290272026, -18.72990429402624, -31.32978408715632, -21.36956731275334, 48.89312664463156], [56.02910321916671, -22.810367299164103, 4.545736915639954, 4.5788572721120495, -40.737348236467334, -44.80618338685067, 20.01928251049966, 9.224914171829475, -4.439527276044309], [-33.746940896564894, -6.246540202593377, -0.0058713830205505135, 28.242538277250897, 32.81094435648718, -6.312805055375144, 31.050221629794393, -35.65638516867406, 17.300761230433704], [-10.542027169823601, -4.764194313028623, 11.857012047075285, -5.120515912484606, -14.221416445317546, -18.444564980419877, 79.39266736027272, -76.89905148428615, 18.28909991815976], [23.268680769057813, -3.6452214053627814, 26.401403542575277, 25.476158240125837, -25.27018516319719, -26.60054515246779, -11.279216689884226, -48.8774484361346, -4.27840615508747]]], "networkBiases": [[-3.017843673697993, 2.911170238677813, 2.9211835661827092, 1.190667438987676, 2.1193282169468954, -0.23897067927608323, 3.2123601892477236, 7.383455275812748], [-2.2392603862061273, 5.6268965129444055, -1.7784456636306172, -1.8461118390857534, 5.757631907615672, 3.648723362402839, -2.5500123095928413, 3.4536250015607752, 1.4358680385998581]]}