{"structure": [9, 8, 9], "networkWeights": [[[-1.4437199812466526, -43.89748706872763, -1.529083810382962, 0.9391777151044172, -0.10677397688052809, 24.65344510816123, 9.10523209048973, 51.99112314734543], [-5.313791022500055, -1.1701126799143684, -14.420898109876003, -13.735820522227039, -7.88149699682746, -20.52109259922765, -18.249290420514793, -23.660618365463275], [-13.671977154720794, -3.790791111571001, 4.249463494797257, -13.81458754898629, -8.811671923431822, -6.096537375738466, 35.10454243706654, -9.445354883859812], [44.0532506461264, 18.575622718894156, 9.610179661555845, -13.237172646725437, 20.331443292933905, -1.3201519474985635, -6.739771932499216, 52.48455129825377], [-34.24739255462142, -6.040310284445938, -37.62880255017206, -2.7533643395458545, -16.784490244671048, 18.042083222950154, 3.5799315464823085, 31.889056904029335], [1.308117753483827, -26.0148632273792, 47.1705012401425, -14.538721453802498, 18.982974947064093, -28.974700337280346, 4.2525970156674076, 41.1831411202871], [-10.205191762483427, 29.858440908418718, -30.588273802844554, 32.32639405158073, 25.858343931382944, -30.394434498046476, -13.203714549271192, 24.082510502873962], [-35.02305866308719, 43.07989543434079, -22.37754016991888, 27.857511255554392, -1.1756893255484018, -0.09121990989514156, 2.0406144528790175, -18.19144094154066], [-15.659641192260697, 21.831204156248695, 69.17576814371682, -20.501517505452636, 7.808176259031747, -22.386389355914094, -16.817267684476718, -23.796188505054065]], [[1.7711896745807678, -38.74299611591758, -16.337325357662273, -14.254411644403362, -39.023051621067715, -1.8272614579469995, -1.8649359403629013, -4.328921474146979, -21.428630796327916], [7.302044312827175, -0.020900600989724794, -17.27191029746885, -43.16529802620123, 52.32476427259512, 32.10056211669901, -36.09932453161022, 13.877391309770031, -10.735736202187324], [-44.5234567762036, -19.888159423540692, -9.758124090755668, -9.554164172582237, -40.90429431003054, 16.42718253712968, 13.636693383920749, 26.42330686862286, -21.404164212804265], [-30.019464722029355, 5.509960972568077, -3.009144436304121, 34.68140447111261, 12.725194937650379, -18.745956836787656, -31.562416353815568, -21.714675491263417, 48.85871217550615], [55.58204764465235, -23.024450434547497, 4.149766700724795, 4.370942395991961, -40.57081244565661, -44.73961629888805, 19.95842866943543, 9.585443497410276, -5.7014175671793845], [-33.74115861660591, -6.646595099377724, -0.1747470696258096, 28.294648307160312, 32.607326525178706, -6.058548741591453, 30.83018408359757, -35.65402372620493, 17.09692668950541], [-10.028208351688182, -4.271310639870393, 11.840542788950902, -5.216006682387431, -14.592241933852044, -19.287978998780414, 80.27161028186622, -77.27819503842836, 18.579238498023926], [23.445492472295566, -2.961747781585524, 25.753404107866864, 25.631927200816094, -25.214425496118423, -26.647225480661266, -11.132647348013021, -49.079588358471604, -4.58816296670046]]], "networkBiases": [[-2.9054432598695104, 2.4288569591798503, 1.8683851203144592, 2.588853615301769, 2.7626400218218707, -0.9091975831529698, 3.2030904712529495, 7.254601437242522], [-1.8869256353586858, 4.95233799858955, -2.1991958263641753, -1.9583007335041949, 5.467907027439887, 3.0476196006827565, -1.8960043113159655, 2.2178975905744265, 2.087756355163834]]}