{"structure": [9, 8, 9], "networkWeights": [[[-0.4991873422135684, -43.63790777862797, -1.8950859699591258, 1.3934547398723192, -0.3524561207269443, 24.35337268485218, 8.88623165331644, 52.04975117373077], [-5.898795964987264, -1.538742655304567, -13.950478513610193, -13.173119107789839, -8.139311641171735, -20.134340207871855, -18.265839918287856, -24.797108016327638], [-13.342074194430849, -4.327208510380462, 4.411471800163037, -13.108421210231375, -9.30414203819509, -5.927178555082288, 35.01097811264155, -9.535763743637162], [45.14022364504573, 18.42816928357408, 9.160156464343068, -13.571431766889276, 20.48017807897835, -1.785683244921238, -6.530896105407846, 51.93398962165458], [-34.14907954464961, -5.930994931569307, -37.265941380715624, -3.040215115801013, -17.67787649465862, 17.76685191181428, 3.36166256463624, 31.629023424482977], [1.1099445112388544, -26.004585952358767, 46.87094468329499, -14.92913583744082, 18.682347474063086, -28.78468433222894, 4.18301796118479, 40.55864221581753], [-9.925544067941194, 29.26109362308391, -30.408744662599453, 32.40399761884499, 26.681167740238763, -30.78726020519292, -13.356797185400975, 24.690221856887867], [-34.10017657062776, 42.23569713323515, -22.07904592117872, 28.409921643890723, -1.6481659949838268, -0.409384437458989, 2.7367854985153293, -19.285437451992266], [-16.343019123134734, 21.661542586975116, 69.50975895379487, -18.797777778068617, 7.7220895488631935, -21.85139636715264, -17.114274326100997, -23.363910643858286]], [[2.0153312085069386, -38.734079927591885, -16.378340676373874, -14.071858537894075, -38.93030170966865, -1.9191242579158674, -0.8206198334392252, -4.054334103245479, -20.213481892633457], [7.228443351877897, -0.5777708058352198, -17.366770416133292, -42.98455516755548, 52.38583972328337, 33.08225918418093, -36.021444355791694, 14.885086252494242, -10.56641558948534], [-44.42246805195809, -20.258574819108162, -10.992896544411153, -9.218020146795581, -40.17385545887466, 16.17760930581883, 14.696898944721882, 26.987632790529936, -21.630830057887863], [-29.37647778630099, 4.693682552856753, -3.0576522559477306, 35.256287387610215, 12.609179322546481, -18.825265663816324, -31.71325542108677, -21.529535568889933, 49.23633833850906], [55.26065677191093, -23.361285372134056, 4.775701409252273, 4.456384092120367, -40.41837527731139, -45.309841611417376, 20.60939783074193, 9.632648819405519, -4.982160448418463], [-33.606104599326045, -6.258430608245782, -0.6519296305627726, 28.537117358035868, 32.56111111293903, -5.0287512779833925, 30.750637878494967, -35.780861590272764, 16.02936552219169], [-10.271573459009165, -4.883501468638055, 11.347018916418138, -4.128852963010324, -15.63343891620689, -20.833462476471627, 79.71471270153214, -77.65385220076323, 19.47086419753766], [23.071520877704735, -0.2543948742757396, 25.3573097837902, 24.37749756929242, -25.749794787289336, -26.387338812545543, -11.605328028488032, -49.172070283747885, -4.149816958551845]]], "networkBiases": [[-2.9561207267544187, 2.176021341471741, 2.057592760227551, 3.357272533979521, 3.0123995976303526, 0.4136620602380987, 2.4895419623388224, 6.766292268366437], [-0.8886481096678942, 5.291812898175245, -1.968974218943444, 0.6863878168786077, 3.603063772960317, 2.8794109712752953, -1.721927629709521, -0.021316443090652948, 2.1030828042714838]]}