{"structure": [9, 8, 9], "networkWeights": [[[-0.6558732846642688, -43.57767542155485, -2.0436904598396923, 1.9437711572757708, 0.05940121815079946, 19.818615113073264, 8.704056566504539, 48.27876310958195], [-5.571051656723905, -0.1598569364387532, -14.607531670623949, -13.893289343435473, -7.33035353327979, -19.078913881690937, -18.36397522140747, -25.300160158717745], [-14.559042618458431, -4.787147487583998, 3.8559943830288637, -12.430849704037215, -7.226007922933658, -6.9245204342149, 32.59985003693374, -10.232054372006994], [44.56717341811206, 17.85656526910537, 8.761371128404887, -12.890743128134602, 21.607642608143177, -2.966671628286706, -3.9276378705447987, 53.00546002387413], [-36.25289736495278, -3.3088000588504176, -34.00916097471051, -2.593314269650927, -17.55553360791387, 16.969220483141147, 4.544706013742428, 33.792352465106845], [0.5155843777092652, -27.287720799663575, 47.60741883823667, -16.97314465571585, 22.420823497083816, -27.562768049388538, 3.8710312106603846, 40.87938848607653], [-9.261822754082461, 30.558933376922997, -32.5886371289676, 31.40442007821215, 25.253529683217256, -29.407443348062213, -12.205476630018765, 26.88048231698865], [-35.721107439665836, 38.42939832211357, -20.055268003134536, 27.736399116881227, -4.0040895708711925, -4.651735248201243, 0.1450055994650099, -16.794773339178004], [-19.469441938759402, 21.660355758076435, 70.48062461110649, -18.569797074004956, 10.267176153765828, -21.438957459168115, -18.86529175170421, -23.435921468218343]], [[2.6115959081350186, -36.82298410887476, -17.664753812878047, -14.093515360406974, -41.48426552100132, -1.2359583924234372, 0.35441657149230066, -5.619911863464289, -22.50866988979734], [6.236437604591468, -0.9503680109643478, -17.244558634057224, -41.61173904378376, 47.38448690132933, 34.70796623373665, -36.910910568415936, 13.206866825285317, -10.942700550936479], [-43.06775942423809, -22.58022354337194, -11.529213293196502, -9.656412485151463, -40.61524411794171, 18.939245033132252, 16.786709957648895, 26.13256220670587, -19.839554747369196], [-29.945959609226108, 5.897821151719686, -2.3305627424838002, 35.56011529170696, 12.346661888818284, -16.804384391080166, -35.77880948249473, -16.07114969303564, 50.31531049754351], [56.231946553470685, -23.789952513287695, 3.272451194729571, 4.78124296127138, -40.76468147871756, -44.56442364496996, 19.170674727888667, 10.963656018800839, -5.339392849640632], [-33.04417539151432, -6.178902468978205, 0.7339916910690745, 30.355652789497384, 33.07515847602215, -2.006061262728754, 30.383663999667174, -36.113305718854434, 17.263075087595865], [-13.33397135725007, -5.818677465056785, 10.975566327057743, -6.235383611987238, -15.58052218907863, -19.796761061489427, 83.53049794059, -76.83755154764583, 21.565895821771655], [22.390421745843824, -1.372585080631712, 23.197045016782408, 21.13645476828902, -26.447952289251205, -23.855802334735046, -14.718968967556895, -47.66747797549117, -2.885474079707948]]], "networkBiases": [[1.0, 1.0, 1.0, 1.0, 1.0, 1.0, 1.0, 1.0], [1.0, 1.0, 1.0, 1.0, 1.0, 1.0, 1.0, 1.0, 1.0]]}