{"structure": [9, 8, 9], "networkWeights": [[[-1.3959610722289713, -43.89748706872763, -1.5618239222984174, 0.9391777151044172, 0.13801681629342805, 24.409687414512398, 9.183392590794234, 51.90289958937829], [-5.313791022500055, -1.4047303189350815, -14.498972288040525, -13.807564635650955, -7.88149699682746, -20.530778889571458, -18.45959357405194, -23.66809531034141], [-13.631321123438264, -3.790791111571001, 4.204295325560417, -13.348028234985412, -8.995811739830538, -6.49647280522189, 35.02947606089567, -9.499437066062095], [44.0532506461264, 18.575622718894156, 9.810173630853551, -13.086230501021829, 20.39332118267082, -1.5644648931416272, -6.537542801711291, 52.54733772002326], [-34.486927028749484, -6.140951699848417, -37.5461622997452, -2.9463111777397644, -16.784490244671048, 18.05951277457319, 3.5799315464823085, 31.68689889197667], [1.308117753483827, -26.34755802794156, 47.1705012401425, -14.479223381793801, 18.857994229285524, -29.115519208030708, 4.525199944290961, 41.450681654966175], [-10.288965090850102, 29.631234232095597, -30.588273802844554, 32.080792458939115, 25.556734003079463, -30.54459596108435, -13.203714549271192, 23.993935779886755], [-34.802897707053894, 43.11587622428182, -22.230407360255064, 28.01840733551591, -1.1756893255484018, -0.09121990989514156, 2.053705428887798, -18.27554607468266], [-15.818095491954749, 21.82116304142544, 68.93605818555464, -20.28704085532475, 7.694719597020166, -22.80885952309232, -16.817267684476718, -23.604761027870914]], [[2.261537351333548, -38.96507484774852, -16.08792486096858, -14.161349141648142, -38.910777303828375, -2.045568645229013, -1.8649359403629013, -4.467650279225129, -21.454276857349697], [7.060745556701152, -0.05226222526761154, -17.27191029746885, -43.16529802620123, 52.14312949958854, 32.252380225090874, -36.06381178711583, 13.877391309770031, -10.735736202187324], [-44.89905789210192, -19.676657654656324, -9.36619089282842, -9.790013213651132, -40.90429431003054, 16.511532255508712, 13.666146333475742, 26.42979001659242, -21.133433614713706], [-30.019464722029355, 5.509960972568077, -3.181850965607466, 34.53594579584452, 12.701514553641305, -18.745956836787656, -31.262847213481017, -21.686981402886985, 48.89312664463156], [55.572431589784564, -22.78010869748815, 4.2616815937097074, 4.297910999949111, -40.737348236467334, -44.73961629888805, 19.95842866943543, 9.66266390116994, -4.92474149655269], [-33.74115861660591, -6.736538705885986, -0.11442518035299676, 28.72474445411172, 32.607326525178706, -6.069775467981171, 31.014231730072282, -35.65402372620493, 17.416249650573043], [-10.177119001933342, -4.271310639870393, 12.063544491762494, -5.172016275380823, -14.448333234165487, -19.151188360276183, 79.78338440671784, -77.14629206566714, 18.45593954016392], [23.26892194145669, -3.265082268438197, 26.52717857019971, 25.631927200816094, -25.2481815061271, -26.601288722399563, -11.162277355633032, -48.9105675746484, -4.212319842444882]]], "networkBiases": [[-3.08197305800284, 2.396562298121085, 2.257088973044465, 2.1234240339355286, 2.8390829509761244, -0.4573766152042843, 3.041504675310772, 6.631079826028217], [-2.111819162240675, 4.919208700886836, -1.9300789664297144, -2.9279641034934296, 5.899783617252777, 2.938182802615611, -2.01825377291689, 2.483348935143626, 2.173964264891322]]}