{"structure": [9, 8, 9], "networkWeights": [[[-1.4451346969627565, -43.72948951583779, -1.3053567857044484, 1.4402679731494903, 0.3522803412197121, 24.955014646444685, 9.26873691773178, 52.05661767004288], [-4.513234865016768, -1.9547303705254535, -14.399110032657806, -13.87510359667143, -7.778348513367191, -20.144339854834772, -18.41482334555791, -23.983568932459647], [-13.433381555778439, -3.708491031005912, 4.459184044240006, -13.327197417317468, -8.718462396892054, -6.44524925162997, 34.93505404733585, -9.622069495156556], [44.0532506461264, 18.726990536423894, 10.637287747577853, -13.659186364332824, 19.94455500811653, -1.135476861630924, -7.506729299505567, 52.890158274947986], [-34.89547391380446, -4.969603895522811, -36.82702338840445, -3.2297704954278545, -16.83295289556784, 18.02367443363647, 4.212108232014764, 31.442125867339623], [1.555778338529552, -26.494527643772802, 47.11496114354853, -14.173763969379785, 19.08703234424218, -28.936122967679147, 5.072091333731825, 41.72219385377278], [-11.075794027138935, 29.5212904478872, -29.833112965505872, 32.331428121477124, 25.96330997771338, -30.533531349995283, -13.74734346124417, 24.461806082864516], [-34.792439702007734, 43.01797276913627, -23.566354480196544, 27.926110466214645, -1.2932636555097772, -0.06174221339002717, 2.1142579232910768, -17.733348547710857], [-15.312479720324607, 21.93622500619963, 69.94895629442719, -20.62372957721789, 7.630700173114272, -22.31125565538184, -16.946328571132312, -23.186079273662564]], [[1.9169145828037535, -39.43566044740863, -15.537405783241478, -14.231335677588143, -39.70507163178062, -1.8865022687529343, -2.09826876804174, -4.458309585527968, -22.161103495844813], [7.807558799532722, 0.16839512762682524, -17.237732765256954, -43.37957551462525, 52.096760160938, 31.697413745739702, -36.39240331522076, 13.811038803807614, -10.061073863246994], [-44.53407264408834, -19.546935131759138, -9.993117912638189, -10.298047983728924, -40.29865371207748, 16.352664688088566, 14.598672690896308, 26.867728604539852, -21.29442145359806], [-30.74438716351842, 5.6274515944507355, -2.781164335169338, 34.35153242205431, 11.784039160113775, -18.76367937434414, -31.615424371289148, -21.42843363825671, 49.303919639229], [55.94994729767532, -22.295767175909994, 4.019050594232952, 4.610637344611833, -41.33117982565173, -44.57058210762686, 19.831090689869853, 9.170786108445554, -4.882551163782213], [-33.856955189390554, -6.6038297739541605, 0.3678516621800846, 28.50051895680188, 32.91286493583806, -6.193675684174424, 30.68269934787488, -35.92714890457256, 17.22728504032143], [-10.939089550153788, -5.009168431274432, 11.950450114495075, -4.783895423042992, -14.897398923387325, -18.12500944142459, 79.31744169148243, -76.50251499758365, 17.984997699649913], [23.279204393907744, -3.07959240739483, 25.959621374454333, 25.718754248058083, -24.498620235747175, -26.61625842629693, -11.108372524752804, -48.89510052216753, -5.029640816015219]]], "networkBiases": [[-2.657717613716107, 4.180707600462553, 3.4490692992073724, 2.918301937797545, 3.2057672656347633, -0.732057897136521, 1.6615399150967582, 5.595263706455453], [-3.7387205620780812, 5.78959451575975, -1.38945294836863, -2.979381267904067, 5.601891453904499, 3.718264492927292, -2.967999293447996, 2.246751063036827, 2.38917283511619]]}