{"structure": [9, 8, 9], "networkWeights": [[[-0.6065307205986789, -43.91386933261572, -1.0739387005942402, 1.9724687290169285, 0.9395826222412047, 25.250682208790824, 9.073836115546287, 51.28353595439393], [-3.9763392566326377, -1.6402131681095613, -13.993823192268323, -13.737526940454023, -7.177331532102459, -19.79704978580909, -18.1516068226853, -23.56057247109491], [-12.363489853312748, -4.1540482767490685, 5.20243339651573, -13.693039456598376, -7.78174701611247, -6.545725050744656, 35.24396167066388, -9.425347581834327], [44.655373560577225, 18.843961005710497, 10.83936633315087, -13.801410062153954, 20.296015148723868, -0.8597005654685208, -7.763816648067373, 52.908160959511314], [-34.81269535162295, -4.589512040955526, -36.47336109783207, -2.174985099827185, -16.40882128146491, 17.6816340864652, 4.001958253533107, 31.24452698501223], [1.8915746316261721, -26.206207856039722, 47.23828000518661, -13.65074255587093, 19.260916358432475, -28.42584142939393, 4.310911853821991, 40.8631043704555], [-11.737835855650133, 29.07936392712648, -30.060218974144053, 32.51792830810609, 26.12640699056117, -30.29367018049277, -13.28093869019591, 25.043665768702983], [-35.30995757799088, 42.53141877270146, -23.714034358064136, 27.981134390351993, -1.2657636190871562, 0.1462857341669508, 2.359829697130823, -18.122007138857136], [-15.419628921892784, 22.466966352401652, 69.79316101898445, -20.958650360134296, 7.737113479664693, -21.97624134356371, -16.422119778257986, -22.66562740136118]], [[2.5740664712475883, -39.40836805937354, -14.945840218057333, -14.12364994296805, -41.107831884743916, -1.4154234446167648, -1.4402384497526628, -4.436046252678438, -22.330611905730972], [7.7052389368493985, -0.6641865044930915, -17.446344879224714, -44.191599944767496, 51.88725873272945, 32.23443318645642, -36.59987681519815, 14.186403859096623, -9.98537225668715], [-45.973754648098236, -19.671333210294023, -10.801729547983241, -10.010623242628691, -40.07822256430134, 16.532772653291964, 15.103312841594208, 27.126037991436526, -21.94759400723303], [-31.73363130666638, 5.025616752670481, -2.20259875226623, 33.88544201583324, 12.236349395207654, -18.68455428521917, -31.968964557085, -21.330524315619115, 48.846455885152004], [55.78010507777599, -22.347668109912437, 4.508575883403296, 4.925285818779305, -41.406900321223176, -44.76694982238856, 19.447421520390847, 10.497126382967348, -5.342626415842424], [-33.662270336796595, -6.590160250216691, 1.4827219906783555, 28.28994842241703, 33.39705751713114, -6.511991802757268, 30.620988394203795, -35.435057020174284, 16.975461204006297], [-10.82892344941979, -4.87723103646519, 11.545881482923795, -4.415416681259985, -15.18552550958984, -18.119751063256565, 79.46396105600789, -76.31645488682446, 18.72626778414907], [23.6101418960864, -2.8809808780763735, 26.665485007733157, 26.147809766066697, -24.61225850482123, -26.956622281606247, -10.961494159643218, -48.80216794526335, -5.497141350884313]]], "networkBiases": [[-2.2896074031353333, 2.9069332785026307, 4.937532771760699, 2.081052169863641, 4.501479366514944, -1.7825229986061788, 1.927122692076999, 4.72046969668491], [-3.9073054288550138, 6.560947512414872, -2.6826404005516915, -2.0884368457585945, 5.4654531311644154, 2.882049824550773, -1.4753489560965936, 2.961044385914138, 2.6599079060025224]]}