{"structure": [9, 8, 9], "networkWeights": [[[-0.6558732846642688, -42.8600207565009, -1.7926154766892486, 2.8512335331422713, -1.4738597472180004, 20.29666212602901, 8.8831590838167, 48.75856410652807], [-4.946567269304859, 0.3231232822851877, -14.607531670623949, -13.960201386690686, -7.4734056325752, -17.421502511950667, -17.893632779389236, -23.792626905163775], [-15.148984331612507, -4.090345244177572, 3.8559943830288637, -12.430849704037215, -6.5138537370185094, -7.190768272977899, 32.59985003693374, -9.417422183841914], [44.00629149145675, 18.669946715402677, 9.296204419425129, -13.773338459076937, 22.207322768591553, -3.36502983858367, -4.635015257340189, 53.14254401881807], [-35.54904322638146, -3.5031593790386055, -34.00916097471051, -1.6305856705125972, -17.82744446406404, 16.969220483141147, 4.222519028940945, 34.023298927575816], [0.5849413282850082, -27.54167234710576, 48.5300505750782, -17.069750326901982, 22.420823497083816, -28.330838692455064, 2.6340747347597038, 41.26167799391458], [-8.665139279588484, 30.212418608750124, -31.82289507574283, 31.40442007821215, 25.298059546610556, -29.285679834304183, -11.833586197616269, 27.272166948253236], [-35.721107439665836, 38.814744674653625, -20.055268003134536, 27.736399116881227, -4.0040895708711925, -3.8810367128939034, 0.1450055994650099, -15.981309710530539], [-19.469441938759402, 21.045673292760135, 70.16098647645019, -18.569797074004956, 10.375905073783857, -22.24054703651246, -18.456681468127513, -24.35286334941173]], [[2.286745207985078, -36.59978062180077, -17.805547210669978, -14.294210384949878, -42.02565255362902, -1.3659801022714213, 0.35441657149230066, -4.650435834832815, -23.08720431055997], [6.587429836249829, -0.665216460005623, -17.244558634057224, -41.78180277099396, 47.97083894079992, 33.68551236158966, -35.888382955378226, 13.841747059353088, -11.08418524690246], [-42.860237655429536, -19.376822743038833, -12.978336226876548, -9.622970763781504, -39.74854096895701, 18.939245033132252, 16.67675709664325, 25.973867500054034, -19.91638090861247], [-29.945959609226108, 6.6358225905504655, -2.7953912829127665, 36.062429414076924, 11.112854392725268, -16.804384391080166, -34.93766252643636, -15.635465937847187, 51.07255078865523], [57.184668996301596, -23.657096472814192, 3.272451194729571, 4.78124296127138, -40.55458565938624, -43.57730500559173, 19.170674727888667, 12.099990097666241, -5.300079813683624], [-33.05725206337698, -5.411813897046316, 0.5702879166674129, 29.854595091886015, 34.37542201891175, -2.6687653123062556, 29.817105705507434, -36.105105802213366, 16.6204133968496], [-12.532675649069885, -6.417810414897788, 10.987639732994838, -7.974700832042334, -15.281301646616509, -20.601341388500558, 84.15756706403883, -75.83367139779838, 22.105068114966375], [22.476497459850663, -1.372585080631712, 23.197045016782408, 21.02895294015981, -26.447952289251205, -23.036955845053217, -14.718968967556895, -47.61425851045233, -2.885474079707948]]], "networkBiases": [[1.0, 1.0, 1.0, 1.0, 1.0, 1.0, 1.0, 1.0], [1.0, 1.0, 1.0, 1.0, 1.0, 1.0, 1.0, 1.0, 1.0]]}