{"structure": [9, 8, 9], "networkWeights": [[[-0.49727447954215853, -43.7975607936214, -1.1442110532224503, 1.7526619983179244, 0.8703818928432014, 25.219432464196213, 9.163068016171316, 51.03572138219081], [-3.927043198958666, -2.0661731203809475, -14.071881486638018, -13.776554901867689, -7.225623681411343, -19.880784662937316, -18.12125200741122, -23.627998078014407], [-12.640721420767933, -4.1716789051340175, 5.02395697510589, -13.577836081243303, -7.843300449676585, -6.364187561074884, 34.873425191962454, -9.55074057150243], [44.60584302678363, 18.748278723817876, 10.819464106620979, -13.862291808147587, 20.30093789053557, -1.0780182741868651, -7.826378851814654, 53.10369866686064], [-34.76101169518428, -4.678728776362514, -36.45144820529686, -2.3189650662430257, -16.318572026245715, 17.642505230533, 4.05475133016377, 31.057196097314428], [1.8631615374940436, -26.213096615060596, 47.368955233870686, -13.697316429104529, 19.24588031570002, -28.391982374708277, 4.175692180039896, 40.79437626852857], [-11.548417832827605, 29.09733641179579, -30.158752546171883, 32.52236702317066, 26.394557427652593, -30.532001346304543, -13.609394406284933, 24.947505926392925], [-35.12878109095123, 42.47721652335554, -23.6546578200018, 27.887701652992543, -1.1112429306927212, 0.14395607372132196, 2.329959912555298, -18.083459148126753], [-15.407490073002835, 22.402188954238554, 69.78895157656984, -20.915952835723, 7.765829609845465, -22.049406965860385, -16.46115150435428, -22.768272315425595]], [[2.502474811547404, -39.56128566846536, -15.113622040794358, -14.154776569933183, -41.04475250375413, -1.3269068800663564, -1.7735781151765673, -4.497469929623808, -22.39596498920482], [7.754512466432271, -0.6976553362034916, -17.429632164060685, -44.14055517305185, 51.87469231087139, 32.21366350056271, -36.68700767486316, 13.9466904752012, -10.026304601152365], [-45.771184821230946, -20.077956217211252, -10.77782752841172, -10.104824499074077, -40.09328280065599, 16.407419223836186, 15.040098727158226, 27.054293973603162, -21.89694245669784], [-31.601170324198353, 5.139963018568619, -2.282402203741656, 33.98289474702625, 12.249423041512742, -18.77171516339287, -31.876810799318775, -21.3449454173345, 48.7431355576393], [55.59633120208679, -22.30276738334261, 4.674230679699817, 4.819830157902219, -41.34771004412924, -44.975889521367186, 19.567612466307025, 10.22098207621805, -5.311132292134844], [-33.581819806065496, -6.488056525652796, 1.2204011119918492, 28.397919927025278, 33.28197233231038, -6.277779595269632, 30.780164471974764, -35.57334903489505, 17.007368148173562], [-10.753972579069126, -4.8346626152546195, 11.45584650172388, -4.643676471914814, -15.149639980096385, -18.273106445371766, 79.28301403851316, -76.17969145850832, 18.71960180583381], [23.54267824812964, -2.7876994320212853, 26.643971739545133, 26.092632371709474, -24.66319336104511, -27.05958946167806, -11.1229069148714, -48.9296087098901, -5.5106784947592695]]], "networkBiases": [[-2.3735236191880835, 3.503560927836261, 5.022852733970305, 1.4187926847043364, 4.724420039013905, -1.5422575963712613, 1.956730102853375, 5.444164216902636], [-3.98043874664577, 6.668336172202061, -2.79833191632503, -1.6140579120146896, 5.80410068088488, 2.2850753069836256, -1.7298602233496223, 2.928277385760785, 2.384192031904005]]}