{"structure": [9, 8, 9], "networkWeights": [[[-1.3265157921070934, -43.72948951583779, -1.3053567857044484, 1.2215053442575186, 0.3522803412197121, 24.940026010905537, 9.26873691773178, 52.05661767004288], [-4.513234865016768, -1.9547303705254535, -14.399110032657806, -13.87510359667143, -7.778348513367191, -20.144339854834772, -18.326499984917163, -23.74989890090106], [-13.32387792223135, -3.4102179575778964, 4.511071225792022, -13.271917209523636, -8.718462396892054, -6.44524925162997, 34.93505404733585, -9.330526404187733], [44.0532506461264, 18.655813850025705, 10.639825604289364, -13.793928776429443, 19.94455500811653, -1.3785370415527718, -7.400334015353555, 52.890158274947986], [-35.07018480310976, -4.969603895522811, -36.82702338840445, -3.2297704954278545, -16.83295289556784, 18.02367443363647, 4.212108232014764, 31.442125867339623], [1.6167636224235638, -26.326819310929505, 47.11496114354853, -13.99689712158739, 19.08703234424218, -29.023516912239607, 5.086849614128794, 41.54162292110879], [-10.959310900293309, 29.5212904478872, -29.833112965505872, 32.471505315898156, 26.166348604712812, -30.533531349995283, -13.645558388268736, 24.461806082864516], [-34.792439702007734, 42.79406015233946, -23.566354480196544, 27.71898460706934, -1.2932636555097772, -0.06174221339002717, 2.1142579232910768, -17.733348547710857], [-15.312479720324607, 21.93622500619963, 69.75519987520298, -20.62372957721789, 7.630700173114272, -22.54487296219981, -17.084565558601266, -23.186079273662564]], [[2.148740661667259, -39.61781996252953, -15.536879613795714, -14.37779042608998, -39.70507163178062, -1.8865022687529343, -2.162010424935694, -4.458309585527968, -22.204912532415836], [7.807558799532722, 0.16839512762682524, -17.237732765256954, -43.75720703920097, 52.04922422461059, 31.83188480227462, -36.39240331522076, 13.811038803807614, -9.965352058894156], [-44.394223280389674, -19.18425220925467, -9.98364718103856, -10.298047983728924, -40.4132726106075, 16.41538647877198, 14.598672690896308, 26.867728604539852, -21.29442145359806], [-30.74438716351842, 5.6274515944507355, -2.781164335169338, 34.35153242205431, 11.714976187686645, -18.537095199339664, -31.615424371289148, -21.42843363825671, 49.459156009590245], [55.93606376582054, -22.295767175909994, 4.358932999737859, 4.610637344611833, -41.48572319098447, -44.57058210762686, 19.837211430422673, 9.170786108445554, -4.984820537711995], [-33.62893775509289, -6.6038297739541605, 0.3678516621800846, 28.50051895680188, 33.14918285054797, -6.247454767415757, 30.68269934787488, -35.85096371193291, 17.22728504032143], [-10.939089550153788, -5.009168431274432, 11.950450114495075, -4.783895423042992, -14.897398923387325, -18.34932847707585, 79.31744169148243, -76.50251499758365, 17.984997699649913], [23.19737013507516, -3.333505262380365, 26.339137873838773, 25.792645863602417, -24.498620235747175, -26.61625842629693, -11.036034741491639, -48.78264214321334, -5.029640816015219]]], "networkBiases": [[-3.123627304984706, 4.669445115673255, 3.693332713592575, 2.568066178025324, 3.2061473183968134, -1.1079576446745838, 1.922917920349264, 6.598989933368653], [-3.771282867800732, 5.975366073820775, -1.510400985671299, -2.6584020786438147, 5.609070334945234, 3.8220190594638606, -3.0334480342986936, 2.0610728628530026, 2.2982981410249606]]}