{"structure": [9, 8, 9], "networkWeights": [[[-0.5618242169132156, -43.794623218737186, -1.2131706973567842, 1.794345087166597, 0.8573244456520449, 25.270042984548503, 9.13688481543591, 50.98880921857677], [-4.000642951556387, -1.82417035772998, -14.028415429291343, -13.715110487023992, -7.256501797532496, -19.838205921874902, -18.16470368309675, -23.603189725348294], [-12.470421756865719, -4.182916735766584, 5.21536633201575, -13.613147029648937, -7.722932683969874, -6.519390762862087, 35.03730903799105, -9.49854502923199], [44.79644734700528, 18.76217319106359, 10.816175389301494, -13.659549924467726, 20.300051574911155, -1.0048189044371723, -7.746297158884264, 52.987783456982825], [-34.73119380770658, -4.781353619416757, -36.50572097098068, -2.2793244737088756, -16.43105384111359, 17.71535446713088, 4.057051995170767, 31.003653994918146], [1.93393845820692, -26.175729596492104, 47.46218388677767, -13.684129985068177, 19.281385446499847, -28.314765254477933, 4.273007524210197, 40.78843709821992], [-11.585863359475704, 29.12112928875508, -30.249442150006423, 32.42676176950738, 26.33693602990815, -30.370734713543257, -13.539893139330706, 24.92618722872561], [-35.22986943582576, 42.382586098983374, -23.6344717325974, 27.960556927718223, -1.1776233206257931, 0.1768537776654644, 2.35447778502527, -18.020251125107013], [-15.51676375190419, 22.521712485106, 69.70722196395347, -20.945099801651498, 7.729263070164473, -21.85687627965308, -16.43653318800846, -22.680749714323074]], [[2.444308968252082, -39.42873738752861, -15.002213424672513, -14.09250294483143, -41.06789976412567, -1.3096403495485163, -1.638503366163576, -4.55273378348732, -22.242813160987588], [7.719910067317008, -0.7619606796545857, -17.40257924253379, -44.12401864399821, 51.90842982163299, 32.23681181867033, -36.68391435555373, 13.967494475900905, -9.93807156599435], [-45.891566846162924, -19.85868097779655, -10.757728587025127, -9.993118629760113, -40.037172689140625, 16.558166776501402, 15.093637693244444, 27.061282663866667, -21.795634360910526], [-31.484196631350656, 5.064342615572523, -2.2625366476045436, 33.950639118214944, 12.270118768108972, -18.75176465856207, -31.9354361295437, -21.180279607694512, 48.728524073049144], [55.67808080293879, -22.406987532287793, 4.764519618415093, 4.890636776485027, -41.520822557409595, -44.806397948942056, 19.655715388313784, 10.262666083691325, -5.325377739714515], [-33.635592693643, -6.550383844630682, 1.3226751852868672, 28.343519733062266, 33.301239427860516, -6.390109472582967, 30.737948432158415, -35.49597392116538, 16.95721916808136], [-10.759674618572168, -4.7872273413526685, 11.430246304563875, -4.6022370232320835, -15.131852089244216, -18.09037638060472, 79.31625332966291, -76.31532430412197, 18.816509633873004], [23.520395707546907, -2.7954099282491187, 26.63209030883196, 26.163683126991113, -24.512772737150765, -26.91967321832714, -11.047192702433561, -48.927396799485805, -5.516764953408451]]], "networkBiases": [[-2.1850136516084366, 3.4701813224765425, 5.04461033305285, 1.6117090480274086, 4.491386093985157, -1.81869539537536, 1.5719867276102568, 5.170067580485169], [-4.080399313303101, 6.68475781808393, -2.91698494035079, -1.7039843810500073, 5.780560695747044, 2.4605309352306515, -1.3210457607279629, 3.232948820853757, 2.5418668496970724]]}