{"structure": [9, 8, 9], "networkWeights": [[[-1.4754432753601257, -43.65396837587958, -1.2509582143732845, 1.4246527542481826, 0.5176909936672851, 24.940026010905537, 9.068831991138614, 51.814075957428045], [-4.513234865016768, -1.7159802178155814, -14.473973477393942, -13.588042262364851, -7.662088432715542, -20.02239770817799, -18.58627366699489, -23.845365163700176], [-13.118886468803483, -3.75269438026746, 4.759819518872891, -13.366527952214444, -8.506750865843232, -6.2512118647979245, 35.0760252099882, -9.622069495156556], [44.38973958189088, 18.876277141329226, 10.513983334796386, -13.860333555466374, 20.169990730469262, -1.0430917651066787, -7.334528727488624, 52.890158274947986], [-35.07018480310976, -4.858260047741396, -36.50195683350408, -3.342603731470456, -16.839812986510907, 18.088490063405775, 4.11514333359949, 31.442125867339623], [1.7559636117676027, -26.725846728887703, 46.95489060720997, -13.842560331473225, 18.946683029449524, -28.768458191686307, 4.841843168737134, 41.63328984241372], [-11.347931277126222, 29.5212904478872, -29.6915536964248, 32.471505315898156, 26.069698784780414, -30.533531349995283, -13.88280812533836, 24.376078796385908], [-34.94113294259291, 42.772763081908955, -23.725184255168802, 27.71898460706934, -1.2932636555097772, 0.0655409328091845, 2.1142579232910768, -17.723027041272594], [-15.385721432120535, 22.088936306806335, 69.8868112316193, -20.81127487963653, 7.574745461902535, -22.21466533858408, -17.05438298422078, -23.186079273662564]], [[2.148740661667259, -39.66960982950871, -15.38301426522628, -14.20265355850399, -39.66908227219834, -1.6837743367380138, -2.1792563122559137, -4.566206325745739, -22.204912532415836], [7.710883159813643, 0.2774489602726402, -17.237732765256954, -43.75720703920097, 51.83123524227481, 31.83188480227462, -36.39240331522076, 13.609243944773354, -10.134491082749882], [-44.78966068378359, -19.61085931076579, -9.98364718103856, -10.298047983728924, -40.14380353238146, 16.230041893572583, 14.652009108296008, 26.892894949767843, -21.358596259608426], [-30.751462258200014, 5.935648096144113, -2.781164335169338, 34.45333772551847, 11.991448916587606, -18.696262686412723, -31.94322074692907, -21.41567744444804, 49.77846249280311], [55.93606376582054, -22.600761568420513, 4.233130668172282, 4.610637344611833, -41.42751856928463, -44.4492752951329, 19.508047755660474, 9.465159098970792, -5.0310087963043], [-33.8002086128549, -6.611398917045904, 0.5850162673893968, 28.442328803903358, 32.67428502638828, -6.193675684174424, 30.68269934787488, -35.74765056085846, 17.26706169344194], [-10.939089550153788, -4.892177577845518, 12.063961166856258, -4.966131871000305, -15.089029884780814, -18.34932847707585, 79.31744169148243, -76.50251499758365, 17.984997699649913], [23.39236939584165, -3.182570686784918, 26.19261999919674, 26.02356513128816, -24.379060739163286, -26.760276049458657, -11.19217031962862, -48.78264214321334, -5.088221862627802]]], "networkBiases": [[-3.41328626481406, 3.615581128419788, 3.4882519441023194, 2.768449336457544, 3.310263547901824, -0.864433354348163, 2.1940060150660923, 5.484153490936783], [-3.863289097335409, 6.568261605880828, -1.2581437001939852, -2.076597108553359, 5.401047953848582, 3.4032961051107864, -2.8490612129593322, 2.4503418472246508, 2.273189639612916]]}