{"structure": [9, 8, 9], "networkWeights": [[[-1.7086838194078453, -43.9826959937845, -1.6205117822681543, 1.0402763627961473, -0.24845923744994497, 24.580287570515576, 8.88623165331644, 52.2996085507671], [-4.929171965929852, -1.5205759460063435, -13.636914757681483, -13.790417756518124, -8.16910439896823, -20.01068514830349, -18.412617986330105, -24.771081682769584], [-13.315949486157182, -4.225768161576937, 4.362347435736398, -13.630000986772199, -8.918360047381562, -5.92027505713172, 34.95846014408632, -9.754980291072114], [44.28890425534326, 18.637467135983215, 9.160156464343068, -13.642686463391708, 20.483832073425987, -1.630724172411214, -6.546946532514665, 51.681334980692526], [-34.262436227057634, -5.737875484864311, -37.16958426363626, -2.8671565485763724, -16.759810842034717, 18.486363325886963, 3.2387837674832802, 31.629023424482977], [1.0634121862749182, -26.046167415484724, 47.25093021693465, -14.706419041075847, 18.90827349717258, -28.56135120348887, 4.175989268086584, 41.347740279338744], [-10.383203949628832, 29.24770809345959, -30.35646883611472, 32.3107835110535, 25.978207538418197, -30.817618026170305, -12.800626125870949, 24.242257426669696], [-34.8975618710402, 43.01637851614795, -22.482580028291093, 28.20300265535998, -2.0657020981737153, -0.34188417724330333, 2.9606628578205063, -18.3831983543381], [-16.343019123134734, 21.664037733004868, 69.55162997293178, -19.820500207290603, 7.736940749560234, -22.105642497479874, -16.82572058642858, -23.598495026151923]], [[1.9909713001411484, -38.734079927591885, -16.416874991279176, -14.904368257934236, -38.95051104908421, -2.0461008916054158, -1.640039206633543, -4.021913506437777, -21.395822082795007], [7.415264082159904, -0.6275279189780327, -17.094107039641084, -43.324284243540625, 52.48558166191882, 32.37403894771403, -36.021444355791694, 13.956578835499322, -10.674240766793346], [-44.754652267515375, -20.092060910053036, -9.72163499146165, -9.71037476680184, -41.047848470149304, 16.348651005956434, 14.656216428134744, 27.18759673224761, -21.504379083826578], [-30.18430313379907, 5.249075683255264, -3.4101223906949656, 35.256287387610215, 12.683548237891527, -18.512321691194288, -31.778756861617246, -21.800495496630102, 49.164128142298544], [55.758933257733155, -22.560305026696664, 3.933999504108834, 4.645846925960257, -40.139115911115454, -45.105602581749324, 20.60939783074193, 9.667306486042696, -5.705876592258384], [-33.91555216292275, -6.368571965455164, -0.8606931194842231, 28.010692852745596, 32.42319696457289, -5.739131096897811, 30.988822608157136, -35.979711272794255, 17.144140752940462], [-10.249410689082097, -5.0974953915694226, 11.732418104174204, -4.861044409585551, -14.814284678983764, -19.980313755719262, 80.27996904031674, -77.32565539221545, 19.066520201471228], [23.20348457106807, -2.69522504413521, 24.97932320003473, 25.141245463337643, -25.471705146656557, -26.914130944261778, -11.129199431938082, -49.553766005499696, -4.005968170511872]]], "networkBiases": [[-3.405506898973531, 2.20827013331586, 1.8132886903639338, 1.9013341967500015, 2.41290683857279, -0.21802349999171544, 2.3912248186779537, 6.56367061338319], [-0.654306535516683, 6.712654634818636, -3.608954906279259, -0.268980215786902, 7.106839566606182, 1.871714657219495, -3.689884049857884, 1.1962898074294714, 1.5644862687747028]]}