{"structure": [9, 8, 9], "networkWeights": [[[-0.6558732846642688, -42.8600207565009, -1.7926154766892486, 3.16251185963557, -1.3663357371274818, 20.29666212602901, 8.63652980260321, 48.75856410652807], [-4.74466737809651, 0.829963255623803, -15.160098059001667, -14.480463218444093, -7.4734056325752, -18.142099143226947, -17.082462468317594, -23.792626905163775], [-15.148984331612507, -3.9476209933858053, 3.8559943830288637, -12.33267941730266, -7.268808139838933, -7.190768272977899, 32.59985003693374, -9.417422183841914], [44.00629149145675, 18.669946715402677, 9.296204419425129, -12.923206011805199, 22.207322768591553, -2.9919254755324323, -4.635015257340189, 53.14254401881807], [-35.54904322638146, -4.471818165267079, -34.00916097471051, -1.2284433373702832, -17.82744446406404, 17.918694677531857, 4.222519028940945, 34.023298927575816], [0.5849413282850082, -28.770433185218916, 48.5300505750782, -17.069750326901982, 22.886929915903014, -28.84898640292854, 1.9703524497181228, 41.41452199817958], [-9.452948004678271, 30.568706611510144, -31.82289507574283, 31.40442007821215, 25.380432384855624, -29.463015100842807, -11.967796322724654, 27.748376258812794], [-35.721107439665836, 39.455394687319334, -19.256537841239712, 27.736399116881227, -4.14676489787503, -3.8810367128939034, 0.1450055994650099, -15.981309710530539], [-19.469441938759402, 21.83749958480029, 69.70803042925824, -18.569797074004956, 8.433319943686811, -22.473814132214745, -18.456681468127513, -24.642620522160758]], [[2.3978159596661115, -36.59978062180077, -16.845166817840322, -14.154891477432534, -41.21248106311606, -2.2959688429777616, 0.35441657149230066, -4.650435834832815, -23.831388547350908], [6.169063568816793, -0.665216460005623, -17.244558634057224, -41.49907234016979, 47.32049028101962, 33.68551236158966, -34.24153105754236, 13.010375642149526, -11.08418524690246], [-43.88883595063637, -19.376822743038833, -13.100704904332606, -9.622970763781504, -39.48317122699082, 18.939245033132252, 16.67675709664325, 25.973867500054034, -19.91638090861247], [-29.771491346045465, 6.6358225905504655, -2.7953912829127665, 36.062429414076924, 11.476435089410195, -16.317061314800455, -34.93766252643636, -15.867623001338615, 51.412399040452094], [56.60868968922427, -23.282990435361782, 3.272451194729571, 4.236865787807893, -39.68293215970396, -43.57730500559173, 19.170674727888667, 12.099990097666241, -5.609195973157753], [-32.871403610111614, -5.411813897046316, 0.9276561118768938, 29.019062954419983, 33.423816879795666, -2.901889709160491, 29.25837354836402, -36.105105802213366, 16.6204133968496], [-12.598006204685891, -7.3686594041336075, 10.492869395113065, -7.974700832042334, -15.281301646616509, -20.652978592415504, 83.9396541490001, -75.4629462100823, 22.105068114966375], [22.538921316998305, -1.6006510982498705, 23.197045016782408, 20.59562430710295, -25.843437984632132, -23.148004851771667, -14.569888176743623, -46.79872798472534, -2.2311510679750564]]], "networkBiases": [[1.0, 1.0, 1.0, 1.0, 1.0, 1.0, 1.0, 1.0], [1.0, 1.0, 1.0, 1.0, 1.0, 1.0, 1.0, 1.0, 1.0]]}