{"structure": [9, 8, 9], "networkWeights": [[[-0.6013489584438602, -43.945385255780785, -1.1146192216654063, 1.9302314502625633, 0.8827469362752015, 25.250711445826795, 9.090368228590462, 51.195709952806304], [-3.992646574326593, -1.6603811315365422, -14.066535789289068, -13.657722235896749, -7.216546297244915, -19.83249713321764, -18.177203662287237, -23.61875967736424], [-12.383366475986863, -4.1369697363608795, 5.22747269087615, -13.678166563547352, -7.732369676789808, -6.577678075693358, 35.11962360828646, -9.42745587526096], [44.67324155029476, 18.75213454558914, 10.884466926524299, -13.731753867670573, 20.329900538867335, -0.9385617299408204, -7.732141609475542, 52.9698693576789], [-34.75161981402622, -4.6545286050814845, -36.53659865001641, -2.240477613817079, -16.426732825058338, 17.688771526941267, 3.973703911954669, 31.127369618663067], [2.0704901531765354, -26.123439143365584, 47.4062529135778, -13.643584534225965, 19.315285167296363, -28.434929355889544, 4.3267285163338745, 40.846247059666815], [-11.735950616465928, 29.10898127438105, -30.096017707399746, 32.41299476264317, 26.177927259846836, -30.246074311184138, -13.397654738312966, 25.01543524397085], [-35.23083691066637, 42.46911236300092, -23.779594342389938, 27.909950711940244, -1.2473828237501332, 0.17660088517612704, 2.3895168021114075, -18.0987485194317], [-15.476530064409936, 22.54377507194819, 69.76131690126749, -20.983998253017344, 7.691794559554763, -21.97624134356371, -16.39667214419052, -22.799411413204407]], [[2.4700108337487015, -39.439281637738226, -15.037706447499142, -14.153054446052248, -41.04236429611337, -1.3604594939516177, -1.529939187436127, -4.471146894618026, -22.22306338909505], [7.69611460897908, -0.6734760787371568, -17.393734327452687, -44.16638825005958, 51.92167015869269, 32.19997804503055, -36.663222854735935, 14.083172313163987, -9.978524491671253], [-45.94001064454415, -19.759655829060602, -10.780083545622468, -9.998201419117656, -40.10332554632848, 16.585174651218814, 15.158550435546044, 27.09379402290524, -21.875942882722832], [-31.602807257299585, 5.064150691561119, -2.163033113628029, 33.985343745992246, 12.291543850686926, -18.758131066592206, -31.977637024714795, -21.203811734546484, 48.720476885970236], [55.755516080509025, -22.268723699473213, 4.703219891892926, 4.853854407960135, -41.49737884811925, -44.726795642706406, 19.522487857790306, 10.35774797064307, -5.230672975196916], [-33.60270792024099, -6.559151622555509, 1.4730593037873505, 28.45727976850648, 33.335340848961664, -6.4387896275295295, 30.55701479775739, -35.39164631132127, 16.962654576130173], [-10.772678348779706, -4.825162702055944, 11.480108838447027, -4.543878844907049, -15.042885215528894, -18.09258354144025, 79.37450965900724, -76.27827033174022, 18.751503589707777], [23.548675163606752, -2.9055268469162625, 26.71223879060258, 26.11037702111287, -24.503504031674378, -26.931424328468374, -10.990281442520493, -48.88156086725406, -5.596309307227782]]], "networkBiases": [[-2.1755135099096004, 3.022697756654347, 4.852171654026589, 1.7411047731768032, 4.7882401730097195, -1.946092028562869, 1.8880406233898197, 5.071188433662522], [-3.721338582057719, 6.588253487386718, -2.794429091886087, -2.1213201087378666, 5.686556203591386, 2.6703525506475874, -1.3373150338593052, 3.348786987698079, 2.415991197520431]]}