{"structure": [9, 8, 9], "networkWeights": [[[-0.6714077783249246, -43.874416753981265, -1.10821683190435, 1.943984244073782, 0.9756966418208264, 25.256498444103524, 9.07758943715831, 51.247284268228505], [-3.9684770774036817, -1.70670991202979, -14.028958816046735, -13.688298864532094, -7.197362771372638, -19.822480129832602, -18.1710492127295, -23.597160004638425], [-12.363489853312748, -4.15141900602496, 5.1667602868326465, -13.714752762868422, -7.8660395254883895, -6.585218110870831, 35.21785689807616, -9.425347581834327], [44.68883595414578, 18.84543223049094, 10.782984326947847, -13.796696882882099, 20.364292937007704, -0.9015283890368961, -7.763816648067373, 52.95978028338893], [-34.81269535162295, -4.589512040955526, -36.499004031531214, -2.1469512713735455, -16.40882128146491, 17.712849415741744, 4.000722533399629, 31.20611190086124], [2.0422620567632928, -26.189848080923202, 47.22917837829857, -13.61444051082291, 19.29249192074837, -28.45380716875078, 4.353212327306332, 40.8631043704555], [-11.766585795177816, 29.033332814729235, -30.060218974144053, 32.52943237721132, 26.16133621041585, -30.29367018049277, -13.30488080861151, 25.043665768702983], [-35.31274495421428, 42.54761406299679, -23.67432207019057, 27.998704063595294, -1.2377993459636578, 0.13048451314444529, 2.359829697130823, -18.122007138857136], [-15.412271536519846, 22.466966352401652, 69.80406292217138, -21.01662273025044, 7.691794559554763, -21.97624134356371, -16.422119778257986, -22.664658757197]], [[2.519630667180264, -39.49731349969289, -14.975986403908978, -14.12364994296805, -41.107831884743916, -1.4326602083122577, -1.476950464182428, -4.436046252678438, -22.28705692826235], [7.678366396255437, -0.6641865044930915, -17.468376953309217, -44.191599944767496, 51.88736681885316, 32.25747369750615, -36.62351825416092, 14.165317031278102, -10.016729119561528], [-45.95476306623814, -19.72323082466021, -10.821728085801132, -9.956704493005386, -40.07822256430134, 16.516275846062342, 15.131094211044559, 27.037812447583992, -21.888333853431284], [-31.730353531042024, 5.025616752670481, -2.1645543000448972, 33.88544201583324, 12.29836041382818, -18.63821147913901, -31.95083097925163, -21.330524315619115, 48.760139991848924], [55.75990668510445, -22.3067793562562, 4.673048057970605, 4.880847510699795, -41.46795074883731, -44.73842628393423, 19.480624694328988, 10.429008370996078, -5.332021241952323], [-33.63084015554936, -6.627840829416607, 1.4827219906783555, 28.312586392930328, 33.378871441141655, -6.543237382690473, 30.559999131373782, -35.451536824872925, 16.93548725914242], [-10.84901445292368, -4.832088623051871, 11.510835563239704, -4.401414600133896, -15.099283098555699, -18.085383433299903, 79.42652720050167, -76.32507966962805, 18.750453685890218], [23.594711925285875, -2.860935481188114, 26.688723007458368, 26.16198342401816, -24.62245278874258, -26.989330169859805, -10.959180598311674, -48.80216794526335, -5.485771202607693]]], "networkBiases": [[-2.2137817475909123, 2.8748317598906135, 4.826016159198689, 1.9091591495382338, 4.516621230492351, -1.7744786584284162, 1.8563338625522519, 4.798515415841473], [-3.768819280746185, 6.5496175545848665, -2.6719315858522137, -1.954526054789131, 5.548399170774701, 2.817456036379008, -1.4797860306690898, 2.9908712362848475, 2.6013995925597673]]}