{"structure": [9, 8, 9], "networkWeights": [[[-1.2733174815381512, -43.9826959937845, -1.6205117822681543, 1.249249201582586, 0.06144757785625471, 24.34158896688706, 8.88623165331644, 52.122282141641485], [-4.860749121152054, -1.538742655304567, -13.807109743119419, -13.790417756518124, -8.321135827559921, -20.15659338764244, -18.412617986330105, -24.771081682769584], [-13.128614925092498, -4.327208510380462, 4.369282943092847, -13.630000986772199, -8.857016482143164, -6.04670661689934, 35.01097811264155, -9.535763743637162], [44.28890425534326, 18.637467135983215, 9.160156464343068, -13.880875494823984, 20.06785862614553, -1.630724172411214, -6.546946532514665, 51.649541838137715], [-34.262436227057634, -5.876077695378554, -37.38986936709134, -2.824080090237766, -16.721998483267768, 18.486363325886963, 3.1276228946086477, 31.855395970135888], [1.2025559263198042, -26.046167415484724, 47.042382619240556, -14.706419041075847, 18.783154229506927, -28.76010804880487, 4.18301796118479, 41.52393910251899], [-10.383203949628832, 29.24770809345959, -30.35646883611472, 31.94697241074423, 25.978207538418197, -30.817618026170305, -12.987276573761154, 24.445164803022703], [-34.75434220152759, 42.821103091163984, -22.482580028291093, 28.20300265535998, -2.0657020981737153, -0.46638119100748726, 3.1550228043201525, -18.3831983543381], [-16.343019123134734, 21.661542586975116, 69.55162997293178, -20.022243709463027, 7.736940749560234, -21.900843729446283, -16.89183845120647, -23.36307028458699]], [[1.9909713001411484, -38.734079927591885, -16.272387659073498, -14.904368257934236, -39.06749909173694, -1.685930763798568, -1.640039206633543, -4.021913506437777, -21.395822082795007], [7.302877138128563, -0.6275279189780327, -17.189518287324862, -43.324284243540625, 52.48558166191882, 32.31673617962061, -36.021444355791694, 14.017409241206066, -10.674240766793346], [-44.754652267515375, -20.31310382873572, -9.897839827141226, -9.71037476680184, -41.07152275449852, 16.139866009439327, 14.656216428134744, 27.074764560212788, -21.729982244586733], [-30.18430313379907, 4.815041242948297, -3.4101223906949656, 35.256287387610215, 12.770368367480998, -18.512321691194288, -31.778756861617246, -21.76146028879356, 49.380878626365934], [55.98019155498814, -22.560305026696664, 3.933999504108834, 4.571721380183342, -40.19355139440142, -45.105602581749324, 20.60939783074193, 9.71464168342129, -5.607620574485612], [-33.8440567377405, -6.368571965455164, -0.6171703612272181, 27.964929851107225, 32.42319696457289, -5.771762066356144, 30.750637878494967, -35.979711272794255, 17.144140752940462], [-10.132797088867393, -5.0974953915694226, 11.732418104174204, -4.9501958969693325, -14.911145084919632, -20.040705720306406, 80.3821191345019, -77.33691220597477, 19.066520201471228], [22.969199339242046, -2.742790213618017, 25.227746316290517, 24.948893384906903, -25.770510961101, -26.914130944261778, -11.129199431938082, -49.4105573452199, -4.115468166686165]]], "networkBiases": [[-3.290867826343405, 2.4836767365756116, 2.00921890661282, 2.1672043140358217, 1.5578991822108341, -0.46275158300007324, 1.570641732322924, 7.12094154861709], [-1.2254638072677095, 5.880691348319074, -3.57656152202994, -0.06911321858019476, 6.349349023164466, 2.385572326827706, -3.863527959509132, 1.8637819198165666, 1.3560610120174268]]}