{"structure": [9, 8, 9], "networkWeights": [[[-1.586221363674487, -43.9826959937845, -1.6205117822681543, 1.0402763627961473, -0.09680544688505527, 24.34158896688706, 8.88623165331644, 52.122282141641485], [-4.929171965929852, -1.538742655304567, -13.807109743119419, -13.790417756518124, -8.321135827559921, -20.15659338764244, -18.412617986330105, -24.771081682769584], [-13.315949486157182, -4.327208510380462, 4.369282943092847, -13.630000986772199, -8.857016482143164, -5.852330010460898, 35.01097811264155, -9.535763743637162], [44.28890425534326, 18.637467135983215, 9.160156464343068, -13.880875494823984, 20.277792773629155, -1.630724172411214, -6.611496157755254, 51.649541838137715], [-34.262436227057634, -5.876077695378554, -37.37801781643524, -2.824080090237766, -16.759810842034717, 18.486363325886963, 3.1276228946086477, 31.629023424482977], [1.4450198429853864, -26.046167415484724, 47.042382619240556, -14.706419041075847, 18.90827349717258, -28.76010804880487, 4.18301796118479, 41.347740279338744], [-10.383203949628832, 29.24770809345959, -30.35646883611472, 32.06322075624552, 25.978207538418197, -30.817618026170305, -12.800626125870949, 24.242257426669696], [-34.75434220152759, 42.821103091163984, -22.482580028291093, 28.20300265535998, -2.0657020981737153, -0.46638119100748726, 2.9606628578205063, -18.3831983543381], [-16.343019123134734, 21.52309586669236, 69.55162997293178, -19.820500207290603, 7.960669042896089, -21.900843729446283, -16.89183845120647, -23.598495026151923]], [[1.9909713001411484, -38.734079927591885, -16.416874991279176, -14.904368257934236, -39.06749909173694, -2.0461008916054158, -1.640039206633543, -4.021913506437777, -21.395822082795007], [7.302877138128563, -0.6275279189780327, -17.189518287324862, -43.324284243540625, 52.48558166191882, 32.31673617962061, -36.021444355791694, 14.029792512637897, -10.674240766793346], [-44.754652267515375, -20.31310382873572, -9.72163499146165, -9.71037476680184, -41.07152275449852, 16.139866009439327, 14.656216428134744, 27.18759673224761, -21.729982244586733], [-30.18430313379907, 4.815041242948297, -3.4101223906949656, 35.256287387610215, 12.683548237891527, -18.512321691194288, -31.778756861617246, -21.7988263248677, 49.30192286513355], [55.98019155498814, -22.560305026696664, 3.933999504108834, 4.571721380183342, -40.19355139440142, -45.105602581749324, 20.60939783074193, 9.71464168342129, -5.607620574485612], [-33.91555216292275, -6.368571965455164, -0.6171703612272181, 27.964929851107225, 32.42319696457289, -5.771762066356144, 30.750637878494967, -35.979711272794255, 17.144140752940462], [-10.249410689082097, -5.0974953915694226, 11.732418104174204, -4.851141618208766, -14.911145084919632, -20.040705720306406, 80.3821191345019, -77.32565539221545, 19.066520201471228], [22.969199339242046, -2.742790213618017, 25.227746316290517, 24.948893384906903, -25.67411309091833, -26.914130944261778, -11.129199431938082, -49.386822728596364, -4.115468166686165]]], "networkBiases": [[-3.309765075277079, 2.410027574295959, 1.8843356010954446, 2.3316329663422195, 1.7963170983616996, -0.21802349999171544, 1.4618271985420037, 6.84410205741058], [-0.7189679440330082, 6.4045220362629545, -3.55454330958325, 0.35581656209065043, 6.528815611216661, 2.4400218962332643, -3.8891415636746816, 1.6588471839086547, 1.2430848412201452]]}