{"structure": [9, 8, 9], "networkWeights": [[[-0.3069724888190257, -43.64102687892851, -1.2264894812723974, 1.6622980974159791, 0.9613817980304764, 25.2840245803918, 8.946504794342015, 51.528088448645455], [-3.932973642889881, -1.7615811766692564, -14.059906963784396, -13.5939876456173, -7.523771193001057, -19.729818558055353, -18.170713364269, -23.955018029148846], [-12.953121329944445, -4.201646117348205, 4.706395490829334, -13.086462395345889, -7.9170709249314495, -6.2512118647979245, 34.81954884421952, -9.632697860679157], [44.35518144855342, 19.09884292635217, 10.590401370127628, -13.440734218651682, 20.205135355978058, -1.2013354631361115, -7.383519629330132, 53.25460287352315], [-34.56567588728955, -4.814394547466229, -36.318352846018456, -2.5631251295141593, -16.591638094717666, 17.48739173026129, 3.866221467024202, 31.206609639230386], [1.7054542751417425, -26.48022524910653, 47.29754801999502, -13.871885420445388, 19.40685520897366, -28.644813565342158, 4.273460487289815, 41.06082340261463], [-11.379797545841896, 29.13590130853811, -30.112430262672397, 32.15529089555384, 26.45085859862379, -30.423013791563072, -13.69241599812461, 24.626540326771245], [-34.986201915510335, 42.49290083269018, -23.657283832701538, 27.429840532835833, -1.3052443030805607, 0.36092555121695974, 2.1932902849056886, -17.681842421677914], [-15.286231816779356, 21.70103175154273, 69.73588950725251, -20.864917365449678, 7.728426212299672, -22.101085206905484, -16.85330610687961, -22.56838889388586]], [[2.345367033817, -39.44611955426061, -15.022982215255048, -14.108913825287848, -40.51983475667203, -1.739291595457349, -1.5543816269361899, -4.347072454986781, -22.284726786290197], [7.985344183864672, -0.42654297770597377, -17.306468275047806, -44.40279861068642, 51.86823507973595, 32.49551810384381, -36.52119535197379, 13.925853158448577, -10.093726538238176], [-45.19932815644738, -20.130055377692138, -10.658437544381295, -10.421288476300077, -40.12587141788527, 15.980585560739883, 14.833993606063572, 26.976286132855535, -21.874038112295544], [-31.161519251406034, 5.37445867423463, -2.477052799477421, 34.091488260743034, 12.168971307664634, -18.744168031133697, -31.851096455982127, -21.419112415662745, 49.14344304497036], [55.547371154834075, -22.983617362160018, 4.860678264616071, 4.952102158597116, -41.483762554136675, -44.70442420664484, 19.32329465640713, 9.858178077946123, -5.156901547803358], [-33.670230415122376, -6.718119649440597, 0.6854301693696394, 28.566098727774435, 33.048920547425034, -6.1832297737203, 30.777810172856558, -35.98148544404254, 17.128391131002562], [-10.772550538729735, -4.837656743557954, 11.622127977359325, -4.748471045850606, -15.132066131314799, -18.55158982147419, 79.41172690937451, -76.14400718354786, 18.266636596152615], [23.540435661383963, -3.0443470145327205, 26.641089061758745, 25.740111892007718, -24.859659334139497, -27.14878669725963, -11.142955615717577, -48.86995187230815, -5.3535562529431475]]], "networkBiases": [[-2.7984186357050795, 2.609054975560493, 5.012619619482829, 1.8440599536141067, 5.565959343657437, -1.2857750172536968, 2.7527440648269077, 5.821321599247681], [-3.6428846416246974, 6.566002520259162, -2.77694285685941, -1.4493376712759112, 5.325376662496953, 2.048891800044872, -2.7348523306680934, 2.628915480072574, 2.242401684152184]]}