{"structure": [9, 8, 9], "networkWeights": [[[-0.5355179233786027, -43.64102687892851, -1.2264894812723974, 1.6622980974159791, 0.9613817980304764, 25.2840245803918, 8.946504794342015, 51.34753628091571], [-3.932973642889881, -1.7615811766692564, -14.059906963784396, -13.5939876456173, -7.523771193001057, -19.729818558055353, -18.147474563660985, -23.955018029148846], [-12.953121329944445, -4.04611764332902, 4.566218307090315, -13.329064489959446, -7.9170709249314495, -6.407683194691658, 34.81954884421952, -9.632697860679157], [44.35518144855342, 19.09884292635217, 10.590401370127628, -13.87324348628841, 20.205135355978058, -1.2013354631361115, -7.334528727488624, 53.25460287352315], [-34.8082415904997, -4.814394547466229, -36.318352846018456, -2.473158532895776, -16.631316809183783, 17.771374840748248, 3.959552623249256, 31.206609639230386], [1.7115098581663513, -26.48022524910653, 47.29754801999502, -13.871885420445388, 19.27376388811686, -28.58225493503671, 4.273460487289815, 41.06082340261463], [-11.379797545841896, 29.13590130853811, -30.112430262672397, 32.31968373325262, 26.45085859862379, -30.423013791563072, -13.69241599812461, 24.626540326771245], [-34.986201915510335, 42.49290083269018, -23.657283832701538, 27.429840532835833, -1.430354796743397, 0.3192712582858953, 2.1932902849056886, -17.681842421677914], [-15.286231816779356, 21.86273461776973, 69.4987207799601, -20.864917365449678, 7.728426212299672, -22.328839825514127, -16.61050441905576, -22.56838889388586]], [[2.345367033817, -39.44611955426061, -15.022982215255048, -14.108913825287848, -40.70944762382615, -1.739291595457349, -1.5543816269361899, -4.525589968875217, -22.284726786290197], [7.985344183864672, -0.42654297770597377, -17.306468275047806, -44.40279861068642, 51.86823507973595, 32.49551810384381, -36.72396448497743, 13.925853158448577, -9.975225663785068], [-45.19932815644738, -20.130055377692138, -10.616822171219807, -10.421288476300077, -40.12587141788527, 16.229570971658397, 14.909624075269575, 26.976286132855535, -21.874038112295544], [-31.297854932190432, 5.37445867423463, -2.477052799477421, 34.091488260743034, 12.168971307664634, -18.744168031133697, -31.851096455982127, -21.419112415662745, 49.14344304497036], [55.645434818354985, -22.93116449780382, 4.860678264616071, 4.769642517786378, -41.483762554136675, -44.70442420664484, 19.32329465640713, 10.041711781500194, -5.156901547803358], [-33.80427405988893, -6.718119649440597, 0.6854301693696394, 28.566098727774435, 33.239386489190906, -6.1832297737203, 30.93755586686373, -35.98148544404254, 17.096584969494568], [-10.995613500500282, -4.837656743557954, 11.3919598279271, -4.748471045850606, -15.132066131314799, -18.55158982147419, 79.41172690937451, -76.14400718354786, 18.009577894906162], [23.540435661383963, -3.0443470145327205, 26.793083305354585, 25.740111892007718, -25.07291937326519, -27.085798660681746, -11.142955615717577, -48.78555629345529, -5.503969811152114]]], "networkBiases": [[-3.101681427014914, 2.606880390800747, 5.074727570130656, 1.8092417356469244, 5.179435161620849, -1.1730851319222684, 2.5997889348056127, 5.3230948318426385], [-3.7304781503956375, 6.46214269035675, -2.5775242460766155, -1.513638245855662, 5.321262917594165, 2.4856324405764996, -2.4291206385344806, 2.9386474480995437, 2.201225801377931]]}