{"structure": [9, 8, 9], "networkWeights": [[[-1.2456733091384196, -43.700325695198984, -1.8950859699591258, 1.3103149337103794, 0.06144757785625471, 24.34158896688706, 8.88623165331644, 52.122282141641485], [-4.929171965929852, -1.538742655304567, -13.807109743119419, -13.790417756518124, -8.321135827559921, -20.14895197234679, -18.412617986330105, -24.997818358140723], [-13.157556124789336, -4.327208510380462, 4.411471800163037, -13.630000986772199, -9.063276640909432, -5.927178555082288, 35.01097811264155, -9.535763743637162], [44.39278302716376, 18.330998672911093, 9.160156464343068, -13.880875494823984, 20.277792773629155, -1.5987848156251885, -6.446508502396914, 51.735920664682304], [-34.30317795344546, -5.930994931569307, -37.37801781643524, -3.022255415162527, -16.843474558836913, 18.486363325886963, 3.36166256463624, 31.629023424482977], [1.4450198429853864, -26.046167415484724, 47.10178788250613, -14.706419041075847, 18.978190721877436, -28.78468433222894, 4.18301796118479, 41.41961013220242], [-10.383203949628832, 29.431291603945745, -30.35646883611472, 32.27910676343127, 25.978207538418197, -30.817618026170305, -12.800626125870949, 24.242257426669696], [-34.89785018315944, 42.58621274942095, -22.30059252175818, 28.20300265535998, -2.0657020981737153, -0.409384437458989, 2.9606628578205063, -18.3831983543381], [-16.343019123134734, 21.661542586975116, 69.55794402515662, -19.737743198349897, 7.878411504979273, -21.900843729446283, -16.89183845120647, -23.36307028458699]], [[2.136919599290361, -38.734079927591885, -16.272387659073498, -14.904368257934236, -39.06749909173694, -1.685930763798568, -1.5360874190875033, -4.150202541015893, -21.211780753010345], [7.228443351877897, -0.5777708058352198, -17.31809458240882, -43.324284243540625, 52.269229353499, 32.335344904004934, -36.021444355791694, 14.029792512637897, -10.56641558948534], [-44.65339861390416, -20.31310382873572, -10.109009210701315, -9.71037476680184, -41.25574186113955, 16.139866009439327, 14.761666733213216, 27.18759673224761, -21.70754665577314], [-30.313986162220083, 4.815041242948297, -3.246315610728821, 35.256287387610215, 12.683548237891527, -18.67587744112611, -31.778756861617246, -21.21707791368956, 49.24868904949367], [55.98019155498814, -22.560305026696664, 4.168908024394507, 4.413996651205308, -40.19355139440142, -45.105602581749324, 20.614197215544426, 9.71464168342129, -5.607620574485612], [-33.90244505836143, -6.368571965455164, -0.7715090561065794, 28.150207597314512, 32.56111111293903, -5.771762066356144, 30.750637878494967, -35.979711272794255, 16.928974698209537], [-10.249410689082097, -4.997781483417538, 11.651377746099653, -4.851141618208766, -14.911145084919632, -20.040705720306406, 80.3821191345019, -77.32565539221545, 19.066520201471228], [22.969199339242046, -2.742790213618017, 25.227746316290517, 25.148002157468568, -25.749794787289336, -26.9186936214334, -11.129199431938082, -49.4105573452199, -4.115468166686165]]], "networkBiases": [[-3.306891116075095, 2.0775131971738716, 2.3951086957377496, 1.5947313269084535, 2.0059905798377256, 0.004299613242391753, 2.130580639421109, 7.019244490283845], [-1.2085875320786006, 6.685013138208455, -3.080830240070802, -0.26849996468261045, 6.5792131633000634, 3.0837786369506364, -3.926841188502938, 1.3445482692235498, 0.8735690450469966]]}