{"structure": [9, 8, 9], "networkWeights": [[[-1.2456733091384196, -43.700325695198984, -1.8950859699591258, 1.623882454185515, 0.06144757785625471, 24.09891324780016, 8.88623165331644, 52.122282141641485], [-4.929171965929852, -1.538742655304567, -13.620354425430195, -13.897569848255891, -8.321135827559921, -20.14895197234679, -18.329907459736727, -24.997818358140723], [-13.35942950296335, -4.255505705241262, 4.300628824271908, -13.630000986772199, -9.30414203819509, -5.927178555082288, 35.1168669765471, -9.535763743637162], [44.39278302716376, 18.42816928357408, 9.160156464343068, -13.694349085139029, 20.277792773629155, -1.785683244921238, -6.678761690994045, 51.85233384848224], [-34.14907954464961, -5.930994931569307, -37.37801781643524, -2.8504895039572764, -16.843474558836913, 18.486363325886963, 3.36166256463624, 31.629023424482977], [1.4450198429853864, -26.000651518609242, 47.10178788250613, -14.735307935345126, 18.978190721877436, -28.65690242281959, 4.0980905389369005, 41.171785586280265], [-10.383203949628832, 29.606093200865434, -30.528288318715777, 32.40399761884499, 26.036186800325748, -30.817618026170305, -12.800626125870949, 24.242257426669696], [-34.89785018315944, 42.34644193583878, -22.17338985328491, 28.20300265535998, -2.0657020981737153, -0.6236660030676218, 2.9606628578205063, -18.500656759502572], [-16.343019123134734, 21.661542586975116, 69.55794402515662, -19.695930433531906, 7.695744898813686, -22.088749797099666, -16.89183845120647, -23.36307028458699]], [[2.4190659824777656, -38.734079927591885, -16.272387659073498, -14.904368257934236, -38.960705747494586, -1.685930763798568, -1.5360874190875033, -4.183676650613518, -21.211780753010345], [7.228443351877897, -0.5777708058352198, -17.31809458240882, -43.324284243540625, 52.38583972328337, 32.24897421861473, -36.11370634565064, 14.029792512637897, -10.576848494404203], [-44.65339861390416, -20.31310382873572, -10.109009210701315, -9.71037476680184, -41.07152275449852, 16.193054442969487, 14.761666733213216, 27.18759673224761, -21.70754665577314], [-30.313986162220083, 4.815041242948297, -3.4101223906949656, 35.28235663655747, 12.745919219807279, -18.67587744112611, -31.778756861617246, -21.543741876177094, 49.306127687889024], [55.97900444073882, -22.95580654801252, 4.168908024394507, 4.413996651205308, -40.320545753754885, -45.105602581749324, 20.60939783074193, 9.743535255910736, -5.607620574485612], [-33.90244505836143, -6.275892243311186, -0.7715090561065794, 28.150207597314512, 32.56111111293903, -5.6810040395774735, 30.750637878494967, -35.979711272794255, 16.928974698209537], [-10.271573459009165, -4.997781483417538, 11.651377746099653, -4.851141618208766, -14.873304532242276, -20.040705720306406, 80.3821191345019, -77.32565539221545, 18.81665395190489], [22.969199339242046, -2.806959990361464, 25.227746316290517, 25.148002157468568, -25.749794787289336, -26.474559818469963, -11.129199431938082, -49.4105573452199, -4.178154121808781]]], "networkBiases": [[-3.280854790192565, 2.6125902521638027, 2.676049330607135, 1.781542010442802, 2.1543493462817365, 0.12783145472303348, 2.460912108090592, 7.1501622852912305], [-1.3481440560445044, 6.8541863539649945, -2.9454857576207853, 0.05601143155760868, 6.575246869565901, 2.6496623061436306, -3.755911119015077, 1.339731379033271, 0.957965909079084]]}