{"structure": [9, 8, 9], "networkWeights": [[[-0.5355179233786027, -43.802293245552974, -1.2264894812723974, 1.6622980974159791, 1.067471938357515, 25.336121820854075, 8.891758354605635, 51.34753628091571], [-3.932973642889881, -1.5829932376679317, -14.086447961130355, -13.5939876456173, -7.314831188674178, -19.857127420275095, -18.147474563660985, -23.694717015758624], [-12.850114412125796, -4.1348510175641655, 4.566218307090315, -13.568848055736943, -7.8173897897563664, -6.382953172566691, 34.81954884421952, -9.629035606829778], [44.38966297266641, 18.881754637008065, 10.987601347668084, -13.87324348628841, 20.28534230829937, -1.241194211075869, -7.601312424595015, 53.25460287352315], [-34.73311089271438, -4.685808917619812, -36.318352846018456, -2.3343497705513387, -16.46917039792125, 17.90225275965352, 3.881350472787926, 31.09524236527663], [1.7115098581663513, -26.48022524910653, 47.30583399901875, -13.684420058188831, 19.27376388811686, -28.58225493503671, 4.273460487289815, 40.81489945092709], [-11.379797545841896, 29.011894660614264, -30.112430262672397, 32.466036338058146, 26.45085859862379, -30.521322069106837, -13.69241599812461, 24.947505926392925], [-35.023565724610954, 42.49290083269018, -23.657283832701538, 27.83896709333243, -1.2727265708824547, 0.14258300049513584, 2.281262333752885, -18.039040775310472], [-15.444858969817176, 22.149232633484043, 69.5436369259135, -20.864917365449678, 7.71132528566164, -22.101878913942084, -16.411772738843084, -22.56838889388586]], [[2.5523653735365572, -39.492044171021774, -15.225214602173434, -14.119210993393253, -40.973304517218146, -1.6914795693787192, -1.5543816269361899, -4.525589968875217, -22.284726786290197], [7.726433197420166, -0.6562171133284909, -17.306468275047806, -44.30116196821699, 51.853215481904854, 32.47352505963775, -36.66019599711145, 13.925853158448577, -9.975225663785068], [-45.19932815644738, -20.124482461449567, -10.632563248156229, -10.421288476300077, -40.12587141788527, 16.229570971658397, 14.909624075269575, 26.85996881983048, -21.770420982856166], [-31.57815745429212, 5.4999446482317875, -2.477052799477421, 33.92733884588333, 12.243180733493281, -18.761955858947886, -31.851096455982127, -21.538735785991037, 48.907774364210844], [55.50092859261055, -22.75180255039536, 4.860678264616071, 4.769642517786378, -41.299197199809186, -44.91124124492842, 19.32329465640713, 9.977647836479575, -5.390692572934562], [-33.80427405988893, -6.718119649440597, 0.8604208257486977, 28.566098727774435, 33.26169016608267, -6.212927103637437, 30.94726197769035, -35.98148544404254, 16.975271554220456], [-10.914697350993231, -4.837656743557954, 11.3919598279271, -4.635152806209283, -15.157815547543574, -18.328251327794188, 79.38732170127048, -76.14400718354786, 18.459520777646542], [23.734915130222515, -2.8273395247460726, 26.644975863311583, 25.740111892007718, -24.86750410637867, -26.899912287259816, -11.142955615717577, -48.90649071915414, -5.735983422480674]]], "networkBiases": [[-2.57943575849335, 3.457718413298718, 5.0759985071312315, 1.7862610481398833, 4.7762117139560605, -1.0200490130291748, 2.6153788017400057, 5.116440985225174], [-3.621031250634788, 6.351081825322014, -2.6205508138728444, -1.4619267005647802, 6.227568097135153, 2.2330015894246595, -1.7534644823836207, 3.231939700846731, 2.6518382968966305]]}