{"structure": [9, 8, 9], "networkWeights": [[[-0.6226361632976262, -43.77305678302581, -1.1450724385746247, 1.9566937022206807, 0.9329323520722159, 25.24254932652631, 9.091779955699456, 51.12563325347205], [-4.0830250571603965, -1.72496676081775, -14.00655912526621, -13.757267991866064, -7.281755766552566, -19.83249713321764, -18.17611567992811, -23.601675078268574], [-12.398909563040672, -4.140765748122201, 5.243785515115696, -13.641870378091399, -7.750460318622443, -6.539819288812644, 35.07410992413543, -9.419373949454146], [44.67324155029476, 18.7473339276427, 10.87675808268561, -13.772330923655227, 20.345466162113482, -0.9385617299408204, -7.791880745443881, 53.05499597111369], [-34.76526378464967, -4.794163193788794, -36.45497969668783, -2.247670057924286, -16.415034991060477, 17.685251298826504, 4.01284089607072, 31.033912129214595], [2.0113112520834684, -26.079489566734647, 47.42648708210892, -13.693764284988095, 19.271515596322594, -28.3725494061913, 4.328111432658719, 40.784072457766975], [-11.70580617842419, 29.172823327926505, -30.117086279376576, 32.424075955345025, 26.149513014114213, -30.31617430993672, -13.474877508999718, 24.994603074894833], [-35.265221761012796, 42.50872805112071, -23.716770250255085, 27.956946514356805, -1.14495191780916, 0.15065920351902207, 2.3450841109293146, -18.039334066148992], [-15.476739761285975, 22.54377507194819, 69.75265566245798, -20.93519789360911, 7.7444007781925945, -21.908755159029305, -16.472968698518734, -22.770886233573417]], [[2.5036979378676563, -39.39229855851972, -14.947221312209432, -14.123693087749702, -41.028850814977964, -1.3373553756981862, -1.5679993700501262, -4.536014597919946, -22.232086623630313], [7.691472454093287, -0.7266072356842114, -17.44293459830036, -44.12843739536292, 51.86844407768041, 32.224083849828304, -36.63001753704393, 14.064789973931113, -9.974277995035024], [-45.95629976578579, -19.852018711128686, -10.744221182131042, -9.967255849917162, -40.05661676078336, 16.57048244121531, 15.22234309326713, 27.027691919297787, -21.884506388437583], [-31.558627962113754, 5.093770269638435, -2.1502533501401335, 34.01969278446488, 12.319164222417614, -18.77904385434446, -31.91136882925291, -21.21651175699069, 48.8074108532012], [55.7025741318098, -22.36532506621996, 4.751465490316182, 4.856396268392285, -41.48224093645093, -44.761545432714044, 19.58356340268434, 10.303320271795156, -5.309745010747085], [-33.58932493657553, -6.544905739159122, 1.4184034668113148, 28.390662482923627, 33.29833389906643, -6.413963050515936, 30.664690132913123, -35.488884626231275, 16.939485109779223], [-10.772678348779706, -4.769742668045734, 11.468215790598231, -4.538631220889611, -15.093487383047977, -18.1140272888253, 79.31681717409327, -76.35855584532203, 18.807354509481232], [23.505422406687753, -2.973525995730951, 26.609599738399062, 26.204308193955974, -24.54823392448987, -26.946492179453713, -11.033459289638756, -48.87508302317744, -5.55475265509706]]], "networkBiases": [[-2.176937967966364, 3.2582333554956433, 4.90458616117836, 1.6011657577399847, 4.644235258785644, -1.9069242304149074, 1.7226527404129766, 5.099277619490354], [-3.959858599281431, 6.4658664351532025, -2.992863235878526, -2.1598495051239817, 5.797132527131767, 2.2817817990859743, -1.2742221447349258, 3.429199302374007, 2.2934994880849757]]}