{"structure": [9, 8, 9], "networkWeights": [[[-0.6226361632976262, -43.77305678302581, -1.1450724385746247, 2.004089125518113, 0.9329323520722159, 25.24254932652631, 9.091779955699456, 51.11110800642409], [-4.0830250571603965, -1.72496676081775, -14.00655912526621, -13.757267991866064, -7.281755766552566, -19.799746177727478, -18.17611567992811, -23.567963569416015], [-12.398909563040672, -4.140765748122201, 5.243785515115696, -13.659047302568359, -7.721101586093042, -6.539819288812644, 35.07410992413543, -9.419373949454146], [44.67324155029476, 18.7473339276427, 10.87675808268561, -13.772330923655227, 20.345466162113482, -0.9035655943339045, -7.791880745443881, 53.081208416062196], [-34.76526378464967, -4.764846562232119, -36.52574529133003, -2.2101616188238586, -16.45755837220929, 17.685251298826504, 4.01284089607072, 31.077548674550872], [2.0113112520834684, -26.079489566734647, 47.43945237456949, -13.690591743315258, 19.271515596322594, -28.389624930425466, 4.328111432658719, 40.784072457766975], [-11.70580617842419, 29.172823327926505, -30.117086279376576, 32.424075955345025, 26.149513014114213, -30.31617430993672, -13.474877508999718, 24.994603074894833], [-35.265221761012796, 42.50872805112071, -23.716770250255085, 27.95434103459036, -1.14495191780916, 0.15065920351902207, 2.3632726785380966, -18.035937106414284], [-15.441393622296657, 22.54377507194819, 69.76689928419411, -20.93519789360911, 7.784555310257738, -21.908755159029305, -16.504648629573172, -22.770886233573417]], [[2.5036979378676563, -39.39229855851972, -14.947221312209432, -14.123693087749702, -41.028850814977964, -1.3373553756981862, -1.558378064743733, -4.536014597919946, -22.232086623630313], [7.691472454093287, -0.7266072356842114, -17.44293459830036, -44.129389232269624, 51.86844407768041, 32.224083849828304, -36.63001753704393, 14.04270101862973, -9.993033074039133], [-45.99550287914076, -19.852018711128686, -10.744221182131042, -9.967255849917162, -40.05661676078336, 16.57048244121531, 15.22234309326713, 27.032746983152013, -21.884506388437583], [-31.563396369545735, 5.093770269638435, -2.175064009618633, 34.01969278446488, 12.319164222417614, -18.77904385434446, -31.91136882925291, -21.21651175699069, 48.82144998164004], [55.7025741318098, -22.36532506621996, 4.751465490316182, 4.856396268392285, -41.48224093645093, -44.683034680454526, 19.58356340268434, 10.31822505760252, -5.309745010747085], [-33.58932493657553, -6.568890470146208, 1.4184034668113148, 28.390662482923627, 33.29833389906643, -6.413963050515936, 30.664690132913123, -35.488884626231275, 16.939485109779223], [-10.772678348779706, -4.769742668045734, 11.468215790598231, -4.538631220889611, -15.093487383047977, -18.1140272888253, 79.31681717409327, -76.35855584532203, 18.794025959949995], [23.505422406687753, -2.973525995730951, 26.609599738399062, 26.204308193955974, -24.520404058707957, -26.946492179453713, -11.019545860149272, -48.87508302317744, -5.497470595086928]]], "networkBiases": [[-2.176937967966364, 3.243795492884895, 4.852672547870744, 1.5411504151678694, 4.576786571263653, -1.8965532125308313, 1.7504340936687217, 5.1412875374554226], [-3.9522074282369104, 6.457017982674116, -2.92567280206661, -2.1060722501605325, 5.797132527131767, 2.298843486157006, -1.2742221447349258, 3.477801490265168, 2.3532598162672937]]}