{"structure": [9, 8, 9], "networkWeights": [[[-0.5691446936102782, -43.83170377524888, -1.1556075280887816, 1.8074544578373422, 0.8181327725418038, 25.273312983500638, 9.14277603601944, 50.98369631681363], [-3.981648033754915, -1.8818907951184642, -13.926426800222371, -13.762990327615181, -7.210772306565607, -19.911565296598162, -18.16470368309675, -23.607702018576724], [-12.59465281825574, -4.133320064776411, 5.039396240637447, -13.612423499079966, -7.737506177124493, -6.486715110094206, 34.92293445926072, -9.535493519425597], [44.84801632269943, 18.814411587059812, 10.783429227910469, -13.855648357149281, 20.260378965707034, -1.0731691506020278, -7.836658543218357, 53.01276612435891], [-34.75466760463866, -4.758535507550263, -36.461789915752895, -2.2681919713507623, -16.3357305243271, 17.68369735197881, 4.025074214430875, 31.064239766539902], [1.9681712838640002, -26.248688817372482, 47.416326148386055, -13.666711390740529, 19.2071389001343, -28.25426089623324, 4.2610116049176145, 40.783803197274466], [-11.524990038682214, 29.057892578323006, -30.237713350086203, 32.467025028739776, 26.351615995541085, -30.454207057660724, -13.616544637360722, 24.96244169335459], [-35.194067104447456, 42.39053025634684, -23.65871724707409, 27.948396374210667, -1.1011753174143497, 0.15313714657772073, 2.3049900546451023, -18.09314339128354], [-15.495358118668525, 22.561117136935597, 69.74704563039732, -20.955227239487424, 7.610311614263256, -21.96609235341039, -16.44336557649092, -22.763638032313555]], [[2.444308968252082, -39.46073293839267, -14.974862856215555, -14.085284852452704, -41.06789976412567, -1.2802277731702907, -1.6338037342030634, -4.608144445240958, -22.329862795107125], [7.7246100300447225, -0.7351644929757136, -17.40257924253379, -44.154960357776325, 51.87188189613514, 32.23339966414329, -36.687268731038095, 14.040379438674396, -9.98848991812188], [-45.747139046642964, -19.976093315102723, -10.757728587025127, -10.041126463843385, -40.00147229136731, 16.542849444345688, 14.9687837016381, 27.06858837322494, -21.826161035039352], [-31.546387006970303, 5.061788842403389, -2.26812398212838, 33.931188127978864, 12.294640603265934, -18.789885779649982, -31.851637691677237, -21.25600755309879, 48.68521782393833], [55.63422798860919, -22.32865608238141, 4.728294095099491, 4.856321419384912, -41.50416149072769, -44.85563393670997, 19.593412263719802, 10.339233455885251, -5.32078187410272], [-33.594940370719165, -6.5375838028373465, 1.3216422269628763, 28.42445925711509, 33.23070046516398, -6.369517518800712, 30.731313077482653, -35.55545076158603, 16.974991159938256], [-10.659069864997333, -4.83340214224344, 11.507541412367203, -4.595462791482146, -15.126441727636687, -18.144622115444573, 79.31049450742508, -76.31016447361702, 18.713680901290036], [23.4507264394898, -2.7954099282491187, 26.628746986888867, 26.16144454221008, -24.54800517879671, -26.952146364557162, -11.05968916979487, -48.95663068679234, -5.462543825872742]]], "networkBiases": [[-2.334626523351512, 3.2026560468813234, 4.805988609406303, 1.4089432607216124, 4.730992081727198, -1.6196861626602426, 1.4929790729546697, 5.181069703622574], [-4.108481707901538, 6.734124162901326, -2.7324871625141207, -1.684276654125375, 5.749875053326852, 2.387660836986316, -1.4557878813228127, 2.7902883428599385, 2.413310169611651]]}