{"structure": [9, 8, 9], "networkWeights": [[[-0.5691446936102782, -43.85432632313973, -1.1556075280887816, 1.824773447066353, 0.8265939913982538, 25.283247512239818, 9.14277603601944, 51.01518609250561], [-3.989458085270127, -1.8818907951184642, -13.930989626976563, -13.762990327615181, -7.210772306565607, -19.911565296598162, -18.16470368309675, -23.607702018576724], [-12.59465281825574, -4.177271878246035, 5.039396240637447, -13.641000762628348, -7.737506177124493, -6.448453628108681, 34.92293445926072, -9.535493519425597], [44.84801632269943, 18.814411587059812, 10.783429227910469, -13.855648357149281, 20.206340956542405, -1.0574171714946647, -7.8119266893429025, 53.049096553831475], [-34.75466760463866, -4.758535507550263, -36.461789915752895, -2.264567670558394, -16.28697402628094, 17.68369735197881, 4.025074214430875, 31.0276587700681], [1.9681712838640002, -26.269108988867277, 47.416326148386055, -13.666711390740529, 19.250430112578755, -28.344236999484046, 4.180191691468444, 40.783803197274466], [-11.524990038682214, 29.057892578323006, -30.206531102158394, 32.47634735940936, 26.351615995541085, -30.44436610780342, -13.616544637360722, 24.946668613704684], [-35.194067104447456, 42.39053025634684, -23.65871724707409, 27.948396374210667, -1.1255861242012286, 0.15313714657772073, 2.338884825499319, -18.09314339128354], [-15.495358118668525, 22.586450104086715, 69.74704563039732, -20.955227239487424, 7.653062939781438, -21.96609235341039, -16.38680080147205, -22.8021494379634]], [[2.4627132475731415, -39.49960251869129, -14.970987056474835, -14.085284852452704, -41.06789976412567, -1.2802277731702907, -1.6338037342030634, -4.5631553777325315, -22.345929112830806], [7.695978227161143, -0.7094005559652248, -17.40257924253379, -44.154960357776325, 51.87188189613514, 32.20404779611006, -36.71581842273443, 14.047332344638763, -10.035787037634543], [-45.78355957530609, -19.976093315102723, -10.77400936525913, -10.043904631765358, -40.00147229136731, 16.542849444345688, 14.9687837016381, 27.06858837322494, -21.826161035039352], [-31.546387006970303, 5.061788842403389, -2.26812398212838, 33.959015629936786, 12.272318385524164, -18.831358222323626, -31.851637691677237, -21.277216498696852, 48.68521782393833], [55.62443830656147, -22.32865608238141, 4.759436941518613, 4.884497431957693, -41.50416149072769, -44.85563393670997, 19.593412263719802, 10.339233455885251, -5.32078187410272], [-33.594940370719165, -6.5375838028373465, 1.3216422269628763, 28.412307821466467, 33.258901473769185, -6.369517518800712, 30.71761786444997, -35.55545076158603, 16.92833346808876], [-10.659069864997333, -4.9041922297780625, 11.494648592848183, -4.595462791482146, -15.126441727636687, -18.144622115444573, 79.30424957518171, -76.31016447361702, 18.713680901290036], [23.4507264394898, -2.7954099282491187, 26.628746986888867, 26.16144454221008, -24.54800517879671, -26.952146364557162, -11.036512074036079, -48.970807826390555, -5.462543825872742]]], "networkBiases": [[-2.323248632313626, 3.1838135571669004, 4.865318870262747, 1.4228930367734982, 4.73131910532279, -1.6672471978512287, 1.533114042195059, 5.111421559700011], [-4.133377051829393, 6.645570138990029, -2.7941274823186193, -1.6651574348074951, 5.78509649652928, 2.409485323545708, -1.4284104150341106, 2.8550573178449428, 2.3783507802941695]]}