{"structure": [9, 8, 9], "networkWeights": [[[14.646818281366986, -4.342823746481418, 0.73959800183799, 3.4939033503204526, -5.008328059797766, 20.74580884772204, 14.625058934424292, 16.364792780281814], [6.1243157534447645, 14.215542274449492, -7.0660453288923275, 5.781644300973424, -3.172575522497328, -1.5291591561298914, 6.3997461150832695, -17.50223737078611], [-9.113039636402052, 43.697345202440694, 17.476850050933972, -22.022192050830753, -6.638367212461686, -16.48746718784849, 6.277124884611853, 4.469534543689695], [4.4991567327850195, 2.522113001417117, -22.99335242274716, -5.6919816619383825, -12.762734599027333, -2.456069912244117, -17.92992010568385, 19.54662842896277], [-15.10702473327758, -12.799428845850922, -5.73875785012246, 15.926250627902656, -0.36975857688417846, -1.9647679716236137, 16.836552567072076, 15.461548635182421], [-8.249467078358654, -16.724114841904306, 18.54184839511822, 4.809209783874232, -1.6000848964524654, -11.38191372504596, 18.453817072850168, 18.472697017412628], [-0.3829667890104411, -0.3216815829237789, -25.739537624751463, 23.263365375754795, 9.772981987784481, -21.700896722569315, -27.274366322340427, 19.045667269544218], [-2.442790123671508, 14.872444667275566, -23.04873259809416, 6.123912450164242, 4.202757206407606, -2.166592611848567, 3.902483522971819, 6.909527549394657], [-4.419964932907172, 0.21513327459917964, 34.830727368635685, -8.333585509166117, -21.50937552952745, -0.965430830166681, -1.7172905044248934, 4.336359131198038]], [[11.278164245058614, -19.003022143322088, -8.788827894986493, 0.43527566455525224, -2.6092097023043745, -14.017199824130294, -15.760128452867393, 4.734472737829557, -18.529242863848452], [-13.22160348624216, -7.212001780150857, -7.738012092889614, -9.923323434029081, 2.5277282534522842, 13.84204520584622, -14.386532980543672, 3.8398484320436186, -2.299570468020604], [-26.38780536068055, -16.243924550808632, 20.32262190931565, 1.1246720176043812, -25.513099014096362, 10.309076376447903, 29.31109870485635, -1.4643584258955331, -2.8611523207753544], [-34.80588539870469, 13.184686714049652, 2.5468969828857717, 1.839163038860643, -4.803987195640681, 0.2810573078397556, -24.531049505702402, -22.04963030011033, 12.219597842291964], [36.287038193472576, -1.3939980151640285, -15.346170326905927, -12.942215613533142, -12.027303648477814, -21.863313881228347, 4.715919633608525, 30.539264041682216, -0.19074037032806568], [-13.53336676867357, 10.046338556128768, 6.9229721363477745, 20.140357458460606, 28.420327868370066, 2.0733767839400166, 38.35217830799599, -9.757863815628351, -7.157543338289978], [3.7354086937264768, -6.334872464188431, -13.765766752295177, 2.7792338789331077, -3.1770299855946127, -47.8909587202134, 30.348184571544643, -15.385687820990592, 31.169901099797062], [10.219197821854692, -6.898308146168822, -11.610290217323467, 3.4490786548838646, -17.17619872682103, -9.749286167540358, -20.008841449801853, -37.834464753638684, -9.367688554944705]]], "networkBiases": [[1.0, 1.0, 1.0, 1.0, 1.0, 1.0, 1.0, 1.0], [1.0, 1.0, 1.0, 1.0, 1.0, 1.0, 1.0, 1.0, 1.0]]}