{"structure": [9, 8, 9], "networkWeights": [[[-0.5555990508915303, -43.87994148514381, -1.17158846011502, 1.8274877602524484, 0.7829159402214966, 25.285350914013456, 9.107888313370575, 50.98369631681363], [-3.9623724293389904, -1.82417035772998, -13.965928092035664, -13.762990327615181, -7.24110166209035, -19.788458187442057, -18.16470368309675, -23.607702018576724], [-12.518596440544382, -4.124186464931687, 5.039396240637447, -13.590776989536025, -7.750499047787976, -6.451426932732599, 34.87611114187205, -9.583144127118855], [44.78555853702755, 18.815899992776593, 10.783429227910469, -13.79613172825079, 20.257850158138524, -1.0048189044371723, -7.836658543218357, 53.02824100203305], [-34.81873463695802, -4.790073120410413, -36.49750598465555, -2.2329920638595553, -16.395033008308083, 17.68369735197881, 3.978350539295617, 31.064239766539902], [1.93393845820692, -26.248688817372482, 47.42867293062963, -13.684129985068177, 19.281385446499847, -28.297393164275757, 4.233095907122335, 40.84233800165937], [-11.542846544520371, 29.057892578323006, -30.23882999500171, 32.426559221085355, 26.33693602990815, -30.38572365497118, -13.583936202378808, 24.96244169335459], [-35.194067104447456, 42.427501639277594, -23.6344717325974, 27.927226754595672, -1.1460899516484933, 0.13025037732752823, 2.338884825499319, -18.01105102618844], [-15.484367109055839, 22.562728309640143, 69.78477106633402, -20.955227239487424, 7.704627904715909, -21.960974013764666, -16.43653318800846, -22.668673614144915]], [[2.444308968252082, -39.42866524701328, -14.974862856215555, -14.076302558468038, -41.06789976412567, -1.2802277731702907, -1.6338037342030634, -4.624462966866371, -22.31270467814293], [7.659750405441283, -0.6903037087922502, -17.40257924253379, -44.154960357776325, 51.90909295519616, 32.25890197400379, -36.69195669670163, 14.00934162838482, -9.934566199989284], [-45.72872327933753, -19.95767180730519, -10.757728587025127, -9.993118629760113, -40.02828212064635, 16.53928882306074, 15.034874970227111, 26.988385956986274, -21.85568576447403], [-31.503788718043193, 5.061788842403389, -2.2351198006422077, 33.934742312974066, 12.270118768108972, -18.789885779649982, -31.850647030479724, -21.23134785281758, 48.748291701891965], [55.64325960841258, -22.37066511211274, 4.729943590098103, 4.856321419384912, -41.50416149072769, -44.85563393670997, 19.655715388313784, 10.309934079109869, -5.316807779749271], [-33.635592693643, -6.541370513548588, 1.3216422269628763, 28.380248389850195, 33.265636096979705, -6.364730914375885, 30.7077853756316, -35.50128123438512, 16.95721916808136], [-10.715658309358826, -4.80731791978558, 11.388603606628331, -4.595462791482146, -15.126441727636687, -18.109764792159677, 79.31625332966291, -76.32123226164994, 18.71291745935549], [23.477843441541086, -2.7954099282491187, 26.628746986888867, 26.14321655287386, -24.582147912915527, -26.91967321832714, -11.05968916979487, -48.92362922864635, -5.489325785165835]]], "networkBiases": [[-2.295990507521525, 3.3353186934678205, 4.916215761127371, 1.2459976894131377, 4.63278533206892, -1.7444018521723357, 1.6181811124143173, 5.18365871033573], [-4.054493531379144, 6.734229558340342, -2.8960485688756634, -1.5612426680065585, 5.937749607376524, 2.305491773493213, -1.3266051251313524, 2.8906372503636235, 2.3991844613869175]]}