{"structure": [9, 8, 9], "networkWeights": [[[-0.6013489584438602, -43.8624275868353, -1.1450724385746247, 1.9521797438224828, 0.9197363193739105, 25.250711445826795, 9.090368228590462, 51.195709952806304], [-3.992646574326593, -1.6603811315365422, -14.049511772172476, -13.681943734199592, -7.216546297244915, -19.83249713321764, -18.17424935877277, -23.61875967736424], [-12.411306156812891, -4.140499851686652, 5.211423612972312, -13.69736531693708, -7.732369676789808, -6.577678075693358, 35.11962360828646, -9.42745587526096], [44.67324155029476, 18.769617456083473, 10.884466926524299, -13.772330923655227, 20.356549855291753, -0.9385617299408204, -7.7220100066182376, 53.00396954991251], [-34.76526378464967, -4.676042588792162, -36.54902546562612, -2.281923475484045, -16.43023336090647, 17.66199591399219, 3.973703911954669, 31.1407520775559], [2.031652843952184, -26.123439143365584, 47.4404555843489, -13.643584534225965, 19.271515596322594, -28.4667885050386, 4.338483630895459, 40.83237997978842], [-11.693846404806061, 29.10898127438105, -30.096017707399746, 32.41299476264317, 26.18839960473747, -30.26629003037429, -13.387810059370256, 25.003026445415287], [-35.22237708112317, 42.476938714049105, -23.771974168243982, 27.98563054526699, -1.1715339536142615, 0.17660088517612704, 2.3895168021114075, -18.039334066148992], [-15.455303751545584, 22.54377507194819, 69.75265566245798, -20.988423738052493, 7.73868100364595, -21.93952471882207, -16.416707168175698, -22.799411413204407]], [[2.4835739723544914, -39.439281637738226, -15.037706447499142, -14.153054446052248, -41.04236429611337, -1.3628039253838544, -1.529939187436127, -4.471146894618026, -22.188613042018222], [7.69611460897908, -0.6734760787371568, -17.399120532237408, -44.16638825005958, 51.92167015869269, 32.20048872492627, -36.65086661558074, 14.094417365394166, -9.978524491671253], [-45.94001064454415, -19.759655829060602, -10.73336028934863, -9.998201419117656, -40.05986336925379, 16.59526003287078, 15.156865982295784, 27.077608774304284, -21.875942882722832], [-31.602807257299585, 5.064150691561119, -2.163033113628029, 33.985343745992246, 12.291543850686926, -18.758131066592206, -31.977637024714795, -21.203811734546484, 48.84708965756511], [55.720652326990255, -22.32065810762364, 4.703219891892926, 4.869733505718189, -41.49737884811925, -44.754145809490836, 19.556855659506084, 10.35774797064307, -5.230672975196916], [-33.58846248319974, -6.559151622555509, 1.4250946989376443, 28.43462683831146, 33.335340848961664, -6.4387896275295295, 30.526944344442537, -35.411508046157685, 17.00268344843581], [-10.772678348779706, -4.8196240422033405, 11.480108838447027, -4.529515264019938, -15.042885215528894, -18.09258354144025, 79.38504407779182, -76.31739359884554, 18.751503589707777], [23.548675163606752, -2.9081356625861616, 26.71223879060258, 26.15390846384415, -24.503504031674378, -26.946492179453713, -11.024626622589594, -48.87141419885626, -5.596309307227782]]], "networkBiases": [[-2.0133328868161784, 3.2090534205584724, 4.733547540456889, 1.6873510605018762, 4.742100035524239, -1.9086980852480502, 1.817862320773121, 5.175456250227927], [-3.747169135154477, 6.682720449065139, -2.81510077840889, -2.171007927036133, 5.645440820552901, 2.560383211214511, -1.355265920873319, 3.321635941662089, 2.465389309568036]]}