{"structure": [9, 8, 9], "networkWeights": [[[-0.6013489584438602, -43.8624275868353, -1.1450724385746247, 1.9521797438224828, 0.9197363193739105, 25.250711445826795, 9.090368228590462, 51.195709952806304], [-4.035225508793853, -1.679085865489725, -14.049511772172476, -13.654097522166513, -7.216546297244915, -19.83249713321764, -18.17424935877277, -23.61875967736424], [-12.411306156812891, -4.140499851686652, 5.211423612972312, -13.69736531693708, -7.732369676789808, -6.626271554729927, 35.11962360828646, -9.42745587526096], [44.67324155029476, 18.769617456083473, 10.884466926524299, -13.772330923655227, 20.356549855291753, -0.9385617299408204, -7.7220100066182376, 53.00396954991251], [-34.76526378464967, -4.676042588792162, -36.54902546562612, -2.281923475484045, -16.45465739718608, 17.66199591399219, 3.973703911954669, 31.1407520775559], [2.031652843952184, -26.123439143365584, 47.4404555843489, -13.643584534225965, 19.271515596322594, -28.4667885050386, 4.338483630895459, 40.83237997978842], [-11.68933382326142, 29.10898127438105, -30.096017707399746, 32.41299476264317, 26.18839960473747, -30.26629003037429, -13.35310028221916, 24.98821341898931], [-35.22237708112317, 42.476938714049105, -23.771974168243982, 27.98563054526699, -1.1715339536142615, 0.17660088517612704, 2.418234339836146, -18.039334066148992], [-15.455303751545584, 22.54377507194819, 69.75265566245798, -20.988423738052493, 7.73868100364595, -21.93952471882207, -16.416707168175698, -22.799411413204407]], [[2.4835739723544914, -39.41729603983155, -15.037706447499142, -14.153054446052248, -41.04236429611337, -1.3628039253838544, -1.529939187436127, -4.471146894618026, -22.188613042018222], [7.69611460897908, -0.6734760787371568, -17.399120532237408, -44.173767626419256, 51.92167015869269, 32.20048872492627, -36.64759466694497, 14.067284192502335, -9.978524491671253], [-45.94001064454415, -19.759655829060602, -10.73336028934863, -9.998201419117656, -40.05986336925379, 16.5603419146767, 15.156865982295784, 27.077608774304284, -21.875942882722832], [-31.602807257299585, 5.093206675160822, -2.163033113628029, 33.985343745992246, 12.291543850686926, -18.758131066592206, -31.977637024714795, -21.203811734546484, 48.84708965756511], [55.720652326990255, -22.291065671828225, 4.703219891892926, 4.917210374602493, -41.49737884811925, -44.78206288020859, 19.556855659506084, 10.35774797064307, -5.27373004100117], [-33.58846248319974, -6.559151622555509, 1.3911958754575877, 28.43462683831146, 33.335340848961664, -6.439305588989825, 30.526944344442537, -35.411508046157685, 17.00268344843581], [-10.765822590943717, -4.8196240422033405, 11.480108838447027, -4.529515264019938, -15.042885215528894, -18.09258354144025, 79.34398821313876, -76.31739359884554, 18.751503589707777], [23.548675163606752, -2.9289139568119316, 26.71223879060258, 26.15390846384415, -24.503504031674378, -26.946492179453713, -11.024626622589594, -48.87141419885626, -5.596309307227782]]], "networkBiases": [[-2.0133328868161784, 3.1991624170093904, 4.7406295211569525, 1.641502443619111, 4.7713056672716165, -1.826532493369856, 1.8107797595322093, 5.2319862068072505], [-3.747169135154477, 6.696915666689669, -2.8062094521924785, -2.171007927036133, 5.684731506658313, 2.466354182793604, -1.3078209759044335, 3.285771560924287, 2.4953350269060666]]}