{"structure": [9, 8, 9], "networkWeights": [[[0.16445724500464376, -42.9217612392375, -2.533451395189395, 0.5524840112860867, 0.4531032326484974, 23.341400415711128, 8.804444961022183, 50.46393337919914], [-6.5580763083581335, -1.8628558514715974, -13.432082820371345, -12.563868125461772, -8.052160362200436, -19.944773896558353, -18.265839918287856, -25.926332582846246], [-13.342074194430849, -4.57369949446178, 3.6927789675019094, -12.457436040596416, -7.013077886812576, -5.927178555082288, 34.8045312888707, -9.949638076876953], [45.60567013503865, 18.582169678275804, 10.126769379654277, -13.571431766889276, 20.377399079795115, -1.0621269906797153, -5.5913119929730115, 53.20179605446187], [-34.524490340297625, -5.930994931569307, -37.265941380715624, -3.273893361485591, -17.37207802768554, 15.956539131504911, 4.059763853294061, 32.59387064857202], [1.0994933634126365, -25.110784606659436, 45.675352846114514, -14.931947666672665, 19.47896858613704, -26.88839833868941, 4.18301796118479, 40.14718615791279], [-10.050094004190711, 28.534775939577298, -30.109699304865188, 32.482034849829276, 25.861058261707623, -30.256784237164055, -12.985984366469982, 25.851390745462478], [-36.12064888680976, 41.89013194504081, -19.63218967711608, 27.410749251282702, -2.2997354800089376, -0.5579088827365364, 2.8294268759657744, -18.37018571453991], [-17.554539765201216, 22.185187815608607, 69.13222646813176, -18.797777778068617, 8.156723406478852, -21.03117602387652, -17.605819424830205, -22.376356219792168]], [[3.691547714730884, -37.939316126144696, -14.824570968785421, -13.335523752629904, -39.327850335168975, -3.593896168876849, -1.3666478494232983, -3.6139975849541006, -20.835843096280765], [7.367343292648795, -0.36248313131762266, -16.623282521475264, -42.15481061314515, 51.77187181954725, 32.94113416642816, -36.825586707314145, 14.133751091802633, -11.035205682815452], [-43.97377704606244, -18.99858561713738, -10.072588556911837, -9.218020146795581, -38.94160545514651, 16.17760930581883, 15.682520082827747, 26.987632790529936, -23.5110259696696], [-29.37647778630099, 4.693682552856753, -3.0576522559477306, 35.256287387610215, 11.581681475832866, -20.245504301302777, -33.29257493450608, -22.38481879518885, 49.83189772042989], [55.28514730266344, -23.709527602441103, 4.038300147516613, 3.7198998502267795, -40.830946520293125, -45.656936153962164, 19.932249930113688, 9.632648819405519, -4.680126490184774], [-32.83216135836275, -5.5129941410569145, 0.25606495570859256, 28.73199641224011, 34.106549593245894, -4.823841694142953, 30.08847600294797, -35.008780425579126, 14.925433031559308], [-11.67346714015404, -4.6729928049117415, 11.2741504979396, -4.128852963010324, -15.25565038389429, -20.129869982550495, 80.12703555517162, -77.63551876853955, 20.655909998142505], [23.91412228083039, -0.2543948742757396, 24.206535446205045, 23.585559285747912, -25.2258644737446, -26.190284556791543, -11.561780121971417, -49.48888629130524, -3.975878490417979]]], "networkBiases": [[-0.29431883927816815, 2.365248729350915, -0.935159336452893, 1.2399258316177189, 1.3745067904942923, 1.0939408217204165, 1.6861313928801256, 2.53892077632023], [1.646656674360972, 1.6276677861281865, 0.7217013363409903, 0.3542581167829857, 1.6326747036701479, 1.1844964408922098, -0.4646170753913186, 0.304667516855738, 1.2054680978029535]]}