{"structure": [9, 8, 9], "networkWeights": [[[-0.7341993282239299, -44.31046451759323, -3.0389079567715465, 0.5524840112860867, 0.4531032326484974, 23.38341833633511, 8.134564538663366, 50.46393337919914], [-5.078380101658369, -0.47973439910806737, -12.883290886835656, -12.563868125461772, -8.642599308952967, -19.944773896558353, -18.87391476469049, -25.174858773929003], [-13.342074194430849, -4.57369949446178, 4.551936060717882, -13.295798864482322, -8.50690557381873, -6.762046727877594, 33.814151015437, -9.949638076876953], [45.14022364504573, 18.582169678275804, 9.46717315608101, -13.751152709815303, 20.377399079795115, -0.3892511860453769, -5.462229283423019, 52.92321634495884], [-35.13292224837745, -4.977318007328458, -37.260292476317645, -2.2957788996768573, -17.149120088719943, 16.262678551827346, 4.876525276547387, 32.59387064857202], [0.43668306988871586, -25.087982901255046, 45.92659492085994, -14.931947666672665, 23.010056411208822, -26.908633339583677, 3.9883675956019893, 41.02284589796201], [-7.830627173896534, 29.056335870903116, -30.945279488820407, 32.482034849829276, 26.022449451478433, -30.39972900115494, -12.050380886081768, 26.66378322400304], [-35.56315783192377, 41.89013194504081, -20.468612817046907, 27.40884622231248, -2.2997354800089376, -0.409384437458989, 2.6895403425353837, -18.37018571453991], [-18.27953220577049, 23.996421519758066, 68.73495846555714, -18.492621284384878, 8.392203009740273, -21.03117602387652, -17.605819424830205, -23.363910643858286]], [[3.780139445450526, -38.05940051468717, -15.648362041783223, -15.744532362053105, -41.14317791253705, -2.424894709461527, -1.3666478494232983, -3.6139975849541006, -21.703414014402668], [6.822692144349752, 0.19059609531393118, -17.946915189818863, -42.212009126615534, 52.04564259819212, 32.94113416642816, -37.43626177632188, 14.108449098269967, -10.91581715438411], [-44.52929570164636, -20.180407732521733, -9.479400805664813, -9.65234949493645, -42.20390886209346, 16.888796907828198, 15.979300929270163, 26.93522691050729, -22.679178605169145], [-29.791299131902857, 6.366739674689565, -2.3624792844800235, 34.76780439926265, 11.583658511949839, -18.715450877058647, -34.335403272546465, -20.901645127892657, 49.21644167368967], [55.15449840073289, -24.068132908384825, 3.8176833624453423, 4.456384092120367, -41.32093250743196, -45.113244413082846, 20.34757682289297, 9.632648819405519, -4.235262351316526], [-32.83216135836275, -6.139635726923871, 0.09935133761695258, 28.73199641224011, 34.106549593245894, -4.856094394224291, 30.08847600294797, -35.008780425579126, 15.21712753397753], [-11.003119406154555, -5.443718189315864, 11.128126892286149, -4.602469251532087, -14.384422048102447, -20.1429608136821, 80.74805037806388, -78.50892126747776, 20.911800564899654], [23.28144791922087, -0.2543948742757396, 24.206535446205045, 22.39552931780333, -25.034328152021942, -26.16008910550535, -10.975837408135611, -49.48888629130524, -4.6190636192991175]]], "networkBiases": [[1.0, 1.0, 1.0, 1.0, 1.0, 1.0, 1.0, 1.0], [1.0, 1.0, 1.0, 1.0, 1.0, 1.0, 1.0, 1.0, 1.0]]}