{"structure": [9, 8, 9], "networkWeights": [[[-0.7341993282239299, -43.27613573163381, -3.0389079567715465, 0.5524840112860867, 0.4531032326484974, 23.38341833633511, 8.134564538663366, 50.46393337919914], [-5.15855549521919, -0.3866811870112836, -13.651768810289047, -12.563868125461772, -8.685862321203539, -20.718673084225028, -18.437578587788877, -24.786851229188223], [-13.342074194430849, -4.891828946658285, 4.551936060717882, -13.295798864482322, -8.50690557381873, -6.762046727877594, 33.814151015437, -9.949638076876953], [44.45754432476301, 19.386429284469884, 9.46717315608101, -13.751152709815303, 20.377399079795115, -0.6043400095068472, -5.162660502290511, 52.45561169204995], [-36.376068129481, -4.112768110406609, -37.260292476317645, -2.2957788996768573, -17.766198022610435, 16.262678551827346, 4.876525276547387, 32.59387064857202], [0.43668306988871586, -25.86719297788239, 45.92659492085994, -14.09932837264162, 22.106688023307182, -26.908633339583677, 3.9883675956019893, 41.02284589796201], [-8.701417242692793, 29.056335870903116, -30.945279488820407, 32.482034849829276, 26.022449451478433, -30.39972900115494, -12.153213041855505, 26.352170591385544], [-35.56315783192377, 41.89013194504081, -21.162703067566973, 27.699617636764394, -2.891961445985487, -0.409384437458989, 2.6895403425353837, -18.37018571453991], [-18.43287053556603, 23.32183540437781, 68.73495846555714, -18.492621284384878, 8.392203009740273, -21.03117602387652, -17.605819424830205, -23.363910643858286]], [[3.821399208357236, -38.678755165553945, -15.648362041783223, -15.744532362053105, -41.14317791253705, -2.424894709461527, -1.3666478494232983, -3.6139975849541006, -21.703414014402668], [6.822692144349752, 0.19059609531393118, -18.219569026146985, -42.843420493381245, 52.04564259819212, 33.07034992148231, -38.37487508993762, 14.108449098269967, -10.91581715438411], [-44.22528206091195, -20.180407732521733, -9.479400805664813, -9.69683979311572, -41.22533501047707, 16.17760930581883, 15.979300929270163, 26.93522691050729, -22.679178605169145], [-29.85628505187769, 6.078594754120664, -2.3624792844800235, 34.76780439926265, 12.435821114740712, -18.715450877058647, -33.537809131296164, -20.754141609621133, 49.24952771626119], [55.27809111361737, -24.068132908384825, 3.1807347556130363, 4.456384092120367, -40.916721603029714, -45.113244413082846, 20.34757682289297, 10.439151029099735, -4.235262351316526], [-32.83216135836275, -6.852056006623581, -0.7024317826731121, 28.73199641224011, 34.106549593245894, -4.856094394224291, 30.08847600294797, -35.008780425579126, 15.456583600351125], [-11.67346714015404, -5.491513276055215, 11.128126892286149, -3.292825906867235, -14.384422048102447, -20.1429608136821, 80.74805037806388, -78.50892126747776, 20.911800564899654], [22.84376289036631, -0.2543948742757396, 24.59738963846965, 22.39552931780333, -25.2258644737446, -26.16008910550535, -10.975837408135611, -49.48888629130524, -4.181384285881082]]], "networkBiases": [[1.0, 1.0, 1.0, 1.0, 1.0, 1.0, 1.0, 1.0], [1.0, 1.0, 1.0, 1.0, 1.0, 1.0, 1.0, 1.0, 1.0]]}