{"structure": [9, 8, 9], "networkWeights": [[[-0.5613528899855162, -43.85432632313973, -1.1484335357002668, 1.8001947886634595, 0.8290971562602942, 25.29980244186659, 9.143192160476717, 51.05791724200833], [-3.935325348711778, -1.8818907951184642, -14.01607939858768, -13.734024331164905, -7.20238157647736, -19.933902107165412, -18.217445429740106, -23.623193181949283], [-12.581771166120914, -4.177271878246035, 5.05155015092785, -13.641000762628348, -7.734953202504902, -6.451386005988208, 34.92293445926072, -9.519969518509434], [44.761247994331136, 18.852907546226614, 10.80899598547583, -13.847500019695886, 20.244876578414292, -1.0731691506020278, -7.836658543218357, 53.15714114686229], [-34.72054176697685, -4.701660045153559, -36.461789915752895, -2.296178388049652, -16.312363132497357, 17.63201044988804, 4.005900854624989, 31.054362676837194], [1.9325781499016184, -26.25359046310487, 47.33938383229271, -13.666711390740529, 19.2071389001343, -28.297393164275757, 4.149505516571346, 40.827035895100266], [-11.551670857842554, 29.09284260586444, -30.237713350086203, 32.56164251754016, 26.37037659986862, -30.484852920723494, -13.616544637360722, 24.899070252454162], [-35.181518206205574, 42.43994047353326, -23.62240749478408, 27.870074899226083, -1.1112429306927212, 0.15313714657772073, 2.4014063704020505, -18.05134915398948], [-15.458369673461249, 22.504830750940577, 69.74704563039732, -20.974558698015716, 7.688660707868775, -21.998423321701257, -16.45648754405244, -22.75488162589404]], [[2.4627132475731415, -39.544651039195884, -15.018651954482126, -14.087483104661192, -41.030527324816305, -1.2689092256076726, -1.6732951042384547, -4.579072684343072, -22.384464874879917], [7.765403333233488, -0.7081591864294401, -17.432215824851845, -44.14288484677299, 51.88158908252939, 32.22084436349575, -36.64608249794767, 13.950935290674343, -9.970151127641465], [-45.78355957530609, -20.014692276922375, -10.784555123838855, -10.051168753496013, -40.086694018935596, 16.502543732250807, 14.988152640005344, 27.06858837322494, -21.840271537183078], [-31.518896324034, 5.108451112237139, -2.303185802789323, 33.97764455307684, 12.231174538937092, -18.78602706619884, -31.894396835361157, -21.277216498696852, 48.70331045734352], [55.64899067836107, -22.351114044340424, 4.754957190211389, 4.861591134892687, -41.41768448408306, -44.939318693236494, 19.625213665631993, 10.291476744460304, -5.3333759161587535], [-33.599967937475704, -6.475026521027007, 1.2639397838711077, 28.42445925711509, 33.2855451558408, -6.441452209221474, 30.71433468508771, -35.59351399027603, 16.935470516192826], [-10.705287494727887, -4.901666133963729, 11.463661452017869, -4.59014884849684, -15.160572669290984, -18.18545855443642, 79.26750048974449, -76.29230275485787, 18.720823916776745], [23.474699965021205, -2.808374655441727, 26.62518240372602, 26.200479288508653, -24.581058808347972, -26.99043383542236, -11.036851813955549, -49.01597498443354, -5.454209464207057]]], "networkBiases": [[-2.3902627811422827, 3.0853547968342174, 4.921892475905053, 1.4069444659436727, 4.541312790176738, -1.5513034039158398, 1.5857517037767617, 5.241891437769989], [-4.0699750272399635, 6.7233364178626545, -2.855612637581361, -1.5549421899727796, 5.798466810192923, 2.389692705910693, -1.6613160562714393, 2.868832300314933, 2.2875581775262592]]}