{"structure": [9, 8, 9], "networkWeights": [[[-0.5613528899855162, -43.899632746992644, -1.1484335357002668, 1.8001947886634595, 0.8290971562602942, 25.29980244186659, 9.129113859282398, 51.070001735241796], [-3.935325348711778, -1.8818907951184642, -14.01607939858768, -13.734024331164905, -7.20238157647736, -19.933902107165412, -18.217445429740106, -23.623193181949283], [-12.581771166120914, -4.177271878246035, 5.009245426030024, -13.600984282359123, -7.734953202504902, -6.451386005988208, 34.970344583897536, -9.519969518509434], [44.78387324433925, 18.852907546226614, 10.80899598547583, -13.847500019695886, 20.244876578414292, -1.0731691506020278, -7.836658543218357, 53.109130944777576], [-34.72054176697685, -4.701660045153559, -36.461789915752895, -2.296178388049652, -16.275233864071318, 17.63201044988804, 4.007483616061558, 31.054362676837194], [1.9325781499016184, -26.25359046310487, 47.33938383229271, -13.666711390740529, 19.2071389001343, -28.297393164275757, 4.1879435887045275, 40.827035895100266], [-11.551670857842554, 29.047850950338315, -30.237713350086203, 32.56164251754016, 26.405934109555314, -30.484852920723494, -13.616544637360722, 24.850870030155914], [-35.181518206205574, 42.43994047353326, -23.62240749478408, 27.870074899226083, -1.1112429306927212, 0.15313714657772073, 2.3706747334559775, -18.05134915398948], [-15.458369673461249, 22.504830750940577, 69.74704563039732, -20.974558698015716, 7.688660707868775, -21.998423321701257, -16.45648754405244, -22.75488162589404]], [[2.4627132475731415, -39.544651039195884, -15.018651954482126, -14.087483104661192, -41.030527324816305, -1.3112557778337461, -1.6732951042384547, -4.579072684343072, -22.384464874879917], [7.765403333233488, -0.7081591864294401, -17.432215824851845, -44.14288484677299, 51.88158908252939, 32.22084436349575, -36.64608249794767, 13.977772525065342, -9.970151127641465], [-45.78355957530609, -20.014692276922375, -10.784555123838855, -10.051168753496013, -40.086694018935596, 16.453991699981664, 14.988152640005344, 27.06858837322494, -21.840271537183078], [-31.518313667916157, 5.108451112237139, -2.330448591421835, 33.97764455307684, 12.231174538937092, -18.78602706619884, -31.894396835361157, -21.277216498696852, 48.70331045734352], [55.61548437531504, -22.351114044340424, 4.754957190211389, 4.861591134892687, -41.41768448408306, -44.939318693236494, 19.625213665631993, 10.291476744460304, -5.3333759161587535], [-33.599967937475704, -6.430253123383784, 1.2639397838711077, 28.42445925711509, 33.2855451558408, -6.428023475599198, 30.71433468508771, -35.59351399027603, 16.935470516192826], [-10.705287494727887, -4.890210248879959, 11.506704613478007, -4.59014884849684, -15.131587832157766, -18.18545855443642, 79.26750048974449, -76.29230275485787, 18.720823916776745], [23.474699965021205, -2.808374655441727, 26.62518240372602, 26.200479288508653, -24.620664561751525, -26.99043383542236, -11.036851813955549, -49.01597498443354, -5.454209464207057]]], "networkBiases": [[-2.426631191697226, 3.1548875849010427, 4.912902272102376, 1.42834831784592, 4.538753901769244, -1.5176893997192058, 1.5588532533671444, 5.170359993575265], [-4.106865307059064, 6.7267151474807365, -2.830959143021978, -1.5888816806844352, 5.7759914343442205, 2.42466403454401, -1.638085639571777, 2.838786942540806, 2.2968864727094336]]}