{"structure": [9, 8, 9], "networkWeights": [[[-1.4437199812466526, -43.89748706872763, -1.5618239222984174, 0.9391777151044172, 0.07300723181338598, 24.65344510816123, 9.0647790985565, 51.90289958937829], [-5.313791022500055, -1.2464574676869065, -14.420898109876003, -13.91081914009642, -7.88149699682746, -20.629346577612626, -18.249290420514793, -23.677021881403526], [-13.671977154720794, -3.790791111571001, 4.420126020999247, -13.348028234985412, -8.811671923431822, -6.3331277002192445, 35.22975427200362, -9.613130593845435], [44.0532506461264, 18.575622718894156, 9.78315832096379, -13.086230501021829, 20.39332118267082, -1.3201519474985635, -6.7714938761270895, 52.48455129825377], [-34.338845425189525, -6.157091280861398, -37.62880255017206, -2.9463111777397644, -16.581538576652896, 18.022584535342585, 3.5799315464823085, 31.91132166846064], [1.308117753483827, -25.93118078996308, 47.1705012401425, -14.45683401518903, 18.857994229285524, -29.115519208030708, 4.2525970156674076, 41.25744402778934], [-9.960229910611867, 29.631234232095597, -30.588273802844554, 32.080792458939115, 25.556734003079463, -30.394434498046476, -13.203714549271192, 24.082510502873962], [-34.89396738950284, 43.24839844842409, -22.37754016991888, 28.01840733551591, -1.1756893255484018, -0.09121990989514156, 2.0406144528790175, -18.345702195242303], [-15.675991018905474, 21.831204156248695, 68.93605818555464, -20.373486297789082, 7.808176259031747, -22.80885952309232, -16.817267684476718, -23.796188505054065]], [[1.7711896745807678, -38.96507484774852, -16.08792486096858, -14.402732048693643, -39.19049768205252, -2.045568645229013, -1.8649359403629013, -4.306113428459937, -21.570803766665748], [7.302044312827175, 0.008026891383996648, -17.27191029746885, -43.16529802620123, 52.32476427259512, 32.10056211669901, -36.06381178711583, 13.8155629179636, -10.735736202187324], [-44.91820992822146, -20.05662060760956, -9.393400558857895, -9.554164172582237, -40.90429431003054, 16.42718253712968, 13.682444058421861, 26.42330686862286, -21.404164212804265], [-30.019464722029355, 5.509960972568077, -3.076020485392034, 34.68140447111261, 12.701514553641305, -18.745956836787656, -31.32230875841308, -21.714675491263417, 48.652165892604486], [55.58204764465235, -23.024450434547497, 4.2616815937097074, 4.297910999949111, -40.57081244565661, -44.73961629888805, 19.95842866943543, 9.66266390116994, -5.334675761756918], [-33.74115861660591, -6.646595099377724, -0.05746847420752449, 28.294648307160312, 32.607326525178706, -6.088472457949906, 30.83018408359757, -35.65402372620493, 17.09692668950541], [-10.237512774497239, -4.271310639870393, 12.063544491762494, -5.233362229364381, -14.448333234165487, -19.360564346867342, 79.94258609775724, -77.14629206566714, 18.441600699827518], [23.28695310962573, -3.147459439469534, 26.14037338323687, 25.631927200816094, -25.214425496118423, -26.719317418414768, -11.401010232619154, -48.9105675746484, -4.212319842444882]]], "networkBiases": [[-3.0670268887935213, 2.6463069572885973, 2.0200025913717425, 2.67671266562798, 2.4604794436870687, -0.36854519181769085, 3.3819552726658744, 7.151992866022281], [-1.8965503105335682, 4.5172087479028, -2.358193708189669, -2.3390382130660177, 5.792046018644853, 3.121252271837009, -1.72899260830591, 2.0304889332166343, 1.834767609432559]]}