{"structure": [9, 8, 9], "networkWeights": [[[-1.4725637502091002, -44.10579825231813, -1.6540737225558737, 1.0396699318634255, 0.2480385172470731, 24.318864547613476, 9.31269176063391, 51.68392252801621], [-5.3145585892352285, -1.6087778462601967, -14.519592205445154, -13.807564635650955, -8.072374201595116, -20.530778889571458, -18.37642558550621, -23.51438274883539], [-13.585029299205434, -3.307218129153002, 4.378850266609414, -13.598181457373, -9.00699091482436, -6.552006287469881, 34.76675534264731, -9.56799283519243], [44.0532506461264, 18.801927038605033, 9.735919541688533, -13.188127295625561, 20.24513506732083, -1.472157614703491, -6.520236756850055, 52.76565890523941], [-34.591955361590266, -6.009740521410361, -37.29131807909998, -3.175702834662677, -16.4296133018864, 18.23730151608243, 3.6445563063233815, 31.498477066729787], [1.5092125119031756, -26.440993302884053, 47.735259304133756, -14.42719489468104, 18.8904321726191, -29.099207361224156, 4.957567689210519, 41.68178664013688], [-10.27352517336379, 29.631234232095597, -29.906475235296114, 32.18479740080655, 25.900026071559143, -30.54459596108435, -13.382537478620424, 23.845450035698345], [-34.332881418825544, 42.69776727510719, -22.73483737342806, 28.137584409188918, -1.115993804193762, -0.09121990989514156, 2.4330384211987712, -18.08950975341557], [-15.579231142448505, 21.82116304142544, 69.0543303103008, -20.23793899460894, 7.3851160562347085, -22.855279570260578, -16.728110018974313, -23.643191234436085]], [[1.8609543756727327, -39.0917106652797, -15.970418924526664, -14.161349141648142, -39.03527393810203, -2.0112247706024453, -1.627163901193202, -4.580802444216425, -21.776722531492247], [7.060745556701152, 0.18473077331406657, -17.525871972769988, -43.30816514748055, 52.23813775394321, 32.284710043171124, -35.97494037512776, 14.04037389783787, -10.176358463232853], [-44.97381696784196, -19.61972888292255, -9.423385874721895, -9.778243161050861, -40.79909188563426, 16.20949747200158, 13.50625809801389, 26.488948473881194, -21.096381642776635], [-30.470539068669954, 5.8709910030343275, -3.3138361271209154, 34.53594579584452, 12.445467259396649, -18.763280711658837, -31.330512486160615, -21.343375600021403, 48.844762222934364], [55.8184142546736, -23.16513948822726, 4.489608443129837, 4.415034903882246, -40.607982211007005, -44.80618338685067, 20.0554545584367, 9.223537867962959, -4.45208711062554], [-33.74115861660591, -6.246540202593377, -0.014352370622819743, 28.364818579510427, 32.74849930226477, -6.410105586960011, 31.30387759260789, -35.65638516867406, 17.42394826862481], [-10.542027169823601, -4.241455478493097, 12.204116226659808, -5.120515912484606, -14.221416445317546, -18.672553176207963, 79.59293007820162, -76.810001106961, 18.28909991815976], [23.268680769057813, -3.404006499175712, 26.401403542575277, 25.631927200816094, -25.2481815061271, -26.60054515246779, -11.279216689884226, -48.80690427927495, -4.27840615508747]]], "networkBiases": [[-3.1419604550061506, 2.893225761902876, 2.6540592583856064, 1.5602616365282185, 2.7649114589122616, -0.4589510747117709, 3.348046043641109, 7.7043360792328155], [-2.560488396472735, 5.165122356497365, -2.4572246004285767, -1.8267538647899455, 5.528146700745686, 2.9851221212148658, -1.859057803192476, 2.8053764470549973, 1.3857678918819327]]}