{"structure": [9, 8, 9], "networkWeights": [[[-0.5835206641723856, -43.79531719352812, -1.1726508849683497, 1.77453667690528, 0.9329323520722159, 25.270042984548503, 9.118337030152645, 51.06512369568643], [-3.9921377022716316, -1.72496676081775, -14.029091303756575, -13.727664364527662, -7.343558982545173, -19.857459930373892, -18.146694775368125, -23.654302535747746], [-12.440837782015794, -4.1725289118361015, 5.17391814370347, -13.613147029648937, -7.748595958732447, -6.4938648386234075, 35.07410992413543, -9.436869378771416], [44.7075856859976, 18.783722637721393, 10.86453447218084, -13.706461203057582, 20.29857247718957, -0.9850907356331756, -7.751192329189603, 53.0924467208323], [-34.77011697081952, -4.781353619416757, -36.46295954371024, -2.21609148238931, -16.50886998879857, 17.66346086770938, 4.044569399314952, 31.04834844055318], [1.9800686421064146, -26.175729596492104, 47.40037771909585, -13.688691484237724, 19.269999049944907, -28.39567574716161, 4.341219882208129, 40.789869401814954], [-11.635353585811671, 29.172823327926505, -30.217381136502034, 32.42583417764517, 26.277402371573338, -30.360683155970385, -13.550952407310117, 24.910495808432287], [-35.22986943582576, 42.47487197232135, -23.67635761162934, 27.94521979826131, -1.1786249774926747, 0.19360189791447904, 2.3632726785380966, -18.06437596692306], [-15.476739761285975, 22.55094710711195, 69.72380183392696, -20.962540284620385, 7.729263070164473, -21.899803882766097, -16.504648629573172, -22.65483374609811]], [[2.5036979378676563, -39.41931732909789, -14.971411842112303, -14.09748801401065, -41.06941390446598, -1.3550803090650747, -1.5323152933715785, -4.579975558691805, -22.282887384016675], [7.719910067317008, -0.7280687933998392, -17.398883712308745, -44.129389232269624, 51.92173490224955, 32.224083849828304, -36.635745984865466, 14.011049096036876, -9.974277995035024], [-45.95629976578579, -19.865722441846007, -10.75169619270467, -9.993118629760113, -40.027911480861675, 16.57048244121531, 15.22234309326713, 26.98120966566551, -21.907585122384706], [-31.484196631350656, 5.0806868846929545, -2.2593962376745864, 33.994004250924576, 12.270118768108972, -18.75176465856207, -31.940345774787055, -21.2407759153971, 48.7654062922867], [55.756491480266604, -22.439061070608513, 4.702198173662317, 4.890636776485027, -41.48481883053173, -44.76665450920454, 19.624878230656442, 10.245055410569051, -5.271837170702445], [-33.57670953339379, -6.536476316184049, 1.3803473465573814, 28.357694776305266, 33.235318639599114, -6.447406409307015, 30.74378128713469, -35.488884626231275, 16.909014260433835], [-10.758510394596833, -4.769742668045734, 11.413451896961167, -4.590557850803338, -15.104285560246414, -18.090394570658773, 79.31894339723614, -76.31839622323501, 18.803444370907663], [23.484698686071532, -2.9687872119790737, 26.593082893512253, 26.173094638651534, -24.513545002289888, -26.9169885395347, -11.019545860149272, -48.88403749724078, -5.521231664862835]]], "networkBiases": [[-2.079133705663548, 3.4072926944416833, 4.93227922937354, 1.7019571789007126, 4.657828983215284, -1.768821555000255, 1.7830506073791592, 5.203617573946405], [-3.8767856659938182, 6.538659190467498, -2.9957649066581, -1.840451218752284, 5.789075696789731, 2.305294480273372, -1.171288353507481, 3.2548135171191284, 2.368076755378928]]}