{"structure": [9, 8, 9], "networkWeights": [[[-0.6798951493343138, -43.97638643176205, -1.0651446380431322, 1.9277204513598427, 0.9130944386086703, 25.256498444103524, 9.054613698995032, 51.210511810577394], [-3.9460613880562683, -1.6985349189256573, -14.072216341215027, -13.641076645285521, -7.216546297244915, -19.81946275227872, -18.150041796369443, -23.64413471436657], [-12.394998618812886, -4.15141900602496, 5.22747269087615, -13.728072096960794, -7.80565798848593, -6.597638515160253, 35.144173731906264, -9.406448158700528], [44.68400051762704, 18.75213454558914, 10.80127509173137, -13.74791493157959, 20.392187658981825, -0.8991083155020323, -7.746512075201124, 52.9698693576789], [-34.79100482050841, -4.625928576987611, -36.46019753682057, -2.184444607181811, -16.40379713599744, 17.72177891197452, 4.018426446994858, 31.127369618663067], [2.0893311189089694, -26.12833336474179, 47.38640108513071, -13.602798647486017, 19.323546508796056, -28.394915547651426, 4.3192161886720415, 40.88979074232416], [-11.751767429545513, 29.078876859803902, -30.094025904778352, 32.49439151853213, 26.17115298346076, -30.29367018049277, -13.397654738312966, 25.086951879180283], [-35.28328455031403, 42.52293101887733, -23.80690759416222, 27.99995819130025, -1.2168014988553797, 0.18429771102088982, 2.370918410265049, -18.12429595423355], [-15.433094698617731, 22.45866136175121, 69.78342422007833, -21.01662273025044, 7.691794559554763, -21.97624134356371, -16.43205880836469, -22.664658757197]], [[2.468897356668708, -39.51688417315313, -14.975986403908978, -14.17882135398175, -41.08219164591905, -1.3308590026006777, -1.4882334179674763, -4.4206736663453645, -22.31053423479405], [7.702253729270521, -0.6734760787371568, -17.41936484142893, -44.14028401751736, 51.92167015869269, 32.20254680271061, -36.683699098647665, 14.152354360840189, -10.028708135747204], [-45.94001064454415, -19.736462275940475, -10.821728085801132, -9.927426115064277, -40.06715773557964, 16.52789754369155, 15.163069862433161, 27.07553643057744, -21.8801653051442], [-31.68576884432115, 5.070977876164212, -2.145880797480938, 33.95208835964051, 12.352981143891245, -18.614799970605972, -31.95083097925163, -21.199665169657518, 48.73371847101117], [55.755516080509025, -22.31274390828438, 4.7347196340226025, 4.853359394311095, -41.4743061893297, -44.691799826238686, 19.480624694328988, 10.41005013684504, -5.332021241952323], [-33.63084015554936, -6.609854286682699, 1.4762144393127514, 28.3102691600543, 33.319237149299546, -6.448271630712845, 30.5209261350128, -35.454298857915525, 16.960203786456955], [-10.83165609203223, -4.862964317530435, 11.530573559469644, -4.49586103095279, -15.046172949690586, -18.09896027580111, 79.38619291454391, -76.29808825577125, 18.772965578907403], [23.565875256434698, -2.8999273187984556, 26.726858356304003, 26.132086508452662, -24.564065432928505, -26.989330169859805, -10.990281442520493, -48.836488168825554, -5.545804459219376]]], "networkBiases": [[-2.2021911489625454, 2.9669641512297087, 4.8304003746893835, 1.9511976168439267, 4.500438450967807, -1.8274197777240029, 1.8768929540262753, 5.109468986390271], [-3.6633680580509567, 6.53438323394621, -2.7873470509499723, -2.058415008348202, 5.630434034015815, 2.5405813983017054, -1.5558794150884518, 3.1508428102443418, 2.5348299504835854]]}