{"structure": [9, 8, 9], "networkWeights": [[[-0.6798951493343138, -43.97638643176205, -1.0651446380431322, 1.9277204513598427, 0.8827469362752015, 25.26373919592895, 9.054613698995032, 51.210511810577394], [-3.9460613880562683, -1.6985349189256573, -14.05926296832699, -13.641076645285521, -7.216546297244915, -19.796749251470125, -18.150041796369443, -23.64413471436657], [-12.394998618812886, -4.15141900602496, 5.22747269087615, -13.728072096960794, -7.773316588552905, -6.597638515160253, 35.11316618064844, -9.406448158700528], [44.68400051762704, 18.75213454558914, 10.80127509173137, -13.74791493157959, 20.392187658981825, -0.8991083155020323, -7.7425374170699035, 52.96106648785173], [-34.79100482050841, -4.625928576987611, -36.46019753682057, -2.14702728507494, -16.40379713599744, 17.72177891197452, 4.018426446994858, 31.127369618663067], [2.0893311189089694, -26.100051919789255, 47.38640108513071, -13.602798647486017, 19.323546508796056, -28.394915547651426, 4.3192161886720415, 40.88979074232416], [-11.751767429545513, 29.033425084496688, -30.094025904778352, 32.49439151853213, 26.17115298346076, -30.29367018049277, -13.397654738312966, 25.108215141311785], [-35.28328455031403, 42.52293101887733, -23.80690759416222, 28.00974614118442, -1.2120426134907278, 0.22413124510354432, 2.3707503173832083, -18.12429595423355], [-15.433094698617731, 22.45866136175121, 69.78342422007833, -20.98626023376564, 7.735629893434523, -21.97624134356371, -16.43205880836469, -22.664658757197]], [[2.4873261734966796, -39.51688417315313, -14.975986403908978, -14.17882135398175, -41.08219164591905, -1.3308590026006777, -1.4882334179674763, -4.4206736663453645, -22.31053423479405], [7.702253729270521, -0.6734760787371568, -17.41936484142893, -44.09950618764342, 51.92167015869269, 32.20254680271061, -36.683699098647665, 14.152354360840189, -10.028708135747204], [-45.94001064454415, -19.736462275940475, -10.821728085801132, -9.893192869760549, -40.06715773557964, 16.52789754369155, 15.163069862433161, 27.07553643057744, -21.8801653051442], [-31.68576884432115, 5.075607807117653, -2.145880797480938, 33.95208835964051, 12.331198798230199, -18.614799970605972, -31.95083097925163, -21.199665169657518, 48.73371847101117], [55.755516080509025, -22.31274390828438, 4.7347196340226025, 4.894087889654037, -41.4743061893297, -44.691799826238686, 19.480624694328988, 10.41005013684504, -5.332021241952323], [-33.63084015554936, -6.618219468282696, 1.5025237126505913, 28.3102691600543, 33.319237149299546, -6.498213434951898, 30.482492644850907, -35.454298857915525, 16.960203786456955], [-10.85386625879134, -4.862964317530435, 11.556514570622006, -4.49586103095279, -15.092235305451988, -18.09896027580111, 79.38619291454391, -76.29808825577125, 18.751503589707777], [23.565875256434698, -2.8999273187984556, 26.726858356304003, 26.132086508452662, -24.564065432928505, -26.989330169859805, -10.990281442520493, -48.836488168825554, -5.545804459219376]]], "networkBiases": [[-2.2168888420714654, 2.9596819124834375, 4.821372016734949, 1.9422776067979663, 4.500438450967807, -1.903287874083144, 1.9082586249014801, 5.104251997278653], [-3.7133135396594525, 6.490440227533084, -2.8145472408329746, -2.041793944348729, 5.599179710006813, 2.580501588660359, -1.5177464544476476, 3.1135245588041287, 2.5348299504835854]]}