{"structure": [9, 8, 9], "networkWeights": [[[-0.7341993282239299, -43.191265782385926, -3.0389079567715465, 0.731526682794019, 1.023679494382051, 22.82131286895551, 8.134564538663366, 51.37596358786703], [-5.899045046504305, -0.47973439910806737, -12.883290886835656, -14.100862423871428, -7.33035353327979, -20.462331567923805, -18.437578587788877, -24.965702720332278], [-13.342074194430849, -5.259060345813474, 4.551936060717882, -14.581187782242514, -7.902527382555905, -7.592713477080377, 33.45557581765281, -9.949638076876953], [45.40732548639376, 18.06099066118513, 9.46717315608101, -13.514633327880802, 20.377399079795115, -1.3670798878678858, -4.886638932277497, 51.85164535549613], [-36.47214523063623, -4.4744011388448985, -36.32077882937743, -1.355087962355204, -16.204166386308188, 16.079486992648334, 4.993364412372321, 33.49675580928111], [0.8562488665796941, -25.34840358172932, 45.92659492085994, -14.5172022276667, 21.89294220113765, -27.10247951586104, 3.839091707783075, 40.3311309557887], [-7.74753085603607, 28.309902050593852, -31.198816654408432, 32.563234664487936, 26.022449451478433, -29.9798266229821, -12.521950776759937, 26.352170591385544], [-34.302731663648515, 40.37526048448491, -21.713587059561522, 26.71164116150088, -1.871125575090555, -0.730856085173875, 1.4858453514812944, -18.37018571453991], [-17.709149239823475, 22.16643773960013, 69.25785986096245, -18.492621284384878, 8.392203009740273, -21.03117602387652, -17.335973499712015, -23.85411834908253]], [[3.6396230788609536, -37.705835236522546, -15.811775391629695, -14.903433064968679, -41.14317791253705, -2.555337511157238, -1.6938028660234012, -5.593610163738088, -22.318951850086304], [6.930328822761827, -0.7547388866359626, -17.01193088229884, -43.83900834653574, 49.35359633221666, 32.9932051570178, -37.35491668656508, 14.210906094678565, -10.684333503901275], [-44.54399068713038, -21.498251031851908, -11.560152888102628, -9.582492367034547, -41.07499928833638, 16.82077660993071, 16.12097967079565, 26.70450417813039, -21.3113331530917], [-29.85628505187769, 6.366739674689565, -2.166804133309814, 35.8721706549965, 10.777537939740869, -17.986032839177525, -34.72534162863341, -19.811873083362883, 49.77075597816095], [56.05471810179602, -24.99581437623395, 4.376094738869729, 4.195202277822689, -41.172610846447135, -44.964313379988546, 20.34757682289297, 10.101106690132768, -4.923078723355625], [-32.83216135836275, -4.763909475596016, -0.23042873309498724, 29.9721323658783, 33.69338992660721, -4.211453797974354, 30.616063367496686, -35.008780425579126, 16.055962755185913], [-11.67346714015404, -5.810611862406436, 10.629508900077155, -4.292333309948989, -13.99361406073737, -20.36024999178102, 81.78258915413912, -78.50892126747776, 21.524197278543383], [23.590134450839788, 0.19019932325787203, 24.206535446205045, 22.05982562892364, -25.449579373167097, -25.063459929386482, -11.316742674713172, -48.60330758131884, -3.8818854775008056]]], "networkBiases": [[1.0, 1.0, 1.0, 1.0, 1.0, 1.0, 1.0, 1.0], [1.0, 1.0, 1.0, 1.0, 1.0, 1.0, 1.0, 1.0, 1.0]]}