{"structure": [9, 8, 9], "networkWeights": [[[-1.5264770760926862, -43.950277267604505, -1.4462380108538326, 1.0402763627961473, -0.4057558674439148, 24.585784107866736, 8.651020414624057, 52.122282141641485], [-4.972866022710821, -1.5205759460063435, -14.332735836695674, -13.995977103567826, -8.187426878166091, -20.156087406130812, -18.45984332740294, -23.88679830002461], [-13.689118520583786, -4.226084808751477, 4.379058103714521, -13.749105516648036, -8.748616032425256, -6.194795300107518, 34.84297648888793, -9.754980291072114], [44.02761886160297, 18.637467135983215, 9.245273037325354, -13.642686463391708, 20.483832073425987, -1.3888684284573283, -6.546946532514665, 51.86838119600534], [-34.065301990239064, -6.152974207042216, -37.45410939819557, -2.5991900984375325, -16.363310849384703, 18.511915913063493, 3.8174151818073905, 31.303436449958845], [1.314456919055771, -26.050720848358868, 47.17166517341056, -14.776792954868588, 18.90340125686807, -28.894321331796014, 4.164303467783092, 41.347740279338744], [-10.458482590831393, 29.230938027827808, -30.373585062134143, 32.27398110169029, 26.119666373302806, -30.636812929662245, -12.997540328478443, 24.21545893020862], [-34.93664101277409, 42.857647309908565, -22.23493665328221, 28.491805335675178, -1.754537845171061, -0.34188417724330333, 2.3947891321484307, -18.393005556496718], [-16.066246744373913, 21.98302886649751, 69.11140349648747, -19.87656312056688, 7.630462351200933, -22.386389355914094, -16.824371282175207, -23.491440811814563]], [[1.9404117156861316, -38.734079927591885, -16.416874991279176, -14.904368257934236, -38.90977286206054, -2.059914098860404, -1.7149803862980195, -3.9743658916915505, -21.331900983202548], [7.4028805034872995, -0.6589765115080837, -17.177468668739746, -43.41748846798403, 52.356146039481565, 32.37403894771403, -36.23808136223769, 13.956578835499322, -10.644186375706308], [-45.008758617170784, -20.31310382873572, -9.72163499146165, -9.71037476680184, -41.047848470149304, 16.29419238402077, 14.387685042546876, 26.88728733474909, -21.543308145582404], [-30.3160472898223, 5.139282750422097, -3.185026116425336, 34.80512823821211, 12.741973957840806, -18.512321691194288, -31.778756861617246, -21.800495496630102, 49.164128142298544], [55.790967847087146, -22.560305026696664, 3.840836610301242, 4.556890398896816, -40.42091071030239, -45.11306677734137, 20.622033241021818, 9.696517549970162, -5.542572788483215], [-33.8225430814651, -6.056112957705447, -0.46867094481272226, 28.076098444322746, 32.36739424466447, -5.561237976781749, 30.87771683300011, -36.050126200647256, 17.358006182313268], [-10.464137749307977, -4.821070911668703, 12.135428771776738, -4.838432917914759, -14.80217753825373, -19.954897310795687, 80.07563947779073, -77.26828400576971, 18.82925049886386], [23.485733089403773, -2.8129369916408016, 25.356219567414247, 25.273483959823775, -25.467154162261334, -27.06742839618948, -11.244679740322232, -49.404649172518674, -4.101793711099009]]], "networkBiases": [[-3.944451940441215, 2.9116134809742134, 2.3017712148542238, 1.8671462020695178, 2.245537147649997, -0.36967882996869394, 3.0160950742260377, 7.035422155027313], [-0.9933212200674728, 5.56891471670799, -4.028607632878211, -1.4542914155537647, 7.061955472869599, 1.6300473824956123, -2.8334575562294555, 1.7837228547761304, 2.573521985344998]]}