{"structure": [9, 8, 9], "networkWeights": [[[-0.6558732846642688, -41.43322436616542, -2.094559965302543, 0.460972738419112, 0.05940121815079946, 20.906099152918483, 8.704056566504539, 50.11786438822842], [-6.242229226412842, -1.4305862386751727, -13.971732035769985, -14.03023969493479, -6.861374186165701, -20.223259811518513, -19.151483165119632, -25.86673781236305], [-14.502447517368857, -5.259060345813474, 4.644115986535514, -14.88165709542862, -7.432376687409383, -7.268744410748046, 32.59985003693374, -10.025100977403731], [44.56717341811206, 17.85656526910537, 8.761371128404887, -13.264566512018838, 21.607642608143177, -2.0765154726339086, -3.1153045575807843, 52.05546353249735], [-37.08327670673353, -3.3088000588504176, -33.729268616816285, -2.055582838301639, -18.122933943840728, 17.237755578723885, 4.870084373811561, 33.9632766176209], [0.5647837096214037, -25.775316685773266, 45.99678668509131, -16.31753635907195, 22.042378931430154, -28.28564524233731, 3.8710312106603846, 41.397793823889316], [-8.635536609633409, 29.70620006583521, -33.727397578782416, 31.40442007821215, 25.302636352668287, -29.407443348062213, -13.476480115263774, 27.834128204704612], [-33.72416559887759, 40.064816129236554, -20.772434274127217, 27.6636552800447, -3.1631883435160892, -3.940420515382682, 0.9390408302504893, -17.337099627858738], [-18.04248462187392, 21.660355758076435, 69.48215624920253, -18.387026278640874, 10.108901274265868, -20.47780430899867, -18.86529175170421, -24.489609118861434]], [[3.5114224061722745, -36.82298410887476, -17.74734276632852, -14.903433064968679, -42.35295139777259, -1.0015163749456066, 0.22972260866957672, -4.834212260261428, -23.339784713443894], [6.156207096015574, -0.8492516852442686, -16.503105373387534, -42.20461033725926, 47.89048575120146, 33.726091594837044, -36.85124698384718, 14.742286396880713, -9.342829265565875], [-42.814951520756686, -22.58022354337194, -10.908470405312842, -10.270254230188819, -40.61524411794171, 18.870699213124965, 16.555440520172553, 25.37353436021781, -20.024096946706432], [-30.271419754280245, 7.40527076431129, -3.3033836142229416, 35.56011529170696, 11.376825086870673, -17.98639018001701, -33.9836427525863, -17.240326089789605, 49.78212470488401], [56.2555089765645, -24.900608705166913, 3.2734514539799084, 3.3526345599421568, -41.040882381527396, -45.40437014197798, 20.396020047993463, 10.298360074369949, -5.357638492046419], [-33.390102615716664, -5.421152489283194, 0.7339916910690745, 30.420274872527713, 33.07515847602215, -2.1381263375034063, 30.383663999667174, -35.586441451811524, 16.97483633668859], [-13.450534903280662, -5.818677465056785, 11.310140963519984, -5.537527579860722, -15.055059060512193, -19.8850708361544, 82.36602136884858, -78.25493054637452, 20.935498022198985], [22.541955467936607, -1.5720877699287688, 25.03907494594078, 22.939616418980094, -26.051263420474804, -24.56646205121131, -16.03482620505827, -48.16091236230312, -2.406436813944409]]], "networkBiases": [[1.0, 1.0, 1.0, 1.0, 1.0, 1.0, 1.0, 1.0], [1.0, 1.0, 1.0, 1.0, 1.0, 1.0, 1.0, 1.0, 1.0]]}