{"structure": [9, 8, 9], "networkWeights": [[[-0.9396884918820072, -41.43322436616542, -2.094559965302543, 1.8024742192671521, 0.05940121815079946, 20.906099152918483, 7.892971161071107, 50.11786438822842], [-6.242229226412842, -1.4305862386751727, -13.971732035769985, -14.03023969493479, -7.33035353327979, -19.918354508306187, -19.151483165119632, -25.86673781236305], [-14.502447517368857, -4.4705846780718534, 4.644115986535514, -14.877397736086499, -7.432376687409383, -7.383745795715811, 32.10724305263755, -10.025100977403731], [44.56717341811206, 18.55370699613255, 8.761371128404887, -13.264566512018838, 21.607642608143177, -2.7595844856243463, -3.500970588270209, 52.05546353249735], [-37.08327670673353, -3.478124329531117, -33.729268616816285, -2.055582838301639, -19.607315165989164, 17.237755578723885, 4.870084373811561, 33.9632766176209], [-0.15892946330117086, -25.775316685773266, 45.08554766089027, -17.28588578577378, 22.40296765112557, -28.28564524233731, 4.765195694307149, 41.397793823889316], [-8.635536609633409, 29.693003874204702, -33.727397578782416, 32.15034462391396, 25.53330228585323, -29.407443348062213, -13.476480115263774, 27.834128204704612], [-33.72416559887759, 40.064816129236554, -20.772434274127217, 27.6636552800447, -3.1631883435160892, -3.373839288283206, 1.4321629572734504, -16.912072496076526], [-18.04248462187392, 21.660355758076435, 69.48215624920253, -18.387026278640874, 10.856450329150828, -20.65470805510771, -18.86529175170421, -24.489609118861434]], [[3.5114224061722745, -36.82298410887476, -17.1651102504708, -14.903433064968679, -42.35295139777259, -1.908309139879126, 0.22972260866957672, -4.834212260261428, -23.339784713443894], [6.930328822761827, -0.8492516852442686, -16.503105373387534, -42.71263306230184, 47.57616981392813, 33.726091594837044, -36.85124698384718, 14.87740337762154, -9.342829265565875], [-42.814951520756686, -22.58022354337194, -11.504172474604589, -10.270254230188819, -40.5793105546021, 18.358275204864565, 16.555440520172553, 26.13256220670587, -20.588454992737454], [-30.271419754280245, 7.40527076431129, -3.3033836142229416, 35.56011529170696, 10.827400315972058, -17.654120412407963, -33.9836427525863, -17.240326089789605, 49.78212470488401], [56.2555089765645, -24.763017400367414, 2.2933946394844034, 4.260252900248315, -41.040882381527396, -46.23090484950871, 20.396020047993463, 10.298360074369949, -5.357638492046419], [-34.32183887900857, -5.421152489283194, 0.7339916910690745, 30.790584118027276, 33.07515847602215, -2.916134930187968, 30.383663999667174, -35.586441451811524, 16.97483633668859], [-13.907099108269588, -5.818677465056785, 11.310140963519984, -4.816905176031697, -14.959500852486114, -19.8850708361544, 82.84040744144927, -77.42294972426494, 20.561765824871436], [22.541955467936607, -1.5720877699287688, 25.03907494594078, 22.939616418980094, -26.051263420474804, -24.56646205121131, -16.03482620505827, -48.16091236230312, -2.406436813944409]]], "networkBiases": [[1.0, 1.0, 1.0, 1.0, 1.0, 1.0, 1.0, 1.0], [1.0, 1.0, 1.0, 1.0, 1.0, 1.0, 1.0, 1.0, 1.0]]}