{"structure": [9, 8, 9], "networkWeights": [[[-0.6226361632976262, -43.80631028933358, -1.1450724385746247, 1.8768774563237012, 0.9329323520722159, 25.270910865741033, 9.082570305234965, 51.11615656477644], [-4.0830250571603965, -1.72496676081775, -14.003678760278708, -13.757267991866064, -7.323546918758422, -19.83249713321764, -18.16512743886376, -23.661943602687742], [-12.440837782015794, -4.105485893886034, 5.201875608499461, -13.613147029648937, -7.748595958732447, -6.4568296688821505, 35.07410992413543, -9.449077096659385], [44.67324155029476, 18.7473339276427, 10.858968859861466, -13.802674347957721, 20.29857247718957, -0.9717183618965637, -7.7828066371048745, 53.09345095023153], [-34.76526378464967, -4.781353619416757, -36.50147825899129, -2.2600759305722953, -16.465624803307353, 17.616478021054867, 4.01284089607072, 30.956192064666205], [2.0113112520834684, -26.117473885564646, 47.40037771909585, -13.688767299933634, 19.23375632847584, -28.415338524861106, 4.341219882208129, 40.73588132518655], [-11.635353585811671, 29.172823327926505, -30.15368023207255, 32.4406752999706, 26.214839701545202, -30.31617430993672, -13.474877508999718, 24.943719810942532], [-35.223831489317746, 42.485946239288786, -23.716770250255085, 27.94521979826131, -1.1786249774926747, 0.15065920351902207, 2.3632726785380966, -18.028307545171632], [-15.485892937195876, 22.54377507194819, 69.78463816118052, -20.888969747396896, 7.770543335312276, -21.884193220784617, -16.504648629573172, -22.7449712177275]], [[2.5036979378676563, -39.39431090607412, -14.925321158933547, -14.09748801401065, -41.028850814977964, -1.3550803090650747, -1.5189389184284903, -4.551238036702471, -22.242033257815045], [7.749540731910898, -0.7343820854839551, -17.432669297566424, -44.129389232269624, 51.86844407768041, 32.224083849828304, -36.63001753704393, 14.01953120449125, -9.974277995035024], [-45.95629976578579, -19.887127696042963, -10.72450076343355, -9.967255849917162, -40.05661676078336, 16.57048244121531, 15.22234309326713, 26.945009427126923, -21.938853568244358], [-31.53683592966235, 5.0806868846929545, -2.200696275929291, 33.99142995586298, 12.237443679434248, -18.77355178627403, -31.91136882925291, -21.2407759153971, 48.73330815924987], [55.724330832011695, -22.439061070608513, 4.786792689940346, 4.832224783783299, -41.48224093645093, -44.761545432714044, 19.616533861751495, 10.239272470426643, -5.309745010747085], [-33.57670953339379, -6.549007903856875, 1.4293735643514505, 28.377959326819585, 33.26641733072107, -6.432247898753686, 30.694787163677763, -35.488884626231275, 16.929346982355643], [-10.758510394596833, -4.812220842427598, 11.468215790598231, -4.538631220889611, -15.132474282041233, -18.077368327066466, 79.32853668411984, -76.395275138176, 18.84359011481189], [23.484698686071532, -3.0510920256381726, 26.642049349997823, 26.199986913110006, -24.513545002289888, -26.946492179453713, -11.019545860149272, -48.87508302317744, -5.509841374536944]]], "networkBiases": [[-2.06203037937485, 3.3948990175203124, 4.903618496173995, 1.560313741980084, 4.697339334201114, -1.7355001552053089, 1.7329662934040118, 5.231663658869165], [-3.888332722541082, 6.611578609979887, -3.039471929753172, -1.9639384437470582, 5.717098675945483, 2.3366841233825073, -1.3209063929010825, 3.3869297894070005, 2.4382724876334394]]}