{"structure": [9, 8, 9], "networkWeights": [[[-1.3265157921070934, -43.72948951583779, -1.3053567857044484, 1.2215053442575186, 0.3522803412197121, 24.940026010905537, 9.26873691773178, 52.05661767004288], [-4.513234865016768, -1.9547303705254535, -14.399110032657806, -13.87510359667143, -7.778348513367191, -20.144339854834772, -18.41482334555791, -23.983568932459647], [-13.433381555778439, -3.615784636993709, 4.459184044240006, -13.327197417317468, -8.718462396892054, -6.44524925162997, 34.93505404733585, -9.622069495156556], [44.0532506461264, 18.726990536423894, 10.637287747577853, -13.793928776429443, 19.94455500811653, -1.135476861630924, -7.314159573548199, 52.890158274947986], [-35.07018480310976, -4.969603895522811, -36.82702338840445, -3.2297704954278545, -16.83295289556784, 18.02367443363647, 4.212108232014764, 31.442125867339623], [1.6167636224235638, -26.35487794926206, 47.11496114354853, -13.99689712158739, 19.08703234424218, -28.934362096877052, 5.072091333731825, 41.54162292110879], [-11.075794027138935, 29.5212904478872, -29.833112965505872, 32.471505315898156, 25.96330997771338, -30.533531349995283, -13.645558388268736, 24.461806082864516], [-34.792439702007734, 42.94729340119873, -23.566354480196544, 27.71898460706934, -1.0810521244983111, -0.19294793193880116, 2.1142579232910768, -17.733348547710857], [-15.312479720324607, 21.93622500619963, 69.75519987520298, -20.62372957721789, 7.630700173114272, -22.54487296219981, -16.946328571132312, -23.186079273662564]], [[2.148740661667259, -39.43566044740863, -15.536879613795714, -14.231335677588143, -39.70507163178062, -1.8865022687529343, -2.1792563122559137, -4.458309585527968, -22.204912532415836], [7.807558799532722, 0.16839512762682524, -17.237732765256954, -43.55006777940652, 52.04922422461059, 31.83188480227462, -36.39240331522076, 13.811038803807614, -10.061073863246994], [-44.394223280389674, -19.546935131759138, -9.98364718103856, -10.298047983728924, -40.29865371207748, 16.424444416195335, 14.598672690896308, 26.867728604539852, -21.29442145359806], [-30.74438716351842, 5.6274515944507355, -2.781164335169338, 34.35153242205431, 11.784039160113775, -18.747957626354232, -31.615424371289148, -21.42843363825671, 49.303919639229], [55.93606376582054, -22.295767175909994, 4.233130668172282, 4.483835100841481, -41.48572319098447, -44.57058210762686, 19.837211430422673, 9.170786108445554, -5.0310087963043], [-33.856955189390554, -6.6038297739541605, 0.3678516621800846, 28.50051895680188, 32.91286493583806, -6.193675684174424, 30.68269934787488, -35.85096371193291, 17.22728504032143], [-10.939089550153788, -5.009168431274432, 11.950450114495075, -4.783895423042992, -14.96117601541371, -18.34932847707585, 79.31744169148243, -76.50251499758365, 17.984997699649913], [23.279204393907744, -3.343445958627986, 26.19261999919674, 25.718754248058083, -24.498620235747175, -26.61625842629693, -11.076312431517504, -48.89510052216753, -5.029640816015219]]], "networkBiases": [[-2.594810681650671, 4.36241291267655, 3.983007524144908, 3.2425039376566605, 3.125070763611766, -1.0818816537777904, 1.8560318773179678, 6.246354998751762], [-3.711691158480314, 5.494888497672011, -1.50084564848239, -2.3447861887622423, 5.845752494868205, 3.5535922197517036, -3.1255185633382316, 2.0610728628530026, 2.363475972198745]]}