{"structure": [9, 8, 9], "networkWeights": [[[-1.5488771316001375, -43.86398640587159, -1.3643743489944038, 0.8478484269911266, -0.3229666174254636, 24.65344510816123, 8.997360062665791, 51.99112314734543], [-4.829462589778751, -1.4056414104044723, -14.628560582019977, -13.747243011748607, -8.124905276518222, -20.44268096713518, -18.129161836926745, -23.939678695167835], [-13.440020164050727, -4.046369645556629, 4.253651441330061, -13.66514890409618, -8.737205848112804, -6.194795300107518, 34.910756361255125, -9.317929564274717], [44.30074200800326, 18.51473756898217, 9.537810146301027, -13.3643987202442, 20.331443292933905, -1.1317679899601898, -6.546946532514665, 52.189726278083114], [-34.332602849621324, -6.224971561617041, -37.62880255017206, -2.8676498407160604, -16.57315856175672, 18.161886345691794, 3.794298103965821, 31.74897613706951], [1.5268362046179447, -26.0148632273792, 46.89534642199221, -14.608273308811635, 18.977455130554794, -28.974700337280346, 4.050663925189023, 41.395077055749326], [-10.318488645989852, 29.48108043428714, -30.373585062134143, 32.48429361417287, 25.858343931382944, -30.55522787568218, -13.026146877410264, 24.322517909348807], [-35.163816112051606, 43.27340596438275, -22.280213954874668, 28.01840733551591, -1.2805971796632634, -0.3848026555948024, 2.277148803958236, -18.01660641270866], [-15.782934941447946, 21.880790389047522, 69.34641512253778, -20.260083965396777, 7.808176259031747, -22.386389355914094, -16.817267684476718, -23.94067628594944]], [[1.9404117156861316, -38.74299611591758, -16.29144005577452, -14.607323935416764, -38.94262856701988, -1.8272614579469995, -2.0551451597209045, -4.347536918258328, -21.40429819711485], [7.505126601813796, -0.020900600989724794, -17.052120185239872, -43.43971430416904, 52.32476427259512, 32.057996214936324, -36.15333226641641, 13.626407000167877, -10.770075620887996], [-44.674764705779864, -20.080983211451176, -9.30456754609343, -9.601697799340261, -40.773843235396996, 16.254462265537402, 13.71095894791236, 26.63802404298648, -21.521154392468357], [-30.500584620198072, 5.498711016524014, -3.4541938648892336, 34.44369975287373, 12.95238278945251, -18.512321691194288, -31.55052647404143, -21.984689735645873, 48.85871217550615], [55.58204764465235, -22.973196820970287, 4.147557008422232, 4.409729456478313, -40.54291259697103, -44.94978964575517, 20.54307921960392, 9.49712564444777, -5.755835430030833], [-33.74115861660591, -6.425910703405683, -0.6283151648379733, 28.065476484251565, 32.24466266372158, -5.90621220477709, 30.699307606680744, -35.93865801226247, 17.32059473315592], [-10.01978096618778, -4.633846110737956, 11.859023406618475, -5.018867302171427, -14.617490071182353, -19.743424997775634, 80.07563947779073, -77.44316140871918, 19.060912953744584], [23.678265038584367, -2.5463505080011086, 25.50574555373745, 25.526781301687066, -24.914726198376588, -26.647225480661266, -11.452251655725819, -49.26995777142087, -4.56852122060072]]], "networkBiases": [[-2.863187961571085, 2.7732458753866784, 1.9489717961236173, 3.0070979350701688, 2.1899451255349627, -0.8497449449794878, 2.262708345171397, 7.297028787885184], [-1.7373381225446722, 5.3485614321925095, -2.840219328948531, -2.046777416987291, 6.525744137399021, 2.482438836167534, -1.37425417569622, 1.4406388231257359, 2.3536811683101875]]}