{"structure": [9, 8, 9], "networkWeights": [[[-0.6226361632976262, -43.77305678302581, -1.1450724385746247, 1.9199764289494639, 0.9329323520722159, 25.24254932652631, 9.091779955699456, 51.11110800642409], [-4.0830250571603965, -1.72496676081775, -14.00655912526621, -13.802672949630347, -7.276041054395498, -19.83249713321764, -18.17611567992811, -23.60849240347519], [-12.398909563040672, -4.140765748122201, 5.243785515115696, -13.659047302568359, -7.748595958732447, -6.539819288812644, 35.07410992413543, -9.419373949454146], [44.67324155029476, 18.7473339276427, 10.858968859861466, -13.81727519208749, 20.345466162113482, -0.9717183618965637, -7.791880745443881, 53.05499597111369], [-34.76526378464967, -4.777820161783539, -36.49654814694789, -2.247670057924286, -16.45755837220929, 17.685251298826504, 4.01284089607072, 31.059719233829306], [2.0113112520834684, -26.079489566734647, 47.40037771909585, -13.694117259788811, 19.269999049944907, -28.415338524861106, 4.328111432658719, 40.784072457766975], [-11.70580617842419, 29.172823327926505, -30.117086279376576, 32.4406752999706, 26.120679138819945, -30.31617430993672, -13.440382703109083, 24.974443960778302], [-35.265221761012796, 42.49191766759475, -23.716770250255085, 27.94521979826131, -1.14495191780916, 0.15065920351902207, 2.3632726785380966, -18.074311640500095], [-15.476739761285975, 22.54377507194819, 69.75265566245798, -20.916000178517002, 7.768481723606727, -21.908755159029305, -16.504648629573172, -22.770886233573417]], [[2.5036979378676563, -39.43005019717577, -14.947221312209432, -14.123693087749702, -41.028850814977964, -1.3373553756981862, -1.5189389184284903, -4.536014597919946, -22.232086623630313], [7.719910067317008, -0.7266072356842114, -17.44293459830036, -44.129389232269624, 51.86844407768041, 32.224083849828304, -36.63001753704393, 14.060799524513499, -9.974277995035024], [-45.95629976578579, -19.88690733366517, -10.717870250162617, -9.967255849917162, -40.05661676078336, 16.57048244121531, 15.22234309326713, 27.027691919297787, -21.884506388437583], [-31.52589590647884, 5.093770269638435, -2.175064009618633, 34.01969278446488, 12.270118768108972, -18.77355178627403, -31.91136882925291, -21.194086379853626, 48.79270406282306], [55.7025741318098, -22.36532506621996, 4.716195331956354, 4.856396268392285, -41.48224093645093, -44.761545432714044, 19.58356340268434, 10.254157460971566, -5.309745010747085], [-33.58932493657553, -6.544905739159122, 1.4184034668113148, 28.390662482923627, 33.29833389906643, -6.413963050515936, 30.664690132913123, -35.488884626231275, 16.939485109779223], [-10.772678348779706, -4.769742668045734, 11.468215790598231, -4.538631220889611, -15.132474282041233, -18.1140272888253, 79.31426428824244, -76.35855584532203, 18.77665475576194], [23.477465563987582, -2.973525995730951, 26.609599738399062, 26.204308193955974, -24.520404058707957, -26.946492179453713, -11.019545860149272, -48.90637115184722, -5.509841374536944]]], "networkBiases": [[-2.129682436605545, 3.313679769773413, 4.880600533936338, 1.5631076459754987, 4.6453110318426045, -1.834283476605681, 1.757388023719369, 5.17205570402748], [-3.8510289369542132, 6.504556824365891, -2.944633835208706, -2.08105743178679, 5.7164603963485785, 2.315008252179543, -1.2402679792396394, 3.4144516587516414, 2.3887417455756865]]}