{"structure": [9, 8, 9], "networkWeights": [[[-0.5691446936102782, -43.85432632313973, -1.1556075280887816, 1.8074544578373422, 0.8181327725418038, 25.29980244186659, 9.14277603601944, 51.045413646058485], [-3.989458085270127, -1.8818907951184642, -13.96890122453239, -13.762990327615181, -7.210772306565607, -19.911565296598162, -18.16470368309675, -23.607702018576724], [-12.600689320305873, -4.177271878246035, 5.039396240637447, -13.641000762628348, -7.737506177124493, -6.451386005988208, 34.95641749969539, -9.535493519425597], [44.796067761390795, 18.85483470560779, 10.783429227910469, -13.855648357149281, 20.234310955947244, -1.0731691506020278, -7.836658543218357, 53.014581994660176], [-34.72054176697685, -4.758535507550263, -36.461789915752895, -2.296178388049652, -16.28697402628094, 17.63201044988804, 4.025074214430875, 31.05249425311754], [1.9775524057480969, -26.25359046310487, 47.400781686258775, -13.666711390740529, 19.2071389001343, -28.297393164275757, 4.193561066188317, 40.827035895100266], [-11.505793446879649, 29.10505185633857, -30.237713350086203, 32.52563607238812, 26.37037659986862, -30.499322938378633, -13.616544637360722, 24.946668613704684], [-35.194067104447456, 42.427734831827195, -23.651362235840296, 27.907940524756008, -1.1011753174143497, 0.15313714657772073, 2.3697922113949703, -18.09314339128354], [-15.45769641574655, 22.542077037222313, 69.74704563039732, -20.974558698015716, 7.688660707868775, -21.96317145572896, -16.4880072553383, -22.75488162589404]], [[2.4627132475731415, -39.53174297995044, -14.950137644474381, -14.085284852452704, -41.053570021912, -1.2802277731702907, -1.6787071522385741, -4.557435899366831, -22.345929112830806], [7.692233059950811, -0.7245259978116015, -17.40257924253379, -44.13236955771706, 51.911634632389585, 32.17096796935962, -36.687567206305, 13.955342492519327, -9.970151127641465], [-45.78355957530609, -20.014692276922375, -10.77400936525913, -10.041126463843385, -40.00730280386103, 16.563987273136483, 14.9687837016381, 27.06858837322494, -21.805818106155773], [-31.546387006970303, 5.108289818185129, -2.26812398212838, 33.99471203981596, 12.272318385524164, -18.789885779649982, -31.89551056135403, -21.277216498696852, 48.70331045734352], [55.62443830656147, -22.32865608238141, 4.754957190211389, 4.856321419384912, -41.45056013869491, -44.84934568281097, 19.593412263719802, 10.339233455885251, -5.320722003681375], [-33.59732529675199, -6.5375838028373465, 1.2811446654145904, 28.42445925711509, 33.277610876767305, -6.398186288792823, 30.71761786444997, -35.55545076158603, 16.935470516192826], [-10.683816586263603, -4.901666133963729, 11.463204236527936, -4.579584710955445, -15.086324892486832, -18.144622115444573, 79.29841390384894, -76.29230275485787, 18.713680901290036], [23.474699965021205, -2.8149370845834105, 26.673903271165464, 26.16144454221008, -24.581058808347972, -26.920161796916396, -11.056200144314413, -48.96866612485738, -5.4562691998157975]]], "networkBiases": [[-2.372243302522894, 3.1844260108115554, 4.796443412174076, 1.5059928192995122, 4.5520845104293075, -1.5519287565525277, 1.5088695524670093, 5.192760608740782], [-4.124940308020027, 6.833662318090152, -2.6912831468870366, -1.6426718350421115, 5.674374444466216, 2.4235684114159484, -1.4986394452951357, 2.7670482425656906, 2.3022332157098884]]}