{"structure": [9, 8, 9], "networkWeights": [[[-0.6558732846642688, -42.8600207565009, -1.7926154766892486, 1.5318518792275728, -1.4738597472180004, 20.29666212602901, 8.8831590838167, 48.62440882800678], [-5.373866834512895, 0.3047368085000668, -14.607531670623949, -13.939998812255165, -7.4734056325752, -17.421502511950667, -19.55641073006424, -23.792626905163775], [-14.507960258820962, -4.090345244177572, 3.8559943830288637, -12.430849704037215, -6.5138537370185094, -7.190768272977899, 32.59985003693374, -9.465121603888095], [44.56717341811206, 18.669946715402677, 8.846247825443566, -13.338065870626744, 21.607642608143177, -2.966671628286706, -4.088945371915013, 53.14254401881807], [-35.54904322638146, -3.5031593790386055, -34.00916097471051, -1.6305856705125972, -17.82744446406404, 16.969220483141147, 4.536784434294807, 34.023298927575816], [0.5849413282850082, -28.093176213455667, 48.5300505750782, -17.069750326901982, 22.420823497083816, -28.330838692455064, 2.6340747347597038, 41.26167799391458], [-8.665139279588484, 30.064839998291028, -32.5886371289676, 31.40442007821215, 25.298059546610556, -28.886698303077814, -11.344466640591857, 27.9911760168711], [-36.597879572725326, 38.814744674653625, -20.055268003134536, 27.736399116881227, -4.0040895708711925, -4.651735248201243, 0.1450055994650099, -16.794773339178004], [-19.469441938759402, 21.045673292760135, 70.16098647645019, -18.569797074004956, 10.267176153765828, -22.24054703651246, -18.456681468127513, -23.435921468218343]], [[2.286745207985078, -36.59978062180077, -17.805547210669978, -13.478321383314787, -42.02565255362902, -1.3659801022714213, 0.35441657149230066, -4.650435834832815, -23.08720431055997], [6.587429836249829, -0.665216460005623, -17.244558634057224, -41.78180277099396, 47.97083894079992, 34.05658866620039, -35.63910477179348, 13.206866825285317, -11.08418524690246], [-42.860237655429536, -19.376822743038833, -12.978336226876548, -9.622970763781504, -40.13774261212726, 18.939245033132252, 16.936522554759648, 25.973867500054034, -19.839554747369196], [-29.945959609226108, 6.6358225905504655, -2.7953912829127665, 36.062429414076924, 11.112854392725268, -16.804384391080166, -34.93766252643636, -15.635465937847187, 51.179005490484755], [57.184668996301596, -23.745068296914642, 3.272451194729571, 4.78124296127138, -40.55458565938624, -43.57730500559173, 19.170674727888667, 12.099990097666241, -5.697721296123262], [-33.05725206337698, -5.668957778422565, 0.5702879166674129, 29.854595091886015, 33.72035763501121, -2.328443308733939, 29.817105705507434, -36.105105802213366, 16.6204133968496], [-12.751092075329822, -6.417810414897788, 10.987639732994838, -7.710596814275263, -15.996087646971235, -20.09824662809369, 84.15756706403883, -75.87555458301307, 21.565895821771655], [22.68403745463129, -1.372585080631712, 23.197045016782408, 21.13645476828902, -26.447952289251205, -23.036955845053217, -14.718968967556895, -47.61425851045233, -2.885474079707948]]], "networkBiases": [[1.0, 1.0, 1.0, 1.0, 1.0, 1.0, 1.0, 1.0], [1.0, 1.0, 1.0, 1.0, 1.0, 1.0, 1.0, 1.0, 1.0]]}