{"structure": [9, 8, 9], "networkWeights": [[[-1.2733174815381512, -43.700325695198984, -1.6205117822681543, 1.3103149337103794, 0.06144757785625471, 24.34158896688706, 8.88623165331644, 52.122282141641485], [-4.929171965929852, -1.538742655304567, -13.807109743119419, -13.790417756518124, -8.321135827559921, -20.15659338764244, -18.412617986330105, -24.771081682769584], [-13.128614925092498, -4.327208510380462, 4.369282943092847, -13.630000986772199, -8.857016482143164, -5.927178555082288, 35.01097811264155, -9.535763743637162], [44.28890425534326, 18.637467135983215, 9.160156464343068, -13.880875494823984, 20.277792773629155, -1.630724172411214, -6.546946532514665, 51.649541838137715], [-34.262436227057634, -5.6848963111307045, -37.37801781643524, -3.040215115801013, -16.843474558836913, 18.486363325886963, 3.36166256463624, 31.629023424482977], [1.4450198429853864, -26.046167415484724, 47.042382619240556, -14.706419041075847, 18.978190721877436, -28.76010804880487, 4.18301796118479, 41.359843377345996], [-10.383203949628832, 29.24770809345959, -30.35646883611472, 32.27910676343127, 25.978207538418197, -30.817618026170305, -12.800626125870949, 24.242257426669696], [-34.89785018315944, 42.821103091163984, -22.482580028291093, 28.20300265535998, -2.0657020981737153, -0.409384437458989, 2.9606628578205063, -18.3831983543381], [-16.343019123134734, 21.661542586975116, 69.55794402515662, -19.820500207290603, 7.736940749560234, -21.900843729446283, -16.89183845120647, -23.36307028458699]], [[1.9909713001411484, -38.734079927591885, -16.272387659073498, -14.904368257934236, -39.06749909173694, -1.685930763798568, -1.5360874190875033, -4.021913506437777, -21.395822082795007], [7.302877138128563, -0.6275279189780327, -17.189518287324862, -43.324284243540625, 52.269229353499, 32.31673617962061, -36.021444355791694, 14.029792512637897, -10.674240766793346], [-44.754652267515375, -20.31310382873572, -10.109009210701315, -9.71037476680184, -41.07152275449852, 16.139866009439327, 14.656216428134744, 27.18759673224761, -21.70754665577314], [-30.18430313379907, 4.815041242948297, -3.4101223906949656, 35.256287387610215, 12.683548237891527, -18.67587744112611, -31.778756861617246, -21.7988263248677, 49.380878626365934], [55.98019155498814, -22.560305026696664, 3.933999504108834, 4.413996651205308, -40.19355139440142, -45.105602581749324, 20.60939783074193, 9.71464168342129, -5.607620574485612], [-33.90244505836143, -6.368571965455164, -0.7715090561065794, 27.964929851107225, 32.42319696457289, -5.771762066356144, 30.750637878494967, -35.979711272794255, 17.144140752940462], [-10.249410689082097, -4.997781483417538, 11.732418104174204, -4.851141618208766, -14.911145084919632, -20.040705720306406, 80.3821191345019, -77.32565539221545, 19.066520201471228], [22.969199339242046, -2.742790213618017, 25.227746316290517, 25.148002157468568, -25.770510961101, -26.914130944261778, -11.129199431938082, -49.4105573452199, -4.115468166686165]]], "networkBiases": [[-3.3381978528883245, 2.1392006957380443, 2.245628331021513, 1.913078164045443, 1.5002824101122223, -0.21816420382704765, 1.7658151923657148, 7.281607195930305], [-1.1280635608528862, 6.331283338553375, -3.1796817906156396, -0.25410548549313383, 6.449819737486144, 2.6192926412839923, -3.863527959509132, 1.4552892111710363, 0.6897164723117435]]}