{"structure": [9, 8, 9], "networkWeights": [[[-0.6775078938739153, -43.91386933261572, -1.0739387005942402, 1.9724687290169285, 0.9395826222412047, 25.250682208790824, 9.066498201758359, 51.209402864067386], [-3.9763392566326377, -1.6898016691774658, -13.993823192268323, -13.737526940454023, -7.177331532102459, -19.79704978580909, -18.179414180770237, -23.597160004638425], [-12.363489853312748, -4.15141900602496, 5.20243339651573, -13.693039456598376, -7.763043738530689, -6.590813517132056, 35.21785689807616, -9.425347581834327], [44.68883595414578, 18.796807248065306, 10.83936633315087, -13.761459131778995, 20.324861030154736, -0.8567675936673746, -7.778728623624785, 52.92433836975453], [-34.81269535162295, -4.589512040955526, -36.47336109783207, -2.0934748731927644, -16.40882128146491, 17.712849415741744, 4.001958253533107, 31.212971862630813], [1.9692064825756068, -26.206207856039722, 47.22917837829857, -13.65074255587093, 19.260916358432475, -28.40689864647951, 4.353212327306332, 40.8631043704555], [-11.766585795177816, 29.033332814729235, -30.060218974144053, 32.51792830810609, 26.17505159696953, -30.29367018049277, -13.30488080861151, 25.083424577523274], [-35.31180361601368, 42.53141877270146, -23.714034358064136, 27.981134390351993, -1.2657636190871562, 0.1462857341669508, 2.359829697130823, -18.122007138857136], [-15.412271536519846, 22.466966352401652, 69.79316101898445, -20.995137842138607, 7.708294146187237, -21.97624134356371, -16.422119778257986, -22.66562740136118]], [[2.5381290330282233, -39.4510566493317, -14.945840218057333, -14.14485169180439, -41.107831884743916, -1.4154234446167648, -1.4402384497526628, -4.436046252678438, -22.329857066088245], [7.682314157382764, -0.6641865044930915, -17.446344879224714, -44.191599944767496, 51.88725873272945, 32.23443318645642, -36.62351825416092, 14.165317031278102, -9.98537225668715], [-45.95476306623814, -19.675061141826973, -10.801729547983241, -9.980602669071462, -40.11209332913077, 16.516275846062342, 15.131094211044559, 27.058859015146453, -21.94759400723303], [-31.77711162052066, 5.025616752670481, -2.203543487114936, 33.88544201583324, 12.272009440456912, -18.68455428521917, -31.968964557085, -21.330524315619115, 48.76210075405328], [55.76800362543811, -22.347668109912437, 4.509303252485002, 4.879791709437846, -41.42595471838127, -44.73842628393423, 19.480624694328988, 10.497126382967348, -5.301762128846245], [-33.63084015554936, -6.590160250216691, 1.4827219906783555, 28.28994842241703, 33.39705751713114, -6.543237382690473, 30.56202707370649, -35.4622852000085, 16.95455648159224], [-10.82892344941979, -4.832088623051871, 11.510835563239704, -4.415416681259985, -15.18552550958984, -18.133920163167538, 79.44443855999133, -76.31645488682446, 18.72626778414907], [23.586017574225313, -2.8809808780763735, 26.665485007733157, 26.17583247703804, -24.58602580763644, -26.946345291850424, -10.946522875748702, -48.80216794526335, -5.496384593479826]]], "networkBiases": [[-2.202837307922224, 2.99878685156383, 4.861355351223926, 2.0230102582362632, 4.453984009894804, -1.7634036098152785, 1.8951338169310255, 4.815827673669671], [-3.8863217115332347, 6.565287689401016, -2.673400885061539, -2.0709372597468434, 5.601232743512357, 2.9201963809907894, -1.5451143109106165, 2.999752693710078, 2.618882093028284]]}