{"structure": [9, 8, 9], "networkWeights": [[[-0.9155124274812105, -43.80993250270616, -1.046154052239343, 1.2158090202138137, 0.9362076938943982, 25.06848878270541, 8.861179979323703, 51.785788669851044], [-4.386896336292586, -1.5826663411070119, -14.553325265159671, -13.588042262364851, -7.432784829870815, -19.957715177980514, -18.400242197225694, -23.88941828495569], [-12.956554070711807, -4.231194913254118, 4.429113851855126, -13.086462395345889, -8.210666257964535, -6.2512118647979245, 34.89458652178761, -9.622069495156556], [44.35518144855342, 18.939092217778896, 10.541533100734656, -13.68980675533798, 20.15109893719759, -1.0430917651066787, -7.334528727488624, 52.941314134400194], [-34.7944681335703, -4.99327864038907, -36.47888996175942, -2.9794999267128763, -17.04571864381632, 17.98212719257855, 4.295090992151133, 31.303361050163662], [1.9391002991045645, -26.312487980389953, 47.219988417023124, -13.691895346013066, 19.215432007497462, -28.71043267991361, 4.975571710716871, 41.325240924906666], [-11.472361950527613, 29.5212904478872, -30.083602745673698, 32.499704719410616, 26.018454948134984, -30.533531349995283, -14.12803564520754, 24.376078796385908], [-34.7555985412577, 42.89892044885871, -23.333213802261596, 27.502383370041162, -1.0601090289216915, 0.006219529870028884, 2.1142579232910768, -17.693605804819146], [-15.685722286647188, 21.86273461776973, 69.79281593419343, -20.81127487963653, 7.43515637445234, -22.30780717825144, -17.08790452923638, -23.186079273662564]], [[2.3302096520388416, -39.4103619736489, -14.79608491885628, -14.241786559537319, -40.10755535530703, -1.6837743367380138, -2.0646686566535206, -4.715110687356215, -22.28798602335208], [7.602069734112025, -0.2984569272666072, -17.39285873948694, -43.94476516723606, 52.08259884980234, 31.992380170920722, -36.48233127398707, 13.832896437647715, -10.048090051697308], [-44.84644063326609, -19.74289095321322, -10.000210527075897, -10.275494884643761, -40.2610033199651, 15.947856750708503, 14.747275047932431, 27.25881047663316, -21.531012289790645], [-30.87030502214642, 5.826037954513826, -2.541271187686394, 34.30495804090295, 12.139738343774136, -18.6318964159311, -31.94322074692907, -21.212182482506282, 49.40278061795901], [55.899751011560674, -22.164882541516075, 4.452036699425897, 4.674417362093769, -41.582397015036484, -44.52892392527165, 19.478515850142408, 9.585966990144609, -5.01912463660242], [-33.83121271149453, -6.568702774719318, 0.7585586326444445, 28.690259368573724, 33.01163411289741, -6.404644670727984, 30.552288819676082, -35.74765056085846, 17.251517403520687], [-11.03327644859712, -4.861239727748096, 12.063961166856258, -4.750492170499743, -15.089029884780814, -18.34932847707585, 79.31744169148243, -76.27382282880362, 18.096402438492373], [23.39236939584165, -3.4659472988789197, 26.19261999919674, 26.02356513128816, -24.705392309615608, -26.623881585808014, -10.96397704990699, -48.87149271428298, -5.420976009713501]]], "networkBiases": [[-2.3168647568447187, 2.094818221333234, 4.1752388716560915, 1.8902592934009292, 3.6434488894356916, -0.8949657534395112, 2.4062144033211523, 5.518949827763301], [-4.235077892145746, 6.0102701155247, -2.306070636411968, -2.0553495469851084, 5.758214092364185, 2.994307684447003, -2.4910437257146394, 1.5605460542587082, 2.8802872391340224]]}