{"structure": [9, 8, 9], "networkWeights": [[[-0.9155124274812105, -43.80993250270616, -1.046154052239343, 1.284079973690641, 0.9362076938943982, 25.06848878270541, 8.861179979323703, 51.785788669851044], [-4.386896336292586, -1.5826663411070119, -14.553325265159671, -13.588042262364851, -7.432784829870815, -19.957715177980514, -18.525308229040746, -23.88941828495569], [-12.956554070711807, -4.231194913254118, 4.429113851855126, -13.086462395345889, -8.344809767649945, -6.017724796329768, 34.89458652178761, -9.57267592709372], [44.196162004646304, 18.939092217778896, 10.541533100734656, -13.68980675533798, 20.15109893719759, -0.8171133543961109, -7.334528727488624, 52.941314134400194], [-34.7944681335703, -4.99327864038907, -36.47888996175942, -2.9794999267128763, -17.04571864381632, 17.98212719257855, 4.295090992151133, 31.303361050163662], [1.9391002991045645, -26.312487980389953, 47.35341498812264, -13.691895346013066, 19.215432007497462, -28.71043267991361, 4.975571710716871, 41.325240924906666], [-11.646597666674383, 29.5212904478872, -30.083602745673698, 32.61980553908384, 26.018454948134984, -30.533531349995283, -14.12803564520754, 24.376078796385908], [-34.7555985412577, 42.89892044885871, -23.32824583260883, 27.502383370041162, -1.0601090289216915, 0.006219529870028884, 2.1142579232910768, -17.853732565663446], [-15.685722286647188, 21.86273461776973, 69.74363151335898, -20.81127487963653, 7.43515637445234, -22.30780717825144, -17.14454715857975, -23.186079273662564]], [[2.3546819390681915, -39.4103619736489, -14.878442443689039, -14.241786559537319, -40.10755535530703, -1.6837743367380138, -1.9475920707505807, -4.715110687356215, -22.28798602335208], [7.710883159813643, -0.3707191436982613, -17.39285873948694, -43.79971197880049, 52.08259884980234, 31.992380170920722, -36.48233127398707, 13.832896437647715, -10.048090051697308], [-44.84644063326609, -19.74289095321322, -9.98364718103856, -10.275494884643761, -40.0820232052162, 15.947856750708503, 14.747275047932431, 27.14142100844069, -21.531012289790645], [-30.87030502214642, 5.826037954513826, -2.541271187686394, 34.30495804090295, 12.139738343774136, -18.416123786339977, -31.94322074692907, -20.87727391001555, 49.40278061795901], [55.899751011560674, -22.164882541516075, 4.452036699425897, 4.674417362093769, -41.582397015036484, -44.52892392527165, 19.478515850142408, 9.585966990144609, -5.01912463660242], [-33.83121271149453, -6.568702774719318, 0.7585586326444445, 28.690259368573724, 33.01163411289741, -6.404644670727984, 30.552288819676082, -35.74765056085846, 17.251517403520687], [-11.03327644859712, -4.861239727748096, 12.063961166856258, -4.750492170499743, -15.089029884780814, -18.34932847707585, 79.31744169148243, -76.27382282880362, 18.096402438492373], [23.39236939584165, -3.4139834861599625, 26.19261999919674, 26.02356513128816, -24.705392309615608, -26.623881585808014, -10.96397704990699, -48.87149271428298, -5.420976009713501]]], "networkBiases": [[-2.3168647568447187, 2.2271368917084646, 4.527183115222377, 1.8902592934009292, 3.780510044103206, -0.6799548843791576, 2.517449602015601, 5.2770245229232735], [-4.413439090760681, 6.2444951319688045, -2.306070636411968, -2.0553495469851084, 5.918445184604774, 3.0975608315112915, -2.7099731090475943, 1.7835813000588199, 2.7815355198232794]]}