{"structure": [9, 8, 9], "networkWeights": [[[-0.5171630410350637, -43.82870503127093, -1.151969458709693, 1.786264009100368, 0.8562034045990286, 25.29980244186659, 9.163068016171316, 51.03669584408775], [-3.951439798669716, -1.9641131329574846, -14.00841182740926, -13.734024331164905, -7.175642493815206, -19.884252447934045, -18.206471268666462, -23.627998078014407], [-12.625369817804932, -4.1716789051340175, 5.031390009318728, -13.641000762628348, -7.864529178847106, -6.369500496109386, 34.873425191962454, -9.599247257039162], [44.71022580815892, 18.79093688435037, 10.819464106620979, -13.8152672546104, 20.30093789053557, -1.0780182741868651, -7.879287742052095, 53.10369866686064], [-34.6763525271024, -4.701660045153559, -36.45144820529686, -2.340258939150902, -16.252210234383256, 17.621986387632194, 4.05475133016377, 31.11530431722923], [1.878305130841156, -26.178835960677176, 47.35785447908653, -13.68047765352457, 19.17337633219522, -28.325543366973843, 4.267531104828196, 40.827035895100266], [-11.5428140998263, 29.056393552635097, -30.190503854945103, 32.52236702317066, 26.376156317012605, -30.509948546381793, -13.563725610176975, 24.930543509097802], [-35.16839186430182, 42.43994047353326, -23.590286787955726, 27.911530564680877, -1.1112429306927212, 0.15269843449416892, 2.4168703288697633, -18.090597088063696], [-15.464031877650527, 22.432639269063337, 69.76707587216944, -20.96521638484847, 7.758271759309829, -22.00763470880033, -16.49419449857465, -22.76395939481313]], [[2.502474811547404, -39.61044231394424, -15.105309664179993, -14.142626962000737, -41.04623007162605, -1.372260883932521, -1.7083254036801085, -4.53425201063848, -22.38001411268518], [7.7414915674319165, -0.6976553362034916, -17.432215824851845, -44.09611420879341, 51.85508387267528, 32.17146111258983, -36.65653324072495, 13.9466904752012, -10.012196404977216], [-45.771184821230946, -20.074325527898075, -10.82831415036655, -10.090765525167273, -40.06547241819689, 16.45205497765257, 15.002376244244829, 27.07837296873965, -21.89694245669784], [-31.552526318652156, 5.0824523765668825, -2.31253364411899, 34.02670273036428, 12.251831559848647, -18.806538703891118, -31.90944849689648, -21.3449454173345, 48.804917386140126], [55.61168147478079, -22.35125760519933, 4.674230679699817, 4.7794081455526785, -41.38115115060723, -45.02412096233694, 19.54550559288149, 10.289909946189233, -5.348827457039037], [-33.581819806065496, -6.488056525652796, 1.2204011119918492, 28.413364039645852, 33.26852932088343, -6.336565326677327, 30.78217494446508, -35.592538214461975, 17.007368148173562], [-10.690594026470635, -4.872566806576054, 11.495896492466809, -4.6875867579533335, -15.181803960030313, -18.308669219755842, 79.28301403851316, -76.17969145850832, 18.73229702094955], [23.63061616907943, -2.7876994320212853, 26.608330794522704, 26.115103930085354, -24.66319336104511, -27.046612173600526, -11.04438907297483, -48.90257893789387, -5.499238460499165]]], "networkBiases": [[-2.273984170044214, 3.3736029902601836, 4.891683211167874, 1.4860991288944545, 4.629595931669353, -1.4930812106182867, 1.90119910162675, 5.391274814691768], [-4.1214459014947025, 6.599000002327789, -2.7158215772765053, -1.7143230836263985, 5.67054688031832, 2.3858429187060115, -1.8555066746431752, 2.711749497425878, 2.458535705064106]]}