{"structure": [9, 8, 9], "networkWeights": [[[-0.5762342368139662, -43.842929922563364, -1.17158846011502, 1.794345087166597, 0.8194709822151072, 25.285350914013456, 9.162877790111496, 51.02354443613894], [-3.968300344564418, -1.82417035772998, -13.973822311205645, -13.742203095641178, -7.27953129224191, -19.8071090072529, -18.16470368309675, -23.639170852457056], [-12.518596440544382, -4.182916735766584, 5.177486321931053, -13.613004963324135, -7.750499047787976, -6.504621694572475, 35.00914014473291, -9.592587776123267], [44.79644734700528, 18.794617816554126, 10.862743632165657, -13.69321410388704, 20.300051574911155, -1.0048189044371723, -7.836658543218357, 53.03793834693994], [-34.73119380770658, -4.781353619416757, -36.50572097098068, -2.216774858788827, -16.3737505314012, 17.71888912308962, 4.007569143023764, 31.089160539256845], [1.93393845820692, -26.24410108004237, 47.4703740223191, -13.684129985068177, 19.281385446499847, -28.294544112391176, 4.280422996169149, 40.795140256074276], [-11.585863359475704, 29.123501036476934, -30.20523345598907, 32.45278213142169, 26.33693602990815, -30.364300327325232, -13.539893139330706, 24.95503901329086], [-35.194067104447456, 42.427501639277594, -23.6344717325974, 27.926289360560475, -1.1460899516484933, 0.15784463986292085, 2.338884825499319, -18.0096502310835], [-15.447769797375098, 22.521712485106, 69.72816550184724, -20.967280544541477, 7.729263070164473, -21.925203840225265, -16.43653318800846, -22.680749714323074]], [[2.4854346860923724, -39.43042496319548, -14.974862856215555, -14.085284852452704, -41.06789976412567, -1.2802277731702907, -1.6614843064114444, -4.586514893532162, -22.27598649345906], [7.672826531122467, -0.6903037087922502, -17.40257924253379, -44.15147556700957, 51.92952608799685, 32.21287875571723, -36.682934045149686, 14.00934162838482, -10.013054468639313], [-45.857349365188576, -19.872630462931387, -10.757728587025127, -9.990432433390628, -40.037172689140625, 16.58037740916447, 15.093637693244444, 27.02074194010003, -21.795634360910526], [-31.456823270529114, 5.0750438301425795, -2.265824968272218, 33.92815960161036, 12.270118768108972, -18.75176465856207, -31.9354361295437, -21.192671190594737, 48.728524073049144], [55.63589871962292, -22.414674083225602, 4.764519618415093, 4.846351372751845, -41.520822557409595, -44.85563393670997, 19.655715388313784, 10.262666083691325, -5.311837913721014], [-33.635592693643, -6.5344877833663935, 1.3190008178837485, 28.408229200649657, 33.31058892345524, -6.3720964996679355, 30.709426252759425, -35.49597392116538, 16.95721916808136], [-10.759674618572168, -4.776506584170186, 11.430246304563875, -4.595462791482146, -15.112846637175783, -18.09037638060472, 79.31625332966291, -76.33723529757633, 18.71929751753776], [23.520395707546907, -2.7954099282491187, 26.63209030883196, 26.163683126991113, -24.55099101556087, -26.91967321832714, -11.047192702433561, -48.89216770772221, -5.469437984891446]]], "networkBiases": [[-2.321912229428691, 3.521238411591628, 4.814516514608704, 1.450619935881521, 4.574517327243149, -1.688490255394644, 1.5576019466227056, 5.2751558338167825], [-4.054861658235577, 6.734734622760812, -2.8918183571394573, -1.7362356782227935, 5.749246674376511, 2.356204911665675, -1.367193021549665, 3.007232081194178, 2.3412791443728134]]}