{"structure": [9, 8, 9], "networkWeights": [[[-0.5691446936102782, -43.826881750048656, -1.17158846011502, 1.8074544578373422, 0.8327965452676362, 25.283247512239818, 9.11061273714189, 50.98369631681363], [-3.9354406033033427, -1.8533107939432745, -13.965928092035664, -13.762990327615181, -7.23399016185176, -19.88078913214836, -18.16470368309675, -23.607702018576724], [-12.507102740170584, -4.133320064776411, 5.039396240637447, -13.590776989536025, -7.727562106222294, -6.451426932732599, 34.92293445926072, -9.524590137629488], [44.77467288572029, 18.79896892653309, 10.739092512115134, -13.839198539130527, 20.260378965707034, -1.0048189044371723, -7.836658543218357, 53.01276612435891], [-34.75466760463866, -4.758535507550263, -36.48028959371972, -2.2681919713507623, -16.383114749531217, 17.68369735197881, 3.978350539295617, 31.064239766539902], [1.9681712838640002, -26.248688817372482, 47.42867293062963, -13.729252731857065, 19.2071389001343, -28.297393164275757, 4.246895284570629, 40.80937321776548], [-11.542846544520371, 29.057892578323006, -30.237713350086203, 32.467025028739776, 26.33693602990815, -30.475930915331407, -13.583936202378808, 24.96244169335459], [-35.194067104447456, 42.42328013335237, -23.65871724707409, 27.948396374210667, -1.1011753174143497, 0.15313714657772073, 2.338884825499319, -18.0502695216913], [-15.495358118668525, 22.561117136935597, 69.74704563039732, -20.955227239487424, 7.688989861565924, -21.96609235341039, -16.44336557649092, -22.673405743288587]], [[2.444308968252082, -39.46073293839267, -14.974862856215555, -14.085284852452704, -41.06789976412567, -1.2802277731702907, -1.6338037342030634, -4.608144445240958, -22.330665687600998], [7.702020387283693, -0.7351644929757136, -17.40257924253379, -44.154960357776325, 51.92239988011912, 32.265252072494626, -36.65898926259412, 14.00934162838482, -9.98014018522712], [-45.72872327933753, -19.976093315102723, -10.757728587025127, -10.041126463843385, -40.02828212064635, 16.51575990041701, 15.004685755762118, 27.012175012378265, -21.826161035039352], [-31.546387006970303, 5.061788842403389, -2.26812398212838, 33.931188127978864, 12.294640603265934, -18.789885779649982, -31.851637691677237, -21.3000903660156, 48.68521782393833], [55.64325960841258, -22.37066511211274, 4.741823556774758, 4.856321419384912, -41.50416149072769, -44.85563393670997, 19.655715388313784, 10.318798025474102, -5.32078187410272], [-33.635592693643, -6.541370513548588, 1.3216422269628763, 28.380248389850195, 33.2535608896634, -6.369517518800712, 30.731313077482653, -35.54712629233341, 17.001707311471595], [-10.710900961180998, -4.809790109970588, 11.463204236527936, -4.595462791482146, -15.126441727636687, -18.109764792159677, 79.2974750790842, -76.32123226164994, 18.713680901290036], [23.477843441541086, -2.7954099282491187, 26.628746986888867, 26.146489848972383, -24.54800517879671, -26.952146364557162, -11.05968916979487, -48.92362922864635, -5.508883369610705]]], "networkBiases": [[-2.365489455876801, 3.207894623259889, 4.859875489292154, 1.4173943601877126, 4.559498858992999, -1.7588293405793947, 1.553944951948134, 5.137886017457343], [-4.114275444448923, 6.7114962274910175, -2.774433460500448, -1.625515329570653, 5.915495711149046, 2.4017772209156285, -1.4581256195010788, 2.7828476008586875, 2.369815742992625]]}