{"structure": [9, 8, 9], "networkWeights": [[[-0.5691446936102782, -43.80615698939623, -1.1595989420839417, 1.8074544578373422, 0.8327965452676362, 25.283247512239818, 9.139765637239137, 50.98369631681363], [-3.981648033754915, -1.8818907951184642, -13.926426800222371, -13.762990327615181, -7.210772306565607, -19.911565296598162, -18.16470368309675, -23.607702018576724], [-12.546319913212493, -4.172448101811222, 5.039396240637447, -13.590776989536025, -7.727562106222294, -6.433430077680253, 34.92293445926072, -9.535493519425597], [44.77467288572029, 18.814411587059812, 10.783429227910469, -13.877059403871867, 20.260378965707034, -1.048081633322693, -7.836658543218357, 53.01276612435891], [-34.75466760463866, -4.758535507550263, -36.48028959371972, -2.3086346145373065, -16.383114749531217, 17.68369735197881, 4.025074214430875, 31.01535980187949], [1.9681712838640002, -26.248688817372482, 47.416326148386055, -13.691747241441075, 19.217311458204367, -28.297393164275757, 4.246895284570629, 40.80937321776548], [-11.524990038682214, 29.051927154921987, -30.237713350086203, 32.41268958161832, 26.341817240371338, -30.475930915331407, -13.540221878962612, 24.96244169335459], [-35.194067104447456, 42.42328013335237, -23.65871724707409, 27.9083207827214, -1.0717525040387876, 0.15313714657772073, 2.338884825499319, -18.064185194337345], [-15.495358118668525, 22.610499217413643, 69.74704563039732, -20.955227239487424, 7.653062939781438, -21.96609235341039, -16.44336557649092, -22.718873089394627]], [[2.444308968252082, -39.46073293839267, -14.974862856215555, -14.085284852452704, -41.06325465258928, -1.2802277731702907, -1.6338037342030634, -4.608144445240958, -22.285639722633597], [7.7246100300447225, -0.755323241180533, -17.40257924253379, -44.17452433528159, 51.92239988011912, 32.29454518596613, -36.65898926259412, 14.00934162838482, -9.98848991812188], [-45.747139046642964, -19.976093315102723, -10.757728587025127, -10.006595378702622, -40.02828212064635, 16.51575990041701, 15.004685755762118, 27.026513794846938, -21.826161035039352], [-31.546387006970303, 5.061788842403389, -2.26812398212838, 33.931188127978864, 12.294640603265934, -18.789885779649982, -31.851637691677237, -21.277216498696852, 48.68521782393833], [55.664254817231594, -22.37066511211274, 4.775767031142992, 4.856321419384912, -41.50416149072769, -44.85563393670997, 19.655715388313784, 10.339233455885251, -5.32078187410272], [-33.587885602029615, -6.541370513548588, 1.294222509208361, 28.307066712925064, 33.25757235713173, -6.369517518800712, 30.721769918811173, -35.584503787547035, 16.974991159938256], [-10.685950632786792, -4.775538144003292, 11.463204236527936, -4.595462791482146, -15.126441727636687, -18.144622115444573, 79.31989612583665, -76.32123226164994, 18.713680901290036], [23.49300796122648, -2.7954099282491187, 26.628746986888867, 26.146489848972383, -24.54800517879671, -26.952146364557162, -11.05968916979487, -48.92362922864635, -5.508883369610705]]], "networkBiases": [[-2.298750230607301, 3.228359711615804, 4.8436622750792, 1.4137420930382905, 4.591743880110791, -1.7781165767970875, 1.4214588248095095, 5.198813327914684], [-4.141888791864039, 6.69902974602338, -2.7100949979899998, -1.6251335791553474, 5.905714881144284, 2.2894985753252928, -1.4698023270088694, 2.79747870513147, 2.3518349637598943]]}