{"structure": [9, 8, 9], "networkWeights": [[[-0.6439149877344956, -43.904225016496476, -1.0629376155262857, 1.9724687290169285, 0.9604654076297388, 25.250682208790824, 9.066498201758359, 51.24848634798892], [-3.979154392449944, -1.6898016691774658, -13.960955885118222, -13.737526940454023, -7.177331532102459, -19.822480129832602, -18.179414180770237, -23.597160004638425], [-12.378121215968697, -4.15141900602496, 5.20243339651573, -13.704740057435734, -7.802707634559907, -6.633498812322209, 35.20657382427672, -9.425347581834327], [44.67779348915105, 18.857951994655853, 10.83936633315087, -13.761459131778995, 20.364292937007704, -0.8567675936673746, -7.763816648067373, 52.92433836975453], [-34.81269535162295, -4.589512040955526, -36.499004031531214, -2.1084737536697826, -16.385419666436253, 17.712849415741744, 4.001958253533107, 31.255648322991497], [1.9771462735287524, -26.189848080923202, 47.22917837829857, -13.61414827396446, 19.260916358432475, -28.40689864647951, 4.353212327306332, 40.8631043704555], [-11.766585795177816, 29.033332814729235, -30.03646852099677, 32.51792830810609, 26.17505159696953, -30.29367018049277, -13.30488080861151, 25.043665768702983], [-35.31274495421428, 42.54761406299679, -23.711408160195944, 27.974920083269186, -1.2783147000726063, 0.1462857341669508, 2.359829697130823, -18.122007138857136], [-15.412271536519846, 22.466966352401652, 69.80406292217138, -20.995137842138607, 7.691794559554763, -21.97624134356371, -16.422119778257986, -22.66562740136118]], [[2.5381290330282233, -39.44493780904188, -14.973869059174874, -14.12364994296805, -41.117930983248975, -1.4406479115017616, -1.4402384497526628, -4.436046252678438, -22.329857066088245], [7.740578464244979, -0.6641865044930915, -17.446344879224714, -44.191599944767496, 51.891778604348104, 32.258150895624965, -36.62351825416092, 14.165317031278102, -9.98537225668715], [-45.95476306623814, -19.675061141826973, -10.801729547983241, -9.983344600809406, -40.07822256430134, 16.480833522077017, 15.131094211044559, 27.102189955434863, -21.908232323834913], [-31.77711162052066, 5.025616752670481, -2.193442633895267, 33.88544201583324, 12.272009440456912, -18.68455428521917, -31.968964557085, -21.29287827281162, 48.80158939778192], [55.7734893246982, -22.441162011675228, 4.5245799829342, 4.833110977043001, -41.42595471838127, -44.77139464075561, 19.480624694328988, 10.497126382967348, -5.301762128846245], [-33.66275513063186, -6.627840829416607, 1.4827219906783555, 28.312586392930328, 33.39705751713114, -6.564302216053597, 30.56202707370649, -35.4622852000085, 16.912314792124608], [-10.82892344941979, -4.832088623051871, 11.510835563239704, -4.415416681259985, -15.18552550958984, -18.085383433299903, 79.42652720050167, -76.30752622058915, 18.750453685890218], [23.594711925285875, -2.860935481188114, 26.665485007733157, 26.18473238934638, -24.560265297415878, -26.946345291850424, -10.946522875748702, -48.80216794526335, -5.496384593479826]]], "networkBiases": [[-2.233132730227357, 3.0999398062716073, 4.873734141104747, 2.0230102582362632, 4.490112346860089, -1.648109938328729, 1.927354723796532, 4.706092928193634], [-3.901074252416882, 6.549153338982428, -2.773763028790884, -2.0393859270345907, 5.575537783763818, 2.9526231663230322, -1.559446697855913, 2.9859273469375407, 2.5674087407172026]]}