{"structure": [9, 8, 9], "networkWeights": [[[-0.7270715981497313, -43.9289355928833, -1.2264894812723974, 1.6622980974159791, 0.902662591699387, 25.0842869293269, 8.842758992249752, 51.411162942606936], [-3.932973642889881, -1.5826663411070119, -14.263132420000277, -13.750805358631597, -7.447321725018223, -19.809435625135716, -18.147474563660985, -23.955018029148846], [-12.956554070711807, -4.433197699584217, 4.513986410223609, -13.086462395345889, -8.032355251018412, -6.2512118647979245, 34.9055633037157, -9.516026119290737], [44.35518144855342, 19.09884292635217, 10.478223098565538, -13.68980675533798, 20.201846719315352, -0.9671969754065286, -7.334528727488624, 53.1842883037797], [-34.8082415904997, -5.034263240287875, -36.47888996175942, -2.6701123230785444, -16.970808900680748, 17.86252928296992, 4.159917929921812, 31.40564823051846], [2.090138084019284, -26.48022524910653, 47.219988417023124, -13.710777445246693, 19.27376388811686, -28.77781799968822, 4.641612350938975, 41.325240924906666], [-11.646597666674383, 29.13590130853811, -30.112430262672397, 32.480420359272784, 26.45085859862379, -30.533531349995283, -14.154677900966192, 24.549686168107616], [-34.77459634099302, 42.70854704426689, -23.333213802261596, 27.631924746648796, -1.0601090289216915, -0.03711259708904846, 1.9743015067416627, -17.607501714558065], [-15.588913666071404, 21.86273461776973, 69.79281593419343, -20.710115741292462, 7.823786339592826, -22.306770552162412, -16.79569513466328, -22.842176289765273]], [[2.345367033817, -39.5304580544134, -14.649057105459791, -14.241786559537319, -40.51983475667203, -1.739291595457349, -1.6338676715783629, -4.525589968875217, -22.05507682780917], [7.907340106359883, -0.36436122824920786, -17.39285873948694, -43.98785485104819, 52.060427619338874, 32.057370221761005, -36.52119535197379, 13.803253392389141, -10.075182524035107], [-45.19932815644738, -19.74289095321322, -10.059144873132846, -10.477771177564787, -40.12587141788527, 15.947856750708503, 14.747275047932431, 27.082488852334286, -21.714420790084805], [-31.192910640795784, 5.826037954513826, -2.405065019070589, 34.30495804090295, 12.139738343774136, -18.796274052971814, -31.94322074692907, -21.419112415662745, 49.14344304497036], [55.77795049433088, -22.164882541516075, 4.664749591745028, 4.674417362093769, -41.483762554136675, -44.52892392527165, 19.52781928393904, 9.691991627573325, -5.156901547803358], [-33.80427405988893, -6.568702774719318, 0.9492970187030303, 28.725046826261995, 33.036962544014436, -6.3773893294664665, 30.53834878585722, -35.74765056085846, 16.96139177314755], [-10.79418224821373, -4.861239727748096, 12.063961166856258, -4.710341942355718, -15.089029884780814, -18.434236057108347, 79.41172690937451, -76.37170897222556, 18.018890407924918], [23.540435661383963, -3.3755260190985985, 26.396155217566534, 25.78278437225807, -25.073995743590725, -27.107097993077065, -10.96397704990699, -48.91561617015709, -5.503969811152114]]], "networkBiases": [[-3.0350924105681054, 2.7964812736084115, 4.401775522167595, 1.3114106023344352, 4.762422986608393, -0.7002894948118553, 2.8415634281918667, 4.946692280053554], [-3.6728252029974087, 6.095885372838548, -2.5297003720448408, -2.614125375787411, 5.561094179474923, 2.3211471958768994, -2.918974542165405, 2.1347406487488803, 2.1192615996472277]]}