{"structure": [9, 8, 9], "networkWeights": [[[-1.5618622991418492, -43.91279874045696, -1.3830161089908892, 0.924552472483857, 0.2480385172470731, 24.796364304752295, 9.53837369634673, 51.699037588158305], [-5.067144245701805, -2.109041414692012, -14.760200539175397, -13.807564635650955, -8.325465750205664, -20.530778889571458, -18.489614697242178, -23.649242131160236], [-13.368262211594049, -4.054721035136322, 4.378850266609414, -13.598181457373, -8.957392888338982, -6.552700426684392, 34.76675534264731, -9.36061546077263], [44.0532506461264, 18.94631891633407, 10.147568463556883, -13.338387013463182, 20.24513506732083, -1.1453912948231832, -6.632553628132077, 52.76254506372324], [-34.591955361590266, -5.79972636582167, -37.48537655465493, -3.3606087093945973, -16.52952149596198, 18.23730151608243, 3.8662044923848025, 31.353282314885707], [1.4054403672837485, -26.1916981287106, 47.30338387027967, -14.42719489468104, 19.185406595709765, -29.027396585781233, 4.989121736350708, 41.56877189566615], [-10.27352517336379, 29.631234232095597, -29.862626136195125, 32.41742966835567, 25.8000401404238, -30.714601189271338, -13.470168112846016, 23.845450035698345], [-34.332881418825544, 43.01049345754198, -23.211251435687213, 28.0416318844214, -1.1705030304322401, -0.09121990989514156, 2.3648119709258077, -18.136519986009873], [-15.49839729510109, 21.83444627133795, 68.87101907062554, -20.361669384130682, 7.445805152263272, -22.855279570260578, -17.02637715104319, -23.512036741364806]], [[1.837512140095561, -39.05629385145577, -15.720852575077906, -14.161349141648142, -39.07422221286786, -2.0112247706024453, -1.8501012528957195, -4.551326939585976, -21.892401867866468], [7.411487371082014, 0.3638972063507575, -16.793480529758938, -43.39770912512604, 52.233548915666695, 32.2442395446863, -36.198737505839446, 13.870588989114877, -10.002357647852135], [-44.77315889736336, -19.437700075071582, -9.666852557926035, -9.778243161050861, -40.87445206752256, 16.20949747200158, 13.578174795843495, 26.365863395845153, -21.40347331682919], [-30.53052534589822, 5.8952047207439024, -3.616809837047342, 34.9810789884976, 12.417660718942718, -18.73694681840794, -31.452559051669866, -21.1706134192389, 48.69224708719018], [56.251260237881425, -22.626946558972303, 4.545736915639954, 4.440743443328761, -40.97202937920539, -44.80618338685067, 20.01928251049966, 9.20837688154446, -4.439527276044309], [-33.50696571941156, -6.246540202593377, -0.0058713830205505135, 28.190680486890393, 32.85457638473916, -6.270943974533944, 30.531664949117346, -35.6813598698979, 17.300761230433704], [-10.542027169823601, -4.571944002965422, 12.005816380419109, -5.120515912484606, -14.351082469031972, -18.444564980419877, 79.30126867147249, -76.89905148428615, 18.420565671996176], [23.08017843670793, -3.6452214053627814, 26.401403542575277, 25.476158240125837, -25.506971427483638, -26.540150176853302, -11.032520082154235, -48.8774484361346, -4.27840615508747]]], "networkBiases": [[-3.3878630857910497, 3.048232850016576, 2.0533189951884805, 1.935597160650836, 2.437576967783699, -0.47114878792754994, 3.330882385188009, 7.262346040573357], [-2.7292375645216347, 6.2192383582815935, -1.9587768660644924, -2.5009557559233526, 5.910382700757503, 3.8306971255659996, -2.3390446434138603, 3.59378345576864, 1.5706514788183301]]}