{"structure": [9, 8, 9], "networkWeights": [[[-0.5355179233786027, -43.802293245552974, -1.2264894812723974, 1.6622980974159791, 0.8309332412183129, 25.160162102018504, 8.946504794342015, 51.34753628091571], [-3.932973642889881, -1.816819360015976, -14.086447961130355, -13.5939876456173, -7.314831188674178, -19.857127420275095, -18.147474563660985, -23.446578028626533], [-12.850114412125796, -4.1348510175641655, 4.529334468176443, -13.663407704428112, -7.8173897897563664, -6.554194377069677, 34.81954884421952, -9.629035606829778], [44.337471442545045, 18.8144531668693, 10.987601347668084, -13.87324348628841, 20.28534230829937, -1.2434114859812164, -7.601312424595015, 53.25460287352315], [-34.5256990580787, -4.685808917619812, -36.318352846018456, -2.473158532895776, -16.246928856711694, 17.90225275965352, 3.959552623249256, 31.09524236527663], [1.7115098581663513, -26.48022524910653, 47.30583399901875, -13.684420058188831, 19.484591527047506, -28.58225493503671, 4.273460487289815, 40.81489945092709], [-11.317827619152087, 29.011894660614264, -30.112430262672397, 32.55988181110941, 26.45085859862379, -30.521322069106837, -13.69241599812461, 24.947505926392925], [-35.023565724610954, 42.49290083269018, -23.657283832701538, 27.83896709333243, -1.2727265708824547, -0.04027772323501372, 2.1932902849056886, -18.039040775310472], [-15.31387668192522, 22.1283654057376, 69.75892214099736, -20.864917365449678, 7.655975059107372, -22.101878913942084, -16.411772738843084, -22.56838889388586]], [[2.5523653735365572, -39.492044171021774, -15.481142308571147, -14.108913825287848, -40.973304517218146, -1.4254747578028633, -1.5543816269361899, -4.392503767235466, -22.284726786290197], [7.726433197420166, -0.6562171133284909, -17.40396273463637, -44.20088505508524, 51.853215481904854, 32.47352505963775, -36.509378352036435, 13.925853158448577, -9.895970050079589], [-45.19932815644738, -20.10182928145725, -10.632563248156229, -10.421288476300077, -39.904374487558115, 16.244184570360993, 14.909624075269575, 26.85996881983048, -21.89694245669784], [-31.57815745429212, 5.4999446482317875, -2.508874719310547, 33.92733884588333, 12.272949745135499, -18.744168031133697, -31.617712578528653, -21.538735785991037, 48.78892039338729], [55.50092859261055, -22.75180255039536, 4.860678264616071, 4.8443145280027515, -41.54083328755633, -44.94986479105868, 19.32329465640713, 10.292271572015434, -5.390692572934562], [-33.80427405988893, -6.9186133278628885, 0.8604208257486977, 28.566098727774435, 33.26169016608267, -6.212927103637437, 30.75332791435047, -35.98148544404254, 16.73342605725583], [-10.914697350993231, -4.837656743557954, 11.306954227161278, -4.635152806209283, -15.241517120491892, -18.328251327794188, 79.38732170127048, -76.07249348833238, 18.709257635487084], [23.734915130222515, -2.8273395247460726, 26.644975863311583, 25.740111892007718, -25.003486541629986, -26.778616555284856, -11.142955615717577, -48.90649071915414, -5.511524419607838]]], "networkBiases": [[-1.899549470893003, 3.339044524919073, 5.103995376736629, 1.583801183004539, 4.615342790802879, -1.10108810039216, 2.823048696263204, 4.949927788393499], [-3.4517030427572113, 7.235968746178874, -2.281679729337514, -1.3233441691580166, 6.281274331136035, 1.782129485736361, -1.8963756423679492, 3.674055287417278, 2.472565917448368]]}