{"structure": [9, 8, 9], "networkWeights": [[[-0.5862891414077009, -43.81998986710002, -1.1589067632084553, 1.8328684148554684, 0.9329323520722159, 25.269842408432552, 9.082570305234965, 51.11110800642409], [-4.0830250571603965, -1.72496676081775, -14.003678760278708, -13.757267991866064, -7.323546918758422, -19.860476042369797, -18.16512743886376, -23.661943602687742], [-12.440837782015794, -4.1725289118361015, 5.17391814370347, -13.613147029648937, -7.748595958732447, -6.4938648386234075, 35.07410992413543, -9.419373949454146], [44.67324155029476, 18.7622334085168, 10.844714182002871, -13.860434183106506, 20.29857247718957, -0.9738589311214645, -7.73969975024638, 53.131923238901415], [-34.76526378464967, -4.823631530524004, -36.50147825899129, -2.247670057924286, -16.41764770756647, 17.682103467664184, 4.044569399314952, 31.003072519631946], [2.0113112520834684, -26.117473885564646, 47.40037771909585, -13.694117259788811, 19.269999049944907, -28.415338524861106, 4.341219882208129, 40.784072457766975], [-11.635353585811671, 29.172823327926505, -30.15368023207255, 32.4406752999706, 26.2325263284043, -30.31617430993672, -13.510220317421487, 24.910495808432287], [-35.25582720171863, 42.49191766759475, -23.716770250255085, 27.94521979826131, -1.1786249774926747, 0.16913444848582707, 2.3632726785380966, -18.057416804283417], [-15.476739761285975, 22.54377507194819, 69.75265566245798, -20.916000178517002, 7.729263070164473, -21.884193220784617, -16.504648629573172, -22.72089006102353]], [[2.5036979378676563, -39.42673497571193, -14.925321158933547, -14.09748801401065, -41.028850814977964, -1.3550803090650747, -1.5189389184284903, -4.554446354172613, -22.242033257815045], [7.719910067317008, -0.7280687933998392, -17.398883712308745, -44.129389232269624, 51.88038409846217, 32.224083849828304, -36.63001753704393, 14.060799524513499, -9.974277995035024], [-45.95629976578579, -19.892550566556352, -10.72450076343355, -9.967255849917162, -40.05661676078336, 16.57048244121531, 15.22234309326713, 26.977823943800747, -21.901051740496847], [-31.530275079299212, 5.0806868846929545, -2.200696275929291, 33.99142995586298, 12.270118768108972, -18.75176465856207, -31.91136882925291, -21.2407759153971, 48.76548140581258], [55.7025741318098, -22.439061070608513, 4.751465490316182, 4.856396268392285, -41.48224093645093, -44.74271046297831, 19.58356340268434, 10.26428819267516, -5.271837170702445], [-33.57670953339379, -6.549007903856875, 1.4293735643514505, 28.37065953258741, 33.25670160642652, -6.432247898753686, 30.74378128713469, -35.488884626231275, 16.929346982355643], [-10.758510394596833, -4.769742668045734, 11.468215790598231, -4.538631220889611, -15.132474282041233, -18.077368327066466, 79.31681717409327, -76.35855584532203, 18.803444370907663], [23.484698686071532, -2.9687872119790737, 26.609599738399062, 26.199986913110006, -24.513545002289888, -26.954188853509127, -11.019545860149272, -48.88403749724078, -5.509841374536944]]], "networkBiases": [[-2.0306201972048132, 3.3341942883745723, 4.916096401284857, 1.6330256263240528, 4.689137334108726, -1.7880164664193567, 1.7859568736141829, 5.148273794908095], [-3.86339998317493, 6.626321520464441, -3.0097668190327203, -1.9536089395097147, 5.786827109441803, 2.3560324159189885, -1.2128358339471357, 3.3276753922284845, 2.4153775728544122]]}