{"structure": [9, 8, 9], "networkWeights": [[[-0.5949338576223955, -43.91386933261572, -1.0739387005942402, 1.9724687290169285, 0.9395826222412047, 25.240385409096486, 9.044048966977453, 51.24812654533086], [-3.9763392566326377, -1.6402131681095613, -13.993823192268323, -13.756881232864046, -7.177331532102459, -19.79704978580909, -18.1516068226853, -23.56057247109491], [-12.363489853312748, -4.180265878163014, 5.20243339651573, -13.693039456598376, -7.8008989308106, -6.5706767223145, 35.24396167066388, -9.425347581834327], [44.655373560577225, 18.843961005710497, 10.82047992082612, -13.801410062153954, 20.296015148723868, -0.8597005654685208, -7.763816648067373, 52.91155279758999], [-34.83077224242049, -4.586601609722069, -36.47336109783207, -2.1916580778306445, -16.413253545613184, 17.659946422894237, 4.020861458785461, 31.24452698501223], [1.8696043105070257, -26.206207856039722, 47.23828000518661, -13.65074255587093, 19.260916358432475, -28.43108894769653, 4.310911853821991, 40.8631043704555], [-11.706045365411574, 29.07936392712648, -30.060218974144053, 32.51792830810609, 26.08645130694205, -30.29367018049277, -13.321965134664357, 25.043665768702983], [-35.30995757799088, 42.53141877270146, -23.714034358064136, 27.981134390351993, -1.2300701219967725, 0.1462857341669508, 2.359829697130823, -18.122007138857136], [-15.419628921892784, 22.442439907106706, 69.8208247581454, -20.958650360134296, 7.737113479664693, -21.97624134356371, -16.422119778257986, -22.635081419794556]], [[2.6116654047453296, -39.41081796929958, -14.945840218057333, -14.12364994296805, -41.107831884743916, -1.4136286324623655, -1.4402384497526628, -4.430715043640153, -22.330611905730972], [7.7052389368493985, -0.6980762644785183, -17.397838603796853, -44.191599944767496, 51.88725873272945, 32.23443318645642, -36.66769344620386, 14.186403859096623, -9.986943340751681], [-46.00207661266778, -19.671333210294023, -10.801729547983241, -10.010623242628691, -40.06625430737512, 16.57302499593084, 15.103312841594208, 27.126037991436526, -21.99685346600972], [-31.73363130666638, 5.012068783821945, -2.20259875226623, 33.90508956318745, 12.240302750956502, -18.71024012255355, -31.956397353625448, -21.291987276412108, 48.846455885152004], [55.741809336148016, -22.347668109912437, 4.543750630732603, 4.925285818779305, -41.43796908579625, -44.76694982238856, 19.42168553767813, 10.497126382967348, -5.324783521130603], [-33.662270336796595, -6.590160250216691, 1.4820402680100682, 28.28994842241703, 33.39705751713114, -6.511991802757268, 30.604563403146358, -35.42509475619919, 16.97182618971296], [-10.841068162620472, -4.87723103646519, 11.575450516031442, -4.415416681259985, -15.18552550958984, -18.064520648959693, 79.46396105600789, -76.31645488682446, 18.72626778414907], [23.6101418960864, -2.8411565115998507, 26.632969393587278, 26.114489894159405, -24.61225850482123, -26.945803192696744, -11.004802766200656, -48.80216794526335, -5.497141350884313]]], "networkBiases": [[-2.2938608855079217, 2.897142665731728, 4.962164989824179, 2.033262776603615, 4.540983923473578, -1.7391091869892308, 1.9298259234329114, 4.666121907938581], [-3.92109526279909, 6.545195536503525, -2.610698898271629, -2.095911901198615, 5.540107035574571, 2.8924783231364786, -1.4458329042003828, 3.0088373887660693, 2.5635382375099027]]}