{"structure": [9, 8, 9], "networkWeights": [[[-1.1783493633518625, -43.72948951583779, -1.3830161089908892, 1.1641939210668915, 0.3975371559888155, 24.89681417438945, 9.449104459557471, 51.843596073561436], [-4.578975450018075, -1.8155839790552015, -14.504755541119923, -13.551870257492821, -8.175512634955936, -20.334810042732254, -18.400018355201333, -24.0604161699145], [-13.612678647707721, -3.4937241545446343, 4.670631108484154, -13.327197417317468, -8.690733674467703, -6.534746586070701, 35.20114514143175, -9.505935340792508], [44.0532506461264, 18.73872325818884, 10.762054536002461, -13.495990475667636, 20.185649025352568, -1.0260719151086963, -7.188254867688424, 52.58392710938597], [-34.677983262627635, -5.26109410027611, -37.16063010389762, -3.2297704954278545, -16.74919589066133, 18.02367443363647, 4.212108232014764, 31.61916452493301], [1.555778338529552, -26.556272759209826, 47.11496114354853, -14.32078051888627, 19.281561499748605, -28.875350336039432, 4.905612171858645, 41.76841946601187], [-10.900746887876473, 29.63860166628926, -30.01064448432624, 32.35437278025437, 26.040893443795152, -30.576860425621007, -13.64749423119407, 23.972156210193987], [-34.84588944576852, 42.95542556627715, -23.654573131809983, 28.12522829329491, -1.202106513615001, -0.09121990989514156, 2.290437177258816, -17.9028553520728], [-15.594161818011258, 21.956703775452212, 69.75519987520298, -20.63284997991504, 7.753418028933777, -22.99733100057646, -16.7262531942477, -23.47673655987188]], [[2.143847661021758, -39.563696996120086, -15.465954100213406, -14.719839831937387, -39.790085906330404, -1.9981488560865586, -1.9473033348920954, -4.478807726688464, -21.892401867866468], [7.57958801260934, 0.42270990754631854, -17.075816971417765, -43.26787541957458, 52.07596544302068, 31.94428317293014, -36.48547329872127, 14.137834793731706, -10.07854200662851], [-44.92463479403405, -19.520452832393254, -9.54567272203288, -9.862015680836334, -40.710086294257394, 16.445237503143293, 14.31193898769312, 26.887330485702847, -21.377584039405853], [-30.74438716351842, 6.021968744983947, -3.2156410555321098, 34.53845689591876, 11.83237875051601, -18.610986750702644, -31.105362016484086, -21.38896290991471, 49.57843168207338], [56.08267519515246, -22.828278649295104, 4.590345185548992, 4.5170974830991835, -40.82392376736552, -44.44177748990439, 19.831090689869853, 9.116587579392379, -4.530801355599591], [-33.57581394774882, -6.193335040857476, 0.07609474568951696, 28.540064178822874, 32.85145822498723, -6.543199276946247, 30.583380456228646, -36.10589886870281, 17.06221934548996], [-10.652072850730013, -4.641189050975872, 11.679070280022634, -4.834372133265553, -14.400319324490004, -18.406313524734504, 79.31744169148243, -76.70834964691429, 18.08152146235346], [23.526459293506612, -3.778485867617853, 26.064413582229555, 25.718754248058083, -24.725737619646967, -26.690061025672986, -11.1317334404267, -49.078812207314655, -4.562642662328683]]], "networkBiases": [[-2.358875279605379, 3.746599906393807, 3.864682296367973, 1.162037946689677, 2.3234517565389385, -0.22748012792367006, 2.8830911328573885, 6.634647662041141], [-4.471379995816541, 5.844348763370583, -1.284074829001322, -3.0464790304427467, 5.6903319990625985, 3.9201778387903308, -2.58157573396119, 2.6986827798775157, 2.0612860900108276]]}