{"structure": [9, 8, 9], "networkWeights": [[[-1.3233504839497772, -43.700325695198984, -1.8950859699591258, 1.3934547398723192, -0.051278531657205695, 24.35337268485218, 8.88623165331644, 52.04975117373077], [-4.929171965929852, -1.538742655304567, -13.950478513610193, -13.716574143779958, -8.321135827559921, -20.134340207871855, -18.265839918287856, -24.997818358140723], [-13.342074194430849, -4.327208510380462, 4.577398175716109, -13.630000986772199, -9.30414203819509, -5.927178555082288, 35.01097811264155, -9.535763743637162], [44.39278302716376, 18.42816928357408, 9.160156464343068, -13.694349085139029, 20.648536873216553, -1.785683244921238, -6.678761690994045, 51.85233384848224], [-34.14907954464961, -5.930994931569307, -37.265941380715624, -2.7977411035524797, -16.83542210373756, 18.334355370817367, 3.36166256463624, 31.629023424482977], [1.4450198429853864, -26.046167415484724, 47.10178788250613, -14.92913583744082, 18.682347474063086, -28.78468433222894, 4.18301796118479, 41.171785586280265], [-10.383203949628832, 29.22090740330714, -30.412166294697954, 32.40399761884499, 26.10401717353823, -30.625955062441083, -12.800626125870949, 24.690221856887867], [-34.89785018315944, 42.3662483034101, -22.07904592117872, 28.20300265535998, -2.0657020981737153, -0.409384437458989, 2.9606628578205063, -18.3831983543381], [-16.343019123134734, 21.661542586975116, 69.55794402515662, -19.71914308681447, 7.909945265916962, -21.900843729446283, -17.275292678982357, -23.28858912560572]], [[2.0153312085069386, -38.65803933891277, -16.378340676373874, -14.877310963106728, -38.74206223284485, -1.685930763798568, -1.5360874190875033, -4.054334103245479, -21.211780753010345], [7.228443351877897, -0.5777708058352198, -17.31809458240882, -43.324284243540625, 52.38583972328337, 32.335344904004934, -36.021444355791694, 14.029792512637897, -10.56641558948534], [-44.595932157661245, -20.31310382873572, -10.109009210701315, -9.71037476680184, -41.07152275449852, 16.17760930581883, 14.761666733213216, 26.987632790529936, -21.964782568716377], [-30.313986162220083, 4.693682552856753, -3.4101223906949656, 35.256287387610215, 12.609179322546481, -18.67587744112611, -31.778756861617246, -21.42552610052524, 49.46245496112017], [55.98019155498814, -22.792220119165304, 4.0938902953535035, 4.615504178142927, -40.320545753754885, -45.309841611417376, 20.60939783074193, 9.896186915245936, -5.635600775824004], [-33.90244505836143, -6.275892243311186, -0.7715090561065794, 27.9847720478577, 32.70946914770877, -5.771762066356144, 30.750637878494967, -35.979711272794255, 16.928974698209537], [-10.271573459009165, -4.997781483417538, 11.651377746099653, -4.628827319160939, -14.901631705091022, -20.258405231063737, 80.3821191345019, -77.61715172615936, 18.81665395190489], [22.824452743884027, -2.806959990361464, 25.227746316290517, 25.148002157468568, -25.749794787289336, -27.103445310069354, -11.129199431938082, -49.172070283747885, -4.149816958551845]]], "networkBiases": [[-3.9575866105547037, 2.4592466958790626, 2.6760098183334993, 2.1589940165704573, 2.2808750013971633, -0.12433995186717334, 2.0604197990609165, 6.595587393007016], [-1.2362078480569632, 6.69593702384196, -2.904248251298612, 0.2307856644896561, 6.478555276722585, 2.2964268242097363, -3.9083632814745224, 1.7412082185174476, 0.7219058425559413]]}