{"structure": [9, 8, 9], "networkWeights": [[[-0.6509807614496848, -43.945385255780785, -1.111512177089119, 1.9277204513598427, 0.8640352706006486, 25.250711445826795, 9.090368228590462, 51.209614532135035], [-4.060152029040634, -1.6603811315365422, -14.066535789289068, -13.658154657752418, -7.216546297244915, -19.82585344882808, -18.177203662287237, -23.61875967736424], [-12.383366475986863, -4.1369697363608795, 5.218572008905557, -13.728072096960794, -7.732369676789808, -6.577678075693358, 35.11962360828646, -9.42745587526096], [44.67324155029476, 18.75213454558914, 10.884466926524299, -13.731753867670573, 20.388600762548712, -0.9385617299408204, -7.7425374170699035, 52.9698693576789], [-34.75161981402622, -4.630720486762859, -36.58410033927293, -2.240477613817079, -16.426732825058338, 17.691169750721425, 4.018426446994858, 31.127369618663067], [2.0704901531765354, -26.123439143365584, 47.4062529135778, -13.643584534225965, 19.339435580174897, -28.434929355889544, 4.31020651411897, 40.83122024794886], [-11.735950616465928, 29.078876859803902, -30.062880699646076, 32.41299476264317, 26.162763627830856, -30.27950562893498, -13.397654738312966, 25.04790473362208], [-35.23083691066637, 42.46911236300092, -23.771974168243982, 27.94400719015669, -1.2146240196860583, 0.21508729126089632, 2.381471153422342, -18.148495587572945], [-15.476530064409936, 22.54377507194819, 69.76131690126749, -20.983998253017344, 7.691794559554763, -21.97624134356371, -16.442293864307427, -22.788148583739197]], [[2.4700108337487015, -39.439281637738226, -14.988509654778948, -14.153054446052248, -41.091999853577846, -1.3604594939516177, -1.529939187436127, -4.471146894618026, -22.22306338909505], [7.69611460897908, -0.6734760787371568, -17.393734327452687, -44.12593647676685, 51.92167015869269, 32.19999055695013, -36.631321636537926, 14.10522943267275, -9.968043521680034], [-45.897255706582094, -19.759655829060602, -10.79259657824324, -9.97274681193211, -40.058082942080055, 16.589245741398067, 15.158550435546044, 27.09379402290524, -21.88448159516874], [-31.61241907183651, 5.047423717213026, -2.163033113628029, 33.97414918314235, 12.291543850686926, -18.758131066592206, -31.956989816904837, -21.203811734546484, 48.710347920022066], [55.755516080509025, -22.31274390828438, 4.730821266750867, 4.853854407960135, -41.49737884811925, -44.726795642706406, 19.522487857790306, 10.35774797064307, -5.249454372222245], [-33.60270792024099, -6.559151622555509, 1.4730593037873505, 28.395765983296087, 33.34327331595615, -6.448271630712845, 30.55701479775739, -35.40510628960977, 16.90395601558642], [-10.772678348779706, -4.825162702055944, 11.480108838447027, -4.579514453835013, -15.080201396908953, -18.09258354144025, 79.33855118024852, -76.27827033174022, 18.751503589707777], [23.565875256434698, -2.9055268469162625, 26.681723447542137, 26.122795510786915, -24.57722345039831, -26.976643810969538, -10.990281442520493, -48.88156086725406, -5.596309307227782]]], "networkBiases": [[-2.1887913918832815, 3.1284316220418913, 4.828455651359634, 1.814163979754965, 4.701547026511524, -1.9354770742064633, 1.9245470240380438, 5.106666491722744], [-3.6559445557376584, 6.6350909134030465, -2.7972974550345446, -2.046216943487406, 5.71233432410679, 2.6882863345049195, -1.3572981093489527, 3.2889062252915555, 2.519636761852154]]}