{"structure": [9, 8, 9], "networkWeights": [[[-0.7341993282239299, -44.14727680488826, -3.0389079567715465, 0.5524840112860867, 0.4531032326484974, 23.21410095815792, 8.134564538663366, 51.37596358786703], [-5.15855549521919, -0.1583014460647385, -13.19920508770065, -13.204085448293096, -7.614099516329037, -19.944773896558353, -18.437578587788877, -25.174858773929003], [-14.243568813226256, -4.57369949446178, 4.551936060717882, -12.921842639451192, -8.50690557381873, -6.146399395200014, 33.45557581765281, -9.949638076876953], [45.14022364504573, 18.06099066118513, 9.46717315608101, -13.751152709815303, 20.377399079795115, -1.10640690130691, -5.308690352663854, 52.45561169204995], [-35.812674089571956, -4.599740861797081, -37.260292476317645, -2.780206138416492, -16.936657914728098, 16.079486992648334, 4.556168151217288, 32.59387064857202], [1.480914692104337, -25.05171163485448, 45.92659492085994, -14.09932837264162, 23.063491207150214, -27.69353967671486, 4.339789147149544, 41.40868997590498], [-8.287697581942824, 29.056335870903116, -30.945279488820407, 32.39135841506322, 26.022449451478433, -29.9798266229821, -12.762812525241408, 26.352170591385544], [-34.86278372187607, 40.99975412934451, -21.068613715785887, 27.55134905735882, -2.2997354800089376, -0.730856085173875, 2.6895403425353837, -18.37018571453991], [-17.709149239823475, 22.16643773960013, 69.25785986096245, -18.492621284384878, 8.392203009740273, -20.445914278594106, -18.114148400942586, -23.363910643858286]], [[3.821399208357236, -38.05940051468717, -15.376644472344836, -15.744532362053105, -41.14317791253705, -3.42479942939742, -0.5606874533999908, -3.6139975849541006, -21.703414014402668], [6.822692144349752, 0.19059609531393118, -17.946915189818863, -42.843420493381245, 52.04564259819212, 32.94113416642816, -37.07168696196607, 13.274991011164353, -11.838218203767775], [-44.54399068713038, -20.788843889403076, -10.169665237870761, -9.972641052057336, -41.07499928833638, 15.63004185087268, 15.979300929270163, 26.93522691050729, -22.679178605169145], [-29.85628505187769, 6.366739674689565, -2.3624792844800235, 34.76780439926265, 10.825327278678593, -19.675082744782983, -33.90328743337647, -20.11832415713203, 49.24952771626119], [55.98367873403086, -24.068132908384825, 3.1807347556130363, 3.548263916120247, -40.916721603029714, -45.3037386574909, 20.34757682289297, 10.311934541228874, -3.891005307711866], [-32.49719294068846, -6.139635726923871, -0.23042873309498724, 28.134302936055747, 33.69338992660721, -4.856094394224291, 29.929517721417316, -35.008780425579126, 15.456583600351125], [-11.67346714015404, -5.443718189315864, 11.128126892286149, -4.998680864590597, -14.384422048102447, -20.1429608136821, 80.35746534865409, -78.7057140355725, 20.911800564899654], [23.329706968661387, -0.4271167572155381, 24.206535446205045, 22.39552931780333, -25.449579373167097, -26.42435547865476, -11.51717855012736, -49.48888629130524, -3.8818854775008056]]], "networkBiases": [[1.0, 1.0, 1.0, 1.0, 1.0, 1.0, 1.0, 1.0], [1.0, 1.0, 1.0, 1.0, 1.0, 1.0, 1.0, 1.0, 1.0]]}