{"structure": [9, 8, 9], "networkWeights": [[[-1.2733174815381512, -43.9826959937845, -1.6205117822681543, 1.4540854322178083, 0.10446100443989703, 24.34158896688706, 8.88623165331644, 52.122282141641485], [-4.952985451054039, -1.3791050795457382, -13.807109743119419, -13.790417756518124, -8.321135827559921, -20.29150077891279, -18.390653713615563, -24.52825311155634], [-13.128614925092498, -4.327208510380462, 4.369282943092847, -13.704988149101881, -8.991224618018167, -6.04670661689934, 35.01097811264155, -9.535763743637162], [44.28890425534326, 18.637467135983215, 9.160156464343068, -13.880875494823984, 20.044340180248955, -1.3914882148149548, -6.386185327739095, 51.92428040004445], [-34.262436227057634, -5.962561333790555, -37.18264543158887, -2.824080090237766, -16.709200447103722, 18.486363325886963, 3.1276228946086477, 31.629023424482977], [1.4450198429853864, -26.232807218193397, 47.06215519514713, -14.821182721554234, 18.783154229506927, -28.79235810061704, 4.18301796118479, 41.52393910251899], [-10.233809921106443, 29.353733040897435, -30.35646883611472, 31.94697241074423, 25.978207538418197, -30.817618026170305, -12.800626125870949, 24.242257426669696], [-34.75434220152759, 42.96187500927993, -22.482580028291093, 28.20300265535998, -2.0657020981737153, -0.6357681392720476, 2.9220366771882347, -18.3831983543381], [-16.343019123134734, 21.661542586975116, 69.55162997293178, -19.820500207290603, 7.583778514513729, -22.119460234240442, -16.89183845120647, -23.36307028458699]], [[1.9909713001411484, -38.93450092447328, -16.272387659073498, -14.904368257934236, -39.06749909173694, -1.685930763798568, -1.640039206633543, -4.025578559953402, -21.395822082795007], [7.302877138128563, -0.6275279189780327, -17.189518287324862, -43.324284243540625, 52.48558166191882, 32.31673617962061, -36.021444355791694, 14.159018652499418, -10.889328645788964], [-44.57620945749183, -20.31310382873572, -9.897839827141226, -9.540416292599081, -41.3033734076127, 16.139866009439327, 14.656216428134744, 27.18759673224761, -21.729982244586733], [-30.18430313379907, 4.861319499587901, -3.164332581661923, 35.330247679010306, 12.701217005718826, -18.644635317138622, -31.778756861617246, -21.7988263248677, 49.380878626365934], [55.98019155498814, -22.560305026696664, 3.933999504108834, 4.463436654487124, -40.19355139440142, -45.105602581749324, 20.60939783074193, 9.71464168342129, -5.607620574485612], [-33.8440567377405, -6.368571965455164, -0.6171703612272181, 27.964929851107225, 32.42319696457289, -5.771762066356144, 30.750637878494967, -35.74046687049335, 17.330563562565924], [-10.249410689082097, -5.0974953915694226, 11.732418104174204, -4.851141618208766, -14.911145084919632, -20.040705720306406, 80.3821191345019, -77.32565539221545, 19.066520201471228], [22.969199339242046, -2.742790213618017, 25.227746316290517, 24.948893384906903, -25.770510961101, -26.914130944261778, -10.946028428034868, -49.4105573452199, -4.115468166686165]]], "networkBiases": [[-2.851033172107101, 2.7379374962345757, 1.9161830959192936, 2.1277869435406367, 1.5548906607441173, -0.48726206732341176, 1.7423121295050272, 6.745948644046876], [-1.3543272925457894, 6.281324048435136, -3.6291298089211494, -0.4029736414912142, 6.474590192448535, 2.4026568473927377, -3.5628374272463224, 1.8611545328160308, 0.9437008129521798]]}