{"structure": [9, 8, 9], "networkWeights": [[[-0.49727447954215853, -43.8352468664275, -1.175068305187766, 1.6898522236878695, 0.8340208601164091, 25.219432464196213, 9.163068016171316, 51.07479384795832], [-3.927043198958666, -2.023193233969929, -14.085971205958856, -13.776554901867689, -7.228177521631894, -19.880784662937316, -18.147474563660985, -23.62153491748765], [-12.640721420767933, -4.186835080539742, 5.02395697510589, -13.550564085089155, -7.843300449676585, -6.351293467510867, 34.90701467123409, -9.55074057150243], [44.60584302678363, 18.748278723817876, 10.819464106620979, -13.862291808147587, 20.30093789053557, -1.0307034995350015, -7.826378851814654, 53.10369866686064], [-34.76101169518428, -4.721638848119523, -36.45144820529686, -2.364289112066354, -16.318572026245715, 17.642505230533, 4.094684461675688, 31.057196097314428], [1.8631615374940436, -26.213096615060596, 47.368955233870686, -13.697316429104529, 19.24588031570002, -28.391982374708277, 4.175692180039896, 40.79437626852857], [-11.548417832827605, 29.097164931710676, -30.149576718569634, 32.52236702317066, 26.394557427652593, -30.527496413565014, -13.609394406284933, 24.947505926392925], [-35.12878109095123, 42.49290083269018, -23.649570099315135, 27.887701652992543, -1.0788595746661647, 0.14395607372132196, 2.329959912555298, -18.083459148126753], [-15.419347565573855, 22.376670056674985, 69.78895157656984, -20.915952835723, 7.71132528566164, -22.049406965860385, -16.388035800006694, -22.768272315425595]], [[2.502474811547404, -39.56128566846536, -15.113622040794358, -14.108913825287848, -41.04475250375413, -1.3437447727733376, -1.7953149046584005, -4.50491882782029, -22.39596498920482], [7.754512466432271, -0.6591820974995982, -17.429632164060685, -44.14055517305185, 51.87469231087139, 32.21366350056271, -36.65653324072495, 13.939171625805427, -10.061887354558952], [-45.771184821230946, -20.050354739258736, -10.769618174955525, -10.092534550097206, -40.09328280065599, 16.407419223836186, 15.040098727158226, 27.043068885846754, -21.89694245669784], [-31.601170324198353, 5.139963018568619, -2.282402203741656, 33.98289474702625, 12.249423041512742, -18.763591568309568, -31.876810799318775, -21.3449454173345, 48.7431355576393], [55.551855380583596, -22.338182772538612, 4.674230679699817, 4.819830157902219, -41.33046790916103, -44.975889521367186, 19.54550559288149, 10.204551275000947, -5.357282468322567], [-33.581819806065496, -6.488056525652796, 1.2204011119918492, 28.347913637255225, 33.28197233231038, -6.277779595269632, 30.81804854727226, -35.560776454616565, 17.007368148173562], [-10.737898272534391, -4.8346626152546195, 11.461119169666755, -4.601612381860342, -15.149639980096385, -18.273106445371766, 79.29225718557069, -76.17969145850832, 18.71960180583381], [23.54267824812964, -2.7876994320212853, 26.643971739545133, 26.07583086290189, -24.65929962113885, -27.05958946167806, -11.147457928353024, -48.9296087098901, -5.5106784947592695]]], "networkBiases": [[-2.392430037132112, 3.528373717910241, 5.091677315594138, 1.2986036624871666, 4.673306789887054, -1.499611148686892, 1.9259828030498989, 5.4291660875208105], [-3.9735356410241316, 6.604871726730414, -2.8147989959312114, -1.7052372369775075, 5.852813110864179, 2.425110917567396, -1.7569635415482663, 2.928277385760785, 2.3871547382180265]]}