{"structure": [9, 8, 9], "networkWeights": [[[-0.5762342368139662, -43.794623218737186, -1.2363270931625552, 1.794345087166597, 0.8573244456520449, 25.270042984548503, 9.162877790111496, 51.05413703739054], [-3.968300344564418, -1.82417035772998, -14.028415429291343, -13.736918121099931, -7.256501797532496, -19.8071090072529, -18.16470368309675, -23.603189725348294], [-12.470421756865719, -4.182916735766584, 5.21536633201575, -13.613147029648937, -7.722932683969874, -6.519390762862087, 35.03730903799105, -9.592587776123267], [44.79644734700528, 18.82719699279221, 10.816175389301494, -13.659549924467726, 20.300051574911155, -1.0048189044371723, -7.746297158884264, 52.987783456982825], [-34.73119380770658, -4.781353619416757, -36.50572097098068, -2.2793244737088756, -16.41421785944698, 17.71535446713088, 4.057051995170767, 31.003653994918146], [1.93393845820692, -26.173155394519185, 47.46218388677767, -13.684129985068177, 19.281385446499847, -28.294544112391176, 4.273007524210197, 40.76784176123821], [-11.585863359475704, 29.123501036476934, -30.249442150006423, 32.437814589783265, 26.33693602990815, -30.370734713543257, -13.539893139330706, 24.95503901329086], [-35.22986943582576, 42.427501639277594, -23.6344717325974, 27.960556927718223, -1.1776233206257931, 0.1768537776654644, 2.35447778502527, -18.020251125107013], [-15.51676375190419, 22.521712485106, 69.72816550184724, -20.945099801651498, 7.729263070164473, -21.85687627965308, -16.43653318800846, -22.680749714323074]], [[2.444308968252082, -39.42873738752861, -15.027987342417582, -14.09250294483143, -41.06789976412567, -1.2802277731702907, -1.6614843064114444, -4.55273378348732, -22.27598649345906], [7.719910067317008, -0.7324835759928376, -17.40257924253379, -44.15147556700957, 51.90842982163299, 32.23681181867033, -36.68391435555373, 14.00934162838482, -9.93807156599435], [-45.891566846162924, -19.85868097779655, -10.757728587025127, -9.993118629760113, -40.037172689140625, 16.558166776501402, 15.121406150302832, 27.02074194010003, -21.795634360910526], [-31.523406966880227, 5.064342615572523, -2.2620472441539476, 33.950639118214944, 12.270118768108972, -18.743858968783357, -31.9354361295437, -21.180279607694512, 48.728524073049144], [55.633038367895594, -22.406987532287793, 4.764519618415093, 4.870981634039013, -41.520822557409595, -44.85563393670997, 19.655715388313784, 10.262666083691325, -5.311837913721014], [-33.635592693643, -6.502995190989868, 1.3226751852868672, 28.387275423380636, 33.301239427860516, -6.3461443209777455, 30.737948432158415, -35.49597392116538, 16.95721916808136], [-10.759674618572168, -4.813710088869296, 11.430246304563875, -4.6022370232320835, -15.119995090743888, -18.09037638060472, 79.31625332966291, -76.33723529757633, 18.776927049887256], [23.520395707546907, -2.7954099282491187, 26.63209030883196, 26.163683126991113, -24.558728035212187, -26.91967321832714, -11.047192702433561, -48.927396799485805, -5.516184870067885]]], "networkBiases": [[-2.271884902408047, 3.5037977154040862, 5.000647924295725, 1.5957446767417043, 4.533022476947585, -1.7889930599327877, 1.5875994857372657, 5.193814691749163], [-4.101333963214597, 6.789315289973421, -2.82577262481179, -1.6730199213516035, 5.755969139791222, 2.4112951080332743, -1.3056014485763914, 3.217127787325873, 2.4262092412237193]]}