{"structure": [9, 8, 9], "networkWeights": [[[-1.5936723076774542, -43.91279874045696, -1.6120203288019503, 0.8810594100520595, 0.2480385172470731, 24.544224973578427, 9.31269176063391, 51.68392252801621], [-5.067144245701805, -1.7425614500179274, -14.637141622425986, -13.807564635650955, -8.267887657289583, -20.530778889571458, -18.457509372543807, -23.649242131160236], [-13.570134254158837, -3.5491497167599912, 4.378850266609414, -13.598181457373, -8.957392888338982, -6.552006287469881, 34.76675534264731, -9.36061546077263], [44.0532506461264, 18.830129751895925, 9.735919541688533, -13.102382038807228, 20.24513506732083, -1.472157614703491, -6.520236756850055, 52.76565890523941], [-34.591955361590266, -6.084781507989553, -37.29131807909998, -3.175702834662677, -16.4296133018864, 18.23730151608243, 3.6445563063233815, 31.237104241139942], [1.4054403672837485, -26.1916981287106, 47.30338387027967, -14.42719489468104, 19.031521937201205, -29.027396585781233, 4.957567689210519, 41.68178664013688], [-10.27352517336379, 29.631234232095597, -29.906475235296114, 32.41742966835567, 25.900026071559143, -30.580809363063853, -13.382537478620424, 23.845450035698345], [-34.332881418825544, 43.01049345754198, -22.73483737342806, 27.967037937664642, -1.1705030304322401, -0.09121990989514156, 2.3648119709258077, -18.295178753413207], [-15.49839729510109, 21.650275170740688, 68.86187938300588, -20.406360338982793, 7.445805152263272, -22.855279570260578, -17.02637715104319, -23.405356699220498]], [[2.070186465811904, -39.39937409398806, -15.720852575077906, -14.161349141648142, -39.07422221286786, -2.0112247706024453, -1.8501012528957195, -4.45884132176094, -21.892401867866468], [7.411487371082014, 0.18473077331406657, -17.015365290132515, -43.30816514748055, 52.23813775394321, 32.305674087379266, -36.198737505839446, 14.02421721982172, -10.219822834298109], [-45.07298569788094, -19.61972888292255, -9.666852557926035, -9.778243161050861, -40.79909188563426, 16.20949747200158, 13.589859305519182, 26.488948473881194, -21.096381642776635], [-30.476554268814805, 5.995875471874701, -3.298839503874561, 34.75757858042864, 12.484224290272026, -18.72990429402624, -31.32978408715632, -21.36956731275334, 48.89312664463156], [56.02910321916671, -22.738114045696467, 4.557163571770376, 4.420966316030717, -40.737348236467334, -44.80618338685067, 20.01928251049966, 9.224914171829475, -4.439527276044309], [-33.52389478890633, -6.246540202593377, -0.014352370622819743, 28.242538277250897, 32.81094435648718, -6.410105586960011, 31.09327371108952, -35.65638516867406, 17.300761230433704], [-10.542027169823601, -4.764194313028623, 11.821419245155102, -5.120515912484606, -14.221416445317546, -18.506290915813082, 79.39266736027272, -76.89905148428615, 18.28909991815976], [23.268680769057813, -3.6452214053627814, 26.401403542575277, 25.631927200816094, -25.27018516319719, -26.60054515246779, -11.279216689884226, -48.912053847025284, -4.27840615508747]]], "networkBiases": [[-2.831147403239118, 2.9400459166681445, 2.700745841703614, 1.6582497099688254, 1.9571312091766395, -0.04601344044513539, 3.2761154669253223, 7.383455275812748], [-2.1446900984431543, 5.502961099320476, -2.34557665658925, -1.859308373024822, 5.959053753520587, 3.4815984842181438, -2.612135873190787, 3.0389606966545633, 1.687931897067835]]}