{"structure": [9, 8, 9], "networkWeights": [[[-0.6558732846642688, -42.8600207565009, -1.7926154766892486, 3.16251185963557, -1.4738597472180004, 20.29666212602901, 8.63652980260321, 48.75856410652807], [-5.01885008208389, 0.829963255623803, -14.607531670623949, -13.960201386690686, -7.4734056325752, -17.421502511950667, -17.082462468317594, -23.792626905163775], [-15.148984331612507, -4.090345244177572, 3.8559943830288637, -12.33267941730266, -6.5138537370185094, -7.190768272977899, 33.00689443328535, -9.417422183841914], [44.00629149145675, 18.669946715402677, 9.296204419425129, -13.773338459076937, 22.207322768591553, -2.9919254755324323, -4.635015257340189, 53.14254401881807], [-35.54904322638146, -3.5031593790386055, -34.00916097471051, -1.2284433373702832, -17.82744446406404, 16.969220483141147, 4.222519028940945, 34.023298927575816], [0.5849413282850082, -28.268613354152578, 48.5300505750782, -17.069750326901982, 23.38239823480248, -28.84898640292854, 2.6340747347597038, 41.41452199817958], [-9.452948004678271, 30.568706611510144, -31.82289507574283, 31.40442007821215, 25.380432384855624, -29.285679834304183, -11.961603766099902, 27.272166948253236], [-35.721107439665836, 39.455394687319334, -20.055268003134536, 27.736399116881227, -4.0040895708711925, -3.8810367128939034, 0.1450055994650099, -15.378313371856391], [-19.469441938759402, 21.288799436965363, 69.70803042925824, -18.569797074004956, 9.49671284607232, -22.473814132214745, -18.456681468127513, -24.35286334941173]], [[2.3978159596661115, -36.59978062180077, -16.845166817840322, -14.294210384949878, -41.21248106311606, -1.9880664644198793, 0.35441657149230066, -4.650435834832815, -23.08720431055997], [6.587429836249829, -0.665216460005623, -17.244558634057224, -41.78180277099396, 47.97083894079992, 33.68551236158966, -35.37465982442002, 13.841747059353088, -11.08418524690246], [-43.49300574212045, -19.376822743038833, -12.978336226876548, -9.622970763781504, -39.48317122699082, 18.939245033132252, 16.67675709664325, 25.973867500054034, -19.91638090861247], [-29.771491346045465, 6.6358225905504655, -2.7953912829127665, 36.062429414076924, 11.112854392725268, -16.317061314800455, -34.93766252643636, -15.867623001338615, 50.98598801849579], [56.60868968922427, -23.282990435361782, 3.272451194729571, 4.236865787807893, -40.34912671180745, -43.57730500559173, 19.170674727888667, 12.099990097666241, -5.609195973157753], [-32.871403610111614, -5.411813897046316, 0.5702879166674129, 29.854595091886015, 33.423816879795666, -2.6687653123062556, 29.817105705507434, -36.105105802213366, 16.6204133968496], [-12.598006204685891, -6.417810414897788, 10.492869395113065, -7.974700832042334, -15.281301646616509, -20.652978592415504, 83.9396541490001, -75.96693084084093, 22.105068114966375], [22.476497459850663, -1.372585080631712, 23.197045016782408, 21.02895294015981, -26.447952289251205, -23.148004851771667, -14.718968967556895, -46.79872798472534, -2.885474079707948]]], "networkBiases": [[1.0, 1.0, 1.0, 1.0, 1.0, 1.0, 1.0, 1.0], [1.0, 1.0, 1.0, 1.0, 1.0, 1.0, 1.0, 1.0, 1.0]]}