{"structure": [9, 8, 9], "networkWeights": [[[-0.6151095705248646, -43.945385255780785, -1.1146192216654063, 1.9277204513598427, 0.8827469362752015, 25.250711445826795, 9.090368228590462, 51.195709952806304], [-4.042346615170159, -1.6603811315365422, -14.066535789289068, -13.658154657752418, -7.216546297244915, -19.825885926911134, -18.177203662287237, -23.61875967736424], [-12.383366475986863, -4.111305823082218, 5.22747269087615, -13.728072096960794, -7.732369676789808, -6.577678075693358, 35.11962360828646, -9.42745587526096], [44.67324155029476, 18.789649322182964, 10.884466926524299, -13.731753867670573, 20.353329883191297, -0.9385617299408204, -7.732141609475542, 52.9698693576789], [-34.75161981402622, -4.630720486762859, -36.53659865001641, -2.240477613817079, -16.426732825058338, 17.688771526941267, 3.973703911954669, 31.127369618663067], [2.0704901531765354, -26.123439143365584, 47.4062529135778, -13.643584534225965, 19.339435580174897, -28.434929355889544, 4.3267285163338745, 40.846247059666815], [-11.735950616465928, 29.10898127438105, -30.062880699646076, 32.4043377772674, 26.162763627830856, -30.27950562893498, -13.397654738312966, 25.019519325059726], [-35.23083691066637, 42.46911236300092, -23.771974168243982, 27.94400719015669, -1.2146240196860583, 0.17660088517612704, 2.3647192027779704, -18.148495587572945], [-15.476530064409936, 22.54377507194819, 69.76131690126749, -20.983998253017344, 7.691794559554763, -21.97624134356371, -16.442293864307427, -22.799411413204407]], [[2.4700108337487015, -39.439281637738226, -15.037706447499142, -14.153054446052248, -41.04236429611337, -1.3604594939516177, -1.529939187436127, -4.471146894618026, -22.22306338909505], [7.69611460897908, -0.6928873722285089, -17.393734327452687, -44.16638825005958, 51.92167015869269, 32.21865704322811, -36.61571804773899, 14.083172313163987, -9.978524491671253], [-45.94001064454415, -19.759655829060602, -10.780083545622468, -9.951743506180419, -40.058082942080055, 16.589245741398067, 15.158550435546044, 27.09379402290524, -21.838315403481744], [-31.61241907183651, 5.064150691561119, -2.163033113628029, 33.97414918314235, 12.291543850686926, -18.758131066592206, -31.956989816904837, -21.203811734546484, 48.720476885970236], [55.755516080509025, -22.268723699473213, 4.703219891892926, 4.853854407960135, -41.49737884811925, -44.726795642706406, 19.522487857790306, 10.35774797064307, -5.230672975196916], [-33.60270792024099, -6.559151622555509, 1.4730593037873505, 28.44559963179359, 33.335340848961664, -6.4387896275295295, 30.55701479775739, -35.40510628960977, 17.01089540366501], [-10.772678348779706, -4.825162702055944, 11.480108838447027, -4.550802157733175, -15.042885215528894, -18.09258354144025, 79.33855118024852, -76.27827033174022, 18.751503589707777], [23.5986106458978, -2.9055268469162625, 26.71223879060258, 26.122795510786915, -24.503504031674378, -26.976643810969538, -10.990281442520493, -48.88156086725406, -5.596309307227782]]], "networkBiases": [[-2.176855222915582, 3.053816437374163, 4.842421851020197, 1.7326855370861725, 4.771825472058833, -1.971502947687942, 1.8936310040678384, 5.106028753168785], [-3.7250577957609443, 6.595123622359851, -2.836409229907189, -2.12787329950791, 5.712080416490562, 2.6882863345049195, -1.3457781729017286, 3.2576563706104644, 2.4643753496459095]]}