{"structure": [9, 8, 9], "networkWeights": [[[-0.64746035535867, -43.945385255780785, -1.082347101313716, 1.9277204513598427, 0.8827469362752015, 25.250711445826795, 9.090368228590462, 51.195709952806304], [-3.992646574326593, -1.6651681378147138, -14.109827845053575, -13.657722235896749, -7.216546297244915, -19.825885926911134, -18.13266789154788, -23.61875967736424], [-12.383366475986863, -4.1369697363608795, 5.22747269087615, -13.678166563547352, -7.732369676789808, -6.577678075693358, 35.11962360828646, -9.42745587526096], [44.67324155029476, 18.75213454558914, 10.884466926524299, -13.731753867670573, 20.329900538867335, -0.9385617299408204, -7.732141609475542, 52.9698693576789], [-34.75161981402622, -4.630720486762859, -36.53659865001641, -2.240477613817079, -16.426732825058338, 17.688771526941267, 3.974509601445986, 31.151871243381077], [2.0704901531765354, -26.123439143365584, 47.4062529135778, -13.643584534225965, 19.339435580174897, -28.446089551406292, 4.3267285163338745, 40.846247059666815], [-11.735950616465928, 29.10898127438105, -30.062880699646076, 32.41299476264317, 26.177927259846836, -30.27950562893498, -13.397654738312966, 25.01543524397085], [-35.23083691066637, 42.46911236300092, -23.771974168243982, 27.947666326707832, -1.2473828237501332, 0.17660088517612704, 2.3895168021114075, -18.148495587572945], [-15.476530064409936, 22.54377507194819, 69.76131690126749, -20.983998253017344, 7.691794559554763, -21.97624134356371, -16.442293864307427, -22.799411413204407]], [[2.4700108337487015, -39.439281637738226, -15.037706447499142, -14.153054446052248, -41.04236429611337, -1.3604594939516177, -1.529939187436127, -4.471146894618026, -22.22306338909505], [7.680548880008092, -0.6734760787371568, -17.393734327452687, -44.16638825005958, 51.92167015869269, 32.21865704322811, -36.631321636537926, 14.083172313163987, -9.978524491671253], [-45.94001064454415, -19.759655829060602, -10.780083545622468, -9.998201419117656, -40.10351666242845, 16.589245741398067, 15.194067686251424, 27.09379402290524, -21.875942882722832], [-31.602807257299585, 5.064150691561119, -2.163033113628029, 33.97414918314235, 12.291543850686926, -18.83757554721228, -31.929714640811607, -21.203811734546484, 48.720476885970236], [55.755516080509025, -22.268723699473213, 4.703219891892926, 4.853854407960135, -41.49737884811925, -44.726795642706406, 19.47565470268452, 10.35774797064307, -5.230672975196916], [-33.60270792024099, -6.559151622555509, 1.4730593037873505, 28.435109580042596, 33.335340848961664, -6.4480470738191, 30.55701479775739, -35.40510628960977, 17.00703489239613], [-10.772678348779706, -4.8359414060408135, 11.480108838447027, -4.550802157733175, -15.042885215528894, -18.09258354144025, 79.29074698105359, -76.27827033174022, 18.751503589707777], [23.5986106458978, -2.9055268469162625, 26.71223879060258, 26.11404632696086, -24.503504031674378, -26.976643810969538, -10.990281442520493, -48.88156086725406, -5.596309307227782]]], "networkBiases": [[-2.1755135099096004, 3.0696800355753435, 4.842421851020197, 1.7909309905687825, 4.762832340214244, -1.9504941655984966, 1.93579178592223, 5.0477268916597415], [-3.739796444720034, 6.6733347573987745, -2.836409229907189, -2.0523537358328383, 5.738511133371243, 2.6768624972291737, -1.31312543665892, 3.2921678009275874, 2.494982015715955]]}