{"structure": [9, 8, 9], "networkWeights": [[[-0.6509807614496848, -43.945385255780785, -1.1146192216654063, 1.9277204513598427, 0.8827469362752015, 25.250711445826795, 9.090368228590462, 51.195709952806304], [-4.042346615170159, -1.6603811315365422, -14.066535789289068, -13.658154657752418, -7.216546297244915, -19.825885926911134, -18.177203662287237, -23.61875967736424], [-12.383366475986863, -4.1369697363608795, 5.22747269087615, -13.728072096960794, -7.732369676789808, -6.577678075693358, 35.11962360828646, -9.42745587526096], [44.67324155029476, 18.75213454558914, 10.884466926524299, -13.731753867670573, 20.329900538867335, -0.9385617299408204, -7.732141609475542, 52.9698693576789], [-34.75161981402622, -4.630720486762859, -36.53659865001641, -2.240477613817079, -16.426732825058338, 17.688771526941267, 4.015328111888466, 31.127369618663067], [2.0704901531765354, -26.123439143365584, 47.4062529135778, -13.643584534225965, 19.339435580174897, -28.434929355889544, 4.31020651411897, 40.846247059666815], [-11.735950616465928, 29.10898127438105, -30.062880699646076, 32.41299476264317, 26.162763627830856, -30.27950562893498, -13.397654738312966, 25.019519325059726], [-35.23083691066637, 42.46911236300092, -23.771974168243982, 27.94400719015669, -1.2146240196860583, 0.21508729126089632, 2.3647192027779704, -18.148495587572945], [-15.476530064409936, 22.54377507194819, 69.76131690126749, -20.983998253017344, 7.691794559554763, -21.97624134356371, -16.442293864307427, -22.799411413204407]], [[2.4700108337487015, -39.439281637738226, -15.037706447499142, -14.153054446052248, -41.04236429611337, -1.3604594939516177, -1.529939187436127, -4.471146894618026, -22.22306338909505], [7.69611460897908, -0.6734760787371568, -17.393734327452687, -44.12593647676685, 51.92167015869269, 32.21865704322811, -36.631321636537926, 14.083172313163987, -9.994391376496306], [-45.94001064454415, -19.759655829060602, -10.79259657824324, -9.97274681193211, -40.058082942080055, 16.589245741398067, 15.158550435546044, 27.09379402290524, -21.838315403481744], [-31.61241907183651, 5.064150691561119, -2.163033113628029, 33.97414918314235, 12.291543850686926, -18.758131066592206, -31.956989816904837, -21.203811734546484, 48.720476885970236], [55.755516080509025, -22.268723699473213, 4.703219891892926, 4.853854407960135, -41.49737884811925, -44.726795642706406, 19.522487857790306, 10.35774797064307, -5.230672975196916], [-33.60270792024099, -6.559151622555509, 1.4730593037873505, 28.44559963179359, 33.335340848961664, -6.4387896275295295, 30.55701479775739, -35.40510628960977, 16.91627655166403], [-10.772678348779706, -4.825162702055944, 11.480108838447027, -4.550802157733175, -15.080201396908953, -18.09258354144025, 79.33855118024852, -76.27827033174022, 18.751503589707777], [23.5986106458978, -2.9055268469162625, 26.681723447542137, 26.122795510786915, -24.503504031674378, -26.976643810969538, -10.990281442520493, -48.88156086725406, -5.596309307227782]]], "networkBiases": [[-2.176855222915582, 3.059876331005699, 4.857491863758444, 1.8283274438805548, 4.756395753534468, -1.971502947687942, 1.8936310040678384, 5.062119559714537], [-3.7250577957609443, 6.595123622359851, -2.836409229907189, -2.0523537358328383, 5.686556203591386, 2.7027823821456987, -1.3531812466414113, 3.2958649795594743, 2.4611593343240714]]}