{"structure": [9, 8, 9], "networkWeights": [[[-0.6637016804723277, -43.96900607884464, -1.0651446380431322, 1.9277204513598427, 0.8827469362752015, 25.256498444103524, 9.054613698995032, 51.16949793190123], [-3.9476286811867523, -1.6985349189256573, -14.051910959222951, -13.641076645285521, -7.216546297244915, -19.78179639727037, -18.19592290105887, -23.61875967736424], [-12.383366475986863, -4.1369697363608795, 5.196305236233677, -13.728072096960794, -7.732369676789808, -6.62195851776252, 35.15232633180894, -9.391175056000897], [44.70887704969414, 18.75213454558914, 10.83836121164111, -13.74791493157959, 20.353093288684583, -0.947037074893135, -7.7425374170699035, 52.9698693576789], [-34.76608854866983, -4.625928576987611, -36.46019753682057, -2.284764859386275, -16.35461164705523, 17.694657821742705, 4.018426446994858, 31.127369618663067], [2.0893311189089694, -26.10196195088163, 47.37099968017576, -13.643584534225965, 19.341179906894528, -28.394915547651426, 4.3086298434819295, 40.85988882185772], [-11.751767429545513, 29.078876859803902, -30.054293645191795, 32.47309490403374, 26.17115298346076, -30.29367018049277, -13.397654738312966, 25.04790473362208], [-35.28328455031403, 42.45330596414649, -23.80690759416222, 28.00974614118442, -1.168955183284259, 0.21508729126089632, 2.3647192027779704, -18.108177822599075], [-15.45742869704232, 22.45866136175121, 69.74146815428763, -20.935670968196813, 7.691794559554763, -21.97624134356371, -16.459102066641588, -22.664658757197]], [[2.4700108337487015, -39.50287182777565, -14.95119284550445, -14.17882135398175, -41.098497253126915, -1.3604594939516177, -1.4882334179674763, -4.429824694966372, -22.28424456325842], [7.675016935576103, -0.6734760787371568, -17.35626969923716, -44.12593647676685, 51.92167015869269, 32.20254680271061, -36.64582375560712, 14.138964422579157, -10.014607559286292], [-45.94001064454415, -19.783997569420336, -10.79259657824324, -9.927426115064277, -40.06715773557964, 16.589245741398067, 15.158550435546044, 27.120856942957744, -21.812209205859645], [-31.68576884432115, 5.070977876164212, -2.145880797480938, 33.95208835964051, 12.340132344185704, -18.620675320430724, -31.95083097925163, -21.207991984482913, 48.73371847101117], [55.7367595720545, -22.31274390828438, 4.703219891892926, 4.8696395639526235, -41.51027852952602, -44.691799826238686, 19.48822536085135, 10.370799412903803, -5.332021241952323], [-33.63084015554936, -6.609854286682699, 1.4452716783333837, 28.360259367993535, 33.29337973653027, -6.448271630712845, 30.597733142721125, -35.454298857915525, 16.93555082932356], [-10.832156347254687, -4.862964317530435, 11.529062435385912, -4.526288271618837, -15.08123271508261, -18.131180524251132, 79.37408975141277, -76.3095120004144, 18.751503589707777], [23.565875256434698, -2.925025388305746, 26.681723447542137, 26.132086508452662, -24.564065432928505, -27.004219700782844, -10.990281442520493, -48.836488168825554, -5.520228117536028]]], "networkBiases": [[-2.098011630635861, 3.121599920637142, 4.853064716862512, 1.9602067314670353, 4.58450045923991, -1.9024789791372736, 1.9983862402715196, 5.175006379156389], [-3.6215504043910083, 6.578251571566742, -2.825779456020961, -1.9925799471458028, 5.72480568660618, 2.6058955386775238, -1.4826549033047232, 3.163785078101243, 2.5915494383522715]]}