{"structure": [9, 8, 9], "networkWeights": [[[-1.426428856632742, -43.72948951583779, -1.3830161089908892, 1.1641939210668915, 0.33474308433010136, 24.914952964274892, 9.593909523890115, 51.46884357297096], [-4.578975450018075, -2.08634975244998, -14.49804735495093, -13.434015908422829, -8.159805176185333, -20.45952919582576, -18.35189572044872, -23.733438322545243], [-13.710547373618708, -3.6254334056585877, 4.488974746272238, -13.768371602074966, -8.548694208503614, -6.726793065390866, 34.818546718942294, -9.489552317470638], [44.0532506461264, 18.73872325818884, 10.37947903503306, -13.338387013463182, 19.953322040439467, -1.2444914452004434, -6.887652333288148, 52.51995259594039], [-34.591955361590266, -5.452827189494471, -37.33143923667289, -3.375401531428147, -16.693108091945497, 17.899159049921472, 4.201524087917087, 31.624494381113653], [1.645681827917305, -26.29484781279241, 47.29560036073419, -14.621541770615035, 19.221350870006056, -28.875350336039432, 5.021942373372564, 41.711614544464126], [-10.620586294151076, 29.63860166628926, -30.054112643937458, 32.55810436881536, 25.850612270767776, -30.67368006579139, -13.697569579959161, 23.972156210193987], [-34.763071334180516, 43.09641608600104, -23.371321626434117, 27.861645424244493, -1.1705030304322401, -0.09121990989514156, 2.3648119709258077, -17.99348960395608], [-15.49839729510109, 22.06057165085302, 69.26741025152008, -20.5186013981736, 7.605660308866167, -22.855279570260578, -16.945526954600844, -23.367427775633953]], [[2.0622969101259865, -39.24845475353651, -15.540868658432451, -14.173193868280007, -39.62997339329517, -2.1775406316094275, -1.9349830599132143, -4.500075727666009, -21.892401867866468], [7.38075304346123, 0.3638972063507575, -17.007533595140654, -43.39770912512604, 52.39116682147762, 32.11952842730067, -36.364982088326, 14.137834793731706, -9.665324690090957], [-44.86489189696977, -19.520452832393254, -9.415132763193418, -9.832308879756823, -40.68127350502869, 16.253356664589532, 14.31193898769312, 26.66938106856083, -21.2307981933239], [-30.569556491430255, 6.0568043104142895, -3.5741866957763535, 34.75104545586457, 12.005052867565185, -18.80747539332734, -31.21738740207838, -21.28970789967835, 49.13372968480944], [56.251260237881425, -22.844897112738472, 4.309733366745987, 4.358444245802575, -40.82392376736552, -44.740030185937265, 19.70722520530965, 9.547403189637441, -4.540411090570125], [-33.58223334377761, -6.246540202593377, -0.0058713830205505135, 28.153191145939747, 32.85457638473916, -6.752385644784594, 30.777422555853093, -36.10589886870281, 17.125898756583474], [-10.82074954840517, -4.571944002965422, 11.679070280022634, -5.120515912484606, -14.646603827625098, -18.499055720547528, 79.39266736027272, -76.70834964691429, 18.44554108204887], [23.513111662920352, -3.778485867617853, 26.290176016041933, 25.89728294999995, -25.116097607015103, -26.690061025672986, -11.36929822962079, -49.078812207314655, -4.0709337434413495]]], "networkBiases": [[-3.032223488381113, 3.117451366861689, 3.7974163751834387, 1.64178637277957, 2.2144948387771493, -0.33784877246322875, 3.173133731239167, 6.7339156029074605], [-4.421872348686464, 5.654571456294198, -1.353110707455709, -2.179510220854452, 5.7981425554329995, 4.158778221700521, -2.6519820531561002, 2.85340094693702, 1.7933716527008046]]}