{"structure": [9, 8, 9], "networkWeights": [[[-0.6504034016710012, -43.64102687892851, -1.2264894812723974, 1.6622980974159791, 0.902662591699387, 25.2840245803918, 8.842758992249752, 51.411162942606936], [-3.932973642889881, -1.5826663411070119, -14.19244608201436, -13.5939876456173, -7.447321725018223, -19.729818558055353, -18.147474563660985, -23.955018029148846], [-12.872807409886594, -4.201646117348205, 4.513986410223609, -13.086462395345889, -8.038093711803432, -6.2512118647979245, 34.81954884421952, -9.739346349153095], [44.35518144855342, 19.09884292635217, 10.478223098565538, -13.68980675533798, 20.201846719315352, -0.9671969754065286, -7.334528727488624, 53.1842883037797], [-34.8082415904997, -4.793579460117356, -36.318352846018456, -2.6173235798188688, -16.839808854933892, 17.86918297536409, 4.159917929921812, 31.171408061748274], [1.7998415264204448, -26.48022524910653, 47.219988417023124, -13.710777445246693, 19.27376388811686, -28.77781799968822, 4.641612350938975, 41.325240924906666], [-11.379797545841896, 29.13590130853811, -30.112430262672397, 32.67201188902126, 26.45085859862379, -30.533531349995283, -14.111368778118859, 24.469272213700016], [-34.77459634099302, 42.70937300590673, -23.333213802261596, 27.631924746648796, -1.0601090289216915, 0.3631447220734348, 2.2141257799147835, -17.607501714558065], [-15.481507901333334, 21.86273461776973, 69.79281593419343, -20.866788028014035, 7.823786339592826, -22.306770552162412, -16.813594505772596, -22.842176289765273]], [[2.345367033817, -39.5304580544134, -14.729371159689554, -14.192282267088025, -40.51983475667203, -1.739291595457349, -1.5543816269361899, -4.525589968875217, -22.284726786290197], [7.947124085600436, -0.5886755315423982, -17.306468275047806, -43.98785485104819, 51.960337245153745, 32.128526258030156, -36.418798142616666, 13.868967376410055, -10.130219100084402], [-45.19932815644738, -19.988240351849377, -10.059144873132846, -10.421288476300077, -40.110459388203026, 15.947856750708503, 14.747275047932431, 27.098458407481512, -21.714420790084805], [-31.192910640795784, 5.60513354084909, -2.405065019070589, 34.30495804090295, 12.024859490219013, -18.7140109405733, -31.851096455982127, -21.419112415662745, 49.14344304497036], [55.52249733107078, -22.35667314332437, 4.664749591745028, 4.674417362093769, -41.483762554136675, -44.52892392527165, 19.32329465640713, 9.924959200661261, -5.196148107202657], [-33.80427405988893, -6.568702774719318, 0.544577803486219, 28.725046826261995, 33.21556926680471, -6.3773893294664665, 30.53834878585722, -35.74765056085846, 16.878892072497806], [-10.79418224821373, -4.760049624793921, 12.063961166856258, -4.5641949538314215, -15.089029884780814, -18.434236057108347, 79.41172690937451, -76.37170897222556, 18.018890407924918], [23.540435661383963, -3.276962983957167, 26.641089061758745, 25.78278437225807, -25.067744565282887, -27.14878669725963, -10.96397704990699, -48.91561617015709, -5.503969811152114]]], "networkBiases": [[-2.760342993506936, 2.762199428099333, 4.56443074222904, 1.7470890168950726, 5.5851273115653335, -0.4137941497904102, 2.581287693929577, 5.482007110293143], [-3.5365040773387735, 6.028072931258932, -2.4787987147710604, -1.8179406719603568, 5.421336470298367, 2.1269656333494087, -2.753146851196167, 2.237140896162293, 1.961204402315287]]}