{"structure": [9, 8, 9], "networkWeights": [[[-0.6504034016710012, -43.74420531322036, -1.4704330320100003, 1.577074475841364, 0.902662591699387, 25.2840245803918, 8.842758992249752, 51.411162942606936], [-3.932973642889881, -1.5826663411070119, -14.19244608201436, -13.5939876456173, -7.447321725018223, -19.976302779844275, -18.147474563660985, -23.98077832544103], [-12.872807409886594, -4.433197699584217, 4.513986410223609, -13.086462395345889, -7.994232856540286, -6.302284164428094, 34.81954884421952, -9.739346349153095], [44.47278362860412, 19.09884292635217, 10.478223098565538, -13.68980675533798, 20.201846719315352, -0.9671969754065286, -7.334528727488624, 53.1842883037797], [-34.8082415904997, -4.9517213628923935, -36.47888996175942, -2.6173235798188688, -16.839808854933892, 17.97045511990225, 4.159917929921812, 31.171408061748274], [2.090138084019284, -26.48022524910653, 47.219988417023124, -13.710777445246693, 19.431092224319425, -28.77781799968822, 4.641612350938975, 41.325240924906666], [-11.646597666674383, 29.13590130853811, -30.112430262672397, 32.480420359272784, 26.45085859862379, -30.687618562815935, -14.111368778118859, 24.469272213700016], [-34.77459634099302, 42.67385654997522, -23.333213802261596, 27.631924746648796, -1.0601090289216915, 0.1420366243529375, 2.2141257799147835, -17.607501714558065], [-15.83813327637121, 21.86273461776973, 69.79281593419343, -20.891854081895673, 7.823786339592826, -22.306770552162412, -16.62239326836, -22.752811325490782]], [[2.345367033817, -39.5304580544134, -14.729371159689554, -14.192282267088025, -40.51983475667203, -1.8259768052203496, -1.5543816269361899, -4.525589968875217, -22.284726786290197], [7.797643829355209, -0.5886755315423982, -17.39285873948694, -43.98785485104819, 52.060427619338874, 32.128526258030156, -36.52119535197379, 14.048709076733253, -10.130219100084402], [-45.19932815644738, -19.51449443357138, -10.059144873132846, -10.421288476300077, -40.12587141788527, 15.947856750708503, 14.747275047932431, 27.187504540083122, -21.714420790084805], [-31.192910640795784, 5.60513354084909, -2.405065019070589, 34.30495804090295, 12.184221204057739, -18.7140109405733, -31.851096455982127, -21.419112415662745, 49.14344304497036], [55.59547571417347, -22.35667314332437, 4.664749591745028, 4.674417362093769, -41.483762554136675, -44.52892392527165, 19.32329465640713, 9.691991627573325, -5.156901547803358], [-33.80427405988893, -6.568702774719318, 0.7088922037462421, 28.512696025762487, 33.022422788040274, -6.199963507038143, 30.53834878585722, -35.74765056085846, 16.878892072497806], [-10.79418224821373, -4.760049624793921, 12.063961166856258, -4.782052288318555, -15.089029884780814, -18.434236057108347, 79.41172690937451, -76.37170897222556, 18.018890407924918], [23.540435661383963, -3.3755260190985985, 26.52684568888403, 25.78278437225807, -25.067744565282887, -27.107097993077065, -10.96397704990699, -48.91561617015709, -5.503969811152114]]], "networkBiases": [[-3.1437938884244896, 3.488421962303571, 4.571667139359189, 1.7470890168950726, 5.513664796004631, -0.13840228898011842, 3.1255336877539053, 5.662743011892905], [-3.5655895696877598, 6.4661996851912535, -2.412677136723101, -1.9364838156947837, 5.171813346006866, 2.27277283162497, -2.5103787749250395, 2.2118287513702404, 1.9146897744822136]]}