{"structure": [9, 8, 9], "networkWeights": [[[-0.6798951493343138, -43.874416753981265, -1.10821683190435, 1.943984244073782, 0.9604654076297388, 25.256498444103524, 9.07758943715831, 51.247284268228505], [-3.9684770774036817, -1.70670991202979, -14.028958816046735, -13.688298864532094, -7.197362771372638, -19.822480129832602, -18.142791320845607, -23.597160004638425], [-12.363489853312748, -4.15141900602496, 5.1667602868326465, -13.758501409436029, -7.836937908524044, -6.585218110870831, 35.24051072487783, -9.425347581834327], [44.68883595414578, 18.84543223049094, 10.782984326947847, -13.796696882882099, 20.364292937007704, -0.9015283890368961, -7.763816648067373, 52.95931217895914], [-34.79100482050841, -4.589512040955526, -36.46019753682057, -2.1469512713735455, -16.39323329164413, 17.712849415741744, 4.000722533399629, 31.18336119027798], [2.0893311189089694, -26.189848080923202, 47.291031419553676, -13.602798647486017, 19.29249192074837, -28.45380716875078, 4.353212327306332, 40.8631043704555], [-11.766585795177816, 29.033332814729235, -30.060218974144053, 32.52943237721132, 26.16133621041585, -30.29367018049277, -13.30488080861151, 25.043665768702983], [-35.31274495421428, 42.538569613807105, -23.711408160195944, 27.998704063595294, -1.2377993459636578, 0.13048451314444529, 2.359829697130823, -18.122007138857136], [-15.412271536519846, 22.466966352401652, 69.80406292217138, -21.01662273025044, 7.691794559554763, -21.97624134356371, -16.422119778257986, -22.664658757197]], [[2.519630667180264, -39.49731349969289, -14.975986403908978, -14.160317789912678, -41.107831884743916, -1.355828623919857, -1.476950464182428, -4.436046252678438, -22.28705692826235], [7.687475992971167, -0.6641865044930915, -17.468376953309217, -44.14028401751736, 51.88736681885316, 32.27044355142057, -36.62351825416092, 14.165317031278102, -10.016729119561528], [-45.94001064454415, -19.72323082466021, -10.821728085801132, -9.956704493005386, -40.06715773557964, 16.516275846062342, 15.131094211044559, 27.03566027626423, -21.92073867567657], [-31.730353531042024, 5.025616752670481, -2.1645543000448972, 33.88544201583324, 12.29836041382818, -18.63821147913901, -31.95083097925163, -21.330524315619115, 48.75873618632975], [55.71698200085207, -22.3067793562562, 4.640169653472926, 4.880847510699795, -41.46795074883731, -44.73842628393423, 19.480624694328988, 10.429008370996078, -5.332021241952323], [-33.63084015554936, -6.627840829416607, 1.4827219906783555, 28.312586392930328, 33.378871441141655, -6.543237382690473, 30.559999131373782, -35.4622852000085, 16.93548725914242], [-10.84901445292368, -4.832088623051871, 11.510835563239704, -4.415416681259985, -15.099283098555699, -18.085383433299903, 79.42652720050167, -76.32507966962805, 18.711357558546517], [23.594711925285875, -2.860935481188114, 26.688723007458368, 26.16198342401816, -24.62245278874258, -26.989330169859805, -10.959180598311674, -48.80115212256079, -5.508665124749017]]], "networkBiases": [[-2.1914850611833923, 2.87514798996317, 4.836343750244018, 1.8548047436839996, 4.623210043918051, -1.7436345555420998, 1.8995409972338644, 4.796875436318239], [-3.7394099357500536, 6.638903515896337, -2.6665099913915102, -2.023187236151667, 5.5641586346352785, 2.817456036379008, -1.4366071519385912, 2.9908712362848475, 2.630737993742263]]}