{"structure": [9, 8, 9], "networkWeights": [[[-0.6798951493343138, -43.85566810700706, -1.10821683190435, 1.943984244073782, 0.9604654076297388, 25.256498444103524, 9.07758943715831, 51.28564838750948], [-3.9684770774036817, -1.6985349189256573, -14.028958816046735, -13.688298864532094, -7.197362771372638, -19.822480129832602, -18.10138011181961, -23.597160004638425], [-12.363489853312748, -4.15141900602496, 5.210788635905493, -13.758501409436029, -7.81272715184078, -6.573432781344961, 35.24051072487783, -9.425347581834327], [44.65254636379911, 18.84543223049094, 10.809508447084898, -13.783881542199216, 20.317405113346364, -0.9015283890368961, -7.763816648067373, 52.95931217895914], [-34.79100482050841, -4.589512040955526, -36.46019753682057, -2.1469512713735455, -16.39323329164413, 17.712849415741744, 3.967523267740374, 31.114083828024327], [2.0893311189089694, -26.21417054854968, 47.24642236451663, -13.602798647486017, 19.29249192074837, -28.45380716875078, 4.353212327306332, 40.85832581064108], [-11.766585795177816, 29.033332814729235, -30.060218974144053, 32.52943237721132, 26.16133621041585, -30.29367018049277, -13.26760129726846, 25.043665768702983], [-35.32263217499076, 42.538569613807105, -23.711408160195944, 27.998704063595294, -1.2505004363842582, 0.13048451314444529, 2.358012071348878, -18.122007138857136], [-15.406081918882494, 22.42758154563217, 69.78342422007833, -21.01662273025044, 7.691794559554763, -21.97624134356371, -16.422119778257986, -22.664658757197]], [[2.519630667180264, -39.49731349969289, -14.975986403908978, -14.160317789912678, -41.07649003788623, -1.355828623919857, -1.4101430950577383, -4.454580559643222, -22.28705692826235], [7.687475992971167, -0.6641865044930915, -17.441534270787482, -44.152306066525085, 51.88736681885316, 32.27044355142057, -36.62351825416092, 14.193973477985125, -10.042022581676635], [-45.91400146147913, -19.72323082466021, -10.821728085801132, -9.956704493005386, -40.07718289977602, 16.516275846062342, 15.131094211044559, 26.998000946759504, -21.91005762344143], [-31.730353531042024, 5.025616752670481, -2.1762337434241292, 33.972648787095174, 12.320331527120308, -18.60858413560482, -31.95083097925163, -21.330524315619115, 48.75873618632975], [55.71698200085207, -22.3067793562562, 4.640169653472926, 4.880847510699795, -41.46795074883731, -44.73842628393423, 19.480624694328988, 10.429008370996078, -5.332021241952323], [-33.63084015554936, -6.627840829416607, 1.4827219906783555, 28.312586392930328, 33.378871441141655, -6.508428371647679, 30.559999131373782, -35.49681679732696, 16.93548725914242], [-10.84901445292368, -4.86983246265313, 11.50803429527453, -4.415416681259985, -15.099283098555699, -18.085383433299903, 79.39696316028748, -76.32507966962805, 18.736052778194708], [23.579778593633115, -2.860935481188114, 26.688723007458368, 26.16198342401816, -24.62245278874258, -26.989330169859805, -10.951049991712754, -48.80115212256079, -5.508665124749017]]], "networkBiases": [[-2.2716249187885946, 2.9119369411294906, 4.885396704121875, 1.8030485561143481, 4.664589243059425, -1.750338833480006, 1.9154363563159957, 4.851027137151528], [-3.715909780805113, 6.557121728324673, -2.6092173632934337, -2.08854366435063, 5.486522535918812, 2.787160376148139, -1.4374697388191122, 3.0236425810775556, 2.5719814136937194]]}