{"structure": [9, 8, 9], "networkWeights": [[[13.017063691530215, 2.5623527729080453, -3.851640799052883, 1.2506488823693347, -3.0994003644272476, 20.4084206606485, 8.225385357886465, 6.633886233141066], [2.6583417977633292, 7.290780565919259, 3.2796917195554265, 5.558663239668833, -1.5294412480821178, -17.041828245986814, 5.6129450555811715, 7.590363769539432], [-4.567004538618559, 15.194224488145101, -6.485660892182527, -14.271774758965847, -7.320103916816747, -8.758928284577475, 8.470122156357991, -2.6061175259488527], [-12.934879518559514, 6.827599208469623, -6.2099509776539366, -0.9046636071640735, -6.247836986021682, -5.933970837598838, -13.71547407545395, 25.00961975916965], [-19.20531591302635, 1.851592630229521, -9.920052812191289, 3.151393128410164, -0.04080595889808092, -6.090689640640021, 10.115512500203632, 11.952790661973468], [-6.438188300814829, -10.15336830197214, 11.19677153938035, -12.588255413082358, 1.4748361510382062, -5.161204168715945, 12.921763788809054, 9.612193741445575], [12.350834998693323, 3.8196104346248694, -13.663025229741665, 16.969734640584043, 9.584951955533391, -23.518778873846617, -13.057038168044507, 19.093122828693613], [-3.1984667137934473, 12.435422869571688, 0.31655630775852606, 7.874861148861731, 3.1432298949760753, -3.840820974529204, 8.032461270724557, 5.367436567045395], [0.6019123609261483, 3.7543010340902248, 17.167428504249838, 6.485707770037985, -24.681726929997527, -3.134401384393418, -8.126693649740472, 7.399646167695218]], [[10.750403677662462, -8.644395325139856, -7.329890125704316, -4.569849494707731, -10.346862163480044, -5.60836555208822, -12.203400709605132, -2.6767509418848774, -0.12455567855157801], [-0.5099815139780648, -6.413443283495379, -0.8014809238315903, -1.1715201007215177, -0.22108741977782254, 21.355456552333514, -3.9945679939402075, 10.92350459242537, -0.18678775687586757], [-7.522241243930453, 5.328917714174116, 28.013805530551622, 1.3042908000157343, -16.064849579111737, 11.477972463366235, 28.154662589185143, -1.918930802769075, -5.668409104703325], [-8.031337380994811, -1.9143235726152374, 1.8151419073254953, -4.260684789662475, -11.825309883731933, -2.8005166114732485, -8.930392228111886, -4.531696321074337, 11.342119606981969], [11.38135091124487, -6.039246035862455, -2.0815799748464388, -0.8209299954387663, -13.726173334878911, -8.34829615623724, 13.484346589572207, 13.9210319779829, -0.7347869504899986], [-10.140118657932613, -1.1950964262997936, 2.586987385641213, 25.209593491055713, 11.249036953528986, 5.585406180230106, 12.948927394370102, -12.735749006603976, -12.337630142478488], [5.259002138427428, -6.278495321312386, 4.760954856684275, -1.628946469004905, 0.3821051090738745, -32.58768911569598, 11.962369938627415, -9.097969983598892, 12.746613342031273], [-1.3636117255189328, -1.479195991163358, -8.641820963012936, 15.738785877629516, -15.217285673724183, -16.739717188879244, -8.498599178483174, -15.56586823410483, 0.629952395758411]]], "networkBiases": [[1.0, 1.0, 1.0, 1.0, 1.0, 1.0, 1.0, 1.0], [1.0, 1.0, 1.0, 1.0, 1.0, 1.0, 1.0, 1.0, 1.0]]}