{"structure": [9, 8, 9], "networkWeights": [[[13.017063691530215, 2.5623527729080453, -3.851640799052883, 1.0748617196174888, -3.0994003644272476, 20.4084206606485, 8.225385357886465, 7.040242857039977], [2.6583417977633292, 7.290780565919259, 2.4270954701236938, 5.558663239668833, -1.5294412480821178, -17.061087959136568, 4.8159012086264985, 7.590363769539432], [-4.567004538618559, 16.49879805199784, -6.485660892182527, -14.271774758965847, -6.462013854899716, -8.758928284577475, 8.470122156357991, -2.6061175259488527], [-12.934879518559514, 6.827599208469623, -6.2099509776539366, -1.3278361133918837, -6.247836986021682, -5.933970837598838, -13.71547407545395, 25.00961975916965], [-19.20531591302635, 1.851592630229521, -10.831907806623853, 3.151393128410164, -0.04080595889808092, -6.090689640640021, 10.115512500203632, 11.952790661973468], [-5.869599674862056, -10.15336830197214, 11.19677153938035, -13.443589385269556, 1.4748361510382062, -5.161204168715945, 12.921763788809054, 10.347590776810845], [12.350834998693323, 3.8196104346248694, -13.663025229741665, 16.969734640584043, 9.584951955533391, -23.518778873846617, -13.057038168044507, 19.093122828693613], [-3.1984667137934473, 12.435422869571688, 0.11206818349522174, 7.874861148861731, 3.6146358388006847, -3.840820974529204, 8.880080296324328, 5.367436567045395], [0.6579545506719706, 3.7543010340902248, 17.95529766518318, 6.485707770037985, -24.681726929997527, -3.134401384393418, -8.126693649740472, 6.003029776869007]], [[11.502502271021228, -8.644395325139856, -7.329890125704316, -4.569849494707731, -9.73295227540419, -5.60836555208822, -12.203400709605132, -2.6767509418848774, -0.12455567855157801], [-0.5099815139780648, -6.413443283495379, -0.8014809238315903, -1.1715201007215177, 0.6394467792822971, 21.355456552333514, -3.9945679939402075, 10.92350459242537, -0.18678775687586757], [-7.522241243930453, 5.210840287085498, 27.345772219494883, 1.3042908000157343, -16.064849579111737, 11.477972463366235, 28.154662589185143, -1.0140618653844131, -5.668409104703325], [-8.031337380994811, -1.9143235726152374, 1.8151419073254953, -4.260684789662475, -11.825309883731933, -2.8005166114732485, -8.930392228111886, -4.531696321074337, 11.342119606981969], [11.38135091124487, -6.039246035862455, -2.0815799748464388, -0.8209299954387663, -14.059632008231556, -8.34829615623724, 13.816157698826808, 13.9210319779829, -0.11244801275447602], [-9.72664446289405, -1.1950964262997936, 2.586987385641213, 25.209593491055713, 11.249036953528986, 5.585406180230106, 12.948927394370102, -12.735749006603976, -12.337630142478488], [5.259002138427428, -6.278495321312386, 4.760954856684275, -0.7255204791499126, 0.3821051090738745, -32.58768911569598, 11.962369938627415, -9.093880070927842, 13.053124927704708], [-1.3636117255189328, -1.479195991163358, -8.641820963012936, 14.8626408244905, -15.217285673724183, -16.739717188879244, -8.263668744359478, -15.56586823410483, 0.01844959318429651]]], "networkBiases": [[1.0, 1.0, 1.0, 1.0, 1.0, 1.0, 1.0, 1.0], [1.0, 1.0, 1.0, 1.0, 1.0, 1.0, 1.0, 1.0, 1.0]]}