{"structure": [9, 8, 9], "networkWeights": [[[12.868109447005429, 2.5623527729080453, -3.046005660077958, 1.4869275378596452, -4.01703764569195, 21.633946736575588, 8.225385357886465, 6.414234257798261], [2.2172736399702346, 7.290780565919259, 3.63274820270327, 5.558663239668833, -0.9043231293879981, -17.041828245986814, 6.036524601643544, 7.590363769539432], [-3.6721613479077213, 15.194224488145101, -6.993646545301129, -14.271774758965847, -6.233973530623628, -8.656350659041848, 7.536490731737273, -2.870080845975611], [-13.806830022308306, 6.827599208469623, -6.555064765969723, -1.283207937801687, -6.247836986021682, -6.473436625547715, -13.71547407545395, 25.00961975916965], [-19.61523992929131, 1.666041757355836, -10.831907806623853, 3.6288948638575773, 0.5295499549987459, -6.090689640640021, 10.442800986938948, 11.952790661973468], [-7.009812596862997, -10.997284215041718, 10.845419810749425, -12.149897201720577, 2.204439260954146, -4.547429607682172, 12.921763788809054, 9.808877865021529], [13.428061613113483, 4.282057037036974, -13.883886292122693, 17.243567064161283, 9.584951955533391, -23.518778873846617, -13.057038168044507, 19.093122828693613], [-3.1984667137934473, 13.40268988996658, 0.11206818349522174, 8.328234088451985, 2.838570609118899, -3.987740221796578, 7.557560898123012, 5.616879890216116], [-0.0915317931911519, 5.034897026130644, 17.167428504249838, 6.199843044461695, -24.681726929997527, -3.5256671989290123, -8.30496727116121, 6.621864842674553]], [[10.581496228178649, -8.499697930885482, -8.01533835130483, -5.129765519995318, -9.73295227540419, -5.60836555208822, -12.237584722074974, -2.6767509418848774, -0.12455567855157801], [0.0568042747808446, -6.413443283495379, -1.6529934357596536, -1.1715201007215177, 0.6394467792822971, 21.355456552333514, -4.598141146630038, 10.544305204768676, 0.1643027951931495], [-7.593994380173637, 5.676527074624435, 26.62301146321573, 0.9386374840825908, -15.376923192653308, 11.969058234454167, 29.019118321509637, -1.1293480114388585, -5.348875365642115], [-6.760766512150436, -1.5887238822197682, 1.8151419073254953, -4.260684789662475, -11.962085360699371, -3.1006751930820746, -8.930392228111886, -5.1948632042363165, 10.35401143468577], [10.77667130738284, -7.2066129724124615, -2.0335173209322086, -1.1376592439153306, -13.526094516927987, -9.072568898903834, 12.93361962792519, 14.897897462991953, 0.11281322422670681], [-8.790269047882711, 0.40895952478822784, 2.586987385641213, 24.32083551212285, 11.543759861561602, 6.379524725161641, 12.255234511879234, -12.735749006603976, -11.907876811815237], [5.259002138427428, -6.577133398547735, 5.4268157878669285, -0.401714518191552, 0.3821051090738745, -32.58768911569598, 11.962369938627415, -9.093880070927842, 14.015773544377826], [-2.2941969993536633, -1.479195991163358, -8.641820963012936, 14.42153279913209, -15.217285673724183, -19.672077061684167, -8.349135383398725, -14.69557123471789, 0.01844959318429651]]], "networkBiases": [[1.0, 1.0, 1.0, 1.0, 1.0, 1.0, 1.0, 1.0], [1.0, 1.0, 1.0, 1.0, 1.0, 1.0, 1.0, 1.0, 1.0]]}