{"structure": [9, 8, 9], "networkWeights": [[[13.147085668332622, 2.5623527729080453, -2.7767339283545422, 1.9514535682316643, -3.470942934116694, 20.4084206606485, 8.225385357886465, 6.414234257798261], [2.916190368352848, 7.290780565919259, 3.2979123510006776, 5.558663239668833, -1.0647432559458, -17.041828245986814, 6.036524601643544, 7.590363769539432], [-3.6721613479077213, 15.194224488145101, -5.742712976899014, -14.271774758965847, -6.462013854899716, -8.656350659041848, 7.536490731737273, -2.116555181149711], [-13.806830022308306, 6.827599208469623, -6.555064765969723, -1.283207937801687, -6.247836986021682, -6.473436625547715, -13.71547407545395, 25.00961975916965], [-19.61523992929131, 1.666041757355836, -10.831907806623853, 3.6288948638575773, 0.0720177145534513, -6.090689640640021, 10.442800986938948, 11.952790661973468], [-7.009812596862997, -10.77179214111707, 11.65573349733349, -12.149897201720577, 1.6024293834274053, -4.547429607682172, 12.921763788809054, 9.55985005735949], [12.981293232303655, 4.282057037036974, -13.883886292122693, 16.555702203381166, 9.584951955533391, -23.518778873846617, -13.057038168044507, 19.326733860801887], [-3.1984667137934473, 13.919554962704195, 0.11206818349522174, 7.874861148861731, 2.838570609118899, -3.987740221796578, 8.130141179343221, 5.616879890216116], [-0.0915317931911519, 5.034897026130644, 17.634011931123144, 6.199843044461695, -23.72972105134376, -3.134401384393418, -8.535581410863337, 7.036328220596801]], [[10.581496228178649, -8.499697930885482, -8.01533835130483, -4.569849494707731, -9.73295227540419, -5.60836555208822, -12.237584722074974, -2.6767509418848774, -0.12455567855157801], [0.0568042747808446, -6.413443283495379, -1.6529934357596536, -1.1715201007215177, 0.6394467792822971, 21.355456552333514, -3.9945679939402075, 10.286250754352002, 0.1643027951931495], [-7.9385458231329284, 5.210840287085498, 26.295011844921692, 1.0479684769684217, -16.955145223277604, 11.969058234454167, 28.154662589185143, -1.0140618653844131, -5.348875365642115], [-7.368823888037268, -1.5046437750229151, 1.8151419073254953, -5.046381168046794, -11.962085360699371, -3.1006751930820746, -8.930392228111886, -5.1948632042363165, 11.342119606981969], [10.77667130738284, -6.261567958254635, -2.0335173209322086, -1.1376592439153306, -13.526094516927987, -9.072568898903834, 13.484346589572207, 14.897897462991953, 0.11281322422670681], [-8.790269047882711, 1.0161139351210409, 2.586987385641213, 24.32083551212285, 12.125516717743821, 6.379524725161641, 12.20286967387911, -12.254835939962298, -11.907876811815237], [5.259002138427428, -6.278495321312386, 5.4268157878669285, -1.35502777496663, 0.3821051090738745, -32.58768911569598, 11.962369938627415, -9.093880070927842, 14.015773544377826], [-2.2941969993536633, -1.479195991163358, -8.641820963012936, 14.42153279913209, -15.106465306684619, -19.434594310786828, -8.349135383398725, -14.69557123471789, -0.3593568597521266]]], "networkBiases": [[1.0, 1.0, 1.0, 1.0, 1.0, 1.0, 1.0, 1.0], [1.0, 1.0, 1.0, 1.0, 1.0, 1.0, 1.0, 1.0, 1.0]]}