{"structure": [9, 8, 9], "networkWeights": [[[-1.7086838194078453, -43.88992322286874, -1.4462380108538326, 1.0402763627961473, -0.4057558674439148, 24.585784107866736, 8.651020414624057, 52.122282141641485], [-4.890040801515325, -1.5205759460063435, -14.396052780710939, -13.790417756518124, -8.187426878166091, -20.156087406130812, -18.412617986330105, -24.02996291736502], [-13.549496168261802, -4.226084808751477, 4.298420145384102, -13.749105516648036, -8.748616032425256, -6.194795300107518, 34.84297648888793, -9.754980291072114], [44.02761886160297, 18.637467135983215, 9.245273037325354, -13.642686463391708, 20.559432283684266, -1.3888684284573283, -6.546946532514665, 52.076338914260155], [-34.065301990239064, -6.152974207042216, -37.45410939819557, -2.6642489874538033, -16.363310849384703, 18.46136665938189, 3.8174151818073905, 31.303436449958845], [1.4076989616625766, -25.948231222097608, 47.17166517341056, -14.776792954868588, 19.02133427642436, -28.894321331796014, 4.031010240242454, 41.19289844801584], [-10.458482590831393, 29.408582303339895, -30.373585062134143, 32.27398110169029, 26.176907509361293, -30.636812929662245, -12.997540328478443, 24.242257426669696], [-35.06131792814155, 42.857647309908565, -22.110905420986942, 28.019647166703365, -1.98993751691321, -0.34188417724330333, 2.3947891321484307, -18.393005556496718], [-16.053361676369303, 21.811557932623266, 69.28056347596113, -19.960604535405565, 7.630462351200933, -22.1520006764303, -16.76762535673482, -23.491440811814563]], [[1.7733647644861195, -38.734079927591885, -16.535135193157245, -14.904368257934236, -38.723797739856224, -2.059914098860404, -1.7149803862980195, -3.9743658916915505, -21.331900983202548], [7.399619717810952, -0.6275279189780327, -17.177468668739746, -43.558305062025994, 52.356146039481565, 32.37403894771403, -36.021444355791694, 13.956578835499322, -10.644186375706308], [-45.008758617170784, -20.31310382873572, -9.72163499146165, -9.71037476680184, -41.047848470149304, 16.313583340469847, 14.387685042546876, 26.88728733474909, -21.529384643506955], [-30.3160472898223, 4.9303496049443565, -3.185026116425336, 34.78444998965191, 12.683548237891527, -18.512321691194288, -31.778756861617246, -21.800495496630102, 49.164128142298544], [55.80365532459501, -22.560305026696664, 3.840836610301242, 4.770601856048439, -40.42091071030239, -45.11306677734137, 20.622033241021818, 9.780634164697174, -5.553801355017384], [-33.8225430814651, -6.247157650610857, -0.605451658848968, 28.076098444322746, 32.4890585932741, -5.561237976781749, 30.87771683300011, -36.050126200647256, 17.358006182313268], [-10.464137749307977, -4.821070911668703, 12.135428771776738, -4.838432917914759, -14.80217753825373, -19.954897310795687, 80.22429277511948, -77.39254650759018, 18.82925049886386], [23.485733089403773, -2.8129369916408016, 25.200224712132, 25.273483959823775, -25.467154162261334, -27.06742839618948, -11.244679740322232, -49.3985242692718, -4.005968170511872]]], "networkBiases": [[-3.796412063155769, 2.915849854659663, 2.1180552821235885, 2.2130574733324146, 1.8853045828609272, -0.24507052999229062, 3.110733865776232, 6.852559762937425], [-1.0019762617240853, 5.519973881818908, -3.850511228794493, -1.3362197793395145, 7.125227255364446, 2.1204706651349037, -3.2554586587857353, 0.9737341034884688, 2.1709571065858753]]}