{"structure": [9, 8, 9], "networkWeights": [[[-0.5355179233786027, -43.64102687892851, -1.2264894812723974, 1.6622980974159791, 0.9906189637575393, 25.289946152775705, 8.842758992249752, 51.411162942606936], [-3.932973642889881, -1.7156932247171794, -14.059906963784396, -13.5939876456173, -7.408799089173402, -19.729818558055353, -18.147474563660985, -23.955018029148846], [-12.872807409886594, -4.232839023911722, 4.706395490829334, -13.086462395345889, -7.9170709249314495, -6.2512118647979245, 34.81954884421952, -9.739346349153095], [44.35518144855342, 19.09884292635217, 10.478223098565538, -13.68980675533798, 20.130732396266215, -0.9671969754065286, -7.334528727488624, 53.1842883037797], [-34.8082415904997, -4.978569331294185, -36.318352846018456, -2.5631251295141593, -16.631316809183783, 17.86918297536409, 3.959552623249256, 31.37874729558812], [1.7115098581663513, -26.48022524910653, 47.29754801999502, -13.710777445246693, 19.27376388811686, -28.58225493503671, 4.323891098932807, 41.24235591931894], [-11.379797545841896, 29.13590130853811, -30.112430262672397, 32.53056437960563, 26.45085859862379, -30.533531349995283, -13.69241599812461, 24.626540326771245], [-34.986201915510335, 42.515439663709934, -23.333213802261596, 27.261785915822905, -1.0601090289216915, 0.3192712582858953, 2.1932902849056886, -17.681842421677914], [-15.514992509072254, 21.86273461776973, 69.4987207799601, -20.866788028014035, 7.728426212299672, -21.875842487325105, -16.62028715278943, -22.673504078618176]], [[2.345367033817, -39.44611955426061, -14.78961421682222, -14.108913825287848, -40.51983475667203, -1.739291595457349, -1.5543816269361899, -4.525589968875217, -22.284726786290197], [7.947124085600436, -0.42654297770597377, -17.306468275047806, -44.174726125070734, 51.86823507973595, 32.55131996178006, -36.52119535197379, 13.925853158448577, -9.975225663785068], [-45.19932815644738, -19.988240351849377, -10.434314767533504, -10.421288476300077, -40.12587141788527, 15.980585560739883, 14.833993606063572, 27.098458407481512, -21.874038112295544], [-31.161519251406034, 5.407309817334466, -2.696865505277695, 34.091488260743034, 12.024859490219013, -18.7140109405733, -31.851096455982127, -21.419112415662745, 49.14344304497036], [55.59547571417347, -22.72372389182811, 4.860678264616071, 4.636977419640256, -41.483762554136675, -44.70442420664484, 19.32329465640713, 9.609526427440027, -5.156901547803358], [-33.80427405988893, -6.568702774719318, 0.6854301693696394, 28.725046826261995, 33.21556926680471, -6.1832297737203, 30.777810172856558, -35.93703360306914, 17.096584969494568], [-10.930664680519806, -4.760049624793921, 11.831719472649267, -4.748471045850606, -15.132066131314799, -18.55158982147419, 79.41172690937451, -76.26720405969002, 18.018890407924918], [23.540435661383963, -3.276962983957167, 26.641089061758745, 25.78278437225807, -25.24515814588201, -27.14878669725963, -10.96397704990699, -48.86995187230815, -5.503969811152114]]], "networkBiases": [[-3.1716305459427607, 2.943494368493075, 4.644762444963408, 1.9863191766124086, 5.432600181236757, -0.6024345998333379, 2.493059310443957, 5.664512224332289], [-3.500511616704766, 5.848096159767358, -2.6580135222620145, -1.4398767514256146, 5.3997969295171995, 2.184062321260381, -2.759771226108813, 2.811566656584424, 2.577361031887229]]}