{"structure": [9, 8, 9], "networkWeights": [[[-0.5355179233786027, -43.64102687892851, -1.2264894812723974, 1.6622980974159791, 0.8728240450050438, 25.2840245803918, 8.701393983019145, 51.411162942606936], [-4.0217151405792935, -1.3370782859929067, -14.280527158912816, -13.5939876456173, -7.408799089173402, -19.632047666475216, -18.147474563660985, -23.955018029148846], [-12.872807409886594, -4.201646117348205, 4.706395490829334, -13.086462395345889, -7.9170709249314495, -6.036624113588438, 34.81954884421952, -9.739346349153095], [44.35518144855342, 19.09884292635217, 10.478223098565538, -13.68980675533798, 20.130732396266215, -0.9671969754065286, -7.334528727488624, 53.1842883037797], [-34.8082415904997, -4.827830317343826, -36.318352846018456, -2.4981926836064265, -16.80894751391729, 17.86918297536409, 3.959552623249256, 31.37874729558812], [1.7998415264204448, -26.48022524910653, 47.29754801999502, -13.710777445246693, 19.27376388811686, -28.58225493503671, 4.518288064309927, 41.24235591931894], [-11.379797545841896, 29.13590130853811, -30.112430262672397, 32.53056437960563, 26.509068003802913, -30.533531349995283, -13.903158158207056, 24.626540326771245], [-34.986201915510335, 42.67385654997522, -23.333213802261596, 27.50962782311564, -1.2004071767691733, 0.3192712582858953, 2.228403143708853, -17.681842421677914], [-15.299185059121964, 21.86273461776973, 69.4987207799601, -20.866788028014035, 7.728426212299672, -22.101085206905484, -16.62028715278943, -22.673504078618176]], [[2.345367033817, -39.44611955426061, -14.78961421682222, -14.108913825287848, -40.51983475667203, -1.739291595457349, -1.5543816269361899, -4.525589968875217, -22.284726786290197], [7.947124085600436, -0.42654297770597377, -17.306468275047806, -44.16942563315689, 51.86823507973595, 32.303738529162956, -36.52119535197379, 13.690608177023936, -9.975225663785068], [-45.19932815644738, -19.988240351849377, -10.434314767533504, -10.421288476300077, -40.12587141788527, 15.947856750708503, 14.833993606063572, 27.098458407481512, -21.73889040358504], [-31.161519251406034, 5.407309817334466, -2.6170172093533437, 34.30495804090295, 12.063334037352446, -18.7140109405733, -31.851096455982127, -21.419112415662745, 49.14344304497036], [55.59547571417347, -22.53086961679548, 4.860678264616071, 4.674417362093769, -41.483762554136675, -44.70442420664484, 19.32329465640713, 9.609526427440027, -5.197249994665993], [-33.80427405988893, -6.568702774719318, 0.6854301693696394, 28.725046826261995, 33.21556926680471, -6.1832297737203, 30.777810172856558, -35.74765056085846, 17.096584969494568], [-10.79418224821373, -4.760049624793921, 12.016589782877807, -4.5641949538314215, -15.132066131314799, -18.55158982147419, 79.41172690937451, -76.37170897222556, 17.97472817797295], [23.540435661383963, -3.276962983957167, 26.641089061758745, 25.78278437225807, -25.24515814588201, -27.14878669725963, -10.96397704990699, -48.86995187230815, -5.503969811152114]]], "networkBiases": [[-3.0053827027385425, 2.8663257854718562, 4.811881310878367, 1.7899618326064575, 5.296302867167302, -0.7124745145422499, 2.3592830489557652, 5.617388323719753], [-3.15471291401203, 6.327368837316487, -2.7994919405145606, -1.835025433902681, 5.496595509701369, 2.428783085059987, -2.627698256934031, 2.802942441389333, 2.6218056501572695]]}