{"structure": [9, 8, 9], "networkWeights": [[[-1.2072623121272037, -44.075020979181225, -1.3643743489944038, 0.9391777151044172, -0.3229666174254636, 24.65344510816123, 8.997360062665791, 51.99112314734543], [-5.215389244769605, -1.4099980767077773, -14.420898109876003, -13.735820522227039, -7.88149699682746, -20.535428044746077, -18.249290420514793, -23.939678695167835], [-13.671977154720794, -4.046369645556629, 4.244801478118716, -13.879073764422285, -8.62147560834477, -6.096537375738466, 34.75510034721485, -9.29780820325185], [44.0532506461264, 18.575622718894156, 9.605481457309237, -13.442095448637144, 20.331443292933905, -1.3201519474985635, -6.739771932499216, 52.48455129825377], [-34.45237685517829, -6.143612993127966, -37.62880255017206, -2.7659919636495, -16.748639808699025, 18.14088246817859, 3.5799315464823085, 31.889056904029335], [1.3772073172700976, -26.0148632273792, 47.1705012401425, -14.7259087182955, 18.977455130554794, -28.974700337280346, 4.198221401302424, 41.1831411202871], [-10.318488645989852, 29.858440908418718, -30.413879518725707, 32.24767211110022, 25.858343931382944, -30.402033742835624, -13.095228961927731, 24.29427396797339], [-35.39759024152211, 43.27340596438275, -22.280213954874668, 28.01840733551591, -1.2805971796632634, -0.3848026555948024, 2.0406144528790175, -18.134348137279346], [-15.659641192260697, 21.739700663482, 69.17576814371682, -20.238056627029057, 7.808176259031747, -22.386389355914094, -16.817267684476718, -23.94067628594944]], [[1.711890216766235, -38.74299611591758, -16.08792486096858, -14.499968870760695, -39.023051621067715, -1.8272614579469995, -2.1800665274139557, -4.5454654356449335, -21.300735799593262], [7.302044312827175, -0.020900600989724794, -17.19335868764781, -43.396464252330134, 52.32476427259512, 32.347420309766676, -36.09932453161022, 13.849876377264815, -10.80856428896521], [-44.5234567762036, -19.888159423540692, -9.59920021492722, -9.554164172582237, -40.90429431003054, 16.42718253712968, 13.71095894791236, 26.42330686862286, -21.404164212804265], [-30.2481901809804, 5.498711016524014, -3.129130386059881, 34.68140447111261, 13.047175419758597, -18.63354834886568, -31.55052647404143, -21.82686075310168, 48.85871217550615], [55.58204764465235, -23.132328497553676, 4.147557008422232, 4.370942395991961, -40.57081244565661, -44.73961629888805, 19.95842866943543, 9.414275213728006, -5.8537809175821565], [-33.74115861660591, -6.646595099377724, -0.6283151648379733, 28.09504027511408, 32.36974945985101, -5.90621220477709, 30.83018408359757, -35.93865801226247, 17.270113199087284], [-10.028208351688182, -4.463402998247655, 11.859023406618475, -5.216006682387431, -14.589432439133189, -19.61392643431101, 80.07563947779073, -77.27819503842836, 18.579238498023926], [23.54975516125679, -2.7554026245230387, 25.753404107866864, 25.631927200816094, -24.972586008861633, -26.647225480661266, -11.452251655725819, -49.19866764346395, -4.837746103886653]]], "networkBiases": [[-2.4553153032238386, 2.7512686950490894, 1.6168703075059516, 2.3681443110525375, 3.0354094433071968, -0.7273181780632427, 3.1303764880615406, 7.108978213318514], [-1.4719189687617602, 4.7477338079732565, -2.4360063933230798, -1.9034993671756624, 6.072680186493638, 3.130464206724386, -1.8675507733774483, 1.9849589462467203, 2.2697972019748915]]}