{"structure": [9, 8, 9], "networkWeights": [[[-0.5905008527758533, -43.91386933261572, -1.0739387005942402, 1.9724687290169285, 0.9395826222412047, 25.250682208790824, 9.066498201758359, 51.28353595439393], [-3.990347681493577, -1.6281989178201344, -13.993823192268323, -13.737526940454023, -7.177331532102459, -19.79704978580909, -18.179414180770237, -23.56057247109491], [-12.363489853312748, -4.15141900602496, 5.20243339651573, -13.693039456598376, -7.763043738530689, -6.590813517132056, 35.21785689807616, -9.425347581834327], [44.65407215923801, 18.82881535039997, 10.83936633315087, -13.801410062153954, 20.364292937007704, -0.8597005654685208, -7.763816648067373, 52.908160959511314], [-34.81269535162295, -4.589512040955526, -36.521349366308, -2.130885279163269, -16.40882128146491, 17.712849415741744, 4.001958253533107, 31.24452698501223], [1.9692064825756068, -26.206207856039722, 47.23828000518661, -13.65074255587093, 19.260916358432475, -28.42584142939393, 4.310911853821991, 40.8631043704555], [-11.737835855650133, 29.033332814729235, -30.060218974144053, 32.51792830810609, 26.151839110834974, -30.29367018049277, -13.30488080861151, 25.043665768702983], [-35.30995757799088, 42.53141877270146, -23.714034358064136, 27.935801468395365, -1.2798302908302925, 0.10707689688091135, 2.359829697130823, -18.122007138857136], [-15.412271536519846, 22.466966352401652, 69.79316101898445, -20.995137842138607, 7.737113479664693, -21.97624134356371, -16.422119778257986, -22.66562740136118]], [[2.5455819644597355, -39.4510566493317, -14.945840218057333, -14.12364994296805, -41.107831884743916, -1.4154234446167648, -1.4710483875808418, -4.436046252678438, -22.330611905730972], [7.7052389368493985, -0.7043603097605533, -17.446344879224714, -44.191599944767496, 51.88725873272945, 32.23443318645642, -36.59987681519815, 14.186403859096623, -9.98537225668715], [-45.95476306623814, -19.675061141826973, -10.801729547983241, -10.02669625710076, -40.07822256430134, 16.48596775622947, 15.131094211044559, 27.126037991436526, -21.94759400723303], [-31.760836804859338, 5.025616752670481, -2.20259875226623, 33.88544201583324, 12.236349395207654, -18.72145446858445, -31.968964557085, -21.330524315619115, 48.846455885152004], [55.78010507777599, -22.395999588316528, 4.509303252485002, 4.925285818779305, -41.42595471838127, -44.76694982238856, 19.480624694328988, 10.520390106207426, -5.344926740251261], [-33.63084015554936, -6.590160250216691, 1.4827219906783555, 28.28994842241703, 33.39705751713114, -6.511991802757268, 30.577163560658306, -35.4622852000085, 16.975461204006297], [-10.806884435481487, -4.87723103646519, 11.510835563239704, -4.415416681259985, -15.18552550958984, -18.133920163167538, 79.42893743104227, -76.35217547770856, 18.72626778414907], [23.633053323380288, -2.8809808780763735, 26.665485007733157, 26.18473238934638, -24.58602580763644, -26.956622281606247, -10.946522875748702, -48.80216794526335, -5.496384593479826]]], "networkBiases": [[-2.183780909718548, 2.943171783572475, 4.894838176470271, 2.108236958643298, 4.524893448747961, -1.756869278016744, 1.8998427361510293, 4.653616972559811], [-3.914718211895572, 6.5872833815652845, -2.703351158628931, -2.084708324639427, 5.481750632138042, 2.899307203639908, -1.4988548345181223, 2.975513576445086, 2.643113144474902]]}