{"structure": [9, 8, 9], "networkWeights": [[[-0.6226361632976262, -43.81744616661661, -1.1450724385746247, 1.9521797438224828, 0.9329323520722159, 25.24254932652631, 9.091779955699456, 51.14645205574311], [-4.0830250571603965, -1.6761744530183256, -14.00655912526621, -13.757267991866064, -7.328246262804813, -19.86410021460854, -18.12800717866024, -23.601675078268574], [-12.398909563040672, -4.140765748122201, 5.243785515115696, -13.642551958775224, -7.732369676789808, -6.539819288812644, 35.07410992413543, -9.418266143167987], [44.67324155029476, 18.7473339276427, 10.87675808268561, -13.772330923655227, 20.345466162113482, -0.9385617299408204, -7.7529898611215815, 53.01454144630559], [-34.76526378464967, -4.757704848547234, -36.49654814694789, -2.248204444811826, -16.415034991060477, 17.685251298826504, 4.01284089607072, 31.033912129214595], [2.098957178806642, -26.12222925773497, 47.42517858334366, -13.659325516749648, 19.271515596322594, -28.346424655144812, 4.338483630895459, 40.753455938254575], [-11.704831817281706, 29.142577070195134, -30.09016968781579, 32.424075955345025, 26.114556873772447, -30.355379613998537, -13.504494165827387, 25.01518892457276], [-35.23538726370103, 42.48045662813533, -23.716770250255085, 27.95929537407149, -1.14495191780916, 0.17922984911895978, 2.3218210234915757, -18.039334066148992], [-15.471316398549714, 22.54377507194819, 69.75265566245798, -20.96209923919112, 7.7444007781925945, -21.89935596760009, -16.44036612147524, -22.770812109027823]], [[2.5036979378676563, -39.3928900588904, -14.981043983629224, -14.153054446052248, -40.992645095768104, -1.3469746743372515, -1.5679993700501262, -4.536014597919946, -22.232086623630313], [7.69611460897908, -0.7266072356842114, -17.44293459830036, -44.129389232269624, 51.886077693985825, 32.224083849828304, -36.63001753704393, 14.063895743789807, -9.978524491671253], [-45.95629976578579, -19.845072186530942, -10.7435177416135, -9.967255849917162, -40.05661676078336, 16.579772148124746, 15.22234309326713, 27.027691919297787, -21.875942882722832], [-31.558627962113754, 5.093770269638435, -2.200213257512933, 34.01969278446488, 12.337492346426489, -18.77904385434446, -31.91136882925291, -21.21651175699069, 48.8074108532012], [55.7025741318098, -22.31774893401483, 4.6766499540817845, 4.856396268392285, -41.48224093645093, -44.761545432714044, 19.586671962798984, 10.303320271795156, -5.309745010747085], [-33.5421492820466, -6.544905739159122, 1.4184034668113148, 28.41535741129285, 33.29833389906643, -6.405246634430833, 30.57274495146829, -35.52120290499342, 16.939143053558084], [-10.772678348779706, -4.775717993116399, 11.502900661913696, -4.584677468564288, -15.093487383047977, -18.1140272888253, 79.29736263783767, -76.35855584532203, 18.823967236230587], [23.54817996807126, -2.9655639942435275, 26.658890177131614, 26.18146003516851, -24.520404058707957, -26.946492179453713, -11.024626622589594, -48.87508302317744, -5.631075232762877]]], "networkBiases": [[-2.0978901824475122, 3.213665465295659, 4.814317656444135, 1.6587659242157262, 4.650618809211533, -1.9169443184477952, 1.8131134663217374, 5.084388509373374], [-3.991856807599757, 6.457380826749398, -2.9757928700394722, -2.1652596639349624, 5.815422480733486, 2.276017723117393, -1.3195835842759034, 3.5006279696308127, 2.3914277719363777]]}