{"structure": [9, 8, 9], "networkWeights": [[[-1.7086838194078453, -44.031540930630094, -1.6205117822681543, 1.0402763627961473, -0.16126097713990784, 24.585784107866736, 8.88623165331644, 52.122282141641485], [-4.929171965929852, -1.5205759460063435, -14.271739421369325, -13.581043071394728, -8.17888334403266, -20.15659338764244, -18.412617986330105, -24.704575009237608], [-13.315949486157182, -4.226084808751477, 4.369282943092847, -13.630000986772199, -8.746996029112708, -5.92027505713172, 35.0785458784266, -9.754980291072114], [44.16571099329465, 18.637467135983215, 9.245273037325354, -13.642686463391708, 20.483832073425987, -1.630724172411214, -6.546946532514665, 51.764880780618974], [-34.262436227057634, -5.926646935067555, -37.4897877645242, -2.8671565485763724, -16.745929776321464, 18.486363325886963, 3.30206168843286, 31.407201235711877], [1.0727595905752922, -25.948231222097608, 47.042382619240556, -14.776792954868588, 18.90827349717258, -28.58303990447353, 4.18301796118479, 41.347740279338744], [-10.383203949628832, 29.24770809345959, -30.35646883611472, 32.3107835110535, 25.978207538418197, -30.817618026170305, -12.800626125870949, 24.242257426669696], [-34.8975618710402, 43.01637851614795, -22.26403351097855, 28.20300265535998, -2.2135708387260107, -0.34188417724330333, 2.9606628578205063, -18.3831983543381], [-16.529555494785757, 22.022663617851748, 69.52017659406103, -19.820500207290603, 7.630462351200933, -22.105642497479874, -16.76762535673482, -23.598495026151923]], [[1.9909713001411484, -38.734079927591885, -16.416874991279176, -14.904368257934236, -38.95051104908421, -2.254122802959732, -1.7149803862980195, -4.021913506437777, -21.395822082795007], [7.399619717810952, -0.6275279189780327, -17.189518287324862, -43.324284243540625, 52.48558166191882, 32.37403894771403, -36.021444355791694, 13.956578835499322, -10.674240766793346], [-44.754652267515375, -20.31310382873572, -9.72163499146165, -9.71037476680184, -41.047848470149304, 16.545295235509972, 14.656216428134744, 26.72735014666704, -21.342024253814287], [-30.18430313379907, 5.137793073430044, -3.4101223906949656, 35.042034693235344, 12.683548237891527, -18.498180469205053, -31.778756861617246, -21.800495496630102, 49.164128142298544], [55.87536991589602, -22.560305026696664, 3.933999504108834, 4.645846925960257, -40.139115911115454, -45.105602581749324, 20.60939783074193, 9.84902256713673, -5.792151225611356], [-33.8225430814651, -6.368571965455164, -0.6227127718974316, 28.010692852745596, 32.42319696457289, -5.739131096897811, 30.988822608157136, -36.03057881432931, 17.144140752940462], [-10.249410689082097, -4.951221515710593, 11.732418104174204, -4.861044409585551, -14.814284678983764, -19.980313755719262, 80.27996904031674, -77.32565539221545, 19.374430393126733], [23.358003471746752, -2.8129369916408016, 25.227746316290517, 25.141245463337643, -25.471705146656557, -26.979422044829896, -11.297821271917796, -49.553766005499696, -4.005968170511872]]], "networkBiases": [[-3.5110197916049417, 2.19048374095096, 1.635339204476108, 2.2893189748509415, 2.306013014140346, -0.0468476133590805, 2.3320699248822687, 6.608595093249415], [-0.17403185176000024, 5.9906482263419125, -3.8501995527411186, -0.5914899109793339, 6.702770732333652, 2.270474365430724, -3.51868659759405, 1.5863166688128925, 1.341118200568387]]}