{"structure": [9, 8, 9], "networkWeights": [[[-0.603585513982348, -42.071657563572266, -2.9289402285519914, 0.7749044750081171, 0.05940121815079946, 22.07754305095141, 8.167877542638657, 49.76704728617513], [-6.242229226412842, -0.47973439910806737, -13.3339279348803, -14.937955459424042, -7.33035353327979, -19.594842027703486, -18.84813023074524, -24.994169619370872], [-14.730184573198038, -5.259060345813474, 4.644115986535514, -13.796872930637951, -7.782269631977222, -7.186764806446992, 33.74645211214153, -10.344359588470109], [44.56717341811206, 17.85656526910537, 9.98122157205821, -13.882123596316196, 21.476567389292327, -1.3670798878678858, -4.175877883277956, 51.85164535549613], [-36.47214523063623, -4.4744011388448985, -34.2508754775201, -0.6669169115807325, -18.130174937778847, 17.237755578723885, 4.161362289187002, 33.62538210539854], [0.9359190835012947, -25.865149652858413, 45.52419238395263, -15.435010398794834, 21.66725804647136, -28.28564524233731, 4.202070616455637, 41.397793823889316], [-8.208821353027734, 29.693003874204702, -31.198816654408432, 32.563234664487936, 25.2473836939668, -30.253386516067366, -12.955898409323128, 27.834128204704612], [-33.71235828829513, 40.307699033364685, -21.713587059561522, 27.6636552800447, -3.376220369325298, -3.252523310825383, 0.7840286145104216, -17.864377216065936], [-16.230827892827655, 21.533467363309317, 69.25785986096245, -18.921925944948693, 10.320142093625442, -20.65470805510771, -18.270177290723915, -24.926387201066518]], [[3.990970013089342, -37.280155917028516, -15.375903303222834, -14.903433064968679, -41.65603932876129, -2.9017565245925088, -0.5920047752898769, -4.834212260261428, -23.261743702567184], [6.396057314135377, -0.28056584638549786, -16.503105373387534, -42.71263306230184, 49.338244585629546, 32.9932051570178, -36.772405361483976, 14.210906094678565, -10.520614423130002], [-43.53597997337649, -20.953473525783377, -11.504172474604589, -10.270254230188819, -41.07499928833638, 18.558455610162326, 15.433279457579363, 26.091819674790447, -20.638379685938236], [-30.4801081899667, 6.669190689788094, -3.051900335383581, 36.12942984353239, 10.777537939740869, -17.679044298015125, -33.816155396542456, -17.240326089789605, 49.85082740087741], [56.15963580087946, -23.866145165083264, 3.2734514539799084, 4.473235566061441, -41.36707100885795, -45.40437014197798, 20.19751808584786, 9.247719329914705, -5.357638492046419], [-33.390102615716664, -6.0991681586981015, 0.07232804907211965, 30.420274872527713, 33.07515847602215, -3.1133887467993793, 29.87663447054424, -35.298450489944116, 16.97483633668859], [-11.67346714015404, -5.818677465056785, 11.171634927967276, -5.537527579860722, -14.544596611647584, -19.66154255599191, 81.78258915413912, -77.42294972426494, 21.25535657494901], [22.510142961615166, -0.24042659932999566, 24.407371050550065, 22.939616418980094, -25.449579373167097, -25.917569165996788, -13.552411116619764, -47.458000718409735, -3.4155163024619215]]], "networkBiases": [[1.0, 1.0, 1.0, 1.0, 1.0, 1.0, 1.0, 1.0], [1.0, 1.0, 1.0, 1.0, 1.0, 1.0, 1.0, 1.0, 1.0]]}