{"structure": [9, 8, 9], "networkWeights": [[[-0.603585513982348, -42.071657563572266, -3.4699807005254364, 0.7749044750081171, 0.05940121815079946, 22.0174739175997, 8.484514029592054, 48.91896398544652], [-6.242229226412842, -0.5168306079889764, -13.971732035769985, -14.004166770154777, -7.33035353327979, -19.918354508306187, -18.84813023074524, -24.994169619370872], [-14.730184573198038, -5.259060345813474, 4.644115986535514, -13.446268338833637, -7.782269631977222, -7.186764806446992, 33.74645211214153, -10.344359588470109], [44.56717341811206, 17.85656526910537, 9.98122157205821, -13.882123596316196, 21.476567389292327, -0.9667845862511022, -3.526529518141375, 52.520029019658494], [-36.47214523063623, -3.9205698913864824, -34.060760003026964, -0.004564280973023305, -18.130174937778847, 17.237755578723885, 4.314659396865665, 33.59513887558526], [0.9359190835012947, -25.918113042767814, 45.145890390104015, -15.435010398794834, 22.47370967356743, -28.28564524233731, 4.202070616455637, 41.397793823889316], [-8.208821353027734, 29.693003874204702, -31.90537862096541, 32.563234664487936, 25.2473836939668, -30.253386516067366, -12.955898409323128, 27.834128204704612], [-33.71235828829513, 40.36643358875479, -21.947564905226123, 27.6636552800447, -2.943849148413722, -3.0384846919877484, 1.4321629572734504, -18.266128762213373], [-17.789228180088557, 20.785350912773556, 69.25785986096245, -19.35081505808417, 10.320142093625442, -20.688947487782613, -18.270177290723915, -24.926387201066518]], [[3.990970013089342, -37.280155917028516, -15.375903303222834, -14.78566950210697, -41.65603932876129, -2.9017565245925088, -1.510799780718818, -4.834212260261428, -24.198786519565296], [6.930328822761827, -0.28056584638549786, -15.555067358909788, -42.71263306230184, 49.338244585629546, 33.726091594837044, -36.27941690992601, 14.210906094678565, -9.71445733119433], [-42.814951520756686, -21.921401952420467, -11.640435332978624, -10.249783769725067, -41.07499928833638, 19.26274394144244, 14.91038826026518, 26.091819674790447, -20.798832907832857], [-29.85628505187769, 6.669190689788094, -3.051900335383581, 35.49466022475966, 9.81187595825799, -17.504272263311375, -33.816155396542456, -17.240326089789605, 50.59808163404685], [56.15963580087946, -23.866145165083264, 3.2734514539799084, 4.133479030280149, -41.36707100885795, -45.40437014197798, 20.16002972886153, 8.7709254543112, -5.357638492046419], [-33.977775284898144, -6.0991681586981015, 0.07232804907211965, 30.420274872527713, 33.07515847602215, -3.2459921154799316, 29.87663447054424, -35.09856364657744, 16.97483633668859], [-11.67346714015404, -6.750345377390348, 11.171634927967276, -5.537527579860722, -15.055059060512193, -19.66154255599191, 81.78258915413912, -77.42294972426494, 20.814456885382803], [22.69284730382468, -0.24042659932999566, 24.407371050550065, 23.50539988046687, -25.76051916798193, -25.23798074317629, -13.552411116619764, -47.458000718409735, -3.0359650337128308]]], "networkBiases": [[1.0, 1.0, 1.0, 1.0, 1.0, 1.0, 1.0, 1.0], [1.0, 1.0, 1.0, 1.0, 1.0, 1.0, 1.0, 1.0, 1.0]]}