{"structure": [9, 8, 9], "networkWeights": [[[-0.7341993282239299, -43.702816270999755, -2.4612556897504554, 0.731526682794019, 0.05940121815079946, 22.348694344451985, 8.167877542638657, 51.37596358786703], [-5.899045046504305, -0.47973439910806737, -13.747455266590084, -14.937955459424042, -8.013194475580464, -20.462331567923805, -17.647376398515238, -24.965702720332278], [-13.342074194430849, -5.259060345813474, 5.001888649382307, -14.444442096621353, -7.902527382555905, -7.186764806446992, 34.769641079509704, -10.344359588470109], [45.40732548639376, 18.225039214480436, 9.46717315608101, -13.514633327880802, 20.73549267048951, -1.3670798878678858, -4.439161704386997, 51.85164535549613], [-36.47214523063623, -4.4744011388448985, -35.8046496195879, -0.5480731713939428, -18.130174937778847, 16.324617335013606, 5.374052109484046, 32.65374714854473], [0.9359190835012947, -25.811280007908643, 45.95380339707816, -14.5172022276667, 21.89294220113765, -27.975964365527595, 4.21613149617275, 41.397793823889316], [-8.208821353027734, 28.309902050593852, -31.198816654408432, 32.563234664487936, 26.022449451478433, -29.9798266229821, -12.521950776759937, 26.460169284996784], [-34.302731663648515, 40.37526048448491, -21.713587059561522, 27.230248830787332, -1.871125575090555, -1.5943290191576631, 0.7281188153296685, -17.864377216065936], [-17.094796516137272, 22.16643773960013, 69.25785986096245, -17.853782509862633, 8.714844862947247, -20.65470805510771, -18.274094458060887, -23.275285808833587]], [[3.990970013089342, -38.759419655155256, -15.375903303222834, -15.366195633907648, -41.14317791253705, -3.5519672055013034, -0.9116471847645564, -5.959697969102509, -23.261743702567184], [6.930328822761827, -0.28056584638549786, -17.01193088229884, -42.71263306230184, 49.35359633221666, 32.9932051570178, -36.69556903012603, 13.53675778850708, -10.520614423130002], [-44.54399068713038, -20.709737705522155, -11.560152888102628, -9.582492367034547, -41.07499928833638, 18.558455610162326, 16.201842873666934, 26.70450417813039, -20.398743625326137], [-29.85628505187769, 7.1925856118246205, -3.051900335383581, 36.12942984353239, 10.777537939740869, -17.986032839177525, -32.905238429126754, -18.2714770705867, 49.3186814534821], [55.701092499909635, -24.844693292960287, 4.009222590876723, 4.248577591450941, -40.56822819603579, -46.378056689458276, 20.34757682289297, 10.172939258396209, -5.357638492046419], [-33.70698451905965, -5.672324193370344, -0.06101522547634297, 29.9721323658783, 33.1727311492165, -3.7208627865072312, 29.87663447054424, -34.940613217583966, 16.055962755185913], [-11.67346714015404, -5.818677465056785, 10.629508900077155, -4.292333309948989, -14.838816222992937, -20.36024999178102, 81.78258915413912, -78.75280301360799, 21.524197278543383], [23.590134450839788, -0.35876866256583484, 24.261597299904572, 22.998802109638994, -25.449579373167097, -25.332861793746016, -12.194925643032555, -48.12207365469708, -3.4155163024619215]]], "networkBiases": [[1.0, 1.0, 1.0, 1.0, 1.0, 1.0, 1.0, 1.0], [1.0, 1.0, 1.0, 1.0, 1.0, 1.0, 1.0, 1.0, 1.0]]}