{"structure": [9, 8, 9], "networkWeights": [[[-0.5618242169132156, -43.794623218737186, -1.2131706973567842, 1.794345087166597, 0.8573244456520449, 25.270042984548503, 9.13688481543591, 51.03661170309075], [-4.000642951556387, -1.7898221055195047, -14.028415429291343, -13.73488412849336, -7.341642576869034, -19.846243607457357, -18.16470368309675, -23.603189725348294], [-12.470421756865719, -4.182916735766584, 5.21536633201575, -13.613147029648937, -7.722932683969874, -6.519390762862087, 35.03730903799105, -9.48258286861729], [44.79644734700528, 18.76217319106359, 10.816175389301494, -13.69960613054323, 20.300051574911155, -1.0048189044371723, -7.730510396053386, 53.030329795431406], [-34.73119380770658, -4.781353619416757, -36.46295954371024, -2.247670057924286, -16.45484151422023, 17.66346086770938, 4.057051995170767, 31.003653994918146], [1.93393845820692, -26.175729596492104, 47.42714300099564, -13.697525013666874, 19.25908422165096, -28.314765254477933, 4.305878440819871, 40.804030501948546], [-11.585863359475704, 29.12350861287188, -30.249442150006423, 32.42676176950738, 26.291846549304957, -30.370734713543257, -13.539893139330706, 24.884299509018618], [-35.22986943582576, 42.382586098983374, -23.65792894167535, 27.9757000250718, -1.1776233206257931, 0.1768537776654644, 2.35447778502527, -18.020251125107013], [-15.51676375190419, 22.565905010781876, 69.72816550184724, -20.945099801651498, 7.729263070164473, -21.85687627965308, -16.504648629573172, -22.680749714323074]], [[2.444308968252082, -39.42873738752861, -15.002213424672513, -14.09250294483143, -41.07217200796324, -1.307905869089795, -1.6014228655367797, -4.623225102561436, -22.242813160987588], [7.719910067317008, -0.7920605008704578, -17.416014038859096, -44.12401864399821, 51.90842982163299, 32.259864123457966, -36.68391435555373, 13.967494475900905, -9.965329137031581], [-45.891566846162924, -19.85868097779655, -10.773489779362556, -9.993118629760113, -40.037172689140625, 16.57048244121531, 15.162582764541321, 27.061282663866667, -21.795634360910526], [-31.484196631350656, 5.048176732721441, -2.2625366476045436, 33.950639118214944, 12.270118768108972, -18.75176465856207, -31.9354361295437, -21.270503900364254, 48.7654062922867], [55.726641057057485, -22.451775155055092, 4.764519618415093, 4.890636776485027, -41.520822557409595, -44.806397948942056, 19.665078275994887, 10.262666083691325, -5.313252860406558], [-33.635592693643, -6.4892589047692, 1.3803473465573814, 28.387275423380636, 33.301239427860516, -6.416247068851402, 30.74378128713469, -35.484841701968364, 16.97291843043855], [-10.759674618572168, -4.7872273413526685, 11.430246304563875, -4.599379665044737, -15.131852089244216, -18.105991198630452, 79.32685704824092, -76.2825702043476, 18.816509633873004], [23.520395707546907, -2.8001820021436608, 26.63209030883196, 26.14977219377334, -24.512772737150765, -26.91967321832714, -11.047192702433561, -48.88403749724078, -5.516764953408451]]], "networkBiases": [[-2.2326953212875633, 3.3799270592471617, 4.930912271727464, 1.5858053594599015, 4.553605374303754, -1.874902093758763, 1.6489208969563982, 5.182101317416623], [-3.9492450682288895, 6.639431276747598, -3.0459329917471925, -1.6779221512652682, 5.744446970408847, 2.3959995375832004, -1.3164822267895353, 3.3053710261515796, 2.544895455837018]]}