{"structure": [9, 8, 9], "networkWeights": [[[-0.5618242169132156, -43.794623218737186, -1.2131706973567842, 1.8380958996514531, 0.8573244456520449, 25.28947002004943, 9.13688481543591, 50.98880921857677], [-4.000642951556387, -1.82417035772998, -14.028415429291343, -13.715110487023992, -7.332913102434142, -19.846243607457357, -18.16470368309675, -23.603189725348294], [-12.470421756865719, -4.182916735766584, 5.21536633201575, -13.613147029648937, -7.722932683969874, -6.5026507989374105, 35.03730903799105, -9.48258286861729], [44.79644734700528, 18.69296196911613, 10.828922218588996, -13.659549924467726, 20.27417385346532, -1.0048189044371723, -7.690102309679498, 53.030329795431406], [-34.73119380770658, -4.781353619416757, -36.48521011661597, -2.2152048951652628, -16.43105384111359, 17.66346086770938, 4.057051995170767, 31.003653994918146], [1.93393845820692, -26.175729596492104, 47.491654522503396, -13.677416460322728, 19.25908422165096, -28.277500713125857, 4.305878440819871, 40.78843709821992], [-11.59451890560112, 29.101842357611496, -30.249442150006423, 32.42676176950738, 26.291846549304957, -30.370734713543257, -13.539893139330706, 24.962060226653104], [-35.22986943582576, 42.382586098983374, -23.65792894167535, 27.9757000250718, -1.1776233206257931, 0.1768537776654644, 2.331042940188918, -18.020251125107013], [-15.505992348884114, 22.565905010781876, 69.72816550184724, -20.958647278418972, 7.729263070164473, -21.85687627965308, -16.43653318800846, -22.680749714323074]], [[2.394738864230684, -39.403073264053056, -15.020438020807054, -14.1058103619304, -41.04624379239507, -1.307905869089795, -1.638503366163576, -4.623225102561436, -22.242813160987588], [7.700597116399496, -0.7920605008704578, -17.416014038859096, -44.12401864399821, 51.908590920590306, 32.23681181867033, -36.68391435555373, 13.967494475900905, -9.93807156599435], [-45.891566846162924, -19.85868097779655, -10.757728587025127, -9.993118629760113, -40.037172689140625, 16.558166776501402, 15.112802731660835, 27.061282663866667, -21.795634360910526], [-31.484196631350656, 5.081624790400459, -2.2625366476045436, 33.950639118214944, 12.270118768108972, -18.75176465856207, -31.9354361295437, -21.220710826395113, 48.734258197860534], [55.726641057057485, -22.406987532287793, 4.790795177073177, 4.885710525067488, -41.520822557409595, -44.806397948942056, 19.655715388313784, 10.262666083691325, -5.313252860406558], [-33.635592693643, -6.4892589047692, 1.3224778671606578, 28.387275423380636, 33.301239427860516, -6.390109472582967, 30.737948432158415, -35.484841701968364, 17.02094643563528], [-10.759674618572168, -4.7872273413526685, 11.430246304563875, -4.599379665044737, -15.131852089244216, -18.108616281245908, 79.31625332966291, -76.31532430412197, 18.78699814300432], [23.49381616544061, -2.7954099282491187, 26.584318064018255, 26.14977219377334, -24.512772737150765, -26.904264023121645, -11.033558862132088, -48.88105758314434, -5.516764953408451]]], "networkBiases": [[-2.1896868309216835, 3.432152127500906, 5.065894243083113, 1.5355053306172417, 4.48182146014498, -1.8658609431400266, 1.6309917309216881, 5.170238086908214], [-3.980833496308944, 6.674229441928086, -2.912345274537609, -1.652205831150909, 5.7159235869852765, 2.4397414903753067, -1.3025130451209077, 3.2909111989154884, 2.5459774031687274]]}