{"structure": [9, 8, 9], "networkWeights": [[[-1.4051664833238684, -44.075020979181225, -1.3643743489944038, 0.9391777151044172, -0.3229666174254636, 24.65344510816123, 8.997360062665791, 51.99112314734543], [-5.215389244769605, -1.4099980767077773, -14.628560582019977, -13.735820522227039, -7.88149699682746, -20.535428044746077, -18.129161836926745, -23.939678695167835], [-13.671977154720794, -4.046369645556629, 4.253651441330061, -13.66514890409618, -8.539592146019404, -6.194795300107518, 35.03316750666252, -9.169143243136757], [44.30074200800326, 18.575622718894156, 9.606854184140248, -13.442095448637144, 20.331443292933905, -1.1317679899601898, -6.400031968471056, 52.189726278083114], [-34.332602849621324, -6.143612993127966, -37.62880255017206, -2.8676498407160604, -16.748639808699025, 18.14088246817859, 3.718203238355703, 31.74897613706951], [1.3772073172700976, -26.0148632273792, 46.89534642199221, -14.608273308811635, 18.977455130554794, -28.974700337280346, 4.050663925189023, 41.1831411202871], [-10.318488645989852, 29.48108043428714, -30.413879518725707, 32.50320348710657, 25.858343931382944, -30.430329969421425, -13.026146877410264, 24.182504818486475], [-35.39759024152211, 43.27340596438275, -22.280213954874668, 28.01840733551591, -1.2805971796632634, -0.3848026555948024, 2.0406144528790175, -18.134348137279346], [-15.782934941447946, 21.739700663482, 69.17576814371682, -20.22760542162544, 7.808176259031747, -22.386389355914094, -16.817267684476718, -23.94067628594944]], [[1.711890216766235, -38.74299611591758, -16.08792486096858, -14.604705907925853, -38.94262856701988, -1.8272614579469995, -2.288820095842219, -4.347536918258328, -21.300735799593262], [7.302044312827175, -0.020900600989724794, -17.39728213395116, -43.57413321322576, 52.32476427259512, 32.2536908623476, -36.15333226641641, 13.849876377264815, -10.80856428896521], [-44.450681081275, -20.105725621440147, -9.59920021492722, -9.601697799340261, -40.90429431003054, 16.42718253712968, 13.71095894791236, 26.63802404298648, -21.521154392468357], [-30.495300785621723, 5.498711016524014, -3.263626504443153, 34.656521948137915, 12.95238278945251, -18.63354834886568, -31.55052647404143, -21.984689735645873, 48.85871217550615], [55.58204764465235, -23.132328497553676, 4.147557008422232, 4.409729456478313, -40.57081244565661, -44.94978964575517, 20.54307921960392, 9.414275213728006, -5.8537809175821565], [-33.74115861660591, -6.646595099377724, -0.6283151648379733, 27.94347782154106, 32.24466266372158, -5.90621220477709, 30.63224345397688, -35.93865801226247, 17.32059473315592], [-10.028208351688182, -4.463402998247655, 12.107811220797362, -5.216006682387431, -14.617490071182353, -19.52502551071828, 80.07563947779073, -77.44316140871918, 18.6609727455791], [23.54975516125679, -2.5463505080011086, 25.753404107866864, 25.631927200816094, -25.098634727048765, -26.647225480661266, -11.452251655725819, -49.19866764346395, -4.69329574963264]]], "networkBiases": [[-2.374712712742507, 2.7484275964989053, 1.7941238918222955, 2.682113883184891, 2.6299608276905846, -0.5635150036109299, 2.6926458653748497, 7.20411247798803], [-1.8056419327471906, 5.083705695563953, -2.2380032272609647, -1.7134552895327446, 6.461892738895759, 2.8566099241214373, -1.699810246601145, 1.9498851159573278, 2.305599410108177]]}