{"structure": [9, 8, 9], "networkWeights": [[[-0.6226361632976262, -43.81744616661661, -1.1450724385746247, 1.9521797438224828, 0.9329323520722159, 25.24254932652631, 9.091779955699456, 51.14645205574311], [-4.0830250571603965, -1.72496676081775, -14.00655912526621, -13.757267991866064, -7.266425292243084, -19.83249713321764, -18.17611567992811, -23.601675078268574], [-12.398909563040672, -4.140765748122201, 5.243785515115696, -13.649511232312591, -7.732369676789808, -6.550133025874242, 35.07410992413543, -9.418266143167987], [44.67324155029476, 18.7473339276427, 10.87675808268561, -13.772330923655227, 20.345466162113482, -0.9385617299408204, -7.7529898611215815, 53.01454144630559], [-34.76526378464967, -4.757704848547234, -36.5124766303275, -2.281923475484045, -16.50609258677412, 17.640538277107353, 4.01284089607072, 31.096879189027945], [2.060861103974576, -26.079489566734647, 47.45393668246408, -13.659325516749648, 19.271515596322594, -28.37937873628052, 4.338483630895459, 40.784072457766975], [-11.704831817281706, 29.10898127438105, -30.09016968781579, 32.424075955345025, 26.140579057173724, -30.315567288636597, -13.504494165827387, 25.02510769392765], [-35.23538726370103, 42.48045662813533, -23.708316189421566, 27.95929537407149, -1.14495191780916, 0.17922984911895978, 2.3454410116137794, -18.039334066148992], [-15.471316398549714, 22.54377507194819, 69.75265566245798, -20.96209923919112, 7.7444007781925945, -21.89935596760009, -16.44036612147524, -22.770886233573417]], [[2.5036979378676563, -39.40140288149376, -15.02929320417978, -14.153054446052248, -41.04236429611337, -1.382162935392154, -1.5679993700501262, -4.488229840146943, -22.232086623630313], [7.69611460897908, -0.7266072356842114, -17.44293459830036, -44.15648611816836, 51.90658912536694, 32.224083849828304, -36.64759466694497, 14.07383307375163, -9.978524491671253], [-45.95629976578579, -19.80694025436207, -10.744221182131042, -9.967255849917162, -40.05661676078336, 16.607528283175256, 15.20393826968118, 27.027691919297787, -21.875942882722832], [-31.578909948869274, 5.093770269638435, -2.1502533501401335, 34.01969278446488, 12.337492346426489, -18.77904385434446, -31.979641307948544, -21.21651175699069, 48.81338897324165], [55.7025741318098, -22.35899236436728, 4.6630623272593414, 4.856396268392285, -41.48224093645093, -44.761545432714044, 19.57982751884851, 10.303320271795156, -5.280828023276104], [-33.5421492820466, -6.544905739159122, 1.4184034668113148, 28.42757269596372, 33.29833389906643, -6.4387896275295295, 30.62193319543199, -35.488884626231275, 16.952880099272342], [-10.772678348779706, -4.784437891594372, 11.509787371577593, -4.556271539547789, -15.093487383047977, -18.084189502816045, 79.31174624045121, -76.35855584532203, 18.823967236230587], [23.54817996807126, -2.973525995730951, 26.658890177131614, 26.204308193955974, -24.497290045911562, -26.946492179453713, -11.024626622589594, -48.87508302317744, -5.631075232762877]]], "networkBiases": [[-2.1043911065878045, 3.187229433448165, 4.778794679466938, 1.6936241961632594, 4.618452395272236, -1.919538767788497, 1.8680803995401176, 5.088963637982384], [-3.8622762069979224, 6.531027990847719, -2.891463771028477, -2.2113325675000555, 5.7252207854312, 2.419139507528167, -1.305245110517473, 3.4708531795966393, 2.360820774414293]]}