{"structure": [9, 8, 9], "networkWeights": [[[-0.49727447954215853, -43.8352468664275, -1.1888496209085677, 1.7096052641335422, 0.8340208601164091, 25.187735063102412, 9.163068016171316, 51.07479384795832], [-3.9770338940869907, -2.0661731203809475, -14.071881486638018, -13.773944675735809, -7.232899616090471, -19.88520030406424, -18.147474563660985, -23.64131419771694], [-12.640721420767933, -4.186835080539742, 5.02395697510589, -13.56795934533832, -7.843300449676585, -6.351293467510867, 34.873425191962454, -9.55074057150243], [44.62127486727424, 18.748278723817876, 10.819464106620979, -13.87324348628841, 20.272148235058243, -1.0780182741868651, -7.84595082388102, 53.08641621729379], [-34.76101169518428, -4.678728776362514, -36.47229087544157, -2.364289112066354, -16.318572026245715, 17.642505230533, 4.094684461675688, 31.057196097314428], [1.8631615374940436, -26.213096615060596, 47.368955233870686, -13.697316429104529, 19.27376388811686, -28.391982374708277, 4.175692180039896, 40.77957113041038], [-11.548417832827605, 29.097164931710676, -30.130136225900028, 32.52236702317066, 26.394557427652593, -30.532001346304543, -13.609394406284933, 24.947505926392925], [-35.12878109095123, 42.49290083269018, -23.649570099315135, 27.887701652992543, -1.1225520134048188, 0.14395607372132196, 2.329959912555298, -18.039040775310472], [-15.37164644164505, 22.368260230922797, 69.78895157656984, -20.915952835723, 7.71132528566164, -22.011198317543204, -16.388035800006694, -22.768272315425595]], [[2.502474811547404, -39.53341927977811, -15.113622040794358, -14.108913825287848, -41.054507460493, -1.3269068800663564, -1.7953149046584005, -4.497469929623808, -22.39596498920482], [7.754512466432271, -0.6591820974995982, -17.45594564623584, -44.14055517305185, 51.90583091877233, 32.21366350056271, -36.65653324072495, 13.939171625805427, -10.061887354558952], [-45.771184821230946, -20.053334022001117, -10.77782752841172, -10.092534550097206, -40.09328280065599, 16.407419223836186, 15.040098727158226, 27.037639888321355, -21.89694245669784], [-31.601170324198353, 5.175826962951067, -2.282402203741656, 33.98289474702625, 12.249423041512742, -18.763591568309568, -31.876810799318775, -21.3449454173345, 48.7431355576393], [55.551855380583596, -22.338182772538612, 4.674230679699817, 4.819830157902219, -41.33046790916103, -44.975889521367186, 19.54550559288149, 10.22098207621805, -5.357282468322567], [-33.62384901153563, -6.488056525652796, 1.2204011119918492, 28.347913637255225, 33.23493390576415, -6.277779595269632, 30.780164471974764, -35.560776454616565, 17.007368148173562], [-10.737898272534391, -4.8346626152546195, 11.461119169666755, -4.5882512857197595, -15.163417142838163, -18.30342497455087, 79.29225718557069, -76.17969145850832, 18.73110513755268], [23.58892869774119, -2.7876994320212853, 26.643971739545133, 26.06130295837561, -24.66319336104511, -27.05958946167806, -11.147457928353024, -48.9296087098901, -5.525851598233625]]], "networkBiases": [[-2.399249582083463, 3.5778452906238702, 5.046311982334754, 1.3863136772568854, 4.60705312418131, -1.5555868109964173, 2.002393407698059, 5.496748007420337], [-3.9681365517273908, 6.605950800238463, -2.7694176399468007, -1.7076635403432059, 5.901339548657582, 2.2649271770803323, -1.7132264639766626, 2.9757670228247552, 2.410606393198142]]}