{"structure": [9, 8, 9], "networkWeights": [[[-0.49727447954215853, -43.82476975224972, -1.1888496209085677, 1.7096052641335422, 0.8578002794887603, 25.187735063102412, 9.163068016171316, 51.07479384795832], [-3.9770338940869907, -2.1094732336060553, -14.071881486638018, -13.773944675735809, -7.232899616090471, -19.88520030406424, -18.114730326256975, -23.64131419771694], [-12.629929277261784, -4.142492321868892, 5.02395697510589, -13.568505175789157, -7.843300449676585, -6.335877886559753, 34.831072183052605, -9.55074057150243], [44.62127486727424, 18.748278723817876, 10.820812583476846, -13.87324348628841, 20.288160744351835, -1.0780182741868651, -7.894886502186476, 53.10369866686064], [-34.76101169518428, -4.678728776362514, -36.47229087544157, -2.364289112066354, -16.318572026245715, 17.642505230533, 4.094684461675688, 31.055198424645017], [1.8262942020933826, -26.213096615060596, 47.368955233870686, -13.697316429104529, 19.27376388811686, -28.391982374708277, 4.175692180039896, 40.749658937760096], [-11.548417832827605, 29.097164931710676, -30.088336187549963, 32.55601276865434, 26.370815416115853, -30.532001346304543, -13.609394406284933, 24.947505926392925], [-35.14257213579229, 42.49290083269018, -23.649570099315135, 27.887701652992543, -1.1533354623461494, 0.07122157282884148, 2.329959912555298, -18.039040775310472], [-15.37164644164505, 22.368260230922797, 69.79643425649631, -20.950570369112288, 7.71132528566164, -22.011198317543204, -16.388035800006694, -22.768272315425595]], [[2.502474811547404, -39.53341927977811, -15.113622040794358, -14.108913825287848, -41.054507460493, -1.3269068800663564, -1.7953149046584005, -4.497469929623808, -22.422286722143014], [7.754512466432271, -0.6591820974995982, -17.45594564623584, -44.14055517305185, 51.87469231087139, 32.21366350056271, -36.65653324072495, 13.939171625805427, -10.098249001887773], [-45.771184821230946, -20.053334022001117, -10.77782752841172, -10.092534550097206, -40.09328280065599, 16.406026661657506, 15.040098727158226, 27.037639888321355, -21.89694245669784], [-31.601170324198353, 5.175826962951067, -2.282402203741656, 33.98289474702625, 12.249423041512742, -18.763591568309568, -31.876810799318775, -21.3449454173345, 48.7431355576393], [55.551855380583596, -22.338182772538612, 4.701803702049688, 4.860806794495985, -41.33046790916103, -44.975889521367186, 19.54550559288149, 10.244090576480287, -5.357282468322567], [-33.62384901153563, -6.488056525652796, 1.2204011119918492, 28.347913637255225, 33.28197233231038, -6.277779595269632, 30.780164471974764, -35.560776454616565, 17.007368148173562], [-10.737898272534391, -4.8346626152546195, 11.461119169666755, -4.5882512857197595, -15.147947798256011, -18.30342497455087, 79.27005175957633, -76.15462269211073, 18.71960180583381], [23.553276084578492, -2.7876994320212853, 26.643971739545133, 26.06130295837561, -24.66319336104511, -27.05958946167806, -11.147457928353024, -48.88634755372427, -5.525851598233625]]], "networkBiases": [[-2.3467273525283208, 3.5829235271606894, 4.982162762626525, 1.3675290642677969, 4.6085741695842986, -1.5386276542145998, 2.005088237725498, 5.544901901122702], [-3.9832803330441076, 6.560426174265429, -2.7552888608921626, -1.6628228855975058, 5.970045499737618, 2.288268067877385, -1.6935850087867357, 2.9792869321076547, 2.3750124898712106]]}