{"structure": [9, 8, 9], "networkWeights": [[[-0.7270715981497313, -43.80993250270616, -1.046154052239343, 1.5161873942413937, 0.9362076938943982, 25.06848878270541, 8.861179979323703, 51.785788669851044], [-4.386896336292586, -1.5826663411070119, -14.553325265159671, -13.588042262364851, -7.432784829870815, -19.907108859211345, -18.400242197225694, -24.13693571130439], [-12.956554070711807, -4.231194913254118, 4.429113851855126, -13.086462395345889, -8.210666257964535, -6.2512118647979245, 34.89458652178761, -9.622069495156556], [44.35518144855342, 19.101652482138707, 10.541533100734656, -13.68980675533798, 20.15109893719759, -1.0494739109927962, -7.334528727488624, 52.941314134400194], [-34.7944681335703, -4.99327864038907, -36.47888996175942, -2.9794999267128763, -17.22926883489575, 17.86252928296992, 4.295090992151133, 31.298293665660506], [1.9391002991045645, -26.312487980389953, 47.219988417023124, -13.691895346013066, 19.215432007497462, -28.71043267991361, 4.895866698960756, 41.325240924906666], [-11.646597666674383, 29.5212904478872, -30.083602745673698, 32.499704719410616, 26.252619135119613, -30.51089364607537, -14.184789623318181, 24.4419306685685], [-34.7555985412577, 42.89892044885871, -23.333213802261596, 27.546792866186202, -1.0601090289216915, 0.006219529870028884, 2.1142579232910768, -17.693605804819146], [-15.685722286647188, 21.86273461776973, 69.79281593419343, -20.81127487963653, 7.43515637445234, -22.23480243191499, -16.896991803253805, -23.075349765063155]], [[2.1812598241753673, -39.4103619736489, -14.79608491885628, -14.241786559537319, -40.10755535530703, -1.7422614404378627, -2.0646686566535206, -4.525589968875217, -22.28798602335208], [7.710883159813643, -0.38947731380590345, -17.39285873948694, -43.94476516723606, 52.08259884980234, 32.0040048224481, -36.48233127398707, 14.07297356187146, -10.04934269380293], [-45.07479241138876, -19.74289095321322, -10.110294383824622, -10.275494884643761, -40.0820232052162, 15.947856750708503, 14.747275047932431, 27.14142100844069, -21.71989738769216], [-31.023798678730373, 5.826037954513826, -2.541271187686394, 34.30495804090295, 12.139738343774136, -18.859467026262905, -31.94322074692907, -21.212182482506282, 49.40278061795901], [55.899751011560674, -22.164882541516075, 4.399052250402175, 4.674417362093769, -41.483762554136675, -44.503825979363405, 19.72587048842261, 9.747302476382481, -5.01912463660242], [-33.83121271149453, -6.568702774719318, 0.7585586326444445, 28.690259368573724, 33.01163411289741, -6.404644670727984, 30.552288819676082, -35.74765056085846, 17.37169718894187], [-11.03327644859712, -4.861239727748096, 12.063961166856258, -4.869657015301585, -15.089029884780814, -18.34932847707585, 79.31744169148243, -76.13598720506812, 18.096402438492373], [23.39236939584165, -3.4139834861599625, 26.121200952103933, 26.02356513128816, -24.759968414558813, -26.623881585808014, -10.96397704990699, -48.87149271428298, -5.420976009713501]]], "networkBiases": [[-2.047498772285993, 2.2927200441285405, 4.189917223234625, 1.4957568094306888, 4.3745537929682135, -1.1757585916634432, 2.669499974422239, 5.392654059974564], [-4.286264934557601, 6.343321830146083, -2.3537608050920644, -2.1339621024417257, 5.686852510030869, 2.6075203350097187, -2.756339410227207, 2.081401837562977, 2.6247030626487975]]}