{"structure": [9, 8, 9], "networkWeights": [[[-1.4437199812466526, -43.89748706872763, -1.5618239222984174, 1.1186010561661197, 0.14252090313317017, 24.65344510816123, 9.0647790985565, 51.90289958937829], [-5.313791022500055, -1.4047303189350815, -14.420898109876003, -13.908674643362756, -7.88149699682746, -20.530778889571458, -18.249290420514793, -23.66809531034141], [-13.671977154720794, -3.790791111571001, 4.204295325560417, -13.455825112690208, -8.995811739830538, -6.3331277002192445, 35.22975427200362, -9.445354883859812], [44.22647872400216, 18.575622718894156, 9.810173630853551, -13.086230501021829, 20.39332118267082, -1.5644648931416272, -6.7714938761270895, 52.54733772002326], [-34.338845425189525, -6.179413452938378, -37.62880255017206, -2.9463111777397644, -16.784490244671048, 18.042083222950154, 3.573898026391707, 31.690143621025772], [1.308117753483827, -26.191856680502333, 47.1705012401425, -14.356255498101318, 18.857994229285524, -29.115519208030708, 4.525199944290961, 41.600323812113245], [-10.288965090850102, 29.549686961708886, -30.588273802844554, 32.14399916962468, 25.556734003079463, -30.294806366796223, -13.203714549271192, 23.993935779886755], [-34.937339640387194, 43.15036301948973, -22.389017166175844, 28.01840733551591, -1.1756893255484018, -0.09121990989514156, 1.9120742314019612, -18.345702195242303], [-15.818095491954749, 21.831204156248695, 69.06859879037582, -20.221773538717894, 7.835110286959175, -22.80885952309232, -16.817267684476718, -23.604761027870914]], [[1.9643295945277832, -38.96507484774852, -16.08792486096858, -14.229926868256914, -38.910777303828375, -2.045568645229013, -1.8649359403629013, -4.2307078427299345, -21.570803766665748], [7.060745556701152, -0.05226222526761154, -17.27191029746885, -43.16529802620123, 52.32476427259512, 32.10056211669901, -36.06381178711583, 14.086549158528477, -10.735736202187324], [-44.91820992822146, -19.684008009979593, -9.393400558857895, -9.790013213651132, -40.91399082771527, 16.42718253712968, 13.636075162406344, 26.42979001659242, -21.24130971524768], [-30.019464722029355, 5.509960972568077, -3.181850965607466, 34.53594579584452, 12.701514553641305, -18.606135119611103, -31.262847213481017, -21.714675491263417, 48.652165892604486], [55.34990549358024, -23.024450434547497, 4.2616815937097074, 4.297910999949111, -40.6006739452948, -44.73961629888805, 19.95842866943543, 9.66266390116994, -5.233583748372073], [-33.74115861660591, -6.646595099377724, -0.05746847420752449, 28.54452839722767, 32.607326525178706, -6.069775467981171, 31.014231730072282, -35.667782158482474, 17.358335647397265], [-10.290915916719145, -4.271310639870393, 12.196941790715671, -5.172016275380823, -14.448333234165487, -19.17619292846638, 79.78338440671784, -77.14629206566714, 18.45593954016392], [23.445492472295566, -3.065104309316121, 26.28548560807719, 25.631927200816094, -25.214425496118423, -26.601288722399563, -11.162277355633032, -48.9105675746484, -4.212319842444882]]], "networkBiases": [[-2.841686300286373, 2.705555737904687, 2.2588870380102017, 2.255499924559309, 2.771895005575683, -0.48723340108607327, 3.4069489385014107, 7.057629855355874], [-1.9809449360464844, 4.784606845975383, -2.459079509950892, -2.643355067111596, 5.842706741742239, 2.9778372153834223, -1.5538055974245149, 2.4264960318401756, 1.6115090891376118]]}