{"structure": [9, 8, 9], "networkWeights": [[[-0.7341993282239299, -43.42755562080001, -3.0389079567715465, 0.5524840112860867, 0.4531032326484974, 22.595135309508063, 7.435799618096384, 51.37596358786703], [-5.15855549521919, -0.47973439910806737, -12.883290886835656, -13.204085448293096, -8.495135051473264, -20.169012939914946, -18.437578587788877, -25.174858773929003], [-13.897040927111801, -4.57369949446178, 4.551936060717882, -12.921842639451192, -8.375823757847217, -6.146399395200014, 33.45557581765281, -9.949638076876953], [45.14022364504573, 18.06099066118513, 9.070062333521356, -13.751152709815303, 20.377399079795115, -1.3670798878678858, -5.308690352663854, 51.85164535549613], [-35.812674089571956, -4.599740861797081, -37.260292476317645, -2.780206138416492, -16.204166386308188, 16.079486992648334, 4.556168151217288, 33.34876912989108], [1.480914692104337, -24.379368443742948, 45.92659492085994, -14.09932837264162, 22.106688023307182, -27.69353967671486, 4.339789147149544, 41.40868997590498], [-8.287697581942824, 28.302270697689558, -30.945279488820407, 32.39135841506322, 26.022449451478433, -29.9798266229821, -12.762812525241408, 26.352170591385544], [-35.24817437195218, 40.99975412934451, -21.068613715785887, 27.55134905735882, -2.2997354800089376, -0.730856085173875, 2.6895403425353837, -18.37018571453991], [-17.65187009619701, 22.16643773960013, 69.25785986096245, -18.492621284384878, 8.392203009740273, -20.821317131269744, -18.114148400942586, -23.363910643858286]], [[4.513072170612036, -38.38837715175247, -14.93216298386737, -15.744532362053105, -41.14317791253705, -3.42479942939742, -1.3666478494232983, -4.543520547519048, -21.703414014402668], [6.930328822761827, 0.19059609531393118, -17.946915189818863, -42.843420493381245, 52.04564259819212, 32.94113416642816, -37.07168696196607, 14.210906094678565, -11.48953365498359], [-44.54399068713038, -20.788843889403076, -10.758167604621308, -9.917545098845894, -41.07499928833638, 16.82077660993071, 15.979300929270163, 26.93522691050729, -21.716278065628952], [-29.97333427748385, 6.366739674689565, -2.8849576182571623, 34.76780439926265, 10.825327278678593, -17.986032839177525, -33.90328743337647, -19.230765294441785, 49.24952771626119], [55.98367873403086, -24.068132908384825, 3.1807347556130363, 3.548263916120247, -40.916721603029714, -44.8126245010502, 20.311336322081534, 10.101106690132768, -4.157290809394509], [-32.83216135836275, -5.706947541092735, -0.23042873309498724, 28.949430062455136, 33.985228811238265, -4.856094394224291, 30.80233314403062, -35.008780425579126, 15.456583600351125], [-11.67346714015404, -5.443718189315864, 11.128126892286149, -4.292333309948989, -14.384422048102447, -21.090853620908657, 80.35746534865409, -78.50892126747776, 20.87623531061346], [23.123683701571974, -0.4271167572155381, 24.206535446205045, 22.87677255688995, -25.449579373167097, -26.957517805531033, -10.397074697512183, -48.60330758131884, -3.8818854775008056]]], "networkBiases": [[1.0, 1.0, 1.0, 1.0, 1.0, 1.0, 1.0, 1.0], [1.0, 1.0, 1.0, 1.0, 1.0, 1.0, 1.0, 1.0, 1.0]]}