{"structure": [9, 8, 9], "networkWeights": [[[-1.5046363246057242, -43.89748706872763, -1.5618239222984174, 0.9391777151044172, 0.2480385172470731, 24.249498467675497, 9.183392590794234, 51.90289958937829], [-5.313791022500055, -1.4047303189350815, -14.357477523207466, -13.807564635650955, -7.88149699682746, -20.513569498216537, -18.45959357405194, -23.66809531034141], [-13.681338006635276, -3.6970259888745027, 4.447011163445404, -13.348028234985412, -8.995811739830538, -6.49647280522189, 35.02947606089567, -9.44668040066483], [44.0532506461264, 18.575622718894156, 9.810173630853551, -13.086230501021829, 20.39332118267082, -1.5644648931416272, -6.614759274122814, 52.54733772002326], [-34.37317434523009, -6.140951699848417, -37.62880255017206, -3.175702834662677, -16.541961866835976, 18.17671244819064, 3.5799315464823085, 31.68689889197667], [1.2039817457650797, -26.34755802794156, 47.296300782876045, -14.48254888895693, 18.92405946860485, -29.22237221346927, 4.7199740001072366, 41.24085613916756], [-10.32220419355766, 29.631234232095597, -30.588273802844554, 32.51954853612883, 25.556734003079463, -30.54459596108435, -13.203714549271192, 23.993935779886755], [-34.685874155818254, 43.15036301948973, -22.38555396195121, 28.01840733551591, -1.1756893255484018, -0.09121990989514156, 2.0495071835711753, -18.27554607468266], [-15.574479582950644, 21.82116304142544, 68.93605818555464, -20.28704085532475, 7.694719597020166, -22.80885952309232, -16.817267684476718, -23.604761027870914]], [[1.9643295945277832, -38.96507484774852, -16.08792486096858, -14.161349141648142, -39.03527393810203, -2.045568645229013, -1.627163901193202, -4.467650279225129, -21.454276857349697], [7.060745556701152, -0.24965260567452396, -17.27191029746885, -43.16529802620123, 52.32476427259512, 32.45226581903388, -36.06381178711583, 13.877391309770031, -10.687493262236856], [-44.89905789210192, -19.676657654656324, -9.333332610126458, -9.689893308815813, -40.90429431003054, 16.511532255508712, 13.666146333475742, 26.42979001659242, -21.133433614713706], [-30.019464722029355, 5.509960972568077, -3.181850965607466, 34.53594579584452, 12.701514553641305, -18.745956836787656, -31.262847213481017, -21.714675491263417, 48.89312664463156], [55.572431589784564, -22.78010869748815, 4.2616815937097074, 4.297910999949111, -40.737348236467334, -44.73961629888805, 19.95842866943543, 9.796441501047292, -5.173359610109109], [-33.74115861660591, -6.534395996444662, -0.11442518035299676, 28.547611244889733, 32.66365556060136, -6.270712037662615, 31.249488606848438, -35.65402372620493, 17.366096872335476], [-10.177119001933342, -4.25170548444575, 12.063544491762494, -5.172016275380823, -14.448333234165487, -18.858208884222808, 79.78338440671784, -77.14629206566714, 18.45593954016392], [23.38207431707506, -3.265082268438197, 26.28548560807719, 25.631927200816094, -25.26072563674591, -26.449181577773803, -11.162277355633032, -48.83616782647615, -4.068605567190518]]], "networkBiases": [[-3.5968440788666705, 2.3892141870775268, 2.3961276199922485, 1.960316223162557, 2.7473493458679874, -0.7728769402000102, 2.837110926698257, 6.477906539734111], [-2.4081410216864785, 5.055867550660245, -1.740685408329521, -2.468378358212268, 6.290236400181367, 2.5672021086216805, -1.4868416364237684, 2.700395003692573, 1.9980164479705844]]}