{"structure": [9, 8, 9], "networkWeights": [[[-1.5438003652750831, -43.72948951583779, -1.3053567857044484, 1.4402679731494903, 0.3522803412197121, 24.696095593136118, 9.26873691773178, 52.05661767004288], [-4.513234865016768, -1.9547303705254535, -14.399110032657806, -13.770747190265332, -7.778348513367191, -20.327539232334356, -18.41482334555791, -23.983568932459647], [-13.433381555778439, -3.5286434937306272, 4.459184044240006, -13.327197417317468, -8.718462396892054, -6.44524925162997, 34.93505404733585, -9.391651591365532], [44.0532506461264, 18.743481772987618, 10.737056347050244, -13.659186364332824, 20.071730834232806, -1.171122524020018, -7.506729299505567, 52.890158274947986], [-34.89547391380446, -5.218023636570948, -36.82702338840445, -3.2297704954278545, -16.69994910310633, 18.02367443363647, 4.352018719723916, 31.442125867339623], [1.555778338529552, -26.494527643772802, 47.11496114354853, -14.173763969379785, 19.317495261725096, -28.936122967679147, 5.072091333731825, 41.72219385377278], [-10.829943848828908, 29.46999239566034, -29.833112965505872, 32.331428121477124, 25.954085425194, -30.707511700593457, -13.74734346124417, 24.461806082864516], [-34.792439702007734, 43.01797276913627, -23.336589219478515, 27.926110466214645, -1.2932636555097772, -0.06174221339002717, 2.1142579232910768, -17.733348547710857], [-15.238757960315041, 21.93622500619963, 69.75519987520298, -20.374344289774868, 7.630700173114272, -22.31125565538184, -16.946328571132312, -23.186079273662564]], [[2.143847661021758, -39.5362049443924, -15.537405783241478, -14.231335677588143, -39.62897589334568, -1.8865022687529343, -2.23453925500172, -4.458309585527968, -22.161103495844813], [7.807558799532722, 0.16839512762682524, -17.319781450140496, -43.37957551462525, 51.941900495178565, 31.75458425118501, -36.40295335304038, 13.811038803807614, -9.923580809747214], [-44.76875773356249, -19.520452832393254, -9.96947025227386, -10.2024124652015, -40.30232960925421, 16.35482628998372, 14.598672690896308, 26.867728604539852, -21.29442145359806], [-30.74438716351842, 5.617067924694076, -2.781164335169338, 34.35153242205431, 12.029305712358031, -18.76367937434414, -31.286705991135126, -21.42843363825671, 49.370057998155275], [55.94994729767532, -22.295767175909994, 4.019050594232952, 4.399587146985131, -41.33117982565173, -44.57058210762686, 19.831090689869853, 9.170786108445554, -4.657655122073536], [-33.856955189390554, -6.420982943188085, 0.3678516621800846, 28.50051895680188, 32.91286493583806, -6.514764341213503, 30.68269934787488, -35.92714890457256, 17.22728504032143], [-10.939089550153788, -4.623350939261341, 11.950450114495075, -4.783895423042992, -14.749306915676701, -18.34932847707585, 79.31744169148243, -76.62572473621638, 17.984997699649913], [23.279204393907744, -3.5054766746804344, 25.959621374454333, 25.49742304496624, -24.498620235747175, -26.61625842629693, -11.108372524752804, -48.89510052216753, -5.029640816015219]]], "networkBiases": [[-2.5220028051469576, 3.8982284417204998, 3.193647334896284, 3.032301003616019, 3.2158260486862766, -0.5773278683597145, 2.6020670696232435, 5.694039345079796], [-3.6459460274558406, 5.577482155685232, -1.3818555098902277, -3.119973484045635, 5.652744539673041, 3.933587811682712, -3.372351139462814, 2.417306953508533, 2.1762923954183364]]}