{"structure": [9, 8, 9], "networkWeights": [[[-0.9396884918820072, -41.43322436616542, -2.094559965302543, 0.460972738419112, 0.05940121815079946, 20.906099152918483, 8.167877542638657, 50.11786438822842], [-6.168304128573016, -2.00340537837942, -13.971732035769985, -14.03023969493479, -7.33035353327979, -19.918354508306187, -18.84813023074524, -25.86673781236305], [-14.980647428819012, -5.259060345813474, 4.644115986535514, -14.30768006328238, -7.513930640171973, -7.172586953878422, 32.71846404484921, -10.014776672536058], [44.56717341811206, 18.193076342540966, 8.761371128404887, -13.264566512018838, 21.607642608143177, -1.3670798878678858, -3.500970588270209, 52.0373701709409], [-36.47214523063623, -3.9205698913864824, -34.05181736220651, -1.5343580881568792, -18.51820493753187, 17.237755578723885, 5.575978550297614, 33.9632766176209], [0.5647837096214037, -25.775316685773266, 45.145890390104015, -16.26354161223742, 22.40296765112557, -28.28564524233731, 4.70355650378458, 41.65479958946668], [-8.208821353027734, 29.693003874204702, -33.781826443263675, 31.40442007821215, 25.53330228585323, -29.407443348062213, -13.476480115263774, 27.834128204704612], [-33.72416559887759, 39.53733630744774, -20.772434274127217, 28.099690921629854, -3.1631883435160892, -3.3751418405873963, 1.4321629572734504, -17.864377216065936], [-18.04248462187392, 21.660355758076435, 69.48215624920253, -18.387026278640874, 11.208256472546664, -20.65470805510771, -18.86529175170421, -24.489609118861434]], [[3.990970013089342, -36.22883042826323, -15.89676127473669, -14.903433064968679, -42.35295139777259, -2.4620511202894164, 0.22972260866957672, -4.834212260261428, -23.339784713443894], [6.930328822761827, -0.8492516852442686, -16.503105373387534, -42.71263306230184, 47.57616981392813, 32.87247614818859, -36.27941690992601, 14.30036382772856, -9.342829265565875], [-42.814951520756686, -22.58022354337194, -11.837109848307543, -10.270254230188819, -40.61524411794171, 18.870699213124965, 15.827758680977558, 26.13256220670587, -20.588454992737454], [-29.817630041547627, 7.40527076431129, -3.3033836142229416, 35.56011529170696, 10.542075860377825, -17.654120412407963, -34.01016854165665, -17.240326089789605, 49.85082740087741], [56.2555089765645, -24.298643813610393, 3.0755205540281203, 4.260252900248315, -40.406754793084524, -45.40437014197798, 21.119731351206397, 10.068116409609852, -5.357638492046419], [-33.390102615716664, -6.308715729074866, 0.7339916910690745, 30.420274872527713, 33.07515847602215, -2.1381263375034063, 30.376989079186345, -35.586441451811524, 16.97483633668859], [-13.907099108269588, -5.818677465056785, 11.310140963519984, -6.095477812710774, -15.055059060512193, -19.66154255599191, 81.85416689959186, -77.42294972426494, 21.25535657494901], [21.795371501799746, -1.5720877699287688, 25.03907494594078, 22.939616418980094, -25.335034607245596, -24.56646205121131, -15.82361433899591, -47.49611601619598, -2.406436813944409]]], "networkBiases": [[1.0, 1.0, 1.0, 1.0, 1.0, 1.0, 1.0, 1.0], [1.0, 1.0, 1.0, 1.0, 1.0, 1.0, 1.0, 1.0, 1.0]]}