{"structure": [9, 8, 9], "networkWeights": [[[-0.9396884918820072, -41.43322436616542, -2.094559965302543, 0.460972738419112, 0.05940121815079946, 20.906099152918483, 8.167877542638657, 50.11786438822842], [-6.242229226412842, -0.7499081004345904, -13.971732035769985, -14.03023969493479, -7.33035353327979, -19.918354508306187, -18.84813023074524, -25.86673781236305], [-14.980647428819012, -5.259060345813474, 4.644115986535514, -14.30768006328238, -7.432376687409383, -7.172586953878422, 32.71846404484921, -10.014776672536058], [44.56717341811206, 17.85656526910537, 8.761371128404887, -13.264566512018838, 21.607642608143177, -1.3670798878678858, -3.500970588270209, 52.0373701709409], [-36.47214523063623, -3.9205698913864824, -34.05181736220651, -1.5343580881568792, -17.763548952409405, 17.237755578723885, 4.870084373811561, 33.9632766176209], [0.5647837096214037, -25.775316685773266, 45.090595463183206, -16.31753635907195, 22.40296765112557, -28.28564524233731, 4.70355650378458, 41.397793823889316], [-8.208821353027734, 29.115902322646658, -33.781826443263675, 31.40442007821215, 25.53330228585323, -29.86305213643032, -13.476480115263774, 27.834128204704612], [-33.72416559887759, 39.53733630744774, -20.772434274127217, 27.6636552800447, -3.1631883435160892, -3.373839288283206, 1.4321629572734504, -17.864377216065936], [-18.04248462187392, 21.256275271639275, 69.48215624920253, -18.387026278640874, 10.856450329150828, -20.65470805510771, -18.86529175170421, -23.787624338850428]], [[4.83009670391449, -36.22883042826323, -15.89676127473669, -14.903433064968679, -42.35295139777259, -1.9494917792342994, 0.22972260866957672, -4.834212260261428, -23.339784713443894], [7.052863077148651, -0.8492516852442686, -16.555127703736492, -42.87139593200829, 47.57616981392813, 33.7639413363309, -36.27941690992601, 14.30036382772856, -9.657380263042388], [-42.814951520756686, -22.58022354337194, -11.504172474604589, -10.270254230188819, -40.61524411794171, 18.870699213124965, 15.827758680977558, 26.13256220670587, -20.588454992737454], [-29.817630041547627, 7.40527076431129, -3.7236669138764826, 35.56011529170696, 10.542075860377825, -17.654120412407963, -33.9836427525863, -17.240326089789605, 49.85082740087741], [56.2555089765645, -25.15000509688409, 3.2734514539799084, 4.260252900248315, -40.406754793084524, -45.40437014197798, 20.396020047993463, 10.068116409609852, -4.8463904385025405], [-33.390102615716664, -5.421152489283194, 0.7339916910690745, 30.420274872527713, 33.133154357083015, -2.1381263375034063, 30.376989079186345, -35.586441451811524, 16.97483633668859], [-13.907099108269588, -5.818677465056785, 11.310140963519984, -5.537527579860722, -15.055059060512193, -19.8850708361544, 82.94132768797188, -77.42294972426494, 21.012101416196284], [21.795371501799746, -1.5720877699287688, 25.03907494594078, 22.939616418980094, -25.335034607245596, -24.56646205121131, -15.82361433899591, -48.24964660327681, -2.406436813944409]]], "networkBiases": [[1.0, 1.0, 1.0, 1.0, 1.0, 1.0, 1.0, 1.0], [1.0, 1.0, 1.0, 1.0, 1.0, 1.0, 1.0, 1.0, 1.0]]}