{"structure": [9, 8, 9], "networkWeights": [[[-1.2072623121272037, -44.0089470574365, -1.529083810382962, 0.9391777151044172, -0.0981415257919927, 24.65344510816123, 9.10523209048973, 51.99112314734543], [-5.313791022500055, -1.1701126799143684, -14.420898109876003, -13.735820522227039, -7.88149699682746, -20.535428044746077, -18.249290420514793, -23.71200334625582], [-13.671977154720794, -3.790791111571001, 4.246205233641869, -13.81458754898629, -8.811671923431822, -6.096537375738466, 35.10454243706654, -9.445354883859812], [44.0532506461264, 18.575622718894156, 9.605481457309237, -13.237172646725437, 20.331443292933905, -1.3201519474985635, -6.739771932499216, 52.48455129825377], [-34.42910215112612, -6.040310284445938, -37.62880255017206, -2.7659919636495, -16.784490244671048, 18.042083222950154, 3.5799315464823085, 31.889056904029335], [1.3772073172700976, -26.0148632273792, 47.1705012401425, -14.538721453802498, 18.977455130554794, -28.974700337280346, 4.198221401302424, 41.1831411202871], [-10.140337233201937, 29.858440908418718, -30.413879518725707, 32.32639405158073, 25.925381378370712, -30.394434498046476, -13.203714549271192, 24.082510502873962], [-35.02305866308719, 43.27340596438275, -22.37754016991888, 28.01840733551591, -1.2805971796632634, -0.09121990989514156, 2.0406144528790175, -18.19144094154066], [-15.659641192260697, 21.838103997970272, 69.17576814371682, -20.373486297789082, 7.808176259031747, -22.386389355914094, -16.817267684476718, -23.968100750777456]], [[1.7711896745807678, -38.74299611591758, -16.08792486096858, -14.499968870760695, -39.023051621067715, -1.8272614579469995, -2.000994003289013, -4.259266787632201, -21.428630796327916], [7.302044312827175, -0.020900600989724794, -17.27191029746885, -43.396464252330134, 52.32476427259512, 32.347420309766676, -36.09932453161022, 13.877391309770031, -10.735736202187324], [-44.5234567762036, -19.888159423540692, -9.554922702549225, -9.554164172582237, -40.90429431003054, 16.42718253712968, 13.726498067279223, 26.42330686862286, -21.404164212804265], [-30.019464722029355, 5.509960972568077, -3.009144436304121, 34.68140447111261, 12.701514553641305, -18.537159953012875, -31.55052647404143, -21.714675491263417, 48.85871217550615], [55.58204764465235, -23.024450434547497, 4.149766700724795, 4.370942395991961, -40.57081244565661, -44.73961629888805, 19.95842866943543, 9.585443497410276, -5.511677024088481], [-33.74115861660591, -6.646595099377724, -0.6283151648379733, 28.09504027511408, 32.607326525178706, -6.127742419330608, 30.83018408359757, -35.88697423054414, 17.09692668950541], [-10.028208351688182, -4.463402998247655, 11.859023406618475, -5.216006682387431, -14.592241933852044, -19.287978998780414, 80.07563947779073, -77.27819503842836, 18.579238498023926], [23.54975516125679, -2.961747781585524, 25.753404107866864, 25.631927200816094, -25.214425496118423, -26.647225480661266, -11.237502035483063, -49.19866764346395, -4.837746103886653]]], "networkBiases": [[-2.955175496687197, 2.3699880257625114, 1.8683851203144592, 2.8043692689996416, 2.912430270286172, -0.9091975831529698, 3.451379673988042, 6.999721672121751], [-1.667679166385072, 4.7784103899458374, -2.3973170138274793, -2.0560122085071764, 5.484392185331889, 3.0476196006827565, -1.720811639697065, 2.3262252878984793, 1.880844355017016]]}