{"structure": [9, 8, 9], "networkWeights": [[[-0.7341993282239299, -43.191265782385926, -3.0389079567715465, 1.4182007191831572, 0.4531032326484974, 22.82131286895551, 8.134564538663366, 51.37596358786703], [-4.845314035074385, -0.47973439910806737, -12.883290886835656, -14.100862423871428, -8.11911114719298, -20.169012939914946, -18.437578587788877, -24.965702720332278], [-13.342074194430849, -4.57369949446178, 4.551936060717882, -13.733403797212981, -8.359440771450418, -7.118676067949115, 33.45557581765281, -9.949638076876953], [45.14022364504573, 18.06099066118513, 9.46717315608101, -13.514633327880802, 20.377399079795115, -1.3670798878678858, -5.0611885305771445, 51.85164535549613], [-35.812674089571956, -4.4744011388448985, -36.32077882937743, -1.9137010461015147, -16.204166386308188, 16.079486992648334, 4.556168151217288, 33.34876912989108], [0.8562488665796941, -25.34840358172932, 45.92659492085994, -14.09932837264162, 21.89294220113765, -27.10247951586104, 3.839091707783075, 40.82883961150754], [-7.74753085603607, 28.58922218289163, -31.262805280329374, 32.563234664487936, 26.022449451478433, -29.9798266229821, -12.762812525241408, 26.352170591385544], [-35.89255473006759, 40.12495367302313, -21.068613715785887, 27.093672979381438, -2.2997354800089376, -0.730856085173875, 1.855657304836906, -18.37018571453991], [-17.709149239823475, 22.16643773960013, 69.25785986096245, -18.492621284384878, 8.392203009740273, -21.03117602387652, -17.335973499712015, -23.363910643858286]], [[3.821399208357236, -38.38837715175247, -14.93216298386737, -15.744532362053105, -41.14317791253705, -3.42479942939742, -1.3666478494232983, -4.5495113944418035, -22.872411900355107], [6.930328822761827, -0.7547388866359626, -17.01193088229884, -43.83900834653574, 50.153902124731495, 32.94113416642816, -36.00129347832955, 14.210906094678565, -11.48953365498359], [-44.54399068713038, -21.498251031851908, -11.560152888102628, -9.614904491379203, -41.07499928833638, 16.82077660993071, 15.979300929270163, 25.868021077896625, -21.716278065628952], [-29.85628505187769, 6.366739674689565, -2.166804133309814, 35.09082298332725, 10.777537939740869, -17.986032839177525, -33.90328743337647, -20.11832415713203, 49.24952771626119], [55.98367873403086, -24.381973167873365, 4.159789506483139, 4.195202277822689, -40.45938862058525, -45.417349274788194, 20.34757682289297, 10.101106690132768, -4.172384925041085], [-32.83216135836275, -5.706947541092735, -0.23042873309498724, 29.381798367390434, 33.69338992660721, -4.856094394224291, 30.504086229655286, -35.008780425579126, 16.52443681549127], [-11.67346714015404, -5.443718189315864, 10.629508900077155, -4.292333309948989, -13.99361406073737, -20.36024999178102, 81.08706203896347, -78.50892126747776, 20.87623531061346], [23.329706968661387, -0.4271167572155381, 24.206535446205045, 22.05982562892364, -25.449579373167097, -25.83445811332877, -10.588947480768168, -48.60330758131884, -3.8818854775008056]]], "networkBiases": [[1.0, 1.0, 1.0, 1.0, 1.0, 1.0, 1.0, 1.0], [1.0, 1.0, 1.0, 1.0, 1.0, 1.0, 1.0, 1.0, 1.0]]}