{"structure": [9, 8, 9], "networkWeights": [[[-0.7341993282239299, -43.191265782385926, -3.0389079567715465, 1.4182007191831572, 0.4531032326484974, 22.82131286895551, 7.974618536231985, 51.37596358786703], [-5.935041883435933, -0.47973439910806737, -12.883290886835656, -14.100862423871428, -7.33035353327979, -20.169012939914946, -18.437578587788877, -24.965702720332278], [-13.342074194430849, -4.57369949446178, 4.551936060717882, -14.581187782242514, -8.359440771450418, -7.118676067949115, 34.024054980122095, -9.949638076876953], [45.14022364504573, 18.06099066118513, 9.46717315608101, -13.514633327880802, 20.377399079795115, -1.3670798878678858, -5.0611885305771445, 51.85164535549613], [-35.14737241598948, -4.4744011388448985, -36.32077882937743, -1.9137010461015147, -16.204166386308188, 16.079486992648334, 4.556168151217288, 33.34876912989108], [0.8562488665796941, -25.34840358172932, 45.92659492085994, -13.640023674237398, 21.89294220113765, -27.10247951586104, 3.839091707783075, 40.82883961150754], [-7.74753085603607, 28.309902050593852, -31.198816654408432, 32.563234664487936, 26.022449451478433, -29.9798266229821, -12.762812525241408, 26.352170591385544], [-34.86338832684534, 40.12495367302313, -21.068613715785887, 26.71164116150088, -1.871125575090555, -1.1895966048150255, 1.855657304836906, -18.37018571453991], [-17.709149239823475, 22.16643773960013, 69.25785986096245, -18.492621284384878, 8.392203009740273, -21.42808385106186, -17.335973499712015, -24.336374331442215]], [[3.821399208357236, -38.26184382047623, -15.396096791666883, -15.744532362053105, -41.14317791253705, -3.42479942939742, -1.6938028660234012, -5.078269306591939, -22.872411900355107], [6.930328822761827, -0.7547388866359626, -17.01193088229884, -44.48569716121912, 50.752503409415446, 32.94113416642816, -36.46903473074231, 14.210906094678565, -11.48953365498359], [-45.360429217488615, -21.498251031851908, -11.560152888102628, -9.614904491379203, -41.97330874224004, 16.82077660993071, 15.979300929270163, 26.43084645730932, -21.16607042700652], [-29.85628505187769, 6.366739674689565, -2.166804133309814, 34.76780439926265, 10.777537939740869, -17.986032839177525, -33.90328743337647, -19.811873083362883, 49.24952771626119], [54.999190296622345, -24.99581437623395, 4.376094738869729, 4.195202277822689, -39.624302279922276, -45.417349274788194, 20.34757682289297, 10.101106690132768, -4.172384925041085], [-32.83216135836275, -5.706947541092735, -0.23042873309498724, 29.381798367390434, 33.69338992660721, -4.8934190130912905, 30.616063367496686, -35.008780425579126, 15.683074217302842], [-11.67346714015404, -5.443718189315864, 10.629508900077155, -4.292333309948989, -13.99361406073737, -19.596096435231303, 81.78258915413912, -78.50892126747776, 20.87623531061346], [23.590134450839788, -0.4271167572155381, 24.189037103591932, 22.05982562892364, -25.449579373167097, -25.83445811332877, -10.588947480768168, -48.60330758131884, -3.8818854775008056]]], "networkBiases": [[1.0, 1.0, 1.0, 1.0, 1.0, 1.0, 1.0, 1.0], [1.0, 1.0, 1.0, 1.0, 1.0, 1.0, 1.0, 1.0, 1.0]]}