{"structure": [9, 8, 9], "networkWeights": [[[-1.5618622991418492, -43.703734206113765, -1.3830161089908892, 0.9242696546153615, 0.2480385172470731, 24.57386822465198, 9.604420667290354, 51.699037588158305], [-5.067144245701805, -2.109041414692012, -14.49804735495093, -13.487181319039859, -8.159805176185333, -20.31108560673716, -18.489614697242178, -23.649242131160236], [-13.901276362011156, -3.545956637681798, 4.432284483460177, -13.652059084004021, -8.799811289283387, -6.552006287469881, 34.63558712179292, -9.489552317470638], [44.0532506461264, 18.73872325818884, 10.401464301223054, -13.338387013463182, 20.025821550636223, -1.2444914452004434, -6.859324349594931, 52.66356633290586], [-34.591955361590266, -5.79972636582167, -37.33143923667289, -3.4158304898207454, -16.693108091945497, 17.899159049921472, 3.8662044923848025, 31.353282314885707], [1.590592185721385, -26.1916981287106, 47.29560036073419, -14.234275880653138, 19.051571673788754, -28.875350336039432, 5.22548595391727, 41.711614544464126], [-10.301606858821653, 29.631234232095597, -29.99339438287477, 32.41742966835567, 25.8000401404238, -30.534779114183724, -13.470168112846016, 23.915666910889197], [-34.54033960020683, 43.01049345754198, -23.211251435687213, 27.87620797320477, -1.1705030304322401, -0.09121990989514156, 2.3648119709258077, -17.99348960395608], [-15.341671039549722, 21.83444627133795, 69.09177118770576, -20.5186013981736, 7.605660308866167, -22.855279570260578, -16.899843356615616, -23.367427775633953]], [[2.0622969101259865, -39.10287654712889, -15.720852575077906, -14.161349141648142, -39.2978533260879, -2.0112247706024453, -2.091173842745056, -4.551326939585976, -21.892401867866468], [7.367366670379306, 0.3479629160757956, -17.007533595140654, -43.39770912512604, 52.39116682147762, 32.2442395446863, -36.25951179776267, 14.171004548572142, -10.267511102759952], [-44.87678446370282, -19.437700075071582, -9.39143795176393, -9.778243161050861, -40.8081991473883, 16.0314065207239, 13.801193007181961, 26.466517209690153, -21.05787389096824], [-30.505278125079435, 6.2400458349780195, -3.461169202584179, 34.75104545586457, 12.334530067199456, -18.650593254640196, -31.32978408715632, -21.1706134192389, 48.919361061831346], [56.251260237881425, -22.79908174269398, 4.563712955933761, 4.324911297297835, -41.11131861249684, -44.73216539181267, 20.01928251049966, 9.387558407744116, -4.605826391901389], [-33.50696571941156, -6.246540202593377, -0.0058713830205505135, 28.242538277250897, 32.85457638473916, -6.44429445286208, 30.777422555853093, -35.6813598698979, 17.143090271806937], [-10.652072850730013, -4.571944002965422, 11.857012047075285, -5.120515912484606, -14.351082469031972, -18.52529325965216, 79.39266736027272, -76.65737449612607, 18.24875864153969], [23.268680769057813, -3.6682780853750843, 26.35568568863302, 25.710381764747787, -25.116097607015103, -26.60054515246779, -11.032520082154235, -48.8774484361346, -4.27840615508747]]], "networkBiases": [[-2.8939084064201572, 2.7501542795831924, 3.452135075207172, 1.6282592649000065, 2.110568665702332, -0.22040068259577694, 3.4616502341789688, 7.4502110522418485], [-3.6516993619840497, 6.221293832027563, -1.616791832288052, -2.3756691371156076, 6.104564310645248, 4.346076729040743, -2.450043271171146, 2.759817735812494, 2.0450128189289116]]}