{"structure": [9, 8, 9], "networkWeights": [[[-1.9094516619190254, -43.63790777862797, -1.8950859699591258, 1.3934547398723192, -0.3524561207269443, 24.35337268485218, 8.88623165331644, 52.04975117373077], [-6.129823045129576, -1.538742655304567, -13.950478513610193, -13.173119107789839, -8.139311641171735, -20.134340207871855, -18.265839918287856, -24.797108016327638], [-13.342074194430849, -4.327208510380462, 4.411471800163037, -12.540744244811052, -9.30414203819509, -5.927178555082288, 35.689994048032354, -9.535763743637162], [45.254445479427574, 19.251235367104787, 9.251329351670567, -13.571431766889276, 20.48017807897835, -1.785683244921238, -6.513481180057792, 51.93398962165458], [-34.14907954464961, -6.07595732556384, -37.265941380715624, -3.040215115801013, -16.83542210373756, 17.76685191181428, 3.36166256463624, 31.629023424482977], [1.1099445112388544, -26.004585952358767, 46.87094468329499, -14.92913583744082, 18.682347474063086, -28.78468433222894, 4.18301796118479, 41.10318367150509], [-9.925544067941194, 29.26109362308391, -30.709746333985947, 32.40399761884499, 26.681167740238763, -30.78726020519292, -12.985984366469982, 24.690221856887867], [-34.89785018315944, 42.23569713323515, -22.07904592117872, 28.409921643890723, -1.6481659949838268, -0.4146651655907574, 2.7367854985153293, -19.285437451992266], [-16.343019123134734, 21.661542586975116, 70.50564784522864, -18.517108324502143, 7.7220895488631935, -21.85139636715264, -17.114274326100997, -23.363910643858286]], [[2.0153312085069386, -38.734079927591885, -16.485547351696184, -14.071858537894075, -38.74206223284485, -1.9191242579158674, -0.8206198334392252, -3.390552030379564, -20.213481892633457], [6.911007827625875, -0.5777708058352198, -17.366770416133292, -43.27935313573782, 52.38583972328337, 32.85615276775041, -36.021444355791694, 14.885086252494242, -9.569201656711687], [-44.42246805195809, -20.258574819108162, -10.992896544411153, -9.59107512769602, -40.17385545887466, 16.17760930581883, 14.761666733213216, 26.283008698226904, -21.630830057887863], [-29.37647778630099, 4.693682552856753, -3.0576522559477306, 35.256287387610215, 12.609179322546481, -18.88898570959848, -31.71325542108677, -21.22816652572377, 49.23633833850906], [55.98019155498814, -23.361285372134056, 4.0938902953535035, 4.456384092120367, -40.41837527731139, -45.309841611417376, 20.60939783074193, 9.632648819405519, -4.999863450658134], [-33.606104599326045, -5.875048035620988, -0.6519296305627726, 28.537117358035868, 32.56111111293903, -5.0287512779833925, 30.750637878494967, -35.52627230185933, 16.44697796164519], [-10.271573459009165, -4.883501468638055, 10.873656139654248, -4.128852963010324, -15.63343891620689, -20.040705720306406, 79.71471270153214, -77.65385220076323, 19.47086419753766], [22.816946765730368, -2.0784633774122065, 25.3573097837902, 24.37749756929242, -25.749794787289336, -26.052432285172237, -11.449039066124485, -49.172070283747885, -4.149816958551845]]], "networkBiases": [[-2.685985546340306, 2.9550192249130802, 1.5203998858478047, 2.9003610764461722, 2.677473309808396, 0.18801853863257922, 3.1677337035867867, 6.657695528088435], [-0.8886481096678942, 5.2574409137436575, -0.943572573507393, 1.1133286502410678, 5.354992182439704, 2.5624618416571483, -2.562895642681298, -1.3809861685279832, 1.5526513763086964]]}