{"structure": [9, 8, 9], "networkWeights": [[[-0.6013489584438602, -43.8624275868353, -1.1450724385746247, 1.9521797438224828, 0.9523844723320607, 25.250711445826795, 9.101647614237889, 51.20177282830725], [-4.035225508793853, -1.679085865489725, -14.049511772172476, -13.681943734199592, -7.216546297244915, -19.83249713321764, -18.17424935877277, -23.57527260506011], [-12.411306156812891, -4.140499851686652, 5.267486741641567, -13.69736531693708, -7.732369676789808, -6.577678075693358, 35.11962360828646, -9.42745587526096], [44.67324155029476, 18.76910331254188, 10.884466926524299, -13.772330923655227, 20.356549855291753, -0.9032871657573047, -7.7220100066182376, 53.00396954991251], [-34.76526378464967, -4.669632611276243, -36.54902546562612, -2.281923475484045, -16.43023336090647, 17.667352844295078, 3.973703911954669, 31.096879189027945], [2.031652843952184, -26.077234059558478, 47.4404555843489, -13.639222510606531, 19.271515596322594, -28.448769316807002, 4.338483630895459, 40.83237997978842], [-11.693846404806061, 29.10898127438105, -30.096017707399746, 32.41299476264317, 26.140579057173724, -30.31549572913013, -13.387810059370256, 24.98821341898931], [-35.22237708112317, 42.48045662813533, -23.771974168243982, 27.98563054526699, -1.1715339536142615, 0.17660088517612704, 2.348920025936756, -18.039334066148992], [-15.455303751545584, 22.54377507194819, 69.75265566245798, -20.988423738052493, 7.73868100364595, -21.93952471882207, -16.44023471885142, -22.84712184016042]], [[2.4835739723544914, -39.439281637738226, -15.037706447499142, -14.153054446052248, -41.04236429611337, -1.3628039253838544, -1.529939187436127, -4.488229840146943, -22.188613042018222], [7.69611460897908, -0.6734760787371568, -17.399120532237408, -44.173767626419256, 51.92167015869269, 32.20048872492627, -36.64759466694497, 14.067284192502335, -9.978524491671253], [-45.94001064454415, -19.759655829060602, -10.73336028934863, -9.998201419117656, -40.02352468267749, 16.5603419146767, 15.19303834714616, 27.077608774304284, -21.875942882722832], [-31.602807257299585, 5.098666272521811, -2.163033113628029, 34.01969278446488, 12.262462351682428, -18.789778709495547, -31.977637024714795, -21.203811734546484, 48.81338897324165], [55.720652326990255, -22.308093031524113, 4.703219891892926, 4.869733505718189, -41.49737884811925, -44.754145809490836, 19.57048611873311, 10.35774797064307, -5.280828023276104], [-33.5421492820466, -6.559151622555509, 1.4314322981198122, 28.448384539457233, 33.335340848961664, -6.4387896275295295, 30.49172258510516, -35.47012821444516, 16.952880099272342], [-10.772678348779706, -4.851599107049608, 11.455046669045199, -4.529515264019938, -15.042885215528894, -18.09258354144025, 79.34398821313876, -76.3637067250891, 18.751503589707777], [23.548675163606752, -2.9081356625861616, 26.71223879060258, 26.15390846384415, -24.503504031674378, -26.946492179453713, -11.024626622589594, -48.87141419885626, -5.6049947150464146]]], "networkBiases": [[-1.985529057659883, 3.1559873803647736, 4.7062188613707985, 1.6646438387655553, 4.764476495828017, -1.9062611669159781, 1.7932054940624078, 5.1781295123124815], [-3.747169135154477, 6.577529200983619, -2.838667792862615, -2.1768293248288613, 5.710461048182442, 2.463019661738155, -1.3900388810555182, 3.3126482252896143, 2.364666881015165]]}