{"structure": [9, 8, 9], "networkWeights": [[[-0.5171630410350637, -43.805399159931284, -1.2081579192791478, 1.7585365075089874, 0.8562034045990286, 25.29980244186659, 9.163068016171316, 51.03572138219081], [-3.951064666359472, -1.9513645084693219, -14.084152183802999, -13.734024331164905, -7.225623681411343, -19.93721986802197, -18.16133611661402, -23.627998078014407], [-12.625369817804932, -4.1716789051340175, 5.02395697510589, -13.595422530342905, -7.894860693394703, -6.3915616076704485, 34.873425191962454, -9.55074057150243], [44.74806083186486, 18.79093688435037, 10.86846112041193, -13.8152672546104, 20.30093789053557, -1.0780182741868651, -7.811679450253591, 53.10369866686064], [-34.631689209398715, -4.695331932294452, -36.45144820529686, -2.3284582028003182, -16.290420062313267, 17.621986387632194, 4.094618796170525, 31.072688894671987], [1.878305130841156, -26.178835960677176, 47.35785447908653, -13.68047765352457, 19.21177647978948, -28.356133866651916, 4.14377333085974, 40.83985482194144], [-11.583477652078455, 29.056393552635097, -30.177829488214826, 32.52236702317066, 26.376156317012605, -30.48431114972489, -13.609394406284933, 24.930543509097802], [-35.12878109095123, 42.43994047353326, -23.590286787955726, 27.927986865887366, -1.1112429306927212, 0.15269843449416892, 2.367867701654535, -18.041426313229074], [-15.37164644164505, 22.40542562112475, 69.76707587216944, -20.95451557966755, 7.75493581390636, -22.049406965860385, -16.49419449857465, -22.768272315425595]], [[2.502474811547404, -39.61044231394424, -15.04486548257499, -14.148879737226686, -41.04623007162605, -1.3194371192590224, -1.762826405171354, -4.53425201063848, -22.39596498920482], [7.754512466432271, -0.6976553362034916, -17.429632164060685, -44.09611420879341, 51.83365298208738, 32.23298240292134, -36.65653324072495, 13.9466904752012, -9.99015237090296], [-45.764031863815184, -20.041047749111467, -10.784555123838855, -10.090765525167273, -40.06547241819689, 16.407419223836186, 15.050301182915993, 27.020375749280507, -21.89694245669784], [-31.601170324198353, 5.113544664653039, -2.31253364411899, 33.98289474702625, 12.288576889191894, -18.779148496231336, -31.889801189973948, -21.3449454173345, 48.756594253312535], [55.61168147478079, -22.30276738334261, 4.64314468961452, 4.819830157902219, -41.34771004412924, -45.02412096233694, 19.54550559288149, 10.289909946189233, -5.348827457039037], [-33.581819806065496, -6.488056525652796, 1.2204011119918492, 28.42445925711509, 33.26852932088343, -6.334279318985572, 30.78217494446508, -35.592538214461975, 17.007368148173562], [-10.722061735795497, -4.872566806576054, 11.495896492466809, -4.710509750726825, -15.149639980096385, -18.276450083139842, 79.28301403851316, -76.17969145850832, 18.647757146477012], [23.594786579808495, -2.7561480964185447, 26.613869351706555, 26.115103930085354, -24.66319336104511, -27.046612173600526, -11.04438907297483, -48.95244305815522, -5.491201585161532]]], "networkBiases": [[-2.334541946414889, 3.332001868539155, 4.897258287683248, 1.44728970313805, 4.717499384567201, -1.571846968298902, 1.8744850043856776, 5.408662091218961], [-4.151986794483149, 6.568130055615863, -2.776570452850833, -1.654419422086645, 5.640521049659436, 2.364948162952625, -1.7218108056017565, 2.8711852052212943, 2.478010336924992]]}