{"structure": [9, 8, 9], "networkWeights": [[[-0.5641685996286011, -43.85432632313973, -1.1922144572260793, 1.8098631345088425, 0.8174455108230622, 25.29980244186659, 9.112285949530113, 51.03669584408775], [-3.935325348711778, -1.8734841582073998, -14.03692156811995, -13.734024331164905, -7.1829477454428545, -19.881078812485995, -18.217445429740106, -23.578111150302437], [-12.581771166120914, -4.188282110021551, 4.993589778555688, -13.641000762628348, -7.816096464258043, -6.4345870006925665, 34.873425191962454, -9.519969518509434], [44.751936591219085, 18.814037501616212, 10.847136854777549, -13.8152672546104, 20.31646171910572, -1.0731691506020278, -7.859220535196653, 53.10369866686064], [-34.72054176697685, -4.701660045153559, -36.484779641911985, -2.3000540868390003, -16.24453814434684, 17.621986387632194, 4.007483616061558, 31.072688894671987], [1.8835371933597689, -26.20186261532107, 47.32069334683475, -13.681939338847505, 19.21177647978948, -28.297393164275757, 4.1879435887045275, 40.827035895100266], [-11.551670857842554, 29.047850950338315, -30.190503854945103, 32.56164251754016, 26.40321568355544, -30.509948546381793, -13.587708291495654, 24.899070252454162], [-35.16792994287999, 42.43994047353326, -23.641581132464516, 27.947963606167928, -1.1112429306927212, 0.15313714657772073, 2.3184463789608305, -18.067746150939108], [-15.499733641128538, 22.42646018800798, 69.74704563039732, -20.974558698015716, 7.71784744045715, -21.99445275285438, -16.5214916355052, -22.723642808093917]], [[2.5087118171704317, -39.595167356669506, -15.027961307607164, -14.142626962000737, -41.020317550307766, -1.2689092256076726, -1.7083254036801085, -4.5473646888323955, -22.34473783199004], [7.754512466432271, -0.7081591864294401, -17.432215824851845, -44.14288484677299, 51.88158908252939, 32.23298240292134, -36.66098842137088, 14.011469862257751, -9.982461218598907], [-45.771184821230946, -20.04778486959874, -10.784555123838855, -10.090765525167273, -40.05286953224383, 16.45205497765257, 14.949460355229805, 27.06858837322494, -21.89694245669784], [-31.50948256342286, 5.108451112237139, -2.303185802789323, 33.98289474702625, 12.251831559848647, -18.779148496231336, -31.88509725826282, -21.34483181907939, 48.77475354721432], [55.63424403401099, -22.351114044340424, 4.710855130145091, 4.8128254182410855, -41.428690594182626, -44.98511189446668, 19.635781083193088, 10.289909946189233, -5.348827457039037], [-33.52751541053081, -6.49982532333939, 1.2639397838711077, 28.42445925711509, 33.27540725023502, -6.35573708045663, 30.756391677591445, -35.58722425631, 16.980969927693753], [-10.69844649825439, -4.902621941340189, 11.463661452017869, -4.710509750726825, -15.141989924125884, -18.232848904304575, 79.28301403851316, -76.2237376555918, 18.68841421483281], [23.51034604592693, -2.731009715865545, 26.62518240372602, 26.200479288508653, -24.669851449863554, -27.049144166628576, -11.04438907297483, -49.04655050326776, -5.454209464207057]]], "networkBiases": [[-2.3601342046589213, 3.171385199192587, 4.927205611192216, 1.2928636740702417, 4.6199374639362425, -1.5636673152060765, 1.6005542789136529, 5.410368327041859], [-4.212648913265171, 6.706332489638451, -2.804015493981827, -1.5167708935627138, 5.653941451775151, 2.3484875659725604, -1.6324616279469442, 2.749659147358262, 2.1829167299395715]]}