{"structure": [9, 8, 9], "networkWeights": [[[-0.5835206641723856, -43.79531719352812, -1.1726508849683497, 1.77453667690528, 0.9329323520722159, 25.269842408432552, 9.082570305234965, 51.06512369568643], [-3.9921377022716316, -1.72496676081775, -13.986436595547346, -13.757267991866064, -7.343558982545173, -19.857459930373892, -18.146694775368125, -23.661943602687742], [-12.440837782015794, -4.1725289118361015, 5.17391814370347, -13.613147029648937, -7.748595958732447, -6.4938648386234075, 35.07410992413543, -9.419373949454146], [44.698081309877686, 18.783722637721393, 10.844714182002871, -13.843722314484316, 20.29857247718957, -0.9738589311214645, -7.738485226626931, 53.10581558225484], [-34.76526378464967, -4.781353619416757, -36.46295954371024, -2.247670057924286, -16.50886998879857, 17.682103467664184, 4.044569399314952, 31.021156036816233], [1.9800686421064146, -26.158589920747396, 47.40037771909585, -13.688691484237724, 19.269999049944907, -28.415338524861106, 4.341219882208129, 40.789869401814954], [-11.635353585811671, 29.172823327926505, -30.15368023207255, 32.45650134021296, 26.277402371573338, -30.360683155970385, -13.54010786540576, 24.910495808432287], [-35.22986943582576, 42.47487197232135, -23.696244689398885, 27.94521979826131, -1.1786249774926747, 0.19360189791447904, 2.3632726785380966, -18.057416804283417], [-15.462904544849053, 22.509750194543262, 69.72380183392696, -20.96472056742662, 7.729263070164473, -21.914092682700794, -16.504648629573172, -22.680749714323074]], [[2.5036979378676563, -39.433822169878006, -14.925321158933547, -14.09748801401065, -41.06941390446598, -1.3550803090650747, -1.5323152933715785, -4.554446354172613, -22.282887384016675], [7.719910067317008, -0.7280687933998392, -17.398883712308745, -44.16575297318549, 51.92173490224955, 32.224083849828304, -36.635745984865466, 14.011049096036876, -9.974277995035024], [-45.95629976578579, -19.865722441846007, -10.72450076343355, -9.993118629760113, -40.027911480861675, 16.57048244121531, 15.22234309326713, 26.98120966566551, -21.87380351261601], [-31.484196631350656, 5.0806868846929545, -2.200696275929291, 33.994004250924576, 12.270118768108972, -18.75176465856207, -31.91136882925291, -21.2407759153971, 48.7654062922867], [55.7025741318098, -22.439061070608513, 4.702198173662317, 4.890636776485027, -41.520822557409595, -44.76665450920454, 19.624878230656442, 10.245055410569051, -5.271837170702445], [-33.57670953339379, -6.549007903856875, 1.4293735643514505, 28.357694776305266, 33.235318639599114, -6.471876201527303, 30.74378128713469, -35.488884626231275, 16.943097569422743], [-10.758510394596833, -4.769742668045734, 11.461889069186203, -4.590557850803338, -15.104285560246414, -18.090394570658773, 79.29660764603236, -76.35855584532203, 18.803444370907663], [23.484698686071532, -2.9687872119790737, 26.609599738399062, 26.173094638651534, -24.513545002289888, -26.954188853509127, -11.019545860149272, -48.88403749724078, -5.509841374536944]]], "networkBiases": [[-2.1644066877180275, 3.3660941221366723, 4.9554039558363, 1.645019736883808, 4.594844717686586, -1.7514103650560495, 1.758552618440148, 5.254086950403822], [-3.947209835847798, 6.578877820082642, -3.030547476904308, -1.8346785649156367, 5.811935779827052, 2.3741653806885337, -1.110893534109712, 3.3824849656127802, 2.3556097913638028]]}