{"structure": [9, 8, 9], "networkWeights": [[[-0.6504034016710012, -43.58469709292894, -1.2264894812723974, 1.6622980974159791, 0.902662591699387, 25.2840245803918, 8.842758992249752, 51.411162942606936], [-3.939826080304961, -1.5826663411070119, -14.19244608201436, -13.750805358631597, -7.447321725018223, -19.809435625135716, -18.147474563660985, -23.955018029148846], [-12.872807409886594, -4.433197699584217, 4.513986410223609, -13.086462395345889, -8.032355251018412, -6.2512118647979245, 34.9055633037157, -9.739346349153095], [44.35518144855342, 19.09884292635217, 10.478223098565538, -13.68980675533798, 20.201846719315352, -0.9671969754065286, -7.334528727488624, 53.1842883037797], [-34.8082415904997, -4.793579460117356, -36.47888996175942, -2.6173235798188688, -16.839808854933892, 17.86918297536409, 4.159917929921812, 31.171408061748274], [2.090138084019284, -26.48022524910653, 47.219988417023124, -13.710777445246693, 19.27376388811686, -28.77781799968822, 4.641612350938975, 41.325240924906666], [-11.646597666674383, 29.13590130853811, -30.112430262672397, 32.480420359272784, 26.45085859862379, -30.533531349995283, -14.154677900966192, 24.469272213700016], [-34.77459634099302, 42.70854704426689, -23.333213802261596, 27.631924746648796, -1.0601090289216915, 0.1420366243529375, 2.2141257799147835, -17.607501714558065], [-15.588913666071404, 21.86273461776973, 69.79281593419343, -20.891854081895673, 7.823786339592826, -22.306770552162412, -16.62239326836, -22.842176289765273]], [[2.345367033817, -39.5304580544134, -14.784841993149989, -14.192282267088025, -40.51983475667203, -1.739291595457349, -1.5543816269361899, -4.525589968875217, -22.284726786290197], [7.907340106359883, -0.5886755315423982, -17.39285873948694, -43.98785485104819, 52.060427619338874, 32.128526258030156, -36.52119535197379, 14.048709076733253, -10.075182524035107], [-45.19932815644738, -19.74289095321322, -10.059144873132846, -10.289470565499803, -40.12587141788527, 15.947856750708503, 14.747275047932431, 27.082488852334286, -21.714420790084805], [-31.192910640795784, 5.826037954513826, -2.203462072840692, 34.30495804090295, 12.139738343774136, -18.67867867579353, -31.851096455982127, -21.419112415662745, 49.14344304497036], [55.77795049433088, -22.35667314332437, 4.664749591745028, 4.674417362093769, -41.483762554136675, -44.52892392527165, 19.32329465640713, 9.691991627573325, -5.156901547803358], [-33.80427405988893, -6.568702774719318, 0.7088922037462421, 28.725046826261995, 33.022422788040274, -6.3773893294664665, 30.53834878585722, -35.74765056085846, 16.878892072497806], [-10.79418224821373, -4.90215605151256, 12.063961166856258, -4.710341942355718, -15.089029884780814, -18.434236057108347, 79.41172690937451, -76.42231404475247, 18.018890407924918], [23.540435661383963, -3.3755260190985985, 26.396155217566534, 25.53615133223844, -25.073995743590725, -27.107097993077065, -10.96397704990699, -48.91561617015709, -5.503969811152114]]], "networkBiases": [[-3.1494766163682373, 3.0186647276498175, 4.556883840217807, 1.6308170722611495, 5.309292050235105, -0.48444733088113784, 2.9838693663064926, 5.685919578988649], [-3.5037304450605617, 6.028072931258932, -2.4906425567606596, -2.48564002461889, 5.561094179474923, 2.1928890434042136, -3.133420237436539, 2.237140896162293, 1.9146897744822136]]}