{"structure": [9, 8, 9], "networkWeights": [[[-0.7270715981497313, -43.87873252544334, -1.2264894812723974, 1.6622980974159791, 0.902662591699387, 25.0842869293269, 8.842758992249752, 51.411162942606936], [-3.932973642889881, -1.8125793941318866, -14.263132420000277, -13.750805358631597, -7.447321725018223, -19.870238458002184, -17.975614288338583, -23.955018029148846], [-12.956554070711807, -4.433197699584217, 4.745634654915082, -13.086462395345889, -8.032355251018412, -6.2512118647979245, 34.9055633037157, -9.516026119290737], [44.35518144855342, 19.09884292635217, 10.478223098565538, -13.52285115468161, 20.205348025136928, -0.9671969754065286, -7.4474191471400895, 53.1842883037797], [-34.8082415904997, -5.034263240287875, -36.47888996175942, -2.8129452183219374, -17.073634002198105, 17.86252928296992, 4.159917929921812, 31.40564823051846], [1.987760661917447, -26.58658641709298, 47.219988417023124, -13.752248216405588, 19.27376388811686, -28.77781799968822, 4.51354242384825, 41.325240924906666], [-11.646597666674383, 29.13590130853811, -30.112430262672397, 32.480420359272784, 26.45085859862379, -30.533531349995283, -14.012172070555755, 24.549686168107616], [-34.77459634099302, 42.70854704426689, -23.333213802261596, 27.45793820029238, -1.0601090289216915, 0.06042320661196088, 1.9743015067416627, -17.607501714558065], [-15.362292980610274, 21.86273461776973, 69.79281593419343, -20.710115741292462, 7.7218908155462165, -22.306770552162412, -16.88799061501925, -22.842176289765273]], [[2.135548547796224, -39.5304580544134, -14.752902871698412, -14.241786559537319, -40.51983475667203, -1.7373878425438318, -1.4413137254470543, -4.525589968875217, -22.078780338969096], [7.907340106359883, -0.36436122824920786, -17.39285873948694, -43.98785485104819, 52.060427619338874, 32.057370221761005, -36.5607360258696, 13.803253392389141, -10.075182524035107], [-45.19932815644738, -19.839810361444066, -10.059144873132846, -10.477771177564787, -40.12587141788527, 15.947856750708503, 14.747275047932431, 27.082488852334286, -21.571855041229515], [-31.28370371932073, 5.826037954513826, -2.405065019070589, 34.499041161411284, 12.139738343774136, -18.796274052971814, -31.910553479118928, -21.419112415662745, 49.026127968168176], [55.77795049433088, -22.14328213409064, 4.664749591745028, 4.559112199024085, -41.483762554136675, -44.53297547181361, 19.52781928393904, 9.691991627573325, -5.127642471353419], [-33.80427405988893, -6.568702774719318, 0.9492970187030303, 28.725046826261995, 33.036962544014436, -6.3773893294664665, 30.53834878585722, -35.74765056085846, 16.96139177314755], [-10.79418224821373, -4.853057117251883, 12.299975136191076, -4.710341942355718, -15.089029884780814, -18.434236057108347, 79.19529689467748, -76.37170897222556, 18.018890407924918], [23.540435661383963, -3.3755260190985985, 26.396155217566534, 25.78278437225807, -25.073995743590725, -27.107097993077065, -10.96397704990699, -48.91561617015709, -5.503969811152114]]], "networkBiases": [[-2.945162422720342, 2.8044644885173042, 4.498362314050747, 0.8544933610774331, 4.373662406161438, -0.6557750162455576, 2.568306450142324, 4.737427627637094], [-3.507601642234557, 6.123015818959992, -2.374032224883056, -2.35949021718207, 5.617872856473638, 2.322665126865317, -3.0121734910053286, 2.1347406487488803, 2.1207688754960845]]}