{"structure": [9, 8, 9], "networkWeights": [[[-4.503657818452572, -31.599985648711108, -13.554069402820188, 9.05560356505855, 4.2257422690316195, 18.03859119151903, 3.266727534727398, 52.282800618046274], [1.0339895717417351, 3.4724268155979834, -18.158007012920002, -13.030571181226051, -8.654137941609916, -17.869092401334193, -3.391433491557514, -22.1281375620877], [-17.837067015330828, 9.233855050176958, -1.4482167822189214, -2.4265793185500533, -22.373085592613382, -4.160334139174488, 24.62616914701098, -8.40893553190222], [28.75415548908213, 20.329747570591728, 4.563759841042642, -26.32953291573308, 17.151966266894636, -17.428068527220717, 6.682375131263685, 47.481342982964705], [-29.147735474290307, -3.7345774218860663, -17.056072426649248, 14.269179173942039, -23.691662456626883, 13.779216584030635, 5.001941283838658, 36.4249100454889], [-2.148429713767345, -29.804811010156715, 56.875280100787116, -18.90427100911296, 31.000909032010274, -35.88399448675757, 8.88461111949527, 30.017762148026918], [-15.153638862899859, 18.43319610716739, -34.027307631834795, 27.37873950421184, 29.790256813141106, -43.94769334374707, -5.64614367153999, 36.04978316910319], [-33.86333541506667, 36.88781339658724, -25.410861987260603, 12.453559766028924, -4.030410161301044, -3.7150230327529803, -6.5129401517007635, -7.9656458908523415], [-15.546168999137208, 9.886911973089198, 74.54408747275119, -17.58719685816836, 15.595868920034059, -12.817125213061818, -7.310642447448801, -22.56323859361012]], [[-6.577958614890408, -28.089432329229997, -11.101282274063488, -2.6910802527135083, -24.751776419785596, -24.474901953641417, 7.595812180932451, -5.951375328116428, -31.266051064047183], [3.5505840372939153, 1.4128301129563912, -14.329724875800556, -26.889792357385353, 50.75444442599102, 24.1542565530663, -27.006997547099797, 15.33620807922877, -1.9708001776404473], [-55.17736269666117, -21.98068666564941, -8.683508922462725, 4.129701039821846, -43.28761521393682, 16.430060653860703, 11.205755037547668, 15.587829310425011, -26.675606785034326], [-27.796905094664716, 8.486351545565064, 0.07016647545577825, 17.561497850587266, 25.03013512788922, -13.062408219504452, -45.05228515259549, -19.88915148291584, 43.650687263232065], [61.86994267089765, -12.698022422446662, 4.339635242130349, -3.6877282032550474, -34.576374129984146, -48.083855327967775, 16.268870904048814, 7.903809947906197, -7.0262217422120585], [-27.728034829917675, -11.412777926006259, 3.3177160519542443, 41.145946115484584, 33.32928318322259, 9.359433055749262, 20.677185128281835, -24.267249683619465, 9.294444033332143], [-17.76906591003324, -16.671411553438944, 3.5573911001391387, 6.337732879425231, -12.168492921615526, -7.339194211243222, 85.10892796560027, -72.19589875437072, 22.96907229598475], [12.835776361706067, 7.145650274342638, 31.02755447999646, 2.524669094184202, -31.289956232085903, -17.402120198028218, -23.494473483769127, -63.572011004294794, -5.118190465747155]]], "networkBiases": [[1.0, 1.0, 1.0, 1.0, 1.0, 1.0, 1.0, 1.0], [1.0, 1.0, 1.0, 1.0, 1.0, 1.0, 1.0, 1.0, 1.0]]}