{"structure": [9, 8, 9], "networkWeights": [[[-4.503657818452572, -31.32994911455527, -13.028061640808561, 9.05560356505855, 4.2257422690316195, 18.035683779039502, 3.266727534727398, 52.282800618046274], [1.0339895717417351, 3.4724268155979834, -18.141255048009885, -13.924166032729875, -8.020766617197834, -17.869092401334193, -3.686818042114539, -21.965413884191438], [-17.837067015330828, 9.233855050176958, -1.9081846334466472, -2.45704274785829, -22.8381754660912, -4.160334139174488, 24.62616914701098, -8.76521331940078], [28.553964293126086, 20.329747570591728, 4.563759841042642, -26.32953291573308, 16.562962068804215, -18.226307768896895, 7.347426426341915, 47.838300040243766], [-29.64990230769976, -3.7345774218860663, -17.056072426649248, 14.269179173942039, -23.691662456626883, 13.779216584030635, 5.001941283838658, 36.918997556543275], [-2.148429713767345, -28.919601375050885, 56.11956632675466, -19.54083883714524, 30.112843597624806, -35.88399448675757, 8.88461111949527, 30.017762148026918], [-15.365479412334205, 18.43319610716739, -33.33088266081312, 27.37873950421184, 30.737052253450226, -44.090743015907215, -5.64614367153999, 36.04978316910319], [-33.505217469159746, 36.88781339658724, -25.22688935316482, 13.353529560321178, -4.030410161301044, -3.7150230327529803, -6.9588397956897, -7.9656458908523415], [-15.187773383271722, 9.886911973089198, 74.54408747275119, -17.58719685816836, 15.595868920034059, -12.817125213061818, -8.497057778237151, -22.56323859361012]], [[-6.577958614890408, -28.444559156981438, -11.630521200646784, -2.6910802527135083, -24.751776419785596, -24.474901953641417, 7.48591975732875, -5.41005756018075, -31.266051064047183], [2.7817520985213173, 1.265155898972499, -14.137255776130772, -26.889792357385353, 50.75444442599102, 24.1542565530663, -27.006997547099797, 15.33620807922877, -1.5386287354719852], [-55.17736269666117, -22.685381899358397, -8.405057581422057, 3.7588728369646938, -43.97921865079859, 17.114894180515314, 11.205755037547668, 16.429327939187594, -26.552555492977728], [-28.47816007184825, 7.960906110088125, 0.07016647545577825, 17.561497850587266, 25.03013512788922, -13.336667476616647, -44.23787464048879, -19.88915148291584, 43.52067641497487], [61.86994267089765, -11.82155066430383, 4.339635242130349, -2.9808735928442673, -34.75190268773106, -48.083855327967775, 16.268870904048814, 7.903809947906197, -7.453180015116854], [-27.728034829917675, -11.60506431302825, 2.8371784234363773, 41.145946115484584, 33.32928318322259, 10.601862260047739, 20.677185128281835, -24.267249683619465, 9.988407700253061], [-17.76906591003324, -15.659112261170467, 2.987588866923487, 7.331827346767697, -12.168492921615526, -7.268479910479102, 85.3213354517304, -72.19589875437072, 22.96907229598475], [12.835776361706067, 7.145650274342638, 31.02755447999646, 2.753843481929104, -31.289956232085903, -16.9574050340729, -23.494473483769127, -63.572011004294794, -5.118190465747155]]], "networkBiases": [[1.0, 1.0, 1.0, 1.0, 1.0, 1.0, 1.0, 1.0], [1.0, 1.0, 1.0, 1.0, 1.0, 1.0, 1.0, 1.0, 1.0]]}