{"structure": [9, 8, 9], "networkWeights": [[[-4.503657818452572, -31.85865415046928, -13.554069402820188, 9.05560356505855, 3.9438203325506516, 18.057471294776963, 1.923548791135331, 51.6419771053866], [1.0339895717417351, 4.41566783371686, -17.708159334873855, -12.257666325982564, -8.19416915215942, -18.392730671203957, -3.43103697427033, -22.1281375620877], [-17.189353256764175, 8.492315872114183, -1.4482167822189214, -2.879397920499839, -22.8381754660912, -3.8502994170226135, 24.62616914701098, -8.40893553190222], [28.75415548908213, 20.257769345838, 4.563759841042642, -26.316154709993878, 17.151966266894636, -18.226307768896895, 7.347426426341915, 46.38484632969347], [-30.168984041987333, -4.529986658212085, -17.741024090422222, 13.86011290946599, -23.691662456626883, 12.9656376208008, 5.001941283838658, 36.918997556543275], [-2.148429713767345, -30.200968696995634, 56.441475651128265, -18.90427100911296, 30.636065742537756, -35.88399448675757, 8.88461111949527, 29.032864168198333], [-14.82928732264103, 18.43319610716739, -34.027307631834795, 25.637399596631788, 30.595894612905976, -44.67776048977696, -5.091857208386033, 36.04978316910319], [-33.576044884829166, 37.098204569876636, -24.871883771540165, 13.353529560321178, -4.337559292975473, -3.7150230327529803, -7.020421877172092, -8.536420182886008], [-15.27909608402418, 9.886911973089198, 75.52406056926408, -17.58719685816836, 15.595868920034059, -13.664631137610039, -8.497057778237151, -22.830031705800366]], [[-7.468028658972519, -28.089432329229997, -10.33740096455757, -2.213046284608655, -23.813907734036924, -24.474901953641417, 7.740077446292129, -5.626056900103006, -31.04645147585206], [2.7817520985213173, 0.8226893677643932, -14.329724875800556, -26.9900439303128, 50.87840924298564, 24.860524308614213, -27.006997547099797, 15.33620807922877, -1.9708001776404473], [-55.93860504333336, -22.741277558502823, -8.683508922462725, 3.383217975373487, -43.28761521393682, 15.832617190167321, 10.55613392318806, 14.804232299940274, -26.888261097602737], [-28.47816007184825, 7.960906110088125, 0.7699581369601731, 18.394071263578557, 24.150383569213567, -12.338026035744639, -45.05228515259549, -19.196726805157212, 43.905686094696044], [61.396480856868315, -12.081364081108207, 4.339635242130349, -3.6877282032550474, -34.576374129984146, -48.083855327967775, 16.268870904048814, 7.903809947906197, -7.453180015116854], [-28.18853697876861, -11.412777926006259, 3.7197407590124185, 40.692257858960545, 34.2442588665502, 8.86241399429162, 20.0910623510384, -24.267249683619465, 9.785643710759473], [-17.786118606036936, -15.659112261170467, 3.5573911001391387, 7.068163562989341, -12.168492921615526, -6.5686271731219446, 85.10892796560027, -73.26097069664719, 23.039778939378575], [12.835776361706067, 6.4329302138005255, 31.02755447999646, 2.091031789430622, -31.289956232085903, -16.892129945274064, -23.468834688141165, -63.080405325422845, -4.732934727703831]]], "networkBiases": [[1.0, 1.0, 1.0, 1.0, 1.0, 1.0, 1.0, 1.0], [1.0, 1.0, 1.0, 1.0, 1.0, 1.0, 1.0, 1.0, 1.0]]}