{"structure": [9, 8, 9], "networkWeights": [[[-4.503657818452572, -31.599985648711108, -13.554069402820188, 9.05560356505855, 3.968816227336824, 18.035683779039502, 3.266727534727398, 52.282800618046274], [1.0339895717417351, 3.4724268155979834, -18.158007012920002, -13.289711818334807, -8.020766617197834, -17.869092401334193, -3.43103697427033, -22.1281375620877], [-17.004179577432033, 9.233855050176958, -1.4482167822189214, -2.561992599838791, -22.8381754660912, -4.160334139174488, 24.62616914701098, -8.40893553190222], [28.75415548908213, 20.546269754431865, 5.1681303212128, -26.32953291573308, 16.84203834994017, -18.226307768896895, 7.347426426341915, 47.51685048927196], [-29.64990230769976, -3.7345774218860663, -17.27343604858091, 13.887558238361063, -23.691662456626883, 12.9656376208008, 5.001941283838658, 36.918997556543275], [-2.8773115203790165, -29.804811010156715, 56.28524359828858, -18.866726809015645, 30.112843597624806, -35.88399448675757, 8.88461111949527, 30.017762148026918], [-15.365479412334205, 18.43319610716739, -34.027307631834795, 27.37873950421184, 30.595894612905976, -44.67776048977696, -5.64614367153999, 36.04978316910319], [-33.86333541506667, 36.88781339658724, -24.871883771540165, 13.353529560321178, -3.1144002569369693, -3.7150230327529803, -6.971648914362703, -7.9656458908523415], [-15.32109961583337, 9.886911973089198, 74.54408747275119, -17.58719685816836, 14.885255551122597, -12.715730594608782, -7.819680430554828, -21.8542842874447]], [[-6.577958614890408, -28.089432329229997, -11.122051893813861, -2.6910802527135083, -24.896017309025144, -23.617203044436415, 7.595812180932451, -6.360963459755395, -31.266051064047183], [2.7817520985213173, 1.4128301129563912, -14.329724875800556, -27.899799533563424, 50.75444442599102, 24.233203490635507, -27.13291047931924, 16.18284792316164, -1.9708001776404473], [-55.08172438519849, -22.72991128128019, -8.683508922462725, 4.129701039821846, -43.28761521393682, 16.430060653860703, 11.205755037547668, 15.587829310425011, -26.552555492977728], [-28.568758235288772, 8.674887789230016, 0.07016647545577825, 17.561497850587266, 25.817681038040888, -13.336667476616647, -44.568401435435476, -19.971080093863925, 43.650687263232065], [61.86994267089765, -12.06644510078219, 4.339635242130349, -1.9541254716203933, -34.576374129984146, -48.63453590103941, 17.139509909957745, 7.903809947906197, -7.453180015116854], [-27.728034829917675, -11.412777926006259, 3.397607170640799, 41.145946115484584, 33.32928318322259, 10.07864913434373, 20.677185128281835, -24.267249683619465, 9.294444033332143], [-18.413246456501017, -15.659112261170467, 3.5573911001391387, 6.337732879425231, -12.168492921615526, -5.705126240786909, 85.86902765787038, -72.19589875437072, 22.96907229598475], [12.835776361706067, 7.145650274342638, 31.02755447999646, 3.4735634229761927, -31.289956232085903, -16.9574050340729, -24.068877770257266, -63.572011004294794, -5.724971101055667]]], "networkBiases": [[1.0, 1.0, 1.0, 1.0, 1.0, 1.0, 1.0, 1.0], [1.0, 1.0, 1.0, 1.0, 1.0, 1.0, 1.0, 1.0, 1.0]]}