{"structure": [9, 8, 9], "networkWeights": [[[-0.5618242169132156, -43.870519589556515, -1.2131706973567842, 1.8096352452680444, 0.9329323520722159, 25.270042984548503, 9.118337030152645, 51.03661170309075], [-3.9921377022716316, -1.72496676081775, -14.029091303756575, -13.727664364527662, -7.341642576869034, -19.857459930373892, -18.13954311864394, -23.61113677678058], [-12.424253371916913, -4.1725289118361015, 5.219637670657265, -13.613147029648937, -7.748595958732447, -6.4938648386234075, 35.10175973796109, -9.436869378771416], [44.79644734700528, 18.76401021848597, 10.844714182002871, -13.69960613054323, 20.300051574911155, -0.9568714094236092, -7.757606184483062, 53.11677799716842], [-34.72458539137382, -4.781353619416757, -36.46295954371024, -2.247670057924286, -16.49632215669957, 17.66346086770938, 4.044569399314952, 31.04834844055318], [1.9800686421064146, -26.175729596492104, 47.40037771909585, -13.697525013666874, 19.269999049944907, -28.354450115163257, 4.313487238937912, 40.78070263096351], [-11.60325956072443, 29.12350861287188, -30.220657427048234, 32.42676176950738, 26.283252530868626, -30.360683155970385, -13.589622670763122, 24.94067538138875], [-35.22986943582576, 42.428745185862205, -23.66374381373862, 27.978442710575155, -1.1813225836802783, 0.19360189791447904, 2.322960819446996, -18.06437596692306], [-15.476739761285975, 22.55094710711195, 69.72816550184724, -20.945099801651498, 7.729263070164473, -21.91722546765117, -16.504648629573172, -22.680749714323074]], [[2.498593714202258, -39.41931732909789, -15.002213424672513, -14.064594868077295, -41.10613512348432, -1.2843816388450824, -1.5888193150344379, -4.602808303396833, -22.247538833089322], [7.719910067317008, -0.7920605008704578, -17.398883712308745, -44.129389232269624, 51.90842982163299, 32.259864123457966, -36.68391435555373, 14.011049096036876, -9.965329137031581], [-45.938062775309916, -19.865722441846007, -10.788894320753464, -9.993118629760113, -40.037172689140625, 16.57048244121531, 15.186557717128625, 27.01595751478272, -21.841422191485993], [-31.484196631350656, 5.0806868846929545, -2.2904709459698784, 33.994004250924576, 12.270118768108972, -18.75176465856207, -31.977095464769544, -21.2407759153971, 48.7654062922867], [55.72426275574708, -22.439061070608513, 4.7329189929366, 4.890636776485027, -41.520822557409595, -44.76665450920454, 19.624878230656442, 10.245055410569051, -5.313252860406558], [-33.606996353802764, -6.536476316184049, 1.3803473465573814, 28.38743545676622, 33.262801150786956, -6.4147772870659825, 30.74378128713469, -35.52895262233286, 16.946155377521254], [-10.758510394596833, -4.769742668045734, 11.408000477394822, -4.590557850803338, -15.131852089244216, -18.105991198630452, 79.31894339723614, -76.31242738339157, 18.813517100275018], [23.520395707546907, -2.888679628432527, 26.664527022465272, 26.173094638651534, -24.505142950562316, -26.912023211720516, -11.05671745699544, -48.88403749724078, -5.521231664862835]]], "networkBiases": [[-2.1980623375059802, 3.3335010052372063, 4.888703184760899, 1.5133157111786901, 4.659139670543572, -1.8452335342893853, 1.729493762175154, 5.307335368538464], [-3.868736131694552, 6.576441516676324, -2.9236380604985914, -1.66840645901336, 5.678674115822458, 2.3713494340895247, -1.2829399197926685, 3.2131710993464604, 2.399273433963949]]}