{"structure": [9, 8, 9], "networkWeights": [[[-0.7341993282239299, -43.191265782385926, -3.0389079567715465, 0.731526682794019, 0.8224264091214393, 22.82131286895551, 8.167877542638657, 51.37596358786703], [-5.899045046504305, -0.47973439910806737, -12.883290886835656, -14.100862423871428, -7.33035353327979, -20.462331567923805, -18.437578587788877, -24.965702720332278], [-12.903486841087174, -5.259060345813474, 4.551936060717882, -14.830737189269184, -7.902527382555905, -7.186764806446992, 34.39052445245091, -9.949638076876953], [45.40732548639376, 18.06099066118513, 9.46717315608101, -13.514633327880802, 19.924594351804313, -2.0192613977694256, -4.439161704386997, 51.85164535549613], [-36.47214523063623, -4.4744011388448985, -36.32077882937743, -1.355087962355204, -16.756964422147945, 16.324617335013606, 4.993364412372321, 33.49675580928111], [0.9359190835012947, -25.34840358172932, 45.95380339707816, -14.5172022276667, 21.89294220113765, -27.975964365527595, 3.839091707783075, 40.3311309557887], [-7.74753085603607, 28.309902050593852, -31.198816654408432, 32.563234664487936, 26.022449451478433, -30.240530685621447, -12.521950776759937, 26.460169284996784], [-34.302731663648515, 40.37526048448491, -21.713587059561522, 26.986980083013854, -1.666651920461937, -1.6629599162865112, 0.7281188153296685, -17.864377216065936], [-17.094796516137272, 22.16643773960013, 69.25785986096245, -18.492621284384878, 8.714844862947247, -21.03117602387652, -17.335973499712015, -23.272192951814564]], [[3.990970013089342, -38.147260932140604, -15.811775391629695, -14.903433064968679, -40.70126069076238, -3.5519672055013034, -0.9116471847645564, -5.349650713764918, -23.261743702567184], [6.930328822761827, -1.5555014974490957, -17.01193088229884, -43.83900834653574, 49.35359633221666, 32.9932051570178, -37.35491668656508, 14.210906094678565, -10.684333503901275], [-44.54399068713038, -21.498251031851908, -11.247315259890886, -9.906367755899039, -41.07499928833638, 17.694012005857743, 16.12097967079565, 26.70450417813039, -21.18756002598314], [-29.85628505187769, 6.411077987294213, -3.2997801943126532, 35.8721706549965, 10.777537939740869, -17.986032839177525, -34.72534162863341, -19.508392444262608, 50.63698407867728], [55.701092499909635, -24.844693292960287, 4.009222590876723, 4.195202277822689, -41.106937768493395, -46.378056689458276, 20.34757682289297, 9.282579168316335, -4.923078723355625], [-33.70698451905965, -5.672324193370344, -0.2801450686428475, 29.9721323658783, 33.69338992660721, -3.7208627865072312, 29.87663447054424, -35.008780425579126, 16.055962755185913], [-11.67346714015404, -5.818677465056785, 10.629508900077155, -4.292333309948989, -13.99361406073737, -20.36024999178102, 81.78258915413912, -78.75280301360799, 21.524197278543383], [23.590134450839788, 0.19019932325787203, 24.206535446205045, 22.692392324003873, -25.449579373167097, -24.56601336425795, -12.194925643032555, -48.60330758131884, -3.4155163024619215]]], "networkBiases": [[1.0, 1.0, 1.0, 1.0, 1.0, 1.0, 1.0, 1.0], [1.0, 1.0, 1.0, 1.0, 1.0, 1.0, 1.0, 1.0, 1.0]]}