{"structure": [9, 8, 9], "networkWeights": [[[-1.5618622991418492, -43.79293789889594, -1.3159765209136771, 0.8889875252778279, 0.2480385172470731, 24.790511601673252, 9.53837369634673, 51.699037588158305], [-5.067144245701805, -1.7425614500179274, -14.637141622425986, -13.807564635650955, -8.325465750205664, -20.530778889571458, -18.489614697242178, -23.649242131160236], [-13.570134254158837, -3.788420704783649, 4.378850266609414, -13.598181457373, -8.957392888338982, -6.66907372026723, 34.80773864377333, -9.36061546077263], [44.20667921270879, 18.793960795576478, 10.147568463556883, -13.338387013463182, 20.24513506732083, -1.3791254867959732, -6.666019548150875, 52.76254506372324], [-34.591955361590266, -5.79972636582167, -37.48537655465493, -3.175702834662677, -16.52952149596198, 18.23730151608243, 3.8662044923848025, 31.353282314885707], [1.4054403672837485, -26.1916981287106, 47.30338387027967, -14.42719489468104, 19.042057220467516, -29.027396585781233, 4.957567689210519, 41.56877189566615], [-10.27352517336379, 29.631234232095597, -29.906475235296114, 32.41742966835567, 25.8000401404238, -30.71327765325591, -13.470168112846016, 23.845450035698345], [-34.332881418825544, 43.01049345754198, -23.211251435687213, 27.967037937664642, -1.1705030304322401, -0.09121990989514156, 2.3648119709258077, -18.136519986009873], [-15.49839729510109, 21.78359037896486, 68.72726707093493, -20.196014673427268, 7.445805152263272, -22.855279570260578, -17.02637715104319, -23.512036741364806]], [[2.070186465811904, -39.10287654712889, -15.720852575077906, -14.213568344537563, -39.07422221286786, -2.0112247706024453, -1.8501012528957195, -4.45884132176094, -21.710789076354224], [7.411487371082014, 0.18473077331406657, -17.007533595140654, -43.1941950349168, 52.233548915666695, 32.2442395446863, -36.198737505839446, 13.870588989114877, -10.219822834298109], [-44.89400715719582, -19.437700075071582, -9.744564781192999, -9.778243161050861, -40.762172213028386, 16.20949747200158, 13.589859305519182, 26.38009973745559, -21.306451085317544], [-30.53052534589822, 5.903357374748728, -3.616809837047342, 34.75757858042864, 12.417660718942718, -18.85145704674149, -31.32978408715632, -21.1706134192389, 48.89312664463156], [56.417165630970814, -22.626946558972303, 4.545736915639954, 4.440743443328761, -40.76542621143174, -44.80618338685067, 20.01928251049966, 9.224914171829475, -4.439527276044309], [-33.50696571941156, -6.246540202593377, -0.0058713830205505135, 28.242538277250897, 32.85457638473916, -6.44429445286208, 30.77893574700564, -35.6813598698979, 17.300761230433704], [-10.542027169823601, -4.764194313028623, 11.857012047075285, -5.120515912484606, -14.351082469031972, -18.444564980419877, 79.39266736027272, -76.89905148428615, 18.434166861571526], [23.268680769057813, -3.6452214053627814, 26.634854200534523, 25.476158240125837, -25.27018516319719, -26.60054515246779, -11.032520082154235, -48.8774484361346, -4.27840615508747]]], "networkBiases": [[-3.2840403735197397, 3.1074715890023152, 2.471536931500539, 1.0711637226751363, 2.1305684737890305, -0.6671984021341368, 3.565018941336933, 7.467599327596427], [-2.4702774262379235, 6.367886548925994, -2.0676926716187074, -2.3379122817908087, 5.8739795846000815, 3.767779113047519, -2.4306487260353498, 3.5293027326356867, 1.2769339516148923]]}