{"structure": [9, 8, 9], "networkWeights": [[[-0.7341993282239299, -44.28651470888997, -3.0389079567715465, 0.5524840112860867, 0.4531032326484974, 23.341400415711128, 8.134564538663366, 50.46393337919914], [-5.15855549521919, -0.47973439910806737, -13.681593457651582, -12.563868125461772, -8.461544224516597, -19.944773896558353, -19.018150992063603, -25.174858773929003], [-13.342074194430849, -4.57369949446178, 4.551936060717882, -13.295798864482322, -8.50690557381873, -6.762046727877594, 33.814151015437, -9.949638076876953], [45.66556084059632, 17.712382882646622, 9.46717315608101, -13.751152709815303, 20.377399079795115, -0.3892511860453769, -5.579744579540289, 53.20179605446187], [-35.13292224837745, -4.977318007328458, -37.265941380715624, -3.285983146620392, -17.149120088719943, 16.262678551827346, 4.059763853294061, 32.59387064857202], [-0.6219214147246206, -25.087982901255046, 45.92659492085994, -14.131578006798604, 21.26192441368644, -26.09485884482548, 3.9883675956019893, 40.32209618259128], [-8.761831092285846, 28.375662213909663, -30.421713120030493, 32.482034849829276, 25.861058261707623, -30.39972900115494, -12.985984366469982, 26.352170591385544], [-35.461752645395585, 41.89013194504081, -20.468612817046907, 27.40884622231248, -2.2997354800089376, -0.409384437458989, 2.6895403425353837, -18.37018571453991], [-18.43287053556603, 23.294815668332827, 68.73495846555714, -18.002986777577956, 8.392203009740273, -21.03117602387652, -17.605819424830205, -23.363910643858286]], [[3.821399208357236, -38.05940051468717, -15.648362041783223, -14.834171653160038, -40.25501455447771, -1.6317807949489676, -1.3666478494232983, -3.6139975849541006, -21.703414014402668], [7.367343292648795, 0.19059609531393118, -17.845981814840755, -42.212009126615534, 52.04564259819212, 33.98757527510471, -36.825586707314145, 14.488537671316688, -11.035205682815452], [-44.52929570164636, -19.93850872185609, -9.479400805664813, -9.65234949493645, -41.22533501047707, 16.17760930581883, 15.56266674707965, 26.93522691050729, -22.249254317959352], [-29.856501942266558, 5.547080895065369, -2.868938771872293, 34.76780439926265, 11.583658511949839, -18.715450877058647, -33.29257493450608, -20.901645127892657, 49.24952771626119], [55.15449840073289, -24.068132908384825, 4.038300147516613, 4.456384092120367, -40.916721603029714, -45.113244413082846, 20.23524381594704, 9.632648819405519, -4.377263698779057], [-32.83216135836275, -6.139635726923871, -0.43890853216147896, 27.77996905582184, 34.106549593245894, -5.781072933789228, 30.08847600294797, -35.008780425579126, 15.456583600351125], [-11.67346714015404, -6.043492989562088, 11.128126892286149, -4.26485583225187, -14.384422048102447, -19.426042787019966, 80.74805037806388, -78.14283094372739, 20.655909998142505], [23.965768404565523, -0.2543948742757396, 24.90763617492995, 22.39552931780333, -25.2258644737446, -26.16008910550535, -11.44104072959767, -49.48888629130524, -4.181384285881082]]], "networkBiases": [[1.0, 1.0, 1.0, 1.0, 1.0, 1.0, 1.0, 1.0], [1.0, 1.0, 1.0, 1.0, 1.0, 1.0, 1.0, 1.0, 1.0]]}