{"structure": [9, 8, 9], "networkWeights": [[[-0.7341993282239299, -43.80335902592788, -2.893602754867149, 0.5524840112860867, 0.4531032326484974, 23.341400415711128, 8.134564538663366, 50.46393337919914], [-5.825599070352292, -1.0421154260757133, -12.464969684424942, -12.563868125461772, -8.461544224516597, -19.198857141541744, -19.018150992063603, -25.174858773929003], [-13.342074194430849, -4.57369949446178, 4.551936060717882, -13.295798864482322, -8.50690557381873, -6.762046727877594, 33.814151015437, -9.949638076876953], [45.14022364504573, 18.582169678275804, 9.46717315608101, -13.751152709815303, 20.377399079795115, -0.3892511860453769, -5.162660502290511, 53.20179605446187], [-35.13292224837745, -4.977318007328458, -37.265941380715624, -3.285983146620392, -17.149120088719943, 16.262678551827346, 4.059763853294061, 32.59387064857202], [0.6521026562824372, -25.087982901255046, 45.92659492085994, -14.931947666672665, 20.266886565270337, -26.09485884482548, 3.9883675956019893, 40.32209618259128], [-8.701417242692793, 28.375662213909663, -30.421713120030493, 32.482034849829276, 25.861058261707623, -30.39972900115494, -12.985984366469982, 26.352170591385544], [-35.461752645395585, 41.89013194504081, -20.468612817046907, 27.40884622231248, -2.2997354800089376, -0.409384437458989, 2.6895403425353837, -18.37018571453991], [-18.43287053556603, 22.35108635545401, 67.97553118779008, -18.002986777577956, 8.392203009740273, -21.03117602387652, -17.605819424830205, -23.363910643858286]], [[3.821399208357236, -38.05940051468717, -14.922084798162869, -14.393999152789666, -41.16297284371614, -2.1731971095243954, -1.3666478494232983, -3.6139975849541006, -21.703414014402668], [8.186559135027633, 0.45696704465362137, -17.083936399797288, -42.212009126615534, 52.04564259819212, 32.94113416642816, -36.825586707314145, 14.488537671316688, -11.035205682815452], [-44.52929570164636, -19.93850872185609, -9.479400805664813, -9.65234949493645, -41.22533501047707, 16.17760930581883, 15.138903100160652, 26.93522691050729, -22.249254317959352], [-29.856501942266558, 5.547080895065369, -2.3624792844800235, 34.76780439926265, 11.583658511949839, -18.715450877058647, -33.29257493450608, -20.901645127892657, 49.24952771626119], [55.15449840073289, -24.068132908384825, 4.038300147516613, 4.456384092120367, -40.916721603029714, -45.113244413082846, 20.34757682289297, 9.632648819405519, -4.377263698779057], [-32.83216135836275, -6.139635726923871, -0.23042873309498724, 28.73199641224011, 34.106549593245894, -5.01411766468261, 30.08847600294797, -35.008780425579126, 14.727967110583688], [-11.67346714015404, -5.443718189315864, 11.102378901176019, -4.26485583225187, -14.384422048102447, -20.1429608136821, 80.51165401192388, -78.50892126747776, 20.655909998142505], [23.965768404565523, -0.2543948742757396, 24.206535446205045, 22.39552931780333, -25.2258644737446, -26.16008910550535, -11.44104072959767, -49.48888629130524, -4.181384285881082]]], "networkBiases": [[1.0, 1.0, 1.0, 1.0, 1.0, 1.0, 1.0, 1.0], [1.0, 1.0, 1.0, 1.0, 1.0, 1.0, 1.0, 1.0, 1.0]]}