{"structure": [9, 8, 9], "networkWeights": [[[-0.7341993282239299, -44.28651470888997, -3.0389079567715465, 0.5524840112860867, -0.09113594320783536, 23.341400415711128, 8.134564538663366, 50.46393337919914], [-5.15855549521919, -0.47973439910806737, -12.883290886835656, -12.563868125461772, -8.461544224516597, -19.944773896558353, -19.018150992063603, -24.971009182304066], [-12.713263975560988, -4.57369949446178, 4.551936060717882, -13.295798864482322, -8.50690557381873, -5.989762348157981, 33.814151015437, -9.949638076876953], [45.14022364504573, 18.582169678275804, 9.46717315608101, -13.708713860844775, 20.377399079795115, -0.3892511860453769, -4.168270215975996, 53.03197818268574], [-35.19291870808142, -4.977318007328458, -37.265941380715624, -3.285983146620392, -17.149120088719943, 15.893262197357139, 4.003946969783515, 32.59387064857202], [-0.4443262680327782, -23.719187743705305, 45.92659492085994, -14.931947666672665, 21.26192441368644, -26.908633339583677, 3.9883675956019893, 41.02284589796201], [-8.701417242692793, 28.375662213909663, -30.945279488820407, 32.482034849829276, 25.861058261707623, -30.39972900115494, -13.605246143020942, 26.352170591385544], [-35.461752645395585, 41.89013194504081, -20.468612817046907, 27.40884622231248, -2.2997354800089376, -0.409384437458989, 2.6895403425353837, -18.37018571453991], [-19.196025197924506, 23.32183540437781, 68.73495846555714, -18.03896416227952, 8.392203009740273, -21.03117602387652, -17.605819424830205, -23.363910643858286]], [[3.821399208357236, -38.05940051468717, -15.648362041783223, -14.834171653160038, -40.25501455447771, -2.424894709461527, -1.3666478494232983, -3.6139975849541006, -21.703414014402668], [7.367343292648795, 0.19059609531393118, -17.083936399797288, -42.428795493663515, 52.54621343000475, 32.88794235356437, -37.43626177632188, 14.488537671316688, -10.91581715438411], [-44.52929570164636, -19.93850872185609, -9.479400805664813, -9.65234949493645, -41.22533501047707, 16.17760930581883, 15.979300929270163, 26.93522691050729, -21.52107253438623], [-29.856501942266558, 5.547080895065369, -2.3624792844800235, 34.44938953637502, 11.583658511949839, -18.715450877058647, -33.29257493450608, -20.901645127892657, 49.24952771626119], [55.15449840073289, -24.068132908384825, 4.038300147516613, 4.456384092120367, -40.916721603029714, -45.113244413082846, 20.34757682289297, 9.632648819405519, -4.377263698779057], [-32.83216135836275, -6.139635726923871, -0.23042873309498724, 28.73199641224011, 34.106549593245894, -5.666282186484352, 30.08847600294797, -35.008780425579126, 15.456583600351125], [-11.67346714015404, -5.443718189315864, 11.128126892286149, -4.26485583225187, -14.384422048102447, -20.70501692094651, 80.74805037806388, -78.50892126747776, 20.655909998142505], [23.965768404565523, -0.2543948742757396, 24.206535446205045, 22.39552931780333, -25.2258644737446, -26.16008910550535, -11.44104072959767, -50.24107517485459, -4.9611601667612595]]], "networkBiases": [[1.0, 1.0, 1.0, 1.0, 1.0, 1.0, 1.0, 1.0], [1.0, 1.0, 1.0, 1.0, 1.0, 1.0, 1.0, 1.0, 1.0]]}