{"structure": [9, 8, 9], "networkWeights": [[[0.16445724500464376, -42.9217612392375, -2.533451395189395, 0.5524840112860867, -0.2117431476052396, 23.341400415711128, 8.804444961022183, 50.46393337919914], [-6.5580763083581335, -1.0421154260757133, -13.432082820371345, -12.563868125461772, -7.7580803520224615, -19.944773896558353, -18.265839918287856, -25.926332582846246], [-13.342074194430849, -4.57369949446178, 3.4927515691337145, -12.457436040596416, -7.637312538529992, -5.927178555082288, 34.40881593956872, -9.949638076876953], [45.14022364504573, 18.582169678275804, 10.028143159093025, -13.571431766889276, 20.377399079795115, -0.3892511860453769, -5.5913119929730115, 53.20179605446187], [-34.970024279976144, -5.930994931569307, -37.265941380715624, -3.273893361485591, -17.37207802768554, 15.956539131504911, 4.059763853294061, 32.59387064857202], [1.0994933634126365, -25.110784606659436, 45.675352846114514, -14.931947666672665, 19.47896858613704, -27.50896073810807, 4.18301796118479, 40.14718615791279], [-9.656567508289498, 28.534775939577298, -30.109699304865188, 32.482034849829276, 25.861058261707623, -30.256784237164055, -12.985984366469982, 25.851390745462478], [-35.461752645395585, 41.89013194504081, -20.396123513174704, 27.410749251282702, -2.2997354800089376, -0.5996337366030617, 2.8294268759657744, -18.089830292521583], [-17.554539765201216, 22.185187815608607, 69.13222646813176, -18.797777778068617, 8.156723406478852, -21.03117602387652, -17.605819424830205, -23.363910643858286]], [[3.691547714730884, -37.939316126144696, -15.648362041783223, -13.335523752629904, -39.327850335168975, -2.826628795412191, -1.3666478494232983, -3.6139975849541006, -20.835843096280765], [7.367343292648795, 0.12490921799484633, -16.623282521475264, -42.968850537309535, 52.01279425820913, 32.94113416642816, -36.825586707314145, 14.133751091802633, -11.035205682815452], [-44.52929570164636, -18.99858561713738, -10.072588556911837, -9.365164329324971, -39.28953704267491, 16.17760930581883, 15.682520082827747, 26.987632790529936, -23.5110259696696], [-29.37647778630099, 4.693682552856753, -3.0576522559477306, 35.256287387610215, 11.581681475832866, -21.077778170750825, -33.29257493450608, -22.38481879518885, 49.83189772042989], [55.15449840073289, -23.709527602441103, 3.477623956116663, 4.456384092120367, -40.830946520293125, -45.41715818914418, 20.60939783074193, 9.632648819405519, -4.680126490184774], [-32.83216135836275, -6.258430608245782, 0.25606495570859256, 28.73199641224011, 34.106549593245894, -4.823841694142953, 30.08847600294797, -35.008780425579126, 15.245170762306035], [-12.488297238482412, -4.6729928049117415, 11.128126892286149, -4.128852963010324, -15.25565038389429, -20.193168902074778, 80.12703555517162, -77.95236961158749, 20.655909998142505], [23.91412228083039, -0.2543948742757396, 24.206535446205045, 23.585559285747912, -25.2258644737446, -26.190284556791543, -11.561780121971417, -49.48888629130524, -3.975878490417979]]], "networkBiases": [[-0.17045903110354454, 2.365248729350915, -0.4491045837891747, 2.5446043653813155, 0.5544232911709945, 1.5218515621203184, 3.0871798255835454, 0.7949847427294463], [1.646656674360972, 1.6080894194514532, 0.7217013363409903, 0.3542581167829857, 1.5477949784558274, 1.8762989365888763, -0.4646170753913186, 2.945692133984098, 1.298056041298067]]}