{"structure": [9, 8, 9], "networkWeights": [[[-0.5124428883755953, -43.8914891897167, -1.1834284910922397, 1.7096052641335422, 0.8340208601164091, 25.16591814780672, 9.115011479226196, 51.03084444635133], [-3.9466919595363903, -2.1094732336060553, -14.071881486638018, -13.686320423426924, -7.232899616090471, -19.88520030406424, -18.147474563660985, -23.6717089274663], [-12.659294323652807, -4.186835080539742, 5.02395697510589, -13.576859125665186, -7.8173897897563664, -6.324382874788811, 34.831072183052605, -9.638404282830862], [44.62233890283863, 18.760209110493687, 10.820812583476846, -13.87324348628841, 20.30093789053557, -1.0862849780234238, -7.839564339403652, 53.10369866686064], [-34.76101169518428, -4.659262988052778, -36.47930771929687, -2.4474889209470048, -16.318572026245715, 17.639615617793165, 4.094684461675688, 31.09524236527663], [1.8793177766858222, -26.278982634415947, 47.368955233870686, -13.697316429104529, 19.27376388811686, -28.391982374708277, 4.131919950398499, 40.79437626852857], [-11.548417832827605, 29.12114439958888, -30.130136225900028, 32.55601276865434, 26.434205582636135, -30.532001346304543, -13.598170793996047, 24.947505926392925], [-35.16145016527591, 42.49290083269018, -23.649570099315135, 27.887701652992543, -1.1225520134048188, 0.17522259167932358, 2.3282228012018322, -18.039040775310472], [-15.359684771578072, 22.38919481688685, 69.75892214099736, -20.937183364098267, 7.71132528566164, -21.96727574769082, -16.388035800006694, -22.768272315425595]], [[2.502474811547404, -39.502852853466045, -15.113622040794358, -14.108913825287848, -41.06909627447023, -1.2788520773266572, -1.7953149046584005, -4.497469929623808, -22.39596498920482], [7.774377879620196, -0.6334836290768827, -17.407093852424968, -44.1675469321767, 51.853215481904854, 32.254837017143444, -36.66019599711145, 13.952134287142387, -10.098249001887773], [-45.771184821230946, -20.049180120609854, -10.77782752841172, -10.092534550097206, -40.126504573668235, 16.406026661657506, 15.08651005445843, 27.00065480300715, -21.89694245669784], [-31.601170324198353, 5.175826962951067, -2.282402203741656, 34.03034641068208, 12.249423041512742, -18.744168031133697, -31.876810799318775, -21.3449454173345, 48.7044203596113], [55.52814395603946, -22.34592677654117, 4.675883713189655, 4.819830157902219, -41.33046790916103, -44.975889521367186, 19.54550559288149, 10.244090576480287, -5.35850884459174], [-33.62384901153563, -6.472418776852731, 1.2204011119918492, 28.347913637255225, 33.28197233231038, -6.277779595269632, 30.780164471974764, -35.59896818885464, 17.010074112430818], [-10.737898272534391, -4.8346626152546195, 11.461119169666755, -4.635152806209283, -15.163417142838163, -18.325813288786208, 79.29225718557069, -76.15462269211073, 18.70275412279066], [23.58892869774119, -2.7876994320212853, 26.676565091659867, 26.04527129027541, -24.656595586142224, -27.092389193203584, -11.147457928353024, -48.88634755372427, -5.553341921223807]]], "networkBiases": [[-2.4065013511194344, 3.6135699871029368, 4.932107630288363, 1.42177907829524, 4.575982774095518, -1.5389449667227055, 1.981382105490886, 5.623764605922067], [-3.9551479615722305, 6.524618872955664, -2.675841643521892, -1.5448233428580846, 5.9138356517003885, 2.2759825693320836, -1.7200707935824153, 2.940167582097729, 2.3633554471749414]]}