{"structure": [9, 8, 9], "networkWeights": [[[-1.4437199812466526, -43.89748706872763, -1.529083810382962, 0.9391777151044172, -0.3293811690325165, 24.65344510816123, 9.10523209048973, 51.99112314734543], [-5.296711626905051, -1.1701126799143684, -14.420898109876003, -13.735820522227039, -7.88149699682746, -20.629346577612626, -18.249290420514793, -23.677021881403526], [-13.879874444231293, -3.790791111571001, 4.420126020999247, -13.81458754898629, -8.811671923431822, -6.3331277002192445, 35.22975427200362, -9.445354883859812], [44.0532506461264, 18.575622718894156, 9.610179661555845, -13.237172646725437, 20.39332118267082, -1.097447005143254, -6.739771932499216, 52.70883360297309], [-34.338845425189525, -6.040310284445938, -37.62880255017206, -2.9463111777397644, -16.977375866845197, 18.042083222950154, 3.5799315464823085, 31.757226382176746], [1.308117753483827, -25.93118078996308, 47.1705012401425, -14.529199790443226, 18.857994229285524, -28.974700337280346, 4.2525970156674076, 41.1831411202871], [-10.205191762483427, 29.631234232095597, -30.588273802844554, 32.32639405158073, 25.858343931382944, -30.394434498046476, -13.203714549271192, 24.082510502873962], [-34.89396738950284, 43.24839844842409, -22.561590513395657, 28.01840733551591, -1.1756893255484018, -0.09121990989514156, 2.2031568206625574, -18.345702195242303], [-15.675991018905474, 21.831204156248695, 69.17576814371682, -20.373486297789082, 7.808176259031747, -22.635027815578937, -16.817267684476718, -23.796188505054065]], [[1.7711896745807678, -38.74299611591758, -16.08792486096858, -14.402732048693643, -39.023051621067715, -1.8272614579469995, -1.8649359403629013, -4.259266787632201, -21.428630796327916], [7.302044312827175, 0.008026891383996648, -17.27191029746885, -43.16529802620123, 52.32476427259512, 32.111069405147894, -36.06381178711583, 13.877391309770031, -10.735736202187324], [-44.5234567762036, -19.888159423540692, -9.554922702549225, -9.554164172582237, -40.90429431003054, 16.250497050415998, 13.53189413178206, 26.522419303395928, -21.404164212804265], [-30.019464722029355, 5.509960972568077, -3.0742846070011454, 34.68140447111261, 12.701514553641305, -18.745956836787656, -31.55052647404143, -21.714675491263417, 48.85871217550615], [55.796832349611456, -23.024450434547497, 4.149766700724795, 4.370942395991961, -40.53304927948287, -44.73961629888805, 19.95842866943543, 9.66266390116994, -5.452368125402965], [-33.74115861660591, -6.646595099377724, -0.05746847420752449, 28.172868653148768, 32.7395937214266, -6.256763137431914, 30.83018408359757, -35.65402372620493, 17.09692668950541], [-10.028208351688182, -4.271310639870393, 11.840542788950902, -5.233362229364381, -14.592241933852044, -19.360564346867342, 80.07563947779073, -77.27819503842836, 18.441600699827518], [23.31979632634421, -3.147459439469534, 26.100801806655408, 25.631927200816094, -25.214425496118423, -26.719317418414768, -11.401010232619154, -48.9105675746484, -4.438624774993745]]], "networkBiases": [[-3.325365663387334, 2.566586402267137, 1.7707610031131757, 2.726454616621549, 2.854563286926874, -0.757264351636805, 3.18309880238099, 7.396766414858435], [-1.717336984316619, 4.745133023917415, -2.176246833649133, -2.2983682773498115, 5.787735258878585, 2.857498328896633, -1.7049972486428404, 2.0774399863476445, 2.0329413947212]]}