{"structure": [9, 8, 9], "networkWeights": [[[-1.4437199812466526, -43.89748706872763, -1.529083810382962, 0.9391777151044172, -0.10677397688052809, 24.65344510816123, 9.10523209048973, 51.90289958937829], [-5.313791022500055, -1.1701126799143684, -14.420898109876003, -13.735820522227039, -7.88149699682746, -20.629346577612626, -18.249290420514793, -23.677021881403526], [-13.671977154720794, -3.790791111571001, 4.420126020999247, -13.81458754898629, -8.811671923431822, -6.509024608964166, 35.22975427200362, -9.445354883859812], [44.0532506461264, 18.575622718894156, 9.610179661555845, -13.237172646725437, 20.39332118267082, -1.3201519474985635, -6.7714938761270895, 52.48455129825377], [-34.338845425189525, -6.040310284445938, -37.62880255017206, -2.9463111777397644, -16.784490244671048, 18.042083222950154, 3.5799315464823085, 31.757226382176746], [1.308117753483827, -25.93118078996308, 47.1705012401425, -14.529199790443226, 18.857994229285524, -28.974700337280346, 4.2525970156674076, 41.118810935559594], [-10.205191762483427, 29.631234232095597, -30.588273802844554, 32.080792458939115, 25.858343931382944, -30.394434498046476, -13.203714549271192, 24.082510502873962], [-34.89396738950284, 43.24839844842409, -22.37754016991888, 28.01840733551591, -1.1756893255484018, -0.09121990989514156, 2.0406144528790175, -18.345702195242303], [-15.675991018905474, 21.831204156248695, 68.93605818555464, -20.373486297789082, 7.808176259031747, -22.635027815578937, -16.817267684476718, -23.796188505054065]], [[1.7711896745807678, -38.74299611591758, -16.08792486096858, -14.402732048693643, -39.01432383573805, -1.8272614579469995, -1.8649359403629013, -4.306113428459937, -21.570803766665748], [7.302044312827175, 0.008026891383996648, -17.27191029746885, -43.16529802620123, 52.32476427259512, 32.10056211669901, -36.06381178711583, 13.877391309770031, -10.735736202187324], [-44.67849050384425, -20.05662060760956, -9.356027434941439, -9.554164172582237, -40.90429431003054, 16.42718253712968, 13.53189413178206, 26.42330686862286, -21.404164212804265], [-30.019464722029355, 5.509960972568077, -3.076020485392034, 34.68140447111261, 12.701514553641305, -18.745956836787656, -31.262847213481017, -21.714675491263417, 48.85871217550615], [55.58204764465235, -23.024450434547497, 4.149766700724795, 4.370942395991961, -40.57081244565661, -44.73961629888805, 19.95842866943543, 9.66266390116994, -5.452368125402965], [-33.74115861660591, -6.646595099377724, -0.05746847420752449, 28.294648307160312, 32.607326525178706, -6.256763137431914, 30.83018408359757, -35.65402372620493, 17.09692668950541], [-10.237512774497239, -4.271310639870393, 11.840542788950902, -5.233362229364381, -14.592241933852044, -19.360564346867342, 80.07563947779073, -77.14629206566714, 18.441600699827518], [23.445492472295566, -3.147459439469534, 26.14037338323687, 25.631927200816094, -25.214425496118423, -26.719317418414768, -11.401010232619154, -48.9105675746484, -4.438624774993745]]], "networkBiases": [[-2.9871488919825433, 2.398678988522879, 2.0200025913717425, 2.726454616621549, 2.854563286926874, -0.5799437948496053, 3.472609752875776, 7.151992866022281], [-1.8965503105335682, 4.69371633660805, -2.176246833649133, -2.2983682773498115, 5.787735258878585, 2.9058937651454393, -1.5597912333754371, 2.032579461118068, 1.93164678895609]]}