{"structure": [9, 8, 9], "networkWeights": [[[-1.2456733091384196, -43.700325695198984, -1.8950859699591258, 1.3934547398723192, 0.06144757785625471, 24.35337268485218, 8.88623165331644, 51.926755302464514], [-4.929171965929852, -1.538742655304567, -13.950478513610193, -13.716574143779958, -8.321135827559921, -20.134340207871855, -18.265839918287856, -24.997818358140723], [-13.342074194430849, -4.154417557911259, 4.411471800163037, -13.472273403420617, -9.30414203819509, -5.733963549598208, 35.01097811264155, -9.535763743637162], [43.94910965507048, 18.42816928357408, 9.160156464343068, -13.694349085139029, 20.48017807897835, -1.785683244921238, -6.678761690994045, 51.85233384848224], [-34.14907954464961, -5.930994931569307, -37.27706159572718, -3.040215115801013, -16.83542210373756, 18.334355370817367, 3.36166256463624, 31.629023424482977], [1.4450198429853864, -26.046167415484724, 47.004742444788846, -14.92913583744082, 18.682347474063086, -28.78468433222894, 4.18301796118479, 41.171785586280265], [-10.383203949628832, 29.262357186638738, -30.27941093330115, 32.40399761884499, 26.10401717353823, -30.79487783788833, -12.800626125870949, 24.907650897083784], [-34.89785018315944, 42.3662483034101, -22.07904592117872, 28.20300265535998, -2.0657020981737153, -0.409384437458989, 2.9340707271716204, -18.3831983543381], [-16.343019123134734, 21.661542586975116, 69.55794402515662, -19.71914308681447, 7.909945265916962, -21.900843729446283, -17.275292678982357, -23.28858912560572]], [[2.0153312085069386, -38.734079927591885, -16.378340676373874, -14.877310963106728, -38.74206223284485, -1.685930763798568, -1.5360874190875033, -4.054334103245479, -21.211780753010345], [7.228443351877897, -0.5777708058352198, -17.31809458240882, -43.324284243540625, 52.044166033586386, 32.335344904004934, -36.021444355791694, 14.029792512637897, -10.56641558948534], [-44.65339861390416, -20.10048403679099, -10.109009210701315, -9.71037476680184, -41.07152275449852, 16.17760930581883, 14.761666733213216, 26.987632790529936, -21.964782568716377], [-30.313986162220083, 4.693682552856753, -3.4101223906949656, 35.256287387610215, 12.609179322546481, -18.67587744112611, -31.778756861617246, -21.42552610052524, 49.46245496112017], [55.98019155498814, -22.792220119165304, 4.0938902953535035, 4.646080419993269, -40.320545753754885, -45.3977554793199, 20.554755309436274, 9.743535255910736, -5.451165182485453], [-33.90244505836143, -6.275892243311186, -0.7715090561065794, 28.150207597314512, 32.56111111293903, -5.771762066356144, 30.750637878494967, -35.979711272794255, 16.928974698209537], [-10.271573459009165, -4.997781483417538, 11.651377746099653, -4.851141618208766, -14.901631705091022, -20.040705720306406, 80.3821191345019, -77.61715172615936, 18.81665395190489], [22.816946765730368, -2.806959990361464, 25.227746316290517, 25.148002157468568, -25.749794787289336, -27.103445310069354, -11.129199431938082, -49.172070283747885, -4.149816958551845]]], "networkBiases": [[-3.9106719889345585, 2.4592466958790626, 2.6760098183334993, 2.1589940165704573, 2.0823384521486923, -0.12433995186717334, 2.0604197990609165, 6.595587393007016], [-1.1536905834850781, 6.647895255995674, -2.904248251298612, 0.3794076012073831, 6.478555276722585, 2.2964268242097363, -3.8265958875943236, 1.7412082185174476, 0.5569774521677477]]}