{"structure": [9, 8, 9], "networkWeights": [[[-0.5691446936102782, -43.87994148514381, -1.17158846011502, 1.8074544578373422, 0.7829159402214966, 25.283360608737958, 9.120960541968573, 50.98369631681363], [-3.9354406033033427, -1.82417035772998, -13.965928092035664, -13.762990327615181, -7.24110166209035, -19.831938396263986, -18.16470368309675, -23.607702018576724], [-12.518596440544382, -4.124186464931687, 5.039396240637447, -13.590776989536025, -7.750499047787976, -6.451426932732599, 34.87611114187205, -9.583144127118855], [44.757031037134624, 18.815899992776593, 10.783429227910469, -13.843933949895924, 20.257850158138524, -1.0048189044371723, -7.836658543218357, 53.01276612435891], [-34.78281370985175, -4.758535507550263, -36.49750598465555, -2.2681919713507623, -16.36799343470719, 17.68369735197881, 3.978350539295617, 31.064239766539902], [1.9778047629879072, -26.248688817372482, 47.42867293062963, -13.699457838995492, 19.23410633695044, -28.297393164275757, 4.233095907122335, 40.84233800165937], [-11.542846544520371, 29.057892578323006, -30.237713350086203, 32.467025028739776, 26.33693602990815, -30.42699058935481, -13.583936202378808, 24.96244169335459], [-35.194067104447456, 42.42328013335237, -23.6344717325974, 27.927226754595672, -1.1068044926043699, 0.15313714657772073, 2.338884825499319, -18.01105102618844], [-15.495358118668525, 22.562728309640143, 69.78477106633402, -20.955227239487424, 7.688989861565924, -21.960974013764666, -16.43653318800846, -22.668673614144915]], [[2.444308968252082, -39.46073293839267, -14.974862856215555, -14.085284852452704, -41.06789976412567, -1.2802277731702907, -1.6338037342030634, -4.624462966866371, -22.330665687600998], [7.659750405441283, -0.6923598428982102, -17.40257924253379, -44.154960357776325, 51.90909295519616, 32.25890197400379, -36.65898926259412, 14.00934162838482, -9.98014018522712], [-45.72872327933753, -19.994100521229058, -10.757728587025127, -10.041126463843385, -40.02828212064635, 16.53928882306074, 15.034874970227111, 26.988385956986274, -21.826161035039352], [-31.503788718043193, 5.061788842403389, -2.2351198006422077, 33.93765133874736, 12.270118768108972, -18.789885779649982, -31.851637691677237, -21.25293840007102, 48.697977617739696], [55.64325960841258, -22.37066511211274, 4.729943590098103, 4.856321419384912, -41.50416149072769, -44.85563393670997, 19.655715388313784, 10.309934079109869, -5.32078187410272], [-33.635592693643, -6.541370513548588, 1.3216422269628763, 28.380248389850195, 33.265636096979705, -6.364730914375885, 30.681486072428648, -35.54712629233341, 16.95721916808136], [-10.715658309358826, -4.80731791978558, 11.463204236527936, -4.595462791482146, -15.126441727636687, -18.109764792159677, 79.31625332966291, -76.32123226164994, 18.74723649706861], [23.477843441541086, -2.7954099282491187, 26.628746986888867, 26.14321655287386, -24.54800517879671, -26.952146364557162, -11.05968916979487, -48.92362922864635, -5.508883369610705]]], "networkBiases": [[-2.329143931752741, 3.274281553278815, 4.927935953187599, 1.3513203648215986, 4.592470340825548, -1.7750127335376535, 1.588366042301468, 5.192690041050114], [-4.046345060666008, 6.70011717431291, -2.878231343473875, -1.6269474641606334, 5.932156775595745, 2.2641622939663857, -1.4140747928476716, 2.8487658594974627, 2.363752964661479]]}