{"structure": [9, 8, 9], "networkWeights": [[[-1.3306869353832358, -43.80993250270616, -1.2509582143732845, 1.4246527542481826, 0.88731806857826, 25.06848878270541, 9.068831991138614, 51.814075957428045], [-4.533847076252654, -1.7159802178155814, -14.553325265159671, -13.588042262364851, -7.662088432715542, -19.957715177980514, -18.400242197225694, -23.88941828495569], [-13.146358893342978, -4.355955781970064, 4.429113851855126, -13.366527952214444, -8.294501223261623, -6.2512118647979245, 34.89458652178761, -9.622069495156556], [44.38973958189088, 18.939092217778896, 10.541533100734656, -13.860333555466374, 20.25828504252373, -1.0430917651066787, -7.334528727488624, 52.890158274947986], [-34.7944681335703, -4.99327864038907, -36.47888996175942, -2.993162473906358, -17.04571864381632, 18.088490063405775, 4.286099468224274, 31.303361050163662], [1.7023529104480857, -26.497333764624194, 47.223628470378166, -13.691895346013066, 18.991730401645896, -28.768458191686307, 5.058892705041981, 41.45360445290676], [-11.338691401301974, 29.5212904478872, -30.210481011397608, 32.471505315898156, 26.148465462868515, -30.533531349995283, -13.828141015530058, 24.376078796385908], [-34.7555985412577, 42.89892044885871, -23.25614214768688, 27.71898460706934, -1.2932636555097772, 0.0655409328091845, 2.1142579232910768, -17.693605804819146], [-15.385721432120535, 21.86273461776973, 69.79281593419343, -20.81127487963653, 7.461775494518988, -22.30780717825144, -16.99784160737817, -23.186079273662564]], [[2.3302096520388416, -39.61781996252953, -15.141083602023235, -14.241786559537319, -39.912956250581814, -1.6837743367380138, -2.1792563122559137, -4.715110687356215, -22.204912532415836], [7.710883159813643, -0.16370339503946846, -17.39285873948694, -43.75720703920097, 51.85412603211987, 31.992380170920722, -36.39240331522076, 13.832896437647715, -10.028705500439205], [-44.94808627106312, -19.755335201117546, -9.98364718103856, -10.195655131286271, -40.0820232052162, 16.230041893572583, 14.747275047932431, 26.892894949767843, -21.531012289790645], [-30.751462258200014, 5.826037954513826, -2.555522192938161, 34.30495804090295, 12.139738343774136, -18.416123786339977, -31.94322074692907, -21.41567744444804, 49.59124614509513], [55.7147200258904, -22.391268854501302, 4.206992255871288, 4.551655254953052, -41.53336145699306, -44.52892392527165, 19.508047755660474, 9.585966990144609, -5.0310087963043], [-33.8002086128549, -6.568702774719318, 0.571928963336495, 28.442328803903358, 32.91286493583806, -6.404644670727984, 30.68269934787488, -35.74765056085846, 17.477517304879417], [-10.939089550153788, -5.078719869851777, 12.063961166856258, -4.927893514297659, -15.089029884780814, -18.34932847707585, 79.31744169148243, -76.25182754742524, 18.096402438492373], [23.39236939584165, -3.2924024887543206, 26.19261999919674, 26.02356513128816, -24.47794204283133, -26.623881585808014, -11.19217031962862, -48.87149271428298, -5.329655275734669]]], "networkBiases": [[-2.004707951925428, 2.655513069195354, 3.914704397608413, 2.142143891564226, 3.5696234903160047, -0.5633462242840335, 2.1712747856254593, 5.106730288263376], [-4.6336216555795415, 6.397176454552626, -1.9735073601035154, -2.3117688668517116, 5.355098540612719, 2.9271317717556027, -2.5187361321898623, 1.832433847712998, 2.696946805171059]]}