{"structure": [9, 8, 9], "networkWeights": [[[-0.7341993282239299, -42.901094352022625, -2.9289402285519914, 0.9367473675094715, 0.05940121815079946, 22.902104011301944, 8.167877542638657, 49.76704728617513], [-5.899045046504305, -0.47973439910806737, -13.3339279348803, -14.937955459424042, -7.33035353327979, -20.563738099534877, -18.191862006498155, -24.974514583061776], [-13.342074194430849, -5.259060345813474, 5.001888649382307, -14.57941307444901, -8.440942098749245, -7.186764806446992, 34.49879732836109, -10.344359588470109], [44.56717341811206, 17.85656526910537, 9.46717315608101, -13.882123596316196, 20.73549267048951, -1.3670798878678858, -4.439161704386997, 51.85164535549613], [-36.47214523063623, -4.4744011388448985, -35.8046496195879, -0.5480731713939428, -18.130174937778847, 17.120485103143277, 4.993364412372321, 33.49675580928111], [0.9359190835012947, -25.865149652858413, 45.95380339707816, -14.86465691974203, 21.89294220113765, -27.975964365527595, 4.202070616455637, 41.397793823889316], [-8.208821353027734, 29.693003874204702, -31.198816654408432, 32.563234664487936, 26.022449451478433, -29.9798266229821, -12.521950776759937, 27.119985632405033], [-33.71235828829513, 40.37526048448491, -21.713587059561522, 27.6636552800447, -1.9633256857122767, -1.6629599162865112, 0.7281188153296685, -17.864377216065936], [-17.094796516137272, 22.16643773960013, 69.25785986096245, -18.921925944948693, 9.694473063890232, -19.920666970226918, -19.14496149508678, -23.711877330753154]], [[3.990970013089342, -38.147260932140604, -15.375903303222834, -14.903433064968679, -41.79471878504565, -3.5519672055013034, -0.9116471847645564, -5.17007308948626, -23.261743702567184], [6.930328822761827, -0.28056584638549786, -16.503105373387534, -42.71263306230184, 49.35359633221666, 32.9932051570178, -36.69556903012603, 14.210906094678565, -10.520614423130002], [-43.88608872026307, -21.498251031851908, -11.560152888102628, -9.548624911137054, -41.07499928833638, 18.558455610162326, 16.12097967079565, 26.70450417813039, -20.798832907832857], [-29.85628505187769, 6.411077987294213, -3.051900335383581, 36.12942984353239, 10.777537939740869, -17.14546926306547, -33.816155396542456, -17.553772419943797, 49.85082740087741], [56.15963580087946, -23.852365609738932, 3.3600982682210834, 4.195202277822689, -41.106937768493395, -46.378056689458276, 20.34757682289297, 9.739036052433844, -5.357638492046419], [-33.70698451905965, -6.0991681586981015, 0.07232804907211965, 30.420274872527713, 32.755270482697874, -3.1133887467993793, 29.87663447054424, -34.940613217583966, 16.055962755185913], [-11.67346714015404, -5.818677465056785, 10.629508900077155, -4.6436424113229995, -15.055059060512193, -20.36024999178102, 81.78258915413912, -78.75280301360799, 21.785542053174293], [23.590134450839788, -0.24042659932999566, 24.261597299904572, 22.998802109638994, -25.449579373167097, -25.917569165996788, -13.190633452083423, -47.458000718409735, -3.4155163024619215]]], "networkBiases": [[1.0, 1.0, 1.0, 1.0, 1.0, 1.0, 1.0, 1.0], [1.0, 1.0, 1.0, 1.0, 1.0, 1.0, 1.0, 1.0, 1.0]]}