{"structure": [9, 8, 9], "networkWeights": [[[-1.2535179270661505, -43.77321799044211, -1.7280324119380746, 0.9643004943456199, -0.4057558674439148, 24.65344510816123, 8.994273176274762, 51.99112314734543], [-4.977525018465263, -1.3740450166224334, -14.396052780710939, -13.858705089117809, -8.25006978380123, -19.962068784028812, -18.378238726943064, -23.939678695167835], [-13.853644790851373, -4.223409184340349, 4.253651441330061, -13.528052571661545, -8.90979195029705, -6.194795300107518, 35.02557805153524, -9.317929564274717], [44.263462499550904, 18.84422096676581, 9.23810098752674, -13.381137996246462, 20.331443292933905, -1.1757112309269213, -6.705547123053201, 52.189726278083114], [-33.8557773023129, -6.0229675979999415, -37.62880255017206, -2.65884029610918, -16.57315856175672, 18.46136665938189, 3.7878087391906483, 31.516061329529364], [1.1298643795625474, -26.0148632273792, 47.27502238183243, -14.608273308811635, 18.80305719702755, -28.803948156993307, 4.18344236602198, 41.40417281580148], [-10.243705357734065, 29.55544511073719, -30.373585062134143, 32.379298882341764, 25.90866328920426, -30.588738823800977, -13.017053504615959, 24.322517909348807], [-34.93664101277409, 43.027607287193355, -22.27091698157468, 28.23708079019027, -1.5226471428676904, -0.5207534575162455, 2.1736275626439125, -18.134348137279346], [-15.638041648976227, 22.093004463155278, 69.31446229308838, -20.119680816817137, 7.747122817348166, -22.386389355914094, -16.602109251474804, -23.770142310470213]], [[1.9404117156861316, -38.98050012608281, -16.29144005577452, -14.718402844130726, -38.70732447993898, -2.0290471936728087, -1.6530397010364262, -4.001779843829645, -21.414123757353334], [7.6168388914019, -0.20022756069154934, -17.19335868764781, -43.6328519842133, 52.323695832963445, 32.197130565885224, -36.03037829180728, 13.626407000167877, -10.583303857957837], [-44.92577522243877, -20.31310382873572, -9.28019729117524, -9.601697799340261, -41.289386020582754, 16.162089094730348, 14.087086644334933, 26.88728733474909, -21.394381013556924], [-30.286951869169027, 5.5447903651146815, -3.336450611582116, 34.536710551944225, 12.95238278945251, -18.512321691194288, -31.778756861617246, -21.895339262463597, 48.99248574461495], [55.790967847087146, -22.560305026696664, 3.8392158208025142, 4.47605281454274, -40.58134730019863, -45.220284743399496, 20.34724120999084, 9.377877895335457, -5.667491558921563], [-33.74115861660591, -5.969926190107186, -0.500277268898399, 27.932442725461957, 32.431377374878835, -5.522976253654562, 30.87771683300011, -35.970327598605884, 17.30390118566895], [-10.034335715622737, -4.441419157843436, 11.718162893388074, -5.018867302171427, -14.75351260863911, -19.743424997775634, 80.07563947779073, -77.24555258091694, 18.81086499243666], [23.635613976779016, -2.5463505080011086, 25.36032595434966, 25.273483959823775, -25.384545439694197, -26.75571994554478, -11.244679740322232, -49.26995777142087, -4.247042098218593]]], "networkBiases": [[-3.4571297042227966, 3.2993003533466387, 1.8774379408204955, 2.538401150911347, 2.807204862002601, -0.7652197801861074, 1.8432976872193618, 7.231602877931085], [-1.4252346565450889, 5.784465699733426, -4.580330409831406, -2.3794807977661097, 6.288252028865487, 2.509864789884623, -1.8528761021890912, 1.9165804678169267, 2.0324051890782546]]}