{"structure": [9, 8, 9], "networkWeights": [[[-1.2535179270661505, -43.77321799044211, -1.6741353807550932, 0.9643004943456199, -0.4057558674439148, 24.65344510816123, 8.994273176274762, 51.99112314734543], [-4.977525018465263, -1.3328206465642358, -14.396052780710939, -13.816431550864424, -8.25006978380123, -19.962068784028812, -18.378238726943064, -23.939678695167835], [-13.853644790851373, -4.089348274183442, 4.253651441330061, -13.528052571661545, -8.90979195029705, -6.194795300107518, 35.02557805153524, -9.101359124893222], [44.263462499550904, 18.84422096676581, 9.36595142359743, -13.381137996246462, 20.331443292933905, -1.1757112309269213, -6.705547123053201, 52.189726278083114], [-34.065301990239064, -6.0229675979999415, -37.62880255017206, -2.65884029610918, -16.57315856175672, 18.677863626215114, 3.7878087391906483, 31.516061329529364], [1.1298643795625474, -26.0148632273792, 47.17166517341056, -14.608273308811635, 18.80305719702755, -28.803948156993307, 4.18344236602198, 41.347740279338744], [-10.243705357734065, 29.55544511073719, -30.373585062134143, 32.379298882341764, 25.90866328920426, -30.490961541207096, -12.883605021641097, 24.322517909348807], [-34.93664101277409, 43.027607287193355, -22.280213954874668, 28.23708079019027, -1.754537845171061, -0.5207534575162455, 2.1736275626439125, -18.134348137279346], [-15.782934941447946, 22.093004463155278, 69.44403934305711, -20.119680816817137, 7.706040648928473, -22.386389355914094, -16.602109251474804, -23.789742870633496]], [[1.9404117156861316, -38.8328890601464, -16.29144005577452, -14.641372450006557, -38.70732447993898, -2.0491021548050705, -1.6530397010364262, -4.001779843829645, -21.414123757353334], [7.827131321363244, -0.20022756069154934, -17.19335868764781, -43.6328519842133, 52.38405362689198, 32.197130565885224, -36.03037829180728, 13.626407000167877, -10.612621616429944], [-44.92577522243877, -20.31310382873572, -9.515367066812912, -9.601697799340261, -40.98739219174434, 16.162089094730348, 14.233309481374253, 26.88728733474909, -21.394381013556924], [-30.286951869169027, 5.711683511348758, -3.336450611582116, 34.536710551944225, 12.95238278945251, -18.512321691194288, -31.778756861617246, -21.895339262463597, 48.99248574461495], [55.790967847087146, -22.561341087180846, 3.901822176704177, 4.500631594600399, -40.42091071030239, -45.220284743399496, 20.34724120999084, 9.377877895335457, -5.893421934622052], [-33.74115861660591, -6.11087289265827, -0.500277268898399, 27.932442725461957, 32.50663253801586, -5.522976253654562, 30.87771683300011, -35.978233773241676, 17.30390118566895], [-10.034335715622737, -4.633846110737956, 11.499645084317681, -5.018867302171427, -14.75351260863911, -19.743424997775634, 80.07563947779073, -77.24555258091694, 18.81086499243666], [23.635613976779016, -2.777007799875079, 25.36032595434966, 25.273483959823775, -25.384545439694197, -26.75571994554478, -11.244679740322232, -49.26995777142087, -4.247042098218593]]], "networkBiases": [[-3.6407794335530563, 2.9918062055347745, 1.6828207294389401, 2.4346938922304178, 2.6829874514673673, -0.7652197801861074, 1.8767418824546305, 7.058860492517292], [-1.4622442251876224, 5.78407862766694, -4.055696827052527, -2.3173602488447043, 6.288252028865487, 2.5413006745482583, -2.0457673716704177, 1.9773422811750605, 1.7141462653572157]]}