{"structure": [9, 8, 9], "networkWeights": [[[-1.1903580702895864, -43.77321799044211, -1.7280324119380746, 0.9643004943456199, -0.4057558674439148, 24.65344510816123, 9.116433490287939, 51.99112314734543], [-4.977525018465263, -1.3740450166224334, -14.396052780710939, -13.816431550864424, -8.25006978380123, -19.962068784028812, -18.378238726943064, -23.939678695167835], [-13.853644790851373, -4.223409184340349, 4.253651441330061, -13.528052571661545, -8.737205848112804, -6.194795300107518, 35.02557805153524, -9.317929564274717], [44.263462499550904, 18.51473756898217, 9.537810146301027, -13.381137996246462, 20.331443292933905, -1.1317679899601898, -6.546946532514665, 52.189726278083114], [-34.065301990239064, -6.0229675979999415, -37.62880255017206, -2.65884029610918, -16.57315856175672, 18.46136665938189, 3.7878087391906483, 31.516061329529364], [1.0856138713209327, -26.0148632273792, 46.998569153440734, -14.608273308811635, 18.965794627216006, -28.803948156993307, 4.050663925189023, 41.22363540170743], [-10.318488645989852, 29.55544511073719, -30.373585062134143, 32.379298882341764, 26.069082359456345, -30.588738823800977, -12.883605021641097, 24.322517909348807], [-34.93664101277409, 43.027607287193355, -22.280213954874668, 28.23708079019027, -1.7777707678690091, -0.2905540502020108, 2.1736275626439125, -18.134348137279346], [-15.782934941447946, 22.03887391192401, 69.17576814371682, -20.260083965396777, 7.808176259031747, -22.524742712682897, -16.602109251474804, -23.770142310470213]], [[1.9404117156861316, -38.98050012608281, -16.29144005577452, -14.641372450006557, -38.70732447993898, -2.0290471936728087, -1.6530397010364262, -4.001779843829645, -21.54594700553149], [7.6168388914019, -0.20022756069154934, -17.19335868764781, -43.43971430416904, 52.29008422998308, 32.197130565885224, -36.03037829180728, 13.626407000167877, -10.612621616429944], [-44.92577522243877, -20.31310382873572, -9.47407631048568, -9.601697799340261, -41.24138653277516, 16.243946631206324, 14.087086644334933, 26.88728733474909, -21.394381013556924], [-30.286951869169027, 5.5447903651146815, -3.4541938648892336, 34.30017100001467, 12.95238278945251, -18.512321691194288, -31.778756861617246, -21.999075983074494, 48.99248574461495], [55.790967847087146, -22.560305026696664, 4.147557008422232, 4.3494739852825814, -40.42091071030239, -45.220284743399496, 20.34724120999084, 9.377877895335457, -5.6081761233043474], [-33.74115861660591, -6.11087289265827, -0.500277268898399, 27.932442725461957, 32.431377374878835, -5.522976253654562, 30.87771683300011, -35.74201846351366, 17.32059473315592], [-10.034335715622737, -4.633846110737956, 11.859023406618475, -5.018867302171427, -14.70007846578589, -19.743424997775634, 80.07563947779073, -77.24555258091694, 19.042614542494206], [23.485733089403773, -2.5463505080011086, 25.435801399515192, 25.50088662506183, -25.154843333590975, -26.967735688147116, -11.244679740322232, -49.26995777142087, -4.414674414771268]]], "networkBiases": [[-3.6708780105543064, 3.3544500679474702, 1.8962578392570177, 2.601986112704058, 2.958389918867076, -0.8681401472666676, 1.9448594725696808, 7.231602877931085], [-1.5783003283372505, 5.688421837765423, -3.9627682885184807, -2.2891569338919138, 6.535540553644772, 2.4268625834523974, -1.7353265325943525, 1.9549658769610971, 2.301098685355987]]}