{"structure": [9, 8, 9], "networkWeights": [[[-1.2535179270661505, -43.77321799044211, -1.7280324119380746, 0.9643004943456199, -0.4057558674439148, 24.65344510816123, 8.888354663699703, 51.988617528565946], [-4.977525018465263, -1.3740450166224334, -14.396052780710939, -13.816431550864424, -8.25006978380123, -19.962068784028812, -18.378238726943064, -23.939678695167835], [-13.853644790851373, -4.223409184340349, 4.253651441330061, -13.770575472977038, -8.90979195029705, -6.0902920551518145, 35.02557805153524, -9.317929564274717], [44.263462499550904, 18.84422096676581, 9.36595142359743, -13.185556596156884, 20.331443292933905, -1.1757112309269213, -6.705547123053201, 52.189726278083114], [-34.065301990239064, -6.0229675979999415, -37.62880255017206, -2.65884029610918, -16.711460782238795, 18.46136665938189, 3.7878087391906483, 31.516061329529364], [1.1298643795625474, -26.0148632273792, 47.17166517341056, -14.608273308811635, 18.80305719702755, -28.815483958563135, 4.18344236602198, 41.347740279338744], [-10.243705357734065, 29.55544511073719, -30.373585062134143, 32.16842155654065, 25.90866328920426, -30.588738823800977, -12.883605021641097, 24.322517909348807], [-34.93664101277409, 43.027607287193355, -22.27091698157468, 28.23708079019027, -1.5226471428676904, -0.5207534575162455, 2.1736275626439125, -18.134348137279346], [-15.782934941447946, 22.093004463155278, 69.31446229308838, -20.262268915368622, 7.808176259031747, -22.386389355914094, -16.602109251474804, -23.770142310470213]], [[1.9404117156861316, -38.98050012608281, -16.057390516896763, -14.641372450006557, -38.560026823522904, -1.9904836765172453, -1.6530397010364262, -4.001779843829645, -21.414123757353334], [7.405876049201262, -0.20022756069154934, -17.19335868764781, -43.6328519842133, 52.38405362689198, 32.197130565885224, -36.03037829180728, 13.626407000167877, -10.612621616429944], [-44.92577522243877, -20.31310382873572, -9.47407631048568, -9.601697799340261, -41.289386020582754, 16.162089094730348, 14.087086644334933, 26.88728733474909, -21.394381013556924], [-30.286951869169027, 5.5447903651146815, -3.2693688680598223, 34.536710551944225, 12.95238278945251, -18.512321691194288, -31.778756861617246, -21.895339262463597, 48.899376036721605], [55.77509918284921, -22.560305026696664, 3.901822176704177, 4.47605281454274, -40.42091071030239, -45.220284743399496, 20.34724120999084, 9.377877895335457, -5.651763369512783], [-33.74115861660591, -6.11087289265827, -0.500277268898399, 27.932442725461957, 32.57446146436335, -5.522976253654562, 30.87771683300011, -35.978233773241676, 17.30390118566895], [-10.034335715622737, -4.633846110737956, 11.575446068994436, -5.018867302171427, -14.75351260863911, -19.743424997775634, 80.07563947779073, -77.177018806276, 18.81086499243666], [23.635613976779016, -2.5463505080011086, 25.39330102842111, 25.273483959823775, -25.384545439694197, -26.75571994554478, -11.382548206644373, -49.26995777142087, -4.247042098218593]]], "networkBiases": [[-3.4145486382929486, 3.047069536173787, 1.7456803865957529, 2.601986112704058, 2.640170688103601, -0.7652197801861074, 2.0913972234189657, 7.032370314849782], [-1.37141172740123, 5.846548499657386, -4.05662929203288, -2.3128523171023687, 6.147370802514846, 2.396466235673843, -1.71569949444114, 1.9627458462715055, 1.908684924233294]]}