{"structure": [9, 8, 9], "networkWeights": [[[-0.5691446936102782, -43.85432632313973, -1.1556075280887816, 1.8074544578373422, 0.8181327725418038, 25.29980244186659, 9.14277603601944, 51.05791724200833], [-3.9810277769327693, -1.8818907951184642, -13.96890122453239, -13.728665791476269, -7.210772306565607, -19.911565296598162, -18.16470368309675, -23.607702018576724], [-12.581771166120914, -4.177271878246035, 5.039396240637447, -13.641000762628348, -7.688552841270261, -6.451386005988208, 34.92293445926072, -9.517357360710676], [44.796067761390795, 18.85483470560779, 10.827625447075269, -13.855648357149281, 20.234310955947244, -1.0731691506020278, -7.836658543218357, 53.09566191040975], [-34.72054176697685, -4.734330765961959, -36.461789915752895, -2.296178388049652, -16.301124012947582, 17.63201044988804, 4.007483616061558, 31.05249425311754], [1.9775524057480969, -26.25359046310487, 47.369448456444864, -13.666711390740529, 19.2071389001343, -28.297393164275757, 4.180191691468444, 40.85119648518374], [-11.505793446879649, 29.10505185633857, -30.237713350086203, 32.52563607238812, 26.37037659986862, -30.4870277118204, -13.616544637360722, 24.946668613704684], [-35.22277469408005, 42.427734831827195, -23.651362235840296, 27.870074899226083, -1.1011753174143497, 0.15313714657772073, 2.3697922113949703, -18.09314339128354], [-15.45769641574655, 22.542077037222313, 69.74704563039732, -20.974558698015716, 7.688660707868775, -21.96317145572896, -16.4880072553383, -22.75488162589404]], [[2.4627132475731415, -39.53174297995044, -14.990746566661763, -14.085284852452704, -41.04130481945267, -1.2802277731702907, -1.6338037342030634, -4.579072684343072, -22.384464874879917], [7.728002806491657, -0.691667080952492, -17.432215824851845, -44.17716871395317, 51.911634632389585, 32.17096796935962, -36.64608249794767, 13.955342492519327, -9.970151127641465], [-45.78355957530609, -20.014692276922375, -10.77400936525913, -10.051168753496013, -40.00730280386103, 16.52268037065923, 14.9687837016381, 27.06858837322494, -21.805818106155773], [-31.546387006970303, 5.108289818185129, -2.26812398212838, 33.99471203981596, 12.272318385524164, -18.789885779649982, -31.89551056135403, -21.277216498696852, 48.70331045734352], [55.62443830656147, -22.32865608238141, 4.754957190211389, 4.861591134892687, -41.41768448408306, -44.85563393670997, 19.605658289556985, 10.330794640075698, -5.320722003681375], [-33.59732529675199, -6.5375838028373465, 1.2639397838711077, 28.42445925711509, 33.204289985076215, -6.398186288792823, 30.71761786444997, -35.55545076158603, 16.94404322512849], [-10.693063812918117, -4.901666133963729, 11.463661452017869, -4.59014884849684, -15.082287616299988, -18.18545855443642, 79.29841390384894, -76.29230275485787, 18.713680901290036], [23.474699965021205, -2.7954099282491187, 26.673903271165464, 26.166977234113755, -24.581058808347972, -26.952146364557162, -11.056200144314413, -48.96866612485738, -5.4562691998157975]]], "networkBiases": [[-2.3012062345141833, 3.1374486974986864, 4.871078671684954, 1.4570020988057233, 4.5149343298182405, -1.584416305484619, 1.4930844118996236, 5.152896182522801], [-4.1283607238952955, 6.784733699856519, -2.8515030550167526, -1.5921847769698954, 5.689133369599456, 2.4940379656151395, -1.624288937318702, 2.7746885982830487, 2.3497507099443]]}