{"structure": [9, 8, 9], "networkWeights": [[[-0.5691446936102782, -43.87890024237699, -1.1484335357002668, 1.8074544578373422, 0.7937030351109446, 25.25272109490094, 9.148143038848184, 51.09816303331596], [-3.9810277769327693, -1.8991652610764627, -13.937135021674907, -13.728665791476269, -7.20238157647736, -19.911565296598162, -18.16470368309675, -23.607702018576724], [-12.581771166120914, -4.226086689835926, 5.021603543011484, -13.607922240651254, -7.688552841270261, -6.439529876630417, 34.92293445926072, -9.487378148290075], [44.75628539402988, 18.85483470560779, 10.799324218482557, -13.847500019695886, 20.244876578414292, -1.0731691506020278, -7.836658543218357, 53.09566191040975], [-34.72054176697685, -4.7041186345674095, -36.459726573287725, -2.296178388049652, -16.312363132497357, 17.63201044988804, 4.007483616061558, 31.01473096501015], [1.9775524057480969, -26.25359046310487, 47.369448456444864, -13.635351097003584, 19.2071389001343, -28.297393164275757, 4.180191691468444, 40.827035895100266], [-11.505793446879649, 29.07885662188707, -30.237713350086203, 32.52563607238812, 26.37037659986862, -30.50347483992144, -13.616544637360722, 24.946668613704684], [-35.22277469408005, 42.427734831827195, -23.651362235840296, 27.870074899226083, -1.0854912581457017, 0.15313714657772073, 2.3697922113949703, -18.09314339128354], [-15.45769641574655, 22.497557149944157, 69.74704563039732, -20.974558698015716, 7.688660707868775, -21.96317145572896, -16.46506323158144, -22.75488162589404]], [[2.4627132475731415, -39.52966458629182, -14.946160500609265, -14.111106485101706, -41.04130481945267, -1.2802277731702907, -1.6732951042384547, -4.579072684343072, -22.384464874879917], [7.728002806491657, -0.691667080952492, -17.432215824851845, -44.14288484677299, 51.911634632389585, 32.17096796935962, -36.64608249794767, 13.955342492519327, -9.970151127641465], [-45.78355957530609, -20.014692276922375, -10.77400936525913, -10.065778742858571, -40.04247079225297, 16.539576536478553, 14.9687837016381, 27.06858837322494, -21.805818106155773], [-31.546387006970303, 5.108289818185129, -2.3154818574362603, 33.9945460348756, 12.284447972560674, -18.789885779649982, -31.89551056135403, -21.229020391478276, 48.70331045734352], [55.61494961147, -22.32865608238141, 4.754957190211389, 4.861591134892687, -41.41768448408306, -44.90187174890827, 19.605658289556985, 10.282111528772184, -5.3333759161587535], [-33.59732529675199, -6.479920439585137, 1.2639397838711077, 28.457900340059332, 33.24219652504649, -6.398186288792823, 30.72007754501085, -35.55545076158603, 16.935470516192826], [-10.702556798906441, -4.901666133963729, 11.44596538726008, -4.59014884849684, -15.082287616299988, -18.18545855443642, 79.26750048974449, -76.29230275485787, 18.71551184044406], [23.474699965021205, -2.808374655441727, 26.62518240372602, 26.166977234113755, -24.581058808347972, -26.99043383542236, -11.06511418082592, -48.96866612485738, -5.4562691998157975]]], "networkBiases": [[-2.3145393188248877, 3.1861777124062547, 4.834185620226799, 1.5013068582966655, 4.561938043183565, -1.545152756928685, 1.4556553705427355, 5.09141543785993], [-4.088753570528416, 6.754621032359428, -2.8499745643358776, -1.4354361813144068, 5.776427058176762, 2.5128828071694276, -1.6536801066496876, 2.767911261543971, 2.229796594323617]]}