{"structure": [9, 8, 9], "networkWeights": [[[13.5974173207648, -6.289574944903633, -7.935427550268986, 5.595161890276493, 20.11660491465321, 21.667898299047206, 7.776288889262866, 33.309312345428346], [-9.746117344192019, 5.246298195182499, -25.20737698842285, -8.377401664317652, 11.835954972765037, -8.390356941519222, -0.9713261230338337, -17.979580088550374], [7.456331424290952, 9.787264143598827, -4.2161547940151225, 0.38406848865723675, -5.147850893622676, -10.893128524947835, 6.274886526934218, -14.901669118262559], [29.73852982645524, -18.830215154549876, 4.895880067195613, -7.651216155223261, 11.409711475895428, -8.136197057998896, 5.8141479833582, 15.93081004226706], [-4.233717556915732, 3.2253339916073793, 3.8146947886075813, 22.713906323228763, 3.118153138260741, 5.834892603542074, -0.681180467895723, 33.1541580018886], [-11.95443429711246, -11.812782280414805, 45.302086715334184, -10.207053959253841, 6.958974788666447, -23.269400814154693, 16.918044197322242, 11.986437101287953], [-0.8507102358245879, 11.12490034122057, -29.76726504612755, 41.39561215802749, 21.99746704584136, -26.42561541306417, -23.72758942874185, 27.084843553911636], [-8.94045281368373, 10.828935440288753, -13.625846298977866, -7.616188468812505, 6.936906528176872, -3.9889027593206476, 25.818018070112938, -30.43798593513047], [-5.303636131453981, 9.207757382838842, 66.84546189541493, -2.551041192998845, 21.40639460314425, -2.4517236625094574, 11.03607866749724, -23.753188006490966]], [[0.6728082194775185, -8.965234895947603, -1.6968072657098567, -19.28516465417304, -29.886378753060292, -4.6923578748259684, -5.648618701137565, -5.9772406583599444, -21.920290824181436], [-1.0709777622989336, -9.238013882622681, -18.296226370973542, -14.8894987456435, 36.68286884515274, 16.952931821883908, -6.0299807034019235, 16.668914184461652, 0.7490041251275787], [-56.17559022748505, -29.405863293898637, 14.12166882433194, 18.74853622849533, -34.46638586704986, -1.4871109926064705, 30.120229020441386, 5.49657248247661, 4.9278168724703315], [-6.607516447026629, 2.7228966456144192, 0.757552457261137, 21.97277115125354, 4.759879263196856, -12.297742145742067, -33.25544185950726, -6.124858217339369, 28.9925596425542], [31.40642744448414, -11.056413357051191, 8.78188638267591, 6.514224057857027, -18.072495463160056, -41.38660787117318, 13.220182798277197, 22.960651931485526, 2.918404774492774], [-29.124411801018272, -14.70434414167291, -10.34978347819781, 18.710440065465338, 38.326277282497095, -8.041172427438863, 47.48616112177854, -29.036518229306186, -6.586551422759241], [-14.74662682511661, -5.972955907363296, -1.9582752010255557, 13.288290268495874, 5.316836830484823, -25.033172862668522, 59.9506894026844, -30.905738424078848, 24.90481995342855], [2.721866204955009, 4.4326634840358015, 15.299615345252702, -4.5545822043175335, -29.282075353543448, -16.90295047360214, -7.191115696248825, -41.40004381354173, -4.834436187464862]]], "networkBiases": [[1.0, 1.0, 1.0, 1.0, 1.0, 1.0, 1.0, 1.0], [1.0, 1.0, 1.0, 1.0, 1.0, 1.0, 1.0, 1.0, 1.0]]}