{"structure": [9, 8, 9], "networkWeights": [[[14.246389288355138, -6.289574944903633, -7.935427550268986, 5.595161890276493, 19.811328670261698, 21.667898299047206, 8.139733761277984, 33.309312345428346], [-9.746117344192019, 5.246298195182499, -25.20737698842285, -8.377401664317652, 12.369891246634701, -7.5951860260570285, -0.9713261230338337, -18.622545780667824], [7.456331424290952, 9.424896248725691, -5.033359609273336, 0.8117957344570792, -5.19865911880965, -10.893128524947835, 6.274886526934218, -15.244672906837542], [29.73852982645524, -18.737948103761468, 4.895880067195613, -7.3637620020630585, 13.199742763757577, -8.221610071157349, 5.8141479833582, 15.93081004226706], [-4.159475542598319, 3.3915388204345946, 3.8146947886075813, 22.713906323228763, 3.118153138260741, 6.590003101530499, -0.681180467895723, 33.1541580018886], [-11.95443429711246, -11.812782280414805, 45.716421334002746, -10.217660892129766, 6.520871061143651, -23.269400814154693, 16.918044197322242, 11.986437101287953], [-0.6037700936213923, 11.12490034122057, -29.76726504612755, 41.39561215802749, 21.99746704584136, -26.42561541306417, -22.92397673725704, 27.084843553911636], [-9.14975774313757, 9.859190297409238, -13.625846298977866, -7.279546709114851, 7.0563803005396215, -3.9889027593206476, 25.656748073707604, -29.821243184582364], [-4.577902727168014, 8.664466537271052, 66.84546189541493, -2.551041192998845, 22.13574592222272, -2.13551826003196, 11.03607866749724, -23.753188006490966]], [[-1.1697415213537095, -9.512410355513929, -2.0395576728426903, -18.523894972699523, -29.23027579295307, -4.6923578748259684, -5.648618701137565, -5.9772406583599444, -22.12580181468518], [-1.0709777622989336, -9.238013882622681, -18.3414258761574, -14.8894987456435, 36.68286884515274, 17.40213790047984, -6.952620755128247, 15.72441664711094, 0.7490041251275787], [-54.89351225723788, -29.405863293898637, 13.643878440421611, 18.987269270675792, -33.895640973523356, -2.331919246603012, 30.120229020441386, 5.914453317994735, 4.9278168724703315], [-6.607516447026629, 2.7228966456144192, 0.757552457261137, 21.97277115125354, 4.759879263196856, -12.297742145742067, -33.84600058507112, -6.124858217339369, 28.459961723385252], [31.40642744448414, -11.056413357051191, 8.78188638267591, 5.8416028773240285, -18.072495463160056, -42.41571542700848, 12.240314367875943, 22.960651931485526, 2.593305573388143], [-28.6931068203101, -14.70434414167291, -10.34978347819781, 18.710440065465338, 36.74689974289867, -8.041172427438863, 47.48616112177854, -29.560195270591493, -6.586551422759241], [-17.190241687152696, -5.972955907363296, -1.9582752010255557, 13.288290268495874, 5.316836830484823, -25.033172862668522, 59.9506894026844, -30.905738424078848, 24.90481995342855], [2.6541065592668467, 5.10787288521775, 15.299615345252702, -4.5545822043175335, -29.282075353543448, -16.643358129285954, -7.191115696248825, -40.80651842632257, -3.893849851978055]]], "networkBiases": [[1.0, 1.0, 1.0, 1.0, 1.0, 1.0, 1.0, 1.0], [1.0, 1.0, 1.0, 1.0, 1.0, 1.0, 1.0, 1.0, 1.0]]}