{"structure": [9, 8, 9], "networkWeights": [[[-1.4294339444969546, -43.72948951583779, -1.3053567857044484, 1.3267383275476998, 0.3522803412197121, 25.10839381187337, 9.449104459557471, 51.843596073561436], [-4.553765128121899, -1.8155839790552015, -14.504755541119923, -13.551870257492821, -7.968057410528337, -20.45952919582576, -18.291642497905986, -24.0604161699145], [-13.473327310278089, -3.6314512997521025, 4.670631108484154, -13.327197417317468, -8.624725047197805, -6.437364188084316, 35.20114514143175, -9.440100860168146], [44.0532506461264, 18.73872325818884, 10.762054536002461, -13.338387013463182, 20.094840552141957, -1.171122524020018, -7.362435182807496, 52.77216928993125], [-34.677983262627635, -5.0778794297130805, -36.82702338840445, -3.2297704954278545, -16.797024344090648, 18.02367443363647, 4.212108232014764, 31.61916452493301], [1.555778338529552, -26.556272759209826, 47.11496114354853, -14.367607402055311, 19.10745419156481, -28.70630641425139, 4.905612171858645, 41.77490055974779], [-10.900746887876473, 29.63860166628926, -30.106417557409273, 32.253085763394914, 26.040893443795152, -30.597519816485136, -13.512142472628263, 23.972156210193987], [-34.84588944576852, 42.95542556627715, -23.52967633720907, 28.004762852888156, -1.202106513615001, -0.03164713444164269, 2.0586124369778718, -17.808738403168263], [-15.824990801861862, 22.015951407140893, 69.75519987520298, -20.63284997991504, 7.753418028933777, -22.696109437561358, -16.7262531942477, -23.26364429984003]], [[2.143847661021758, -39.51370321972373, -15.537405783241478, -14.500520956287867, -39.790085906330404, -2.0097287242400856, -1.9473033348920954, -4.702551372097124, -21.892401867866468], [7.516947241847801, 0.42270990754631854, -17.319781450140496, -43.37957551462525, 52.07596544302068, 31.94428317293014, -36.48547329872127, 13.976562240040625, -9.923580809747214], [-44.92463479403405, -19.520452832393254, -9.69704318680242, -9.963822902391861, -40.710086294257394, 16.470256602450206, 14.533631246847374, 26.95590587268207, -21.377584039405853], [-30.74438716351842, 5.9764779963654755, -3.1503376179698246, 34.35153242205431, 11.76387978009307, -18.610986750702644, -31.105362016484086, -21.38896290991471, 49.582783889493506], [55.94994729767532, -22.828278649295104, 4.343896533721125, 4.5170974830991835, -40.90992559151615, -44.44177748990439, 19.831090689869853, 9.116587579392379, -4.530801355599591], [-33.75315965637492, -6.420982943188085, 0.07609474568951696, 28.540064178822874, 32.90365718804521, -6.551489336591097, 30.583380456228646, -36.10589886870281, 17.143019155636548], [-10.661056145576863, -4.641189050975872, 11.881948955861176, -4.978667642404154, -14.519901934297273, -18.381512570625286, 79.31744169148243, -76.83986150620572, 18.045634276049704], [23.526459293506612, -3.7368990586496884, 26.19238745590362, 25.718754248058083, -24.83701200210881, -26.839335940026405, -11.100715780373328, -48.89510052216753, -4.782599681006653]]], "networkBiases": [[-2.4241810779221025, 3.5549793769296016, 3.9636354169730548, 2.1343459940962424, 2.2131715328553767, 0.35217383860395174, 1.953668327570771, 6.594708476898029], [-3.811172024431625, 5.852382946424079, -1.3405133240145741, -2.8643909063078734, 5.584423124236482, 3.851709570868149, -3.470369388445027, 2.241948178278332, 2.0207695279192723]]}