{"structure": [9, 8, 9], "networkWeights": [[[-0.6509807614496848, -43.945385255780785, -1.111020040139947, 1.9277204513598427, 0.8827469362752015, 25.250711445826795, 9.046667482014973, 51.209614532135035], [-4.043786597494536, -1.6966793032310052, -14.066535789289068, -13.658154657752418, -7.216546297244915, -19.82585344882808, -18.19592290105887, -23.61875967736424], [-12.383366475986863, -4.1369697363608795, 5.22747269087615, -13.728072096960794, -7.732369676789808, -6.573727370797607, 35.11962360828646, -9.42745587526096], [44.67324155029476, 18.75213454558914, 10.88693886513357, -13.731753867670573, 20.392187658981825, -0.9385617299408204, -7.7425374170699035, 52.9698693576789], [-34.75161981402622, -4.630720486762859, -36.52898850781573, -2.262339446449919, -16.426732825058338, 17.688771526941267, 4.018426446994858, 31.127369618663067], [2.0893311189089694, -26.123439143365584, 47.4062529135778, -13.643584534225965, 19.339435580174897, -28.434929355889544, 4.261338687579304, 40.846247059666815], [-11.751767429545513, 29.078876859803902, -30.044358055949733, 32.41299476264317, 26.18810232192122, -30.29367018049277, -13.397654738312966, 25.04790473362208], [-35.266562787317554, 42.42346417509959, -23.771974168243982, 27.9166091830846, -1.2146240196860583, 0.21508729126089632, 2.3647192027779704, -18.148495587572945], [-15.45742869704232, 22.49585148636794, 69.81081953967724, -20.935670968196813, 7.691794559554763, -21.97624134356371, -16.43205880836469, -22.738495369438283]], [[2.4700108337487015, -39.4677791128641, -14.95119284550445, -14.199187760689865, -41.12108689033762, -1.3604594939516177, -1.529939187436127, -4.471146894618026, -22.248893690444525], [7.675016935576103, -0.6734760787371568, -17.37843680686339, -44.12593647676685, 51.92167015869269, 32.21865704322811, -36.67442217730338, 14.109447242845796, -10.000087671444609], [-45.94001064454415, -19.783997569420336, -10.79259657824324, -9.927426115064277, -40.06715773557964, 16.589245741398067, 15.158550435546044, 27.10348695066249, -21.85412643108745], [-31.64919905562631, 5.047423717213026, -2.145880797480938, 33.97414918314235, 12.291543850686926, -18.651364633241204, -31.956989816904837, -21.207991984482913, 48.710347920022066], [55.755516080509025, -22.31274390828438, 4.703219891892926, 4.853854407960135, -41.46855045149862, -44.691799826238686, 19.519533677424693, 10.35774797064307, -5.294067353463829], [-33.64978550311265, -6.559151622555509, 1.4730593037873505, 28.360259367993535, 33.29337973653027, -6.448271630712845, 30.55701479775739, -35.40510628960977, 16.90395601558642], [-10.82203147815104, -4.862964317530435, 11.480108838447027, -4.550802157733175, -15.105045765773077, -18.09258354144025, 79.33855118024852, -76.27666997608014, 18.751503589707777], [23.565875256434698, -2.9055268469162625, 26.681723447542137, 26.122795510786915, -24.57722345039831, -26.976643810969538, -10.990281442520493, -48.88156086725406, -5.559004231363562]]], "networkBiases": [[-2.228926643385203, 3.098782026575587, 4.853291184440605, 1.9111292252167174, 4.612800800723533, -1.8803829998219648, 1.9149958134520022, 5.095135202850984], [-3.5926219387836524, 6.541236109306608, -2.786116205088267, -1.956064128812641, 5.635579303748576, 2.621176006477311, -1.4689763301802683, 3.3127001004786596, 2.5680540034395114]]}