{"structure": [9, 8, 9], "networkWeights": [[[-0.712303771870032, -43.945385255780785, -1.0651446380431322, 1.9277204513598427, 0.8827469362752015, 25.224257886389545, 9.054613698995032, 51.18888070462811], [-3.9561686755534855, -1.6985349189256573, -14.072216341215027, -13.641076645285521, -7.216546297244915, -19.78179639727037, -18.19592290105887, -23.61875967736424], [-12.383366475986863, -4.108746421639817, 5.22747269087615, -13.728072096960794, -7.727957602207837, -6.659695316812087, 35.15232633180894, -9.364639463131738], [44.68400051762704, 18.75213454558914, 10.80127509173137, -13.74791493157959, 20.392187658981825, -0.8991083155020323, -7.7425374170699035, 52.9698693576789], [-34.80514549435474, -4.625928576987611, -36.46019753682057, -2.248288333286936, -16.40379713599744, 17.694657821742705, 4.018426446994858, 31.127369618663067], [2.0893311189089694, -26.10196195088163, 47.41734267019995, -13.643584534225965, 19.35546364112206, -28.394915547651426, 4.3192161886720415, 40.88979074232416], [-11.751767429545513, 29.078876859803902, -30.054293645191795, 32.49439151853213, 26.17115298346076, -30.29367018049277, -13.397654738312966, 25.086951879180283], [-35.28328455031403, 42.473753261072495, -23.80690759416222, 28.00974614118442, -1.2035077064650777, 0.21508729126089632, 2.3647192027779704, -18.12429595423355], [-15.433080968015908, 22.45866136175121, 69.78342422007833, -20.97144373878897, 7.691794559554763, -21.97624134356371, -16.43205880836469, -22.664658757197]], [[2.4873261734966796, -39.50287182777565, -14.98755853042947, -14.17882135398175, -41.09047213238326, -1.334084790959138, -1.4882334179674763, -4.4206736663453645, -22.262543366788943], [7.702253729270521, -0.6734760787371568, -17.37843680686339, -44.09950618764342, 51.92167015869269, 32.20254680271061, -36.64582375560712, 14.152354360840189, -10.014607559286292], [-45.94001064454415, -19.736462275940475, -10.821728085801132, -9.927426115064277, -40.06715773557964, 16.52789754369155, 15.158550435546044, 27.076636904912352, -21.837426976390653], [-31.68576884432115, 5.070977876164212, -2.145880797480938, 33.95208835964051, 12.340132344185704, -18.620675320430724, -31.95083097925163, -21.207991984482913, 48.73371847101117], [55.755516080509025, -22.31274390828438, 4.676117607961588, 4.8696395639526235, -41.51027852952602, -44.691799826238686, 19.48822536085135, 10.370799412903803, -5.332021241952323], [-33.63084015554936, -6.609854286682699, 1.4762144393127514, 28.3102691600543, 33.275781916303934, -6.448271630712845, 30.560407682399596, -35.454298857915525, 16.960203786456955], [-10.792192236683384, -4.862964317530435, 11.529062435385912, -4.49586103095279, -15.092235305451988, -18.131180524251132, 79.38619291454391, -76.28731457110698, 18.751503589707777], [23.565875256434698, -2.8999273187984556, 26.681723447542137, 26.132086508452662, -24.564065432928505, -27.004219700782844, -10.990281442520493, -48.836488168825554, -5.520228117536028]]], "networkBiases": [[-2.0706444581277417, 2.9668465437754303, 4.911166512153254, 1.9274356843787295, 4.50444722683944, -1.9433705555021799, 1.9463749814776712, 5.1293008409406635], [-3.652774790574369, 6.518473705641649, -2.8127346594960416, -2.071903736823975, 5.639745390896704, 2.5757256681983653, -1.5519833773563552, 3.057651115904797, 2.5367417065297246]]}