{"structure": [9, 8, 9], "networkWeights": [[[-0.5613528899855162, -43.85432632313973, -1.1922144572260793, 1.8098631345088425, 0.8306882897204593, 25.29980244186659, 9.112285949530113, 51.05791724200833], [-3.935325348711778, -1.9085959150669118, -14.03692156811995, -13.734024331164905, -7.20238157647736, -19.907717738698928, -18.217445429740106, -23.61466811676617], [-12.581771166120914, -4.188282110021551, 4.993589778555688, -13.641000762628348, -7.816096464258043, -6.4345870006925665, 34.873425191962454, -9.473774346184754], [44.751936591219085, 18.8159443735661, 10.86629965691016, -13.847500019695886, 20.275722970523237, -1.0731691506020278, -7.818459201231721, 53.10369866686064], [-34.72054176697685, -4.701660045153559, -36.461789915752895, -2.296178388049652, -16.275233864071318, 17.63201044988804, 4.014141428489624, 31.072688894671987], [1.8833456265817883, -26.218643671708307, 47.36798188456471, -13.681939338847505, 19.2071389001343, -28.297393164275757, 4.1879435887045275, 40.827035895100266], [-11.551670857842554, 29.047850950338315, -30.22485872396991, 32.56164251754016, 26.40321568355544, -30.47730700235648, -13.616544637360722, 24.92257762587568], [-35.168947987080436, 42.43994047353326, -23.641581132464516, 27.935017887761184, -1.1112429306927212, 0.15313714657772073, 2.3184463789608305, -18.067746150939108], [-15.458369673461249, 22.472426790831275, 69.74704563039732, -20.974558698015716, 7.71784744045715, -22.00465666964303, -16.49775050297331, -22.71330926916981]], [[2.5087118171704317, -39.586159555071596, -15.018651954482126, -14.087483104661192, -41.059804950020435, -1.2689092256076726, -1.6732951042384547, -4.58860289630126, -22.384464874879917], [7.754512466432271, -0.7081591864294401, -17.432215824851845, -44.14288484677299, 51.88158908252939, 32.21384885128123, -36.66098842137088, 14.011469862257751, -9.970151127641465], [-45.771184821230946, -20.04778486959874, -10.784555123838855, -10.078763146339341, -40.05286953224383, 16.447575604315713, 14.949460355229805, 27.06858837322494, -21.89694245669784], [-31.50948256342286, 5.108451112237139, -2.303185802789323, 34.0054340349381, 12.251831559848647, -18.78602706619884, -31.8468379624212, -21.29709587721765, 48.769600948097015], [55.64592316732366, -22.351114044340424, 4.710855130145091, 4.795169705788614, -41.41768448408306, -44.98511189446668, 19.59264353498989, 10.277853559813616, -5.3333759161587535], [-33.57212767940214, -6.481580296100363, 1.2639397838711077, 28.42445925711509, 33.2855451558408, -6.369562991310774, 30.756391677591445, -35.58722425631, 16.935470516192826], [-10.69844649825439, -4.902621941340189, 11.463661452017869, -4.633788932999766, -15.141989924125884, -18.230683895776238, 79.26750048974449, -76.26148342046702, 18.678793006014786], [23.51034604592693, -2.731009715865545, 26.62518240372602, 26.200479288508653, -24.620664561751525, -27.02746748154988, -11.04438907297483, -49.04655050326776, -5.454209464207057]]], "networkBiases": [[-2.371640762167603, 3.2114873599493783, 5.015480799484628, 1.3899494278799542, 4.557852984534246, -1.4775285894885304, 1.6436792090714571, 5.371258565238992], [-4.013590935706332, 6.706332489638451, -2.825488164567239, -1.4852151324176954, 5.662564844015849, 2.444596358705528, -1.6797172925900092, 2.8662337566817984, 2.2632652810103315]]}