{"structure": [9, 8, 9], "networkWeights": [[[-0.5613528899855162, -43.85432632313973, -1.1922144572260793, 1.8098631345088425, 0.8306882897204593, 25.29980244186659, 9.122781112883235, 51.05791724200833], [-3.935325348711778, -1.9085959150669118, -14.03692156811995, -13.734024331164905, -7.20238157647736, -19.907717738698928, -18.217445429740106, -23.627276943579073], [-12.581771166120914, -4.188282110021551, 4.993589778555688, -13.641000762628348, -7.816096464258043, -6.451386005988208, 34.873425191962454, -9.519969518509434], [44.80057293792779, 18.818679493169316, 10.86629965691016, -13.847500019695886, 20.275722970523237, -1.0731691506020278, -7.818459201231721, 53.10369866686064], [-34.72054176697685, -4.701660045153559, -36.461789915752895, -2.296178388049652, -16.275233864071318, 17.63201044988804, 4.007483616061558, 31.02510429744714], [1.8833456265817883, -26.218643671708307, 47.36798188456471, -13.681939338847505, 19.2071389001343, -28.297393164275757, 4.1879435887045275, 40.827035895100266], [-11.551670857842554, 29.047850950338315, -30.223952275423276, 32.56164251754016, 26.40321568355544, -30.484852920723494, -13.616544637360722, 24.899070252454162], [-35.168947987080436, 42.43994047353326, -23.619705990937042, 27.9190682107821, -1.1112429306927212, 0.15313714657772073, 2.3184463789608305, -18.067746150939108], [-15.458369673461249, 22.472426790831275, 69.74704563039732, -20.974558698015716, 7.71784744045715, -22.00465666964303, -16.49775050297331, -22.723642808093917]], [[2.5087118171704317, -39.586159555071596, -15.018651954482126, -14.087483104661192, -41.059804950020435, -1.2689092256076726, -1.6732951042384547, -4.58860289630126, -22.384464874879917], [7.754512466432271, -0.7081591864294401, -17.432215824851845, -44.14288484677299, 51.88158908252939, 32.23298240292134, -36.66098842137088, 14.011469862257751, -9.970151127641465], [-45.771184821230946, -20.04778486959874, -10.784555123838855, -10.061408256702686, -40.05286953224383, 16.447575604315713, 14.949460355229805, 27.06858837322494, -21.89694245669784], [-31.50948256342286, 5.108451112237139, -2.303185802789323, 34.0054340349381, 12.25502555528688, -18.78602706619884, -31.88509725826282, -21.29709587721765, 48.769600948097015], [55.64592316732366, -22.351114044340424, 4.710855130145091, 4.8128254182410855, -41.41768448408306, -44.93926306713796, 19.59264353498989, 10.289909946189233, -5.3333759161587535], [-33.57212767940214, -6.463558157231168, 1.2639397838711077, 28.42445925711509, 33.2855451558408, -6.40257301081939, 30.756391677591445, -35.58722425631, 16.935470516192826], [-10.69844649825439, -4.902621941340189, 11.463661452017869, -4.633788932999766, -15.141989924125884, -18.230683895776238, 79.26750048974449, -76.26148342046702, 18.678793006014786], [23.474699965021205, -2.731009715865545, 26.62518240372602, 26.200479288508653, -24.620664561751525, -27.02746748154988, -11.036851813955549, -49.04655050326776, -5.454209464207057]]], "networkBiases": [[-2.41828268039649, 3.2114873599493783, 5.015480799484628, 1.4365900384335473, 4.557852984534246, -1.4826546381631358, 1.5969648861992543, 5.326978162374395], [-4.050656608551721, 6.624981970527359, -2.7900589521016337, -1.4852151324176954, 5.620664150753513, 2.4748541220355307, -1.697252745339438, 2.8093851518415716, 2.244476923829461]]}