{"structure": [9, 8, 9], "networkWeights": [[[-0.5693646778486946, -43.91386933261572, -1.091345374693515, 1.9724687290169285, 0.9395826222412047, 25.240385409096486, 9.004201347987864, 51.27337666785431], [-3.9763392566326377, -1.615439309692054, -13.997904948981482, -13.756881232864046, -7.177331532102459, -19.768197175630842, -18.20034713336777, -23.56057247109491], [-12.363489853312748, -4.180265878163014, 5.20243339651573, -13.693039456598376, -7.8008989308106, -6.5706767223145, 35.24396167066388, -9.425347581834327], [44.655373560577225, 18.81107865504874, 10.82047992082612, -13.801410062153954, 20.329390829006396, -0.8597005654685208, -7.77578576482137, 52.91155279758999], [-34.83077224242049, -4.621094876803807, -36.47336109783207, -2.1916580778306445, -16.413253545613184, 17.659946422894237, 4.05235692732973, 31.24452698501223], [1.8696043105070257, -26.216895268456046, 47.17217052381592, -13.65074255587093, 19.260916358432475, -28.43108894769653, 4.310911853821991, 40.92072821074747], [-11.706045365411574, 29.07936392712648, -30.060218974144053, 32.51792830810609, 26.12245938567375, -30.283542706322947, -13.29216511840022, 25.043665768702983], [-35.30995757799088, 42.511051669556664, -23.692469594207555, 27.981134390351993, -1.2760264275620554, 0.1462857341669508, 2.359829697130823, -18.122007138857136], [-15.419628921892784, 22.442439907106706, 69.8208247581454, -20.958650360134296, 7.737113479664693, -21.97624134356371, -16.438551666264388, -22.66562740136118]], [[2.6498381855382975, -39.42232717253645, -14.959935672784056, -14.12364994296805, -41.107831884743916, -1.4136286324623655, -1.4402384497526628, -4.430715043640153, -22.330611905730972], [7.7052389368493985, -0.6980762644785183, -17.397838603796853, -44.15641557129031, 51.88725873272945, 32.23443318645642, -36.64487768554591, 14.186403859096623, -9.950605333696826], [-46.00207661266778, -19.685129227936745, -10.801729547983241, -10.010623242628691, -40.076513541559486, 16.459734177942263, 15.103312841594208, 27.126037991436526, -21.991236832173964], [-31.691122568247863, 5.012068783821945, -2.2519072912361344, 33.90508956318745, 12.240302750956502, -18.725350946905635, -31.908590684834394, -21.291987276412108, 48.846455885152004], [55.708471622979076, -22.358719466087546, 4.543750630732603, 4.943484047528916, -41.43796908579625, -44.76694982238856, 19.42168553767813, 10.497126382967348, -5.324783521130603], [-33.662270336796595, -6.590160250216691, 1.4820402680100682, 28.28994842241703, 33.42900042275661, -6.5142520591365995, 30.615167592292476, -35.42509475619919, 16.97182618971296], [-10.897564479150166, -4.89679808344609, 11.575450516031442, -4.415416681259985, -15.18552550958984, -18.119751063256565, 79.46396105600789, -76.35922744809594, 18.728906745506944], [23.623343677629613, -2.8119262480935636, 26.632969393587278, 26.116600655982765, -24.61225850482123, -26.945803192696744, -11.004802766200656, -48.80216794526335, -5.497141350884313]]], "networkBiases": [[-2.3112766153495934, 2.9269288226367, 4.936852995342795, 1.9782399930371135, 4.58251446055962, -1.6964597906472296, 1.9062396559776664, 4.6001492775579935], [-3.9470052785984118, 6.571112777789789, -2.6011248365914126, -2.0762138510417407, 5.49724185088174, 2.921427861028746, -1.4189551506594877, 3.0211826673711983, 2.591516473977729]]}