{"structure": [9, 8, 9], "networkWeights": [[[-0.8360387408627585, -43.45577691171395, -1.8950859699591258, 0.49740605753889167, -0.3524561207269443, 24.35337268485218, 9.621558927591167, 52.00415394894504], [-5.898795964987264, -1.538742655304567, -13.432082820371345, -13.173119107789839, -8.139311641171735, -20.134340207871855, -18.265839918287856, -24.35912995103951], [-13.471535513999605, -4.861021837765811, 4.411471800163037, -13.427513594087168, -9.30414203819509, -5.927178555082288, 35.01097811264155, -9.535763743637162], [45.14022364504573, 18.42816928357408, 9.160156464343068, -14.073251161168463, 20.377399079795115, -1.785683244921238, -7.471399677205378, 52.85381133424865], [-34.171428655633314, -5.980328481762417, -37.265941380715624, -2.698761660259769, -17.67787649465862, 17.76685191181428, 3.9519861129011744, 31.629023424482977], [1.4838458408775972, -25.49908260395387, 45.00746017359743, -14.92913583744082, 18.682347474063086, -28.672946767258498, 4.18301796118479, 41.28877488660899], [-9.925544067941194, 28.597355069993995, -31.080083680244424, 32.40399761884499, 26.93321812940403, -30.78726020519292, -12.985984366469982, 24.673237620802386], [-34.04019692461486, 41.89013194504081, -21.335364423324126, 28.409921643890723, -1.6481659949838268, -0.409384437458989, 2.7367854985153293, -18.881591965337996], [-17.144625551548057, 21.661542586975116, 69.50975895379487, -18.797777778068617, 7.7220895488631935, -21.85139636715264, -16.852616925164916, -23.363910643858286]], [[2.0153312085069386, -38.141374826736204, -16.378340676373874, -14.071858537894075, -38.93030170966865, -1.9191242579158674, -0.8206198334392252, -4.054334103245479, -19.21698081529491], [8.00438709719426, -0.5777708058352198, -17.366770416133292, -42.98455516755548, 52.38583972328337, 32.25804068744096, -36.10283663009639, 14.133751091802633, -10.56641558948534], [-44.42246805195809, -20.258574819108162, -10.865712743313342, -9.218020146795581, -40.17385545887466, 16.17760930581883, 14.696898944721882, 26.987632790529936, -21.630830057887863], [-29.37647778630099, 4.693682552856753, -3.0576522559477306, 35.256287387610215, 11.944257490710187, -18.426892281145403, -32.327151560968105, -22.221041768953135, 49.23633833850906], [55.26065677191093, -23.361285372134056, 5.0338123942617425, 3.876182003520509, -40.830946520293125, -45.309841611417376, 20.60939783074193, 9.632648819405519, -5.330590283789004], [-33.270212751772654, -5.5837802308986415, -1.5494026009701787, 28.537117358035868, 32.49221580203593, -5.0287512779833925, 30.750637878494967, -35.550040189357865, 15.245170762306035], [-10.23987307280741, -4.883501468638055, 11.232038758689077, -4.128852963010324, -16.69251049725702, -20.193168902074778, 79.71471270153214, -77.65385220076323, 20.43240136602075], [22.816946765730368, -0.2543948742757396, 25.09373544728036, 24.37749756929242, -25.900245672720764, -26.387338812545543, -11.605328028488032, -48.844959835243905, -4.149816958551845]]], "networkBiases": [[-1.6357311388159375, 2.4935825045588644, 1.6222247032690984, 3.3086078284104827, 1.7046957583182745, 0.1565247148649962, 1.6652048956408767, 6.598670744807412], [1.4364590843933513, 4.808377107928283, -0.763449601423889, 1.6299889985840745, 1.7852627924772413, 4.576520455785918, -0.4456516182726269, -0.12298854697654393, 2.316117421888189]]}