{"structure": [9, 8, 9], "networkWeights": [[[-0.5355179233786027, -43.8914891897167, -1.1834284910922397, 1.741735618172445, 0.8309332412183129, 25.154165626228696, 9.115011479226196, 51.03084444635133], [-3.932973642889881, -2.0423500328889963, -14.071881486638018, -13.661021843082498, -7.314831188674178, -19.91059116291789, -18.147474563660985, -23.694717015758624], [-12.715018687616984, -4.209354606103705, 5.01366543718643, -13.54242968387181, -7.8173897897563664, -6.339350698602362, 34.82739360063249, -9.64058975650069], [44.69088144680072, 18.78305399177558, 10.820812583476846, -13.87324348628841, 20.28534230829937, -1.0862849780234238, -7.839564339403652, 53.10369866686064], [-34.73311089271438, -4.678728776362514, -36.47930771929687, -2.473158532895776, -16.305894925298457, 17.674407313792, 4.094684461675688, 31.09524236527663], [1.8979983325829488, -26.287318834933412, 47.2888233828189, -13.738035632675256, 19.27376388811686, -28.391982374708277, 4.131919950398499, 40.81489945092709], [-11.548417832827605, 29.12114439958888, -30.112430262672397, 32.55988181110941, 26.4722577991022, -30.514112296349122, -13.598170793996047, 24.947505926392925], [-35.16145016527591, 42.49290083269018, -23.657283832701538, 27.90687172714471, -1.1225520134048188, 0.14258300049513584, 2.3282228012018322, -18.039040775310472], [-15.444858969817176, 22.360031434271626, 69.75892214099736, -20.937183364098267, 7.71132528566164, -22.001498395106857, -16.411772738843084, -22.768272315425595]], [[2.502474811547404, -39.492044171021774, -15.128806798851, -14.108913825287848, -41.06909627447023, -1.2482367089928337, -1.7953149046584005, -4.497469929623808, -22.38964086194645], [7.726433197420166, -0.6334836290768827, -17.366023978934216, -44.1675469321767, 51.853215481904854, 32.254837017143444, -36.66019599711145, 13.959406227018729, -10.092358512206774], [-45.768543885100634, -20.020739726798485, -10.700695120279706, -10.092534550097206, -40.126504573668235, 16.443092593077893, 15.041635543735376, 26.98616622677103, -21.89694245669784], [-31.571862290305567, 5.175826962951067, -2.3377094040965116, 34.03034641068208, 12.206285696797764, -18.744168031133697, -31.88416574873344, -21.387569491642676, 48.7044203596113], [55.50092859261055, -22.341006160452395, 4.637910082063313, 4.819830157902219, -41.24318198196267, -44.987353324764385, 19.54550559288149, 10.244090576480287, -5.390692572934562], [-33.64908630312812, -6.472418776852731, 1.2204011119918492, 28.403465995811512, 33.28197233231038, -6.212927103637437, 30.780164471974764, -35.59896818885464, 16.996360733886664], [-10.737898272534391, -4.837656743557954, 11.434773449626984, -4.657313081699479, -15.157815547543574, -18.328251327794188, 79.33720868053565, -76.14400718354786, 18.70275412279066], [23.607111762836038, -2.8276685704877433, 26.644975863311583, 26.049812594728106, -24.624737303106457, -27.092389193203584, -11.147457928353024, -48.92295030836831, -5.519741053868492]]], "networkBiases": [[-2.295234694056601, 3.629833352555276, 4.9231811536709005, 1.3778519986999624, 4.5078347474026765, -1.4867242088937533, 2.04498609505119, 5.57733551078747], [-3.8050011840739635, 6.613006546307624, -2.669924830861302, -1.442270553314953, 5.898901173651672, 2.375482811857592, -1.620335873441793, 2.9842499128545064, 2.450864883771813]]}