{"structure": [9, 8, 9], "networkWeights": [[[-1.7040187207612698, -43.72948951583779, -1.3053567857044484, 1.279413262602926, 0.3522803412197121, 25.10839381187337, 9.382580056748552, 51.843596073561436], [-4.553765128121899, -2.006457010546179, -14.291571265311989, -13.551870257492821, -7.968057410528337, -20.45952919582576, -18.342116661297837, -24.0604161699145], [-13.473327310278089, -3.553910482039508, 4.66886383598648, -13.3347888187989, -8.44121193557936, -6.272302992353871, 35.20114514143175, -9.56029771565477], [44.0532506461264, 18.73872325818884, 10.861899116512056, -13.338387013463182, 19.84874497335508, -1.171122524020018, -7.318287948738725, 52.77216928993125], [-34.46598845738655, -5.0778794297130805, -36.82702338840445, -3.2297704954278545, -16.875602192283793, 18.02367443363647, 4.212108232014764, 31.829920841747622], [1.555778338529552, -26.494527643772802, 47.11496114354853, -14.354960532662718, 19.317495261725096, -28.892262102051617, 5.072091333731825, 41.77490055974779], [-10.988677322160857, 29.63860166628926, -30.00795697268559, 32.253085763394914, 25.895166492072203, -30.77722166269873, -13.512142472628263, 24.17448037566753], [-34.84588944576852, 42.95542556627715, -23.429364001933603, 28.004762852888156, -1.2927618404000298, -0.17852061941309372, 2.0586124369778718, -17.808738403168263], [-15.804374604778628, 22.015951407140893, 69.75519987520298, -20.63284997991504, 7.753418028933777, -22.696109437561358, -16.5127533880923, -23.234929220781705]], [[2.143847661021758, -39.62162790427045, -15.537405783241478, -14.719839831937387, -39.86402334692643, -1.7248944862951237, -1.9473033348920954, -4.702551372097124, -21.972314078462745], [7.774220428350564, 0.42270990754631854, -17.319781450140496, -43.37957551462525, 52.07596544302068, 31.902822726563414, -36.48547329872127, 14.014281137236448, -9.923580809747214], [-44.92463479403405, -19.65910383891615, -9.69704318680242, -9.963822902391861, -40.710086294257394, 16.470256602450206, 14.533631246847374, 26.87284013714316, -21.362832397023347], [-30.74438716351842, 5.82618776613619, -3.277292344672496, 34.246947888097196, 11.606154243442326, -18.610986750702644, -30.912792546492874, -21.38896290991471, 49.58043266958331], [55.94994729767532, -22.929738747932984, 4.512244354255058, 4.5170974830991835, -40.924772011942515, -44.44177748990439, 19.96975215662328, 9.455231643783161, -4.533821226954903], [-33.68467802567044, -6.420982943188085, 0.07609474568951696, 28.4861982254335, 32.90365718804521, -6.5474711335749305, 30.583380456228646, -36.10589886870281, 17.143019155636548], [-10.90637146670704, -4.641189050975872, 11.881948955861176, -5.19382589971574, -14.519901934297273, -18.381512570625286, 79.31744169148243, -76.7970402717272, 18.08152146235346], [23.513765439350724, -3.7368990586496884, 26.018026148087024, 25.718754248058083, -24.599057571910414, -26.839335940026405, -11.100715780373328, -48.89510052216753, -4.782599681006653]]], "networkBiases": [[-2.1071221808897005, 4.078618473502626, 3.349619285744987, 2.33179363027911, 2.8367877499117164, 0.7484844431268186, 1.828893395395189, 6.494672982058057], [-3.8214175446284857, 6.14933584542371, -1.789585764966561, -2.7908337372462064, 5.5483103092538, 4.228473685354328, -2.093247234671143, 2.237170591963558, 2.058491233484338]]}