{"structure": [9, 8, 9], "networkWeights": [[[-1.4772955200858389, -43.72948951583779, -1.3053567857044484, 1.4402679731494903, 0.3522803412197121, 25.10839381187337, 9.26873691773178, 51.843596073561436], [-4.553765128121899, -2.0112449749214916, -14.321324274538277, -13.551870257492821, -7.871756706898988, -20.45952919582576, -18.41482334555791, -24.0604161699145], [-13.473327310278089, -3.7130875713030562, 4.432153977634516, -13.327197417317468, -8.929638607320081, -6.437364188084316, 35.20114514143175, -9.487259563690152], [44.0532506461264, 18.73872325818884, 10.762054536002461, -13.19089076304089, 19.84874497335508, -1.171122524020018, -7.4603445880565005, 52.77216928993125], [-34.677983262627635, -5.0778794297130805, -36.82702338840445, -3.2297704954278545, -16.797024344090648, 18.02367443363647, 4.212108232014764, 31.63368838095407], [1.555778338529552, -26.494527643772802, 47.11496114354853, -14.354960532662718, 19.317495261725096, -28.932797127529092, 5.072091333731825, 41.72219385377278], [-10.900746887876473, 29.45300316059781, -30.045516427122866, 32.253085763394914, 26.110855959719917, -30.597519816485136, -13.512142472628263, 24.17448037566753], [-34.84588944576852, 42.95542556627715, -23.429364001933603, 28.004762852888156, -1.202106513615001, -0.03164713444164269, 2.279278460595751, -17.808738403168263], [-15.824990801861862, 21.884689813750768, 69.75519987520298, -20.577142042258927, 7.753418028933777, -22.486446980306738, -16.709161991654806, -23.286960544069363]], [[2.143847661021758, -39.50752345156065, -15.537405783241478, -14.565238206729008, -39.986686065880484, -1.8865022687529343, -1.9473033348920954, -4.702551372097124, -21.972314078462745], [7.57958801260934, 0.42270990754631854, -17.319781450140496, -43.37957551462525, 52.07596544302068, 31.94428317293014, -36.44927314384794, 14.014281137236448, -9.923580809747214], [-44.92463479403405, -19.520452832393254, -9.69704318680242, -9.963822902391861, -40.710086294257394, 16.470256602450206, 14.533631246847374, 26.95590587268207, -21.467589864554064], [-30.74438716351842, 5.82618776613619, -3.277292344672496, 34.12869909460036, 12.029305712358031, -18.610986750702644, -31.105362016484086, -21.38896290991471, 49.582783889493506], [55.94994729767532, -22.758272206055842, 4.1095735705113245, 4.5170974830991835, -40.90992559151615, -44.44177748990439, 19.831090689869853, 9.069134574458257, -4.671775317211866], [-33.92737634774176, -6.420982943188085, 0.07609474568951696, 28.540064178822874, 32.90365718804521, -6.551489336591097, 30.62346948388543, -36.10589886870281, 17.22728504032143], [-10.661056145576863, -4.641189050975872, 11.881948955861176, -4.834372133265553, -14.650408572842817, -18.381512570625286, 79.31744169148243, -76.83986150620572, 18.08152146235346], [23.277463611967036, -3.7368990586496884, 26.066995822084813, 25.718754248058083, -24.498620235747175, -26.713478931885454, -11.108372524752804, -48.89510052216753, -4.782599681006653]]], "networkBiases": [[-2.5613695457650536, 3.881603502662928, 3.8259227584614486, 2.44487273581697, 2.538972360979485, 0.2677088950414804, 2.1312856828505877, 6.360312586024199], [-3.9391612462178505, 5.574803919610818, -1.4414958179000568, -2.9612689319189007, 5.525609190367725, 4.078659948038757, -3.0460005548787703, 2.5261787351609644, 2.284373727801035]]}