{"structure": [9, 8, 9], "networkWeights": [[[-0.7270715981497313, -43.80993250270616, -1.046154052239343, 1.633681630681873, 0.902662591699387, 25.06848878270541, 8.861179979323703, 51.613401935886245], [-4.138631731631788, -1.5826663411070119, -14.443614673619035, -13.588042262364851, -7.638762003440278, -19.809435625135716, -18.35273125511027, -23.955018029148846], [-12.956554070711807, -4.448682523145503, 4.513986410223609, -13.086462395345889, -8.184867851821366, -6.2512118647979245, 34.9055633037157, -9.516026119290737], [44.35518144855342, 18.977410103768396, 10.609167944738328, -13.68980675533798, 19.996900992938258, -0.8675557219443921, -7.334528727488624, 53.14061391478105], [-34.7944681335703, -5.034263240287875, -36.47888996175942, -2.7489625554326156, -16.970808900680748, 17.86252928296992, 4.159917929921812, 31.425528047248775], [2.0542918010814755, -26.312487980389953, 47.219988417023124, -13.691895346013066, 19.27376388811686, -28.999777520326706, 4.641612350938975, 41.325240924906666], [-11.646597666674383, 29.358177567641672, -29.95342819468033, 32.499704719410616, 26.45085859862379, -30.533531349995283, -14.154677900966192, 24.4419306685685], [-34.77459634099302, 42.89892044885871, -23.333213802261596, 27.631924746648796, -1.0601090289216915, -0.03711259708904846, 1.9743015067416627, -17.607501714558065], [-15.588913666071404, 21.86273461776973, 69.79281593419343, -20.710115741292462, 7.652772358454286, -22.306770552162412, -16.896991803253805, -22.842176289765273]], [[2.3302096520388416, -39.4103619736489, -14.79608491885628, -14.241786559537319, -40.51983475667203, -1.6837743367380138, -2.0646686566535206, -4.525589968875217, -22.05507682780917], [7.907340106359883, -0.4239511835919754, -17.39285873948694, -43.98785485104819, 52.08259884980234, 32.0040048224481, -36.52119535197379, 13.832896437647715, -10.075182524035107], [-45.07479241138876, -19.74289095321322, -10.08016885013999, -10.275494884643761, -40.0820232052162, 15.947856750708503, 14.747275047932431, 27.082488852334286, -21.71989738769216], [-30.977489718133658, 5.826037954513826, -2.405065019070589, 34.30495804090295, 12.139738343774136, -18.63897504790321, -31.94322074692907, -21.212182482506282, 49.14344304497036], [55.89983297147274, -22.164882541516075, 4.399052250402175, 4.674417362093769, -41.483762554136675, -44.52892392527165, 19.478515850142408, 9.592148782281619, -5.156901547803358], [-33.80427405988893, -6.568702774719318, 0.9492970187030303, 28.690259368573724, 33.005446197031766, -6.404644670727984, 30.366440640460347, -35.74765056085846, 16.825164276153217], [-10.79418224821373, -4.861239727748096, 12.063961166856258, -4.710341942355718, -15.089029884780814, -18.434236057108347, 79.31744169148243, -76.13598720506812, 18.096402438492373], [23.540435661383963, -3.4123598937388566, 26.19261999919674, 26.02356513128816, -24.840800527440912, -26.810695024654304, -10.96397704990699, -48.77110656766838, -5.503969811152114]]], "networkBiases": [[-2.21966011710624, 2.595090589970706, 4.3529549871438595, 1.5564475073933113, 4.58970336320902, -0.7244205921428299, 3.0423701901405997, 5.151098889863713], [-4.035266092066272, 6.593529139346735, -2.6162303689738593, -2.502554520423792, 5.549297906490278, 2.3606889806854277, -3.279790355966268, 2.2225653974226782, 2.1920625974067716]]}