{"structure": [9, 8, 9], "networkWeights": [[[-0.5691446936102782, -43.85432632313973, -1.1556075280887816, 1.8074544578373422, 0.783329062549708, 25.311341189864898, 9.14277603601944, 51.05791724200833], [-3.989458085270127, -1.8818907951184642, -13.96890122453239, -13.762990327615181, -7.210772306565607, -19.911565296598162, -18.16470368309675, -23.607702018576724], [-12.600689320305873, -4.177271878246035, 5.039396240637447, -13.641000762628348, -7.737506177124493, -6.425466756863781, 34.92293445926072, -9.535493519425597], [44.832005928815974, 18.85483470560779, 10.761038451968366, -13.855648357149281, 20.234310955947244, -1.0731691506020278, -7.836658543218357, 52.990021798197645], [-34.75466760463866, -4.758535507550263, -36.461789915752895, -2.296178388049652, -16.28697402628094, 17.63599064111838, 4.025074214430875, 31.064239766539902], [1.9775524057480969, -26.25359046310487, 47.400781686258775, -13.666711390740529, 19.2071389001343, -28.274644097061223, 4.180191691468444, 40.827035895100266], [-11.505793446879649, 29.057892578323006, -30.24176334952392, 32.52563607238812, 26.35034290049622, -30.454207057660724, -13.616544637360722, 24.928374505807387], [-35.194067104447456, 42.41928839868229, -23.651362235840296, 27.904833019687644, -1.1011753174143497, 0.18157967752623996, 2.3697922113949703, -18.09314339128354], [-15.514819570328324, 22.542077037222313, 69.74704563039732, -20.974558698015716, 7.688660707868775, -21.96609235341039, -16.4880072553383, -22.75488162589404]], [[2.4627132475731415, -39.53174297995044, -14.950137644474381, -14.085284852452704, -41.02679798218336, -1.2802277731702907, -1.6338037342030634, -4.557435899366831, -22.345929112830806], [7.692233059950811, -0.691667080952492, -17.40257924253379, -44.154960357776325, 51.87188189613514, 32.202576988825484, -36.687268731038095, 14.004462745343794, -9.98848991812188], [-45.78355957530609, -20.014692276922375, -10.77400936525913, -10.041126463843385, -40.00730280386103, 16.587709283849033, 14.9687837016381, 27.06858837322494, -21.805818106155773], [-31.546387006970303, 5.108289818185129, -2.26812398212838, 33.99471203981596, 12.272318385524164, -18.780424361815903, -31.89551056135403, -21.277216498696852, 48.68521782393833], [55.65465053408922, -22.32865608238141, 4.759436941518613, 4.856321419384912, -41.50416149072769, -44.85563393670997, 19.575817794844088, 10.339233455885251, -5.320722003681375], [-33.594940370719165, -6.5375838028373465, 1.2811446654145904, 28.38413363376951, 33.277610876767305, -6.398186288792823, 30.71761786444997, -35.55545076158603, 16.962190859223053], [-10.613615163751575, -4.901666133963729, 11.495769281757257, -4.589581715972765, -15.086324892486832, -18.144622115444573, 79.29841390384894, -76.29230275485787, 18.713680901290036], [23.472022213744427, -2.764012911889462, 26.628746986888867, 26.16144454221008, -24.586539125963373, -26.952146364557162, -11.056200144314413, -48.96465022517137, -5.494849720028227]]], "networkBiases": [[-2.3081151365159216, 3.0796776201783524, 4.796443412174076, 1.4342165535684241, 4.5396555503899965, -1.4666333488458103, 1.4584957175172788, 5.063066512179059], [-4.095656298442541, 6.758041715670899, -2.7439849471808326, -1.7058234784546369, 5.737722152535449, 2.4122988669735768, -1.436529865695956, 2.8001347206790945, 2.2882769030912606]]}