{"structure": [9, 8, 9], "networkWeights": [[[-1.5488771316001375, -44.01493418333157, -1.6019642106730148, 1.0908949111356776, -0.2879619315063603, 24.65344510816123, 8.997360062665791, 51.99112314734543], [-5.0222217040184125, -1.4056414104044723, -14.484265039514641, -13.747243011748607, -8.124905276518222, -20.344341747465478, -18.129161836926745, -23.939678695167835], [-13.440020164050727, -4.1872047948261955, 4.253651441330061, -13.66514890409618, -8.737205848112804, -6.194795300107518, 35.02557805153524, -9.317929564274717], [44.30074200800326, 18.51473756898217, 9.537810146301027, -13.207071025659648, 20.331443292933905, -1.1317679899601898, -6.546946532514665, 52.189726278083114], [-34.17626939802689, -6.224971561617041, -37.62880255017206, -2.62511634773814, -16.57315856175672, 18.161886345691794, 3.7878087391906483, 31.516061329529364], [1.3286211422444918, -26.0148632273792, 46.89534642199221, -14.608273308811635, 18.965794627216006, -28.803948156993307, 4.050663925189023, 41.395077055749326], [-10.318488645989852, 29.520490570676788, -30.373585062134143, 32.379298882341764, 25.964204218312698, -30.55522787568218, -13.026146877410264, 24.322517909348807], [-35.163816112051606, 43.12927224005141, -22.280213954874668, 28.23708079019027, -1.3804256169641143, -0.1449431272650059, 2.1736275626439125, -18.134348137279346], [-15.782934941447946, 21.880790389047522, 69.17576814371682, -20.260083965396777, 7.808176259031747, -22.386389355914094, -16.602109251474804, -23.906861577688083]], [[1.7864582547145695, -38.98050012608281, -16.29144005577452, -14.607323935416764, -38.70732447993898, -2.0290471936728087, -1.870874796105837, -4.347536918258328, -21.334037188261643], [7.505126601813796, -0.020900600989724794, -17.19335868764781, -43.43971430416904, 52.29008422998308, 32.197130565885224, -36.15333226641641, 13.626407000167877, -10.612621616429944], [-44.92577522243877, -20.080983211451176, -9.30456754609343, -9.601697799340261, -40.773843235396996, 16.331993483741307, 13.71095894791236, 26.88728733474909, -21.394381013556924], [-30.500584620198072, 5.498711016524014, -3.4541938648892336, 34.30017100001467, 12.95238278945251, -18.512321691194288, -31.55052647404143, -21.999075983074494, 48.9608857992469], [55.58204764465235, -22.79174378383018, 4.147557008422232, 4.493397565062164, -40.31816194821225, -45.09077989451731, 20.34724120999084, 9.377877895335457, -5.6081761233043474], [-33.74115861660591, -6.11087289265827, -0.6283151648379733, 27.932442725461957, 32.46509373538958, -5.735033614237694, 30.87771683300011, -35.93865801226247, 17.32059473315592], [-10.01978096618778, -4.674461994820521, 11.859023406618475, -5.018867302171427, -14.70007846578589, -19.743424997775634, 80.07563947779073, -77.24555258091694, 19.042614542494206], [23.485733089403773, -2.5463505080011086, 25.448748360626897, 25.56024032392571, -24.914726198376588, -26.823425820290154, -11.244679740322232, -49.26995777142087, -4.414674414771268]]], "networkBiases": [[-3.1250333319466552, 3.319201788130312, 2.0434637483721185, 2.678613084693413, 2.7517039071515734, -0.9249359071234493, 1.855029556694515, 7.09491962145049], [-1.5783003283372505, 5.83825912632837, -3.1501937300426563, -2.043834181453619, 6.306023269599053, 2.7342178905930936, -1.5140056453763844, 1.8470484568339507, 1.867400853641513]]}