{"structure": [9, 8, 9], "networkWeights": [[[-1.4793512906658817, -43.80116553261625, -1.5776279907743995, 1.0908949111356776, -0.2879619315063603, 24.65344510816123, 8.997360062665791, 51.99112314734543], [-5.0222217040184125, -1.4056414104044723, -14.628560582019977, -13.558656826089699, -8.25006978380123, -20.344341747465478, -17.96459662120674, -23.939678695167835], [-13.440020164050727, -4.1872047948261955, 4.253651441330061, -13.868599021915307, -8.737205848112804, -6.194795300107518, 35.02557805153524, -9.317929564274717], [44.30074200800326, 18.546785764904968, 9.537810146301027, -13.3643987202442, 20.331443292933905, -0.9375088442171575, -6.546946532514665, 52.08594584195671], [-34.17626939802689, -6.224971561617041, -37.62880255017206, -2.8303182800232736, -16.57315856175672, 18.161886345691794, 3.7878087391906483, 31.516061329529364], [1.1683661644243533, -26.0148632273792, 46.89534642199221, -14.79096829037707, 18.965794627216006, -28.803948156993307, 4.050663925189023, 41.395077055749326], [-10.318488645989852, 29.520490570676788, -30.373585062134143, 32.379298882341764, 26.041916775711456, -30.670385482245315, -13.026146877410264, 24.322517909348807], [-35.163816112051606, 43.027607287193355, -22.280213954874668, 28.168668103749205, -1.3804256169641143, -0.1449431272650059, 2.1736275626439125, -18.134348137279346], [-15.782934941447946, 22.067200579732745, 69.17576814371682, -20.40568128106926, 7.808176259031747, -22.386389355914094, -16.602109251474804, -23.770142310470213]], [[1.9404117156861316, -38.98050012608281, -16.352756638140775, -14.607323935416764, -38.70732447993898, -2.0290471936728087, -1.870874796105837, -4.113257696264595, -21.54594700553149], [7.385764391141122, -0.020900600989724794, -17.19335868764781, -43.43971430416904, 52.29008422998308, 32.197130565885224, -36.15333226641641, 13.43746604281332, -10.612621616429944], [-44.92577522243877, -20.31310382873572, -9.284170153426558, -9.601697799340261, -41.034413109810835, 16.331993483741307, 13.71095894791236, 26.88728733474909, -21.394381013556924], [-30.500584620198072, 5.498711016524014, -3.4541938648892336, 34.26740952215077, 12.95238278945251, -18.512321691194288, -31.55052647404143, -21.999075983074494, 48.9608857992469], [55.58204764465235, -22.79174378383018, 4.147557008422232, 4.493397565062164, -40.31816194821225, -45.09077989451731, 20.34724120999084, 9.377877895335457, -5.6081761233043474], [-33.74115861660591, -6.11087289265827, -0.6283151648379733, 27.69216462400699, 32.46509373538958, -5.735033614237694, 30.87771683300011, -35.74593386464948, 17.32059473315592], [-10.01978096618778, -4.633846110737956, 11.859023406618475, -5.018867302171427, -14.70007846578589, -19.705998756620133, 80.07563947779073, -77.24555258091694, 19.042614542494206], [23.485733089403773, -2.5463505080011086, 25.50574555373745, 25.50088662506183, -24.914726198376588, -26.823425820290154, -11.244679740322232, -49.061783834709296, -4.414674414771268]]], "networkBiases": [[-3.293495514814368, 3.4295866432826183, 2.0782829309614574, 3.016815754862362, 2.440759344841292, -0.4607592905614998, 1.855029556694515, 7.09180496669121], [-1.43702893664339, 5.368588420056549, -3.1823301500117216, -1.9799866752058528, 6.083004211920429, 2.398500927834592, -1.5901337985873507, 1.8219623710208768, 2.269888887197379]]}