{"structure": [9, 8, 9], "networkWeights": [[[-0.6798951493343138, -43.89887411225302, -1.10821683190435, 1.943984244073782, 0.9264236523974574, 25.256498444103524, 9.07758943715831, 51.259214900314056], [-3.924168894162189, -1.6985349189256573, -14.028510202547588, -13.688298864532094, -7.2154448669734785, -19.842779346445433, -18.176956557029783, -23.62402221019876], [-12.363489853312748, -4.15141900602496, 5.242250059733484, -13.758501409436029, -7.782968996984741, -6.607860609030055, 35.24051072487783, -9.45047769548206], [44.66077225613556, 18.84543223049094, 10.809508447084898, -13.804973247655257, 20.317405113346364, -0.9015283890368961, -7.777877229836291, 52.95931217895914], [-34.79100482050841, -4.625928576987611, -36.46019753682057, -2.1469512713735455, -16.39323329164413, 17.712849415741744, 4.021282543775552, 31.139654001100322], [2.0893311189089694, -26.189848080923202, 47.33771870003933, -13.602798647486017, 19.336940754424653, -28.43948521356717, 4.353212327306332, 40.8631043704555], [-11.766585795177816, 29.03299793015358, -30.071875114313595, 32.49439151853213, 26.14759240598829, -30.29367018049277, -13.367708631922884, 25.086951879180283], [-35.28328455031403, 42.47394180301596, -23.732598350543736, 27.998704063595294, -1.2168014988553797, 0.17261300922326367, 2.370918410265049, -18.122007138857136], [-15.364290919565514, 22.462070886457198, 69.78342422007833, -21.01662273025044, 7.691794559554763, -21.97624134356371, -16.43205880836469, -22.664658757197]], [[2.5363348110280595, -39.49731349969289, -14.975986403908978, -14.169117965343712, -41.07649003788623, -1.355828623919857, -1.4882334179674763, -4.436046252678438, -22.28705692826235], [7.702253729270521, -0.6621136085214392, -17.468376953309217, -44.14028401751736, 51.919213628470324, 32.27044355142057, -36.68121765293866, 14.193973477985125, -10.028708135747204], [-45.94001064454415, -19.736462275940475, -10.821728085801132, -9.917510306214213, -40.06715773557964, 16.52789754369155, 15.163069862433161, 27.00683629878356, -21.8801653051442], [-31.730353531042024, 5.070977876164212, -2.1645543000448972, 33.972648787095174, 12.345665266407096, -18.62941937720828, -31.95083097925163, -21.314269952917066, 48.73371847101117], [55.71698200085207, -22.3067793562562, 4.678998927392711, 4.894087889654037, -41.504959249034464, -44.691799826238686, 19.480624694328988, 10.414194577531843, -5.332021241952323], [-33.63084015554936, -6.600449550389535, 1.4827219906783555, 28.312586392930328, 33.362801443497524, -6.480948153568085, 30.546279183632166, -35.454298857915525, 16.93548725914242], [-10.84901445292368, -4.862964317530435, 11.49917669989189, -4.423965336758931, -15.099283098555699, -18.124035605954052, 79.38619291454391, -76.29808825577125, 18.751503589707777], [23.579778593633115, -2.8999273187984556, 26.688723007458368, 26.132086508452662, -24.57583388987, -26.989330169859805, -10.959180598311674, -48.796057421825516, -5.542750184159168]]], "networkBiases": [[-2.3315352698367775, 2.9561229512709604, 4.795431641328843, 1.869427530920011, 4.62006949848421, -1.6906396057784943, 1.9134445127605246, 4.8716551122595995], [-3.7382974554247457, 6.503355138129262, -2.6481042875791068, -1.9872069919368214, 5.488273225649285, 2.6628090636018413, -1.4475595226723612, 3.0677727855149572, 2.6017079093755457]]}