{"structure": [9, 8, 9], "networkWeights": [[[-0.5355179233786027, -43.802293245552974, -1.2264894812723974, 1.6622980974159791, 1.067471938357515, 25.418061471076257, 8.946504794342015, 51.34753628091571], [-3.932973642889881, -1.5829932376679317, -14.24914727995976, -13.5939876456173, -7.4714311202708235, -19.857127420275095, -18.09243790763229, -23.694717015758624], [-12.850114412125796, -4.1348510175641655, 4.566218307090315, -13.568848055736943, -7.7233135299807, -6.382953172566691, 34.81954884421952, -9.629035606829778], [44.38966297266641, 18.841574461448623, 10.792077767824985, -13.87324348628841, 20.28534230829937, -1.2013354631361115, -7.384212595243185, 53.25561245346243], [-34.73311089271438, -4.814394547466229, -36.318352846018456, -2.473158532895776, -16.631316809183783, 17.90225275965352, 3.959552623249256, 31.09524236527663], [1.7115098581663513, -26.48022524910653, 47.06678246432346, -13.684420058188831, 19.27376388811686, -28.58225493503671, 4.273460487289815, 40.81489945092709], [-11.379797545841896, 28.915583130554204, -30.112430262672397, 32.55988181110941, 26.46431940735818, -30.654945464293483, -13.69241599812461, 24.842879319475564], [-35.055414633217026, 42.49290083269018, -23.657283832701538, 27.617914350428354, -1.2727265708824547, 0.14258300049513584, 2.1932902849056886, -18.039040775310472], [-15.371226068234073, 22.149232633484043, 69.4987207799601, -20.864917365449678, 7.71132528566164, -22.101878913942084, -16.411772738843084, -22.62374882179266]], [[2.5523653735365572, -39.49830553434839, -15.225214602173434, -14.108913825287848, -40.973304517218146, -1.739291595457349, -1.5543816269361899, -4.525589968875217, -22.284726786290197], [7.726433197420166, -0.6562171133284909, -17.306468275047806, -44.30116196821699, 51.66939861457504, 32.44157412630928, -36.52119535197379, 13.925853158448577, -9.975225663785068], [-45.19932815644738, -20.124482461449567, -10.632563248156229, -10.421288476300077, -40.12587141788527, 16.229570971658397, 14.909624075269575, 26.85996881983048, -21.874038112295544], [-31.52965523129161, 5.4999446482317875, -2.477052799477421, 33.92733884588333, 12.243180733493281, -18.744168031133697, -31.851096455982127, -21.538735785991037, 49.14344304497036], [55.50092859261055, -22.75180255039536, 4.860678264616071, 4.769642517786378, -41.299197199809186, -44.70442420664484, 19.32329465640713, 10.129584943035773, -5.156901547803358], [-33.80427405988893, -6.718119649440597, 0.7390132923958352, 28.566098727774435, 33.10154096583555, -6.212927103637437, 30.75332791435047, -35.98148544404254, 16.975271554220456], [-10.914697350993231, -4.8104021596429964, 11.3919598279271, -4.635152806209283, -15.157815547543574, -18.328251327794188, 79.38732170127048, -76.14400718354786, 18.2601287608387], [23.953939576497394, -2.8273395247460726, 26.54840638775737, 25.740111892007718, -24.86750410637867, -26.899912287259816, -11.142955615717577, -48.90649071915414, -5.735983422480674]]], "networkBiases": [[-2.9419296300004603, 3.13672474546502, 4.909885480127524, 1.693802480398391, 5.467173293752189, -1.166121356213015, 2.1997848361411707, 5.021645003703601], [-3.168741856407261, 6.351081825322014, -2.0746898992403553, -2.0247814332106477, 6.503902592840274, 1.7912157415623229, -1.3292167605144227, 2.6749544149613405, 2.101893526361289]]}