{"structure": [9, 8, 9], "networkWeights": [[[-0.5355179233786027, -43.8914891897167, -1.1834284910922397, 1.7096052641335422, 0.8309332412183129, 25.16591814780672, 9.115011479226196, 51.03084444635133], [-3.932973642889881, -2.0877126630298912, -14.071881486638018, -13.661021843082498, -7.314831188674178, -19.91851419494663, -18.147474563660985, -23.6717089274663], [-12.738728163930364, -4.186835080539742, 5.01366543718643, -13.576859125665186, -7.8173897897563664, -6.336974940221184, 34.82739360063249, -9.638404282830862], [44.640609113776115, 18.760209110493687, 10.820812583476846, -13.87324348628841, 20.30093789053557, -1.0862849780234238, -7.839564339403652, 53.10369866686064], [-34.73311089271438, -4.678728776362514, -36.47930771929687, -2.441224587580351, -16.345817309436327, 17.59397837436922, 4.094684461675688, 31.09524236527663], [1.8793177766858222, -26.32651916146726, 47.32159384190665, -13.738035632675256, 19.27376388811686, -28.391982374708277, 4.131919950398499, 40.77153462790487], [-11.548417832827605, 29.12114439958888, -30.112430262672397, 32.55988181110941, 26.4722577991022, -30.514112296349122, -13.598170793996047, 24.947505926392925], [-35.16145016527591, 42.49290083269018, -23.657283832701538, 27.887701652992543, -1.1225520134048188, 0.14258300049513584, 2.3282228012018322, -18.039040775310472], [-15.403737200609095, 22.360031434271626, 69.75892214099736, -20.937183364098267, 7.71132528566164, -21.96727574769082, -16.411772738843084, -22.768272315425595]], [[2.502474811547404, -39.492044171021774, -15.128806798851, -14.108913825287848, -41.026637666491844, -1.2681207844422098, -1.7953149046584005, -4.497469929623808, -22.38964086194645], [7.695114177763735, -0.6334836290768827, -17.407093852424968, -44.1675469321767, 51.853215481904854, 32.254837017143444, -36.66019599711145, 13.959406227018729, -10.098249001887773], [-45.771184821230946, -20.020739726798485, -10.769205946669148, -10.092534550097206, -40.126504573668235, 16.443092593077893, 15.041635543735376, 27.008451609951774, -21.89694245669784], [-31.571862290305567, 5.175826962951067, -2.2789573541610095, 34.03034641068208, 12.206285696797764, -18.70569232461654, -31.88416574873344, -21.3449454173345, 48.7044203596113], [55.52814395603946, -22.34191571659337, 4.678587081600892, 4.797745594557923, -41.242691055698096, -44.987353324764385, 19.54550559288149, 10.244090576480287, -5.35850884459174], [-33.62384901153563, -6.472418776852731, 1.2204011119918492, 28.368059368831393, 33.28197233231038, -6.23761857602236, 30.780164471974764, -35.59896818885464, 16.97269738037777], [-10.737898272534391, -4.840649738230854, 11.434773449626984, -4.635152806209283, -15.157815547543574, -18.328251327794188, 79.33720868053565, -76.15462269211073, 18.70275412279066], [23.58892869774119, -2.8276685704877433, 26.676565091659867, 26.089034986926023, -24.669757191988552, -27.092389193203584, -11.147457928353024, -48.92295030836831, -5.519741053868492]]], "networkBiases": [[-2.3694934455896766, 3.640917629059727, 4.985514414151232, 1.454665289965925, 4.501785442906684, -1.4681071646345112, 2.0186413626172395, 5.598507316638846], [-3.895036341697499, 6.629133073135658, -2.612968897614801, -1.5390054375044695, 5.828402197961265, 2.423906141536346, -1.6691288527658652, 2.920456762973032, 2.4006652007604874]]}