{"structure": [9, 8, 9], "networkWeights": [[[-0.5819728362153354, -43.91386933261572, -1.0668391579323444, 1.9724687290169285, 1.0090967633900476, 25.240385409096486, 9.004201347987864, 51.27337666785431], [-3.9787451325439673, -1.5952513397514552, -13.970375097930507, -13.756881232864046, -7.177331532102459, -19.768197175630842, -18.16096733486518, -23.538683755840438], [-12.363489853312748, -4.180265878163014, 5.20243339651573, -13.693039456598376, -7.763732533463493, -6.5706767223145, 35.23427048970303, -9.399703215446303], [44.655373560577225, 18.819438391280606, 10.788825435613834, -13.801410062153954, 20.349822279779758, -0.8486879445262046, -7.7382412087024335, 52.91155279758999], [-34.8343035641911, -4.621094876803807, -36.47336109783207, -2.1916580778306445, -16.364942608610615, 17.653771460831457, 4.05235692732973, 31.24452698501223], [1.8696043105070257, -26.216895268456046, 47.17217052381592, -13.69128313926007, 19.260916358432475, -28.437132465930063, 4.27027697264569, 40.92072821074747], [-11.706045365411574, 29.07936392712648, -30.096756666377168, 32.51792830810609, 26.100434458829003, -30.338578006016224, -13.29216511840022, 25.045474858722713], [-35.34464124770077, 42.53141877270146, -23.692469594207555, 27.981134390351993, -1.311952481195015, 0.1462857341669508, 2.359829697130823, -18.122007138857136], [-15.419628921892784, 22.47706255964485, 69.8208247581454, -20.958650360134296, 7.737113479664693, -21.96424818255916, -16.438551666264388, -22.750126600237415]], [[2.6498381855382975, -39.42232717253645, -14.991859746174358, -14.128639561729711, -41.107831884743916, -1.4136286324623655, -1.4402384497526628, -4.430715043640153, -22.367771925909842], [7.7052389368493985, -0.6945500383620687, -17.397838603796853, -44.191599944767496, 51.88725873272945, 32.20521953737504, -36.64487768554591, 14.202644389908047, -9.935857066751757], [-46.00207661266778, -19.73288255591856, -10.794162401564945, -10.010623242628691, -40.03073895888718, 16.502909791335625, 15.174435139347977, 27.126037991436526, -21.973518180371116], [-31.667131083015843, 5.012068783821945, -2.273801654827588, 33.90508956318745, 12.283754462577411, -18.71338582241793, -31.908590684834394, -21.243678831821214, 48.87569721576047], [55.675100416107014, -22.386065978322893, 4.543750630732603, 4.925285818779305, -41.4400341917174, -44.76694982238856, 19.379449629422822, 10.449722495361005, -5.3290887816817705], [-33.6659217337014, -6.590160250216691, 1.5095761619529529, 28.28994842241703, 33.45827182463409, -6.457997430927241, 30.615167592292476, -35.44230664612907, 16.97559470821964], [-10.897564479150166, -4.89679808344609, 11.575450516031442, -4.415416681259985, -15.18552550958984, -18.113561251147622, 79.49076395167607, -76.35922744809594, 18.757195626761277], [23.623343677629613, -2.8119262480935636, 26.60000261814155, 26.116600655982765, -24.61225850482123, -26.945803192696744, -10.98165198891611, -48.74283893557158, -5.497141350884313]]], "networkBiases": [[-2.2766341747798036, 2.823919069777423, 4.850268306439508, 2.0121587646604144, 4.622363932762679, -1.7833733788939798, 1.945999858375295, 4.635486554490999], [-3.942471743862556, 6.63045750958118, -2.5220358729166246, -2.0790733637549303, 5.490556954410663, 2.9176487574354586, -1.4597210384410175, 3.146505443410759, 2.5947230290684082]]}