{"structure": [9, 8, 9], "networkWeights": [[[-0.5819728362153354, -43.91386933261572, -1.0668391579323444, 1.9724687290169285, 1.0087384556565793, 25.240385409096486, 9.004201347987864, 51.27337666785431], [-3.9787451325439673, -1.6316934415115545, -13.970375097930507, -13.756881232864046, -7.177331532102459, -19.768197175630842, -18.16096733486518, -23.538683755840438], [-12.399041554817865, -4.180265878163014, 5.20243339651573, -13.693039456598376, -7.8008989308106, -6.5706767223145, 35.23427048970303, -9.399703215446303], [44.655373560577225, 18.81107865504874, 10.788825435613834, -13.801410062153954, 20.349822279779758, -0.8486879445262046, -7.7382412087024335, 52.89561471573013], [-34.8343035641911, -4.621094876803807, -36.46172367028718, -2.1533034763035124, -16.364942608610615, 17.653771460831457, 4.05235692732973, 31.24452698501223], [1.8696043105070257, -26.216895268456046, 47.17217052381592, -13.69128313926007, 19.260916358432475, -28.437132465930063, 4.27027697264569, 40.92072821074747], [-11.706045365411574, 29.07936392712648, -30.096756666377168, 32.51792830810609, 26.100434458829003, -30.338578006016224, -13.29216511840022, 25.045474858722713], [-35.30995757799088, 42.53141877270146, -23.692469594207555, 27.981134390351993, -1.311952481195015, 0.1462857341669508, 2.359829697130823, -18.122007138857136], [-15.419628921892784, 22.442439907106706, 69.78643376368858, -20.958650360134296, 7.69678973769301, -21.96424818255916, -16.438551666264388, -22.706874473454146]], [[2.6498381855382975, -39.42232717253645, -14.991859746174358, -14.128639561729711, -41.107831884743916, -1.4136286324623655, -1.4402384497526628, -4.430715043640153, -22.367771925909842], [7.7052389368493985, -0.6945500383620687, -17.397838603796853, -44.191599944767496, 51.88725873272945, 32.20521953737504, -36.64487768554591, 14.202644389908047, -9.907114206293826], [-46.00207661266778, -19.73288255591856, -10.794162401564945, -10.010623242628691, -40.03073895888718, 16.502909791335625, 15.174435139347977, 27.126037991436526, -21.973518180371116], [-31.667131083015843, 5.012068783821945, -2.2460641220375983, 33.862435972266624, 12.283754462577411, -18.743897180169327, -31.908590684834394, -21.243678831821214, 48.87569721576047], [55.675100416107014, -22.386065978322893, 4.543750630732603, 4.925285818779305, -41.4400341917174, -44.76694982238856, 19.379449629422822, 10.449722495361005, -5.338138700584923], [-33.6659217337014, -6.590160250216691, 1.5095761619529529, 28.28994842241703, 33.45827182463409, -6.5142520591365995, 30.615167592292476, -35.44230664612907, 16.99983120679751], [-10.897564479150166, -4.89679808344609, 11.575450516031442, -4.452303547310771, -15.213072522602477, -18.113561251147622, 79.49076395167607, -76.35922744809594, 18.763390628957744], [23.585490734168594, -2.8119262480935636, 26.60000261814155, 26.116600655982765, -24.61225850482123, -26.945803192696744, -10.98165198891611, -48.74283893557158, -5.497141350884313]]], "networkBiases": [[-2.2290385131629487, 2.870040376789152, 4.863467656634136, 2.0488370365235644, 4.635126887220558, -1.745174133678068, 1.945999858375295, 4.657247637332737], [-3.9218113903637253, 6.609521103548722, -2.564998950506872, -2.0790733637549303, 5.470505535897622, 2.8682221565610386, -1.4597210384410175, 3.1721324380899376, 2.657304340210983]]}