{"structure": [9, 8, 9], "networkWeights": [[[-0.6558732846642688, -43.57767542155485, -2.0436904598396923, 1.6407372757264154, -0.8097836819021889, 19.818615113073264, 8.704056566504539, 48.27876310958195], [-5.373866834512895, -0.1598569364387532, -14.607531670623949, -13.893289343435473, -7.4734056325752, -19.078913881690937, -18.36397522140747, -25.300160158717745], [-14.559042618458431, -4.153264113407473, 3.8559943830288637, -12.430849704037215, -7.226007922933658, -6.9245204342149, 32.59985003693374, -10.232054372006994], [44.56717341811206, 18.669946715402677, 8.846247825443566, -13.338065870626744, 21.607642608143177, -2.966671628286706, -3.467465715503757, 53.00546002387413], [-36.62542838588014, -3.5031593790386055, -34.00916097471051, -1.6305856705125972, -17.55553360791387, 16.969220483141147, 4.536784434294807, 33.792352465106845], [0.5155843777092652, -27.287720799663575, 48.5300505750782, -16.97314465571585, 22.420823497083816, -27.562768049388538, 3.1080977634034177, 41.26167799391458], [-9.261822754082461, 30.9843571134023, -32.5886371289676, 31.40442007821215, 25.253529683217256, -29.407443348062213, -12.205476630018765, 26.88048231698865], [-35.721107439665836, 38.42939832211357, -20.055268003134536, 27.736399116881227, -4.0040895708711925, -4.651735248201243, 0.1450055994650099, -16.794773339178004], [-19.469441938759402, 21.660355758076435, 70.48062461110649, -18.569797074004956, 10.267176153765828, -22.24054703651246, -18.86529175170421, -23.435921468218343]], [[2.6115959081350186, -36.82298410887476, -17.82928439591246, -14.085012172911737, -41.75524498204481, -1.2359583924234372, 0.35441657149230066, -4.650435834832815, -23.23796995098272], [6.236437604591468, -1.707770069748657, -17.244558634057224, -41.61173904378376, 47.38448690132933, 34.05658866620039, -36.910910568415936, 13.206866825285317, -10.942700550936479], [-43.19315750016407, -20.906440309602942, -12.349768936067154, -9.656412485151463, -40.61524411794171, 18.939245033132252, 16.786709957648895, 26.13256220670587, -19.839554747369196], [-29.945959609226108, 5.862954882254807, -2.7953912829127665, 36.062429414076924, 12.488254055968548, -16.804384391080166, -35.77880948249473, -16.07114969303564, 51.30537348624636], [57.184668996301596, -23.789952513287695, 3.272451194729571, 4.78124296127138, -40.76468147871756, -44.56442364496996, 19.170674727888667, 11.599167704102143, -5.339392849640632], [-33.04417539151432, -6.178902468978205, 0.7339916910690745, 30.355652789497384, 33.21429940145948, -1.5182512542153792, 30.383663999667174, -36.113305718854434, 16.26419160731136], [-12.751092075329822, -5.818677465056785, 10.987639732994838, -6.235383611987238, -15.58052218907863, -19.796761061489427, 83.53049794059, -75.87555458301307, 21.565895821771655], [22.39626896373103, -1.372585080631712, 23.197045016782408, 21.13645476828902, -26.447952289251205, -23.036955845053217, -14.718968967556895, -47.66747797549117, -2.885474079707948]]], "networkBiases": [[1.0, 1.0, 1.0, 1.0, 1.0, 1.0, 1.0, 1.0], [1.0, 1.0, 1.0, 1.0, 1.0, 1.0, 1.0, 1.0, 1.0]]}