{"structure": [9, 8, 9], "networkWeights": [[[-0.6439149877344956, -43.862151138370244, -1.061299688201531, 1.9904412433418475, 0.9604654076297388, 25.250682208790824, 9.066498201758359, 51.28353595439393], [-3.979154392449944, -1.6898016691774658, -14.028958816046735, -13.737526940454023, -7.177331532102459, -19.822480129832602, -18.142791320845607, -23.597160004638425], [-12.363489853312748, -4.15141900602496, 5.1667602868326465, -13.704740057435734, -7.836937908524044, -6.590813517132056, 35.21785689807616, -9.425347581834327], [44.68883595414578, 18.84543223049094, 10.83936633315087, -13.761459131778995, 20.364292937007704, -0.8567675936673746, -7.763816648067373, 52.92433836975453], [-34.81269535162295, -4.589512040955526, -36.499004031531214, -2.1084737536697826, -16.40882128146491, 17.712849415741744, 4.001958253533107, 31.255648322991497], [2.017045804851658, -26.189848080923202, 47.22917837829857, -13.61414827396446, 19.260916358432475, -28.40689864647951, 4.353212327306332, 40.8631043704555], [-11.766585795177816, 29.033332814729235, -30.027043638824306, 32.51792830810609, 26.140359797250742, -30.29367018049277, -13.30488080861151, 25.043665768702983], [-35.31274495421428, 42.54761406299679, -23.711408160195944, 27.998704063595294, -1.2657636190871562, 0.1462857341669508, 2.359829697130823, -18.122007138857136], [-15.412271536519846, 22.466966352401652, 69.80406292217138, -20.995137842138607, 7.691794559554763, -21.97624134356371, -16.422119778257986, -22.685210744424083]], [[2.5381290330282233, -39.45206396535063, -14.975986403908978, -14.12364994296805, -41.107831884743916, -1.4154234446167648, -1.4402384497526628, -4.436046252678438, -22.290904750040347], [7.7052389368493985, -0.6641865044930915, -17.446344879224714, -44.191599944767496, 51.891778604348104, 32.258150895624965, -36.62351825416092, 14.165317031278102, -10.016729119561528], [-45.95476306623814, -19.675061141826973, -10.801729547983241, -10.016083067895755, -40.07822256430134, 16.516275846062342, 15.131094211044559, 27.085579686086064, -21.908232323834913], [-31.77711162052066, 5.025616752670481, -2.193442633895267, 33.88544201583324, 12.272009440456912, -18.68455428521917, -31.968964557085, -21.330524315619115, 48.79497038222752], [55.75238079139441, -22.347668109912437, 4.567030967738249, 4.833110977043001, -41.42595471838127, -44.73842628393423, 19.480624694328988, 10.47130721076075, -5.301762128846245], [-33.63084015554936, -6.595626533840042, 1.4827219906783555, 28.312586392930328, 33.39705751713114, -6.506566018264127, 30.60051594676453, -35.4622852000085, 16.912314792124608], [-10.82892344941979, -4.832088623051871, 11.510835563239704, -4.415416681259985, -15.18552550958984, -18.085383433299903, 79.42652720050167, -76.30752622058915, 18.750453685890218], [23.594711925285875, -2.860935481188114, 26.665485007733157, 26.18473238934638, -24.58602580763644, -26.946345291850424, -10.946522875748702, -48.80216794526335, -5.508665124749017]]], "networkBiases": [[-2.2231499291795696, 2.9843097528505695, 4.845851248366058, 2.042424283611056, 4.570322201084633, -1.7145094163618708, 1.927354723796532, 4.7096885257623935], [-3.9170061641966156, 6.549153338982428, -2.694061986026543, -1.9945097046932732, 5.541706339020964, 2.940800041272598, -1.5421713641137205, 2.9727329570535264, 2.6442429491357236]]}