{"structure": [9, 8, 9], "networkWeights": [[[-0.6439149877344956, -43.86598186841264, -1.061299688201531, 1.9904412433418475, 0.9604654076297388, 25.250682208790824, 9.066498201758359, 51.28353595439393], [-3.979154392449944, -1.6898016691774658, -14.028958816046735, -13.689921582522784, -7.177331532102459, -19.822480129832602, -18.142791320845607, -23.597160004638425], [-12.363489853312748, -4.15141900602496, 5.1667602868326465, -13.704740057435734, -7.836937908524044, -6.590813517132056, 35.21785689807616, -9.425347581834327], [44.68883595414578, 18.84543223049094, 10.83936633315087, -13.761459131778995, 20.364292937007704, -0.8557274060916985, -7.763816648067373, 52.92433836975453], [-34.81269535162295, -4.589512040955526, -36.499004031531214, -2.1084737536697826, -16.40882128146491, 17.712849415741744, 4.001958253533107, 31.255648322991497], [2.017045804851658, -26.189848080923202, 47.22917837829857, -13.61414827396446, 19.260916358432475, -28.40689864647951, 4.353212327306332, 40.8631043704555], [-11.766585795177816, 29.033332814729235, -30.060218974144053, 32.51792830810609, 26.140359797250742, -30.29367018049277, -13.30488080861151, 25.043665768702983], [-35.31274495421428, 42.54761406299679, -23.711408160195944, 27.998704063595294, -1.2657636190871562, 0.1462857341669508, 2.359829697130823, -18.16605264950156], [-15.412271536519846, 22.466966352401652, 69.80406292217138, -21.017535172396094, 7.647126336601279, -21.97624134356371, -16.422119778257986, -22.664658757197]], [[2.5381290330282233, -39.45206396535063, -14.975986403908978, -14.12364994296805, -41.107831884743916, -1.4154234446167648, -1.4402384497526628, -4.436046252678438, -22.290904750040347], [7.7052389368493985, -0.6641865044930915, -17.432477196125998, -44.191599944767496, 51.891778604348104, 32.258150895624965, -36.62351825416092, 14.165317031278102, -10.016729119561528], [-45.95476306623814, -19.675061141826973, -10.801729547983241, -10.016083067895755, -40.07822256430134, 16.516275846062342, 15.131094211044559, 27.085579686086064, -21.890496024791307], [-31.77711162052066, 5.025616752670481, -2.193442633895267, 33.88544201583324, 12.272009440456912, -18.68455428521917, -31.968964557085, -21.330524315619115, 48.79497038222752], [55.75238079139441, -22.347668109912437, 4.567030967738249, 4.833110977043001, -41.42595471838127, -44.76414192993762, 19.480624694328988, 10.448152310602682, -5.301762128846245], [-33.63084015554936, -6.627840829416607, 1.4827219906783555, 28.312586392930328, 33.39705751713114, -6.543237382690473, 30.60051594676453, -35.4622852000085, 16.912314792124608], [-10.82892344941979, -4.832088623051871, 11.526924069107755, -4.415416681259985, -15.18552550958984, -18.085383433299903, 79.42652720050167, -76.30752622058915, 18.750453685890218], [23.594711925285875, -2.860935481188114, 26.665485007733157, 26.16198342401816, -24.62245278874258, -26.946345291850424, -10.946522875748702, -48.80216794526335, -5.508665124749017]]], "networkBiases": [[-2.2231499291795696, 2.975073344390057, 4.782938099167328, 2.0506106458945506, 4.602076582810721, -1.7039101266645715, 1.927354723796532, 4.726056671221374], [-3.935929570406384, 6.583354945030981, -2.7351240670177233, -1.934348946634573, 5.559778145708839, 2.9317203832296297, -1.5421713641137205, 2.9857771614072743, 2.6422001126878727]]}