{"structure": [9, 8, 9], "networkWeights": [[[-0.6400267198401055, -43.86598186841264, -1.10821683190435, 1.9904412433418475, 0.9604654076297388, 25.250682208790824, 9.066498201758359, 51.28353595439393], [-3.979154392449944, -1.6898016691774658, -14.028958816046735, -13.689921582522784, -7.177331532102459, -19.822480129832602, -18.142791320845607, -23.597160004638425], [-12.363489853312748, -4.15141900602496, 5.1667602868326465, -13.704740057435734, -7.836937908524044, -6.655621467792022, 35.21785689807616, -9.425347581834327], [44.68883595414578, 18.89283347558378, 10.791409957621758, -13.796696882882099, 20.364292937007704, -0.9015283890368961, -7.763816648067373, 52.95978028338893], [-34.81269535162295, -4.589512040955526, -36.499004031531214, -2.1084737536697826, -16.40882128146491, 17.712849415741744, 4.001958253533107, 31.255648322991497], [2.017045804851658, -26.189848080923202, 47.16521281651334, -13.61414827396446, 19.260916358432475, -28.4037393900321, 4.353212327306332, 40.8631043704555], [-11.766585795177816, 29.033332814729235, -30.060218974144053, 32.52943237721132, 26.140359797250742, -30.29367018049277, -13.30488080861151, 25.043665768702983], [-35.31274495421428, 42.54761406299679, -23.711408160195944, 27.998704063595294, -1.2657636190871562, 0.13048451314444529, 2.346193744433208, -18.122007138857136], [-15.412271536519846, 22.466966352401652, 69.79203801812905, -20.995137842138607, 7.736982249133102, -21.97624134356371, -16.422119778257986, -22.664658757197]], [[2.5381290330282233, -39.39706304078488, -14.975986403908978, -14.12364994296805, -41.107831884743916, -1.4154234446167648, -1.4402384497526628, -4.436046252678438, -22.28960770891503], [7.7052389368493985, -0.6641865044930915, -17.446344879224714, -44.191599944767496, 51.872801356472515, 32.258150895624965, -36.61598387608757, 14.165317031278102, -10.016729119561528], [-45.95476306623814, -19.685911348660444, -10.821728085801132, -10.016083067895755, -40.07822256430134, 16.516275846062342, 15.125107105174203, 27.090965010316587, -21.908232323834913], [-31.77711162052066, 5.025616752670481, -2.196690327593464, 33.88544201583324, 12.231254447472356, -18.68455428521917, -31.968964557085, -21.330524315619115, 48.75873618632975], [55.75238079139441, -22.347668109912437, 4.592700145327103, 4.833110977043001, -41.42595471838127, -44.73842628393423, 19.480624694328988, 10.47130721076075, -5.301762128846245], [-33.59943832861035, -6.627840829416607, 1.4827219906783555, 28.312586392930328, 33.412406936419906, -6.543237382690473, 30.60051594676453, -35.4622852000085, 16.912314792124608], [-10.82892344941979, -4.832088623051871, 11.510835563239704, -4.415416681259985, -15.14329030340665, -18.085383433299903, 79.42652720050167, -76.30752622058915, 18.750453685890218], [23.572150642673257, -2.860935481188114, 26.688723007458368, 26.16198342401816, -24.6668985831985, -26.982914469650613, -10.987198651837767, -48.80216794526335, -5.508665124749017]]], "networkBiases": [[-2.18980356714099, 2.975073344390057, 4.817041360066736, 1.9622162588815921, 4.550596901131822, -1.705280737625024, 1.881351885111908, 4.720744287486879], [-3.970425939659326, 6.522525045656247, -2.7104458399974347, -1.878976629077617, 5.584464037253577, 2.8973910401335137, -1.5413980310110236, 3.0672008712202694, 2.6185854132372826]]}