{"structure": [9, 8, 9], "networkWeights": [[[-0.9396884918820072, -40.941486484434584, -2.094559965302543, 1.1854690709955975, -0.915945501747859, 20.906099152918483, 8.167877542638657, 49.76704728617513], [-6.242229226412842, -0.47973439910806737, -13.971732035769985, -14.03023969493479, -7.778034591660603, -19.918354508306187, -18.84813023074524, -24.994169619370872], [-14.980647428819012, -5.259060345813474, 4.644115986535514, -14.30768006328238, -8.081469202200168, -7.186764806446992, 32.71846404484921, -10.014776672536058], [44.23539516682178, 17.85656526910537, 9.860279275837136, -13.882123596316196, 21.607642608143177, -1.3670798878678858, -3.500970588270209, 51.85164535549613], [-36.47214523063623, -4.29377894571735, -33.50908447343133, -0.7519412714356808, -18.573510584441863, 17.237755578723885, 5.209916863703297, 33.9632766176209], [0.11141529505249959, -26.448576278491487, 45.145890390104015, -15.992537391893412, 20.988250468355663, -28.28564524233731, 4.202070616455637, 41.397793823889316], [-8.208821353027734, 29.693003874204702, -31.90537862096541, 31.40442007821215, 25.2473836939668, -29.407443348062213, -13.476480115263774, 27.22360184839924], [-33.71235828829513, 38.621649004358204, -21.004088381191465, 27.6636552800447, -3.1631883435160892, -4.071920570781183, 0.8014956450634998, -17.864377216065936], [-17.094796516137272, 21.533467363309317, 69.25785986096245, -18.387026278640874, 10.320142093625442, -20.65470805510771, -18.86529175170421, -24.073376265862034]], [[3.990970013089342, -36.43820771857998, -15.89676127473669, -14.903433064968679, -42.35295139777259, -1.9494917792342994, 0.09372623054001461, -4.834212260261428, -23.339784713443894], [6.930328822761827, -0.8492516852442686, -16.503105373387534, -42.71263306230184, 48.43111837226037, 33.726091594837044, -35.308637207713026, 14.210906094678565, -9.71445733119433], [-42.814951520756686, -22.58022354337194, -11.504172474604589, -10.270254230188819, -40.37300817378467, 18.870699213124965, 15.827758680977558, 26.13256220670587, -20.798832907832857], [-29.817630041547627, 6.714468872576319, -4.167761902123905, 35.56011529170696, 11.004116317441593, -16.511290787698282, -33.9836427525863, -17.240326089789605, 49.85082740087741], [56.15963580087946, -26.458641602150777, 3.2734514539799084, 4.895574113635722, -40.406754793084524, -45.40437014197798, 19.47629033618272, 9.247719329914705, -5.357638492046419], [-33.390102615716664, -4.855603063846125, 0.39693661494530397, 29.461791200341512, 33.07515847602215, -3.1133887467993793, 29.45566496413275, -35.586441451811524, 17.22952691347819], [-13.907099108269588, -6.080423169684527, 11.65214039881497, -5.537527579860722, -15.055059060512193, -19.66154255599191, 82.53165369598025, -78.28800718705767, 21.25535657494901], [22.769705022811475, -0.5774199451562181, 24.407371050550065, 22.939616418980094, -25.462553124803073, -24.610169193177576, -14.838772088203033, -48.36306257562423, -3.0359650337128308]]], "networkBiases": [[1.0, 1.0, 1.0, 1.0, 1.0, 1.0, 1.0, 1.0], [1.0, 1.0, 1.0, 1.0, 1.0, 1.0, 1.0, 1.0, 1.0]]}