{"structure": [9, 8, 9], "networkWeights": [[[-0.9396884918820072, -42.071657563572266, -2.094559965302543, 0.7749044750081171, 0.05940121815079946, 20.578550174920558, 8.167877542638657, 49.76704728617513], [-6.242229226412842, -0.47973439910806737, -13.971732035769985, -14.004166770154777, -7.33035353327979, -19.918354508306187, -18.84813023074524, -24.994169619370872], [-14.730184573198038, -5.259060345813474, 4.644115986535514, -14.30768006328238, -7.782269631977222, -7.186764806446992, 33.205119030594716, -10.014776672536058], [44.56717341811206, 17.85656526910537, 9.98122157205821, -13.882123596316196, 21.607642608143177, -1.3670798878678858, -2.589501115195066, 51.85164535549613], [-36.47214523063623, -3.9205698913864824, -34.162496326621, -0.7519412714356808, -18.130174937778847, 17.237755578723885, 4.314659396865665, 33.9632766176209], [0.5647837096214037, -25.775316685773266, 45.145890390104015, -15.435010398794834, 21.66725804647136, -28.28564524233731, 4.202070616455637, 41.397793823889316], [-8.208821353027734, 29.693003874204702, -31.90537862096541, 31.7921052717061, 25.2473836939668, -29.407443348062213, -12.955898409323128, 27.834128204704612], [-33.90830036117462, 39.53733630744774, -21.004088381191465, 27.6636552800447, -3.1631883435160892, -3.8064383870349365, 1.4321629572734504, -17.864377216065936], [-17.094796516137272, 21.533467363309317, 69.25785986096245, -18.387026278640874, 9.419448099512103, -20.65470805510771, -18.86529175170421, -24.073376265862034]], [[3.990970013089342, -36.43820771857998, -15.89676127473669, -14.903433064968679, -42.35295139777259, -1.9494917792342994, 0.09372623054001461, -4.834212260261428, -23.27376353037421], [6.930328822761827, -0.8492516852442686, -16.503105373387534, -42.71263306230184, 48.43111837226037, 33.726091594837044, -36.27941690992601, 14.210906094678565, -9.71445733119433], [-42.814951520756686, -21.921401952420467, -11.504172474604589, -10.270254230188819, -40.61524411794171, 18.870699213124965, 14.91038826026518, 26.871551135228646, -21.530561722595902], [-29.817630041547627, 6.669190689788094, -3.051900335383581, 35.56011529170696, 10.1527807811418, -16.511290787698282, -34.33057692727474, -17.240326089789605, 49.85082740087741], [56.15963580087946, -25.193101492509477, 3.2734514539799084, 4.895574113635722, -40.406754793084524, -44.76243638485332, 20.169780527737444, 9.247719329914705, -5.357638492046419], [-33.390102615716664, -5.515655830311669, 0.39693661494530397, 30.420274872527713, 33.66897243440708, -3.1133887467993793, 30.376989079186345, -35.586441451811524, 16.97483633668859], [-13.907099108269588, -5.818677465056785, 11.65214039881497, -5.537527579860722, -15.055059060512193, -19.66154255599191, 82.36602136884858, -77.42294972426494, 21.25535657494901], [22.769705022811475, -0.24042659932999566, 24.407371050550065, 22.939616418980094, -25.449579373167097, -24.56646205121131, -14.838772088203033, -48.36306257562423, -3.0359650337128308]]], "networkBiases": [[1.0, 1.0, 1.0, 1.0, 1.0, 1.0, 1.0, 1.0], [1.0, 1.0, 1.0, 1.0, 1.0, 1.0, 1.0, 1.0, 1.0]]}