{"structure": [9, 8, 9], "networkWeights": [[[-1.2456733091384196, -43.700325695198984, -1.8950859699591258, 1.3934547398723192, 0.06144757785625471, 24.35337268485218, 8.88623165331644, 52.122282141641485], [-4.94438208085866, -1.538742655304567, -13.807109743119419, -13.716574143779958, -8.321135827559921, -20.14895197234679, -18.412617986330105, -24.84645002115055], [-13.35942950296335, -4.327208510380462, 4.478926374178743, -13.771005741713983, -9.30414203819509, -5.927178555082288, 35.01097811264155, -9.535763743637162], [44.39278302716376, 18.650573825971524, 9.160156464343068, -13.694349085139029, 20.277792773629155, -1.785683244921238, -6.678761690994045, 51.85233384848224], [-34.14907954464961, -5.930994931569307, -37.265941380715624, -3.040215115801013, -16.843474558836913, 18.334355370817367, 3.36166256463624, 31.629023424482977], [1.4450198429853864, -26.046167415484724, 47.10178788250613, -14.92913583744082, 18.941942572022153, -28.583387574903472, 4.18301796118479, 41.171785586280265], [-10.45206329613885, 29.418084539438674, -30.35646883611472, 32.40399761884499, 25.976948722363854, -30.99830792205673, -12.99339834431467, 24.45507187755656], [-34.96784074956763, 42.34644193583878, -22.07904592117872, 28.20300265535998, -2.0657020981737153, -0.409384437458989, 2.9606628578205063, -18.3831983543381], [-16.343019123134734, 21.661542586975116, 69.55794402515662, -19.71914308681447, 7.91158689040668, -21.90216801053569, -16.89183845120647, -23.28858912560572]], [[2.136919599290361, -38.64162829019045, -16.272387659073498, -14.877310963106728, -38.74206223284485, -1.685930763798568, -1.5360874190875033, -4.183676650613518, -21.211780753010345], [7.41245792391672, -0.5777708058352198, -17.31809458240882, -43.45742119477663, 52.38583972328337, 32.335344904004934, -36.021444355791694, 14.029792512637897, -10.56641558948534], [-44.65339861390416, -20.31310382873572, -10.109009210701315, -9.540546281374501, -41.07152275449852, 16.04134058201477, 14.761666733213216, 26.987632790529936, -21.827798226695933], [-30.313986162220083, 4.815041242948297, -3.4101223906949656, 35.256287387610215, 12.854549795707491, -18.50343135975052, -31.55078701176215, -21.42552610052524, 49.24868904949367], [55.98019155498814, -22.725479619530024, 4.168908024394507, 4.413996651205308, -40.320545753754885, -45.309841611417376, 20.60939783074193, 9.743535255910736, -5.635600775824004], [-33.90244505836143, -6.275892243311186, -0.7715090561065794, 27.940276359294753, 32.56111111293903, -5.771762066356144, 30.750637878494967, -35.979711272794255, 16.928974698209537], [-10.271573459009165, -4.997781483417538, 11.651377746099653, -4.851141618208766, -14.901631705091022, -20.040705720306406, 80.3821191345019, -77.32565539221545, 18.81665395190489], [22.969199339242046, -2.806959990361464, 25.227746316290517, 25.148002157468568, -25.749794787289336, -27.103445310069354, -11.129199431938082, -49.172070283747885, -4.149816958551845]]], "networkBiases": [[-3.9129145533989167, 2.2940562773243296, 2.410707900117063, 2.078851073689544, 1.9455405239613384, -0.16035950300972635, 2.0604197990609165, 6.72422271271248], [-1.1968562669012675, 6.949716888121601, -2.6816227301763975, 0.29857691221046195, 6.478555276722585, 2.464257155586104, -3.518571427873033, 1.7695551378297942, 0.8679778471832533]]}