{"structure": [9, 8, 9], "networkWeights": [[[-1.2456733091384196, -43.700325695198984, -1.8950859699591258, 1.2310925888125093, 0.06144757785625471, 24.184177704116188, 8.88623165331644, 52.122282141641485], [-4.929171965929852, -1.538742655304567, -13.88749342503951, -13.716574143779958, -8.321135827559921, -20.14895197234679, -18.412617986330105, -24.997818358140723], [-13.35942950296335, -4.327208510380462, 4.411471800163037, -13.630000986772199, -9.30414203819509, -5.927178555082288, 35.01097811264155, -9.535763743637162], [44.39278302716376, 18.42816928357408, 9.09734541985135, -13.694349085139029, 20.277792773629155, -1.785683244921238, -6.678761690994045, 51.85233384848224], [-34.14907954464961, -5.930994931569307, -37.37801781643524, -3.040215115801013, -16.843474558836913, 18.407040035569274, 3.36166256463624, 31.629023424482977], [1.4450198429853864, -26.046167415484724, 47.10178788250613, -14.92913583744082, 18.978190721877436, -28.78468433222894, 4.18301796118479, 41.171785586280265], [-10.383203949628832, 29.431291603945745, -30.35646883611472, 32.40399761884499, 26.10401717353823, -30.817618026170305, -12.800626125870949, 24.242257426669696], [-34.89785018315944, 42.34644193583878, -22.07904592117872, 28.20300265535998, -2.0657020981737153, -0.409384437458989, 2.9606628578205063, -18.3831983543381], [-16.343019123134734, 21.661542586975116, 69.55794402515662, -19.71914308681447, 7.695744898813686, -21.900843729446283, -16.89183845120647, -23.28858912560572]], [[2.136919599290361, -38.734079927591885, -16.272387659073498, -14.904368257934236, -38.960705747494586, -1.685930763798568, -1.5360874190875033, -4.183676650613518, -21.35934687472753], [7.228443351877897, -0.5777708058352198, -17.31809458240882, -43.324284243540625, 52.38583972328337, 32.335344904004934, -36.021444355791694, 14.029792512637897, -10.56641558948534], [-44.65339861390416, -20.31310382873572, -10.109009210701315, -9.71037476680184, -41.07152275449852, 16.17760930581883, 14.761666733213216, 27.18759673224761, -21.70754665577314], [-30.313986162220083, 4.815041242948297, -3.4101223906949656, 35.256287387610215, 12.609179322546481, -18.67587744112611, -31.778756861617246, -21.42552610052524, 49.24868904949367], [55.98019155498814, -22.651209376774524, 4.168908024394507, 4.413996651205308, -40.320545753754885, -45.309841611417376, 20.60939783074193, 9.743535255910736, -5.607620574485612], [-33.90244505836143, -6.275892243311186, -0.7715090561065794, 28.150207597314512, 32.56111111293903, -5.771762066356144, 30.750637878494967, -35.979711272794255, 16.928974698209537], [-10.271573459009165, -4.997781483417538, 11.651377746099653, -4.851141618208766, -14.901631705091022, -20.07684506338564, 80.3821191345019, -77.32565539221545, 18.81665395190489], [22.969199339242046, -2.806959990361464, 25.227746316290517, 25.148002157468568, -25.749794787289336, -27.103445310069354, -11.129199431938082, -49.172070283747885, -4.178154121808781]]], "networkBiases": [[-3.9129145533989167, 2.6125902521638027, 2.6276513718708374, 1.7217874865326472, 2.0144797777505, -0.11602688528411842, 2.2312703966692298, 6.866124672319382], [-1.386444121933729, 6.8541863539649945, -3.0549483761069554, 0.3068650363795353, 6.478555276722585, 2.406244521064729, -3.9908828493092057, 1.5394323202763422, 0.957965909079084]]}