{"structure": [9, 8, 9], "networkWeights": [[[-1.4051664833238684, -43.83056618275444, -1.3643743489944038, 0.9391777151044172, -0.3229666174254636, 24.65344510816123, 8.997360062665791, 51.99112314734543], [-5.215389244769605, -1.2546559611727237, -14.628560582019977, -13.735820522227039, -7.88149699682746, -20.535428044746077, -18.11028815383443, -23.939678695167835], [-13.906902718399966, -4.046369645556629, 4.444823973916314, -13.66514890409618, -8.539592146019404, -6.194795300107518, 34.81788310877763, -9.445354883859812], [44.30074200800326, 18.575622718894156, 9.606854184140248, -13.442095448637144, 20.331443292933905, -1.1929126818671, -6.330490226970987, 52.175850593138605], [-34.332602849621324, -6.143612993127966, -37.62880255017206, -2.8676498407160604, -16.748639808699025, 18.14088246817859, 3.718203238355703, 31.856718622452703], [1.3772073172700976, -26.0148632273792, 46.89534642199221, -14.608273308811635, 18.977455130554794, -28.974700337280346, 4.198221401302424, 41.1831411202871], [-10.452008455838495, 29.48108043428714, -30.413879518725707, 32.543361737506274, 25.858343931382944, -30.430329969421425, -13.026146877410264, 24.350291301058153], [-35.39759024152211, 43.27340596438275, -22.280213954874668, 28.156814413504, -1.2805971796632634, -0.3848026555948024, 2.0406144528790175, -18.134348137279346], [-15.782934941447946, 21.91848646073727, 69.17576814371682, -20.22760542162544, 7.808176259031747, -22.386389355914094, -16.817267684476718, -23.94067628594944]], [[1.711890216766235, -38.57710374095233, -16.08792486096858, -14.824076949376591, -38.94262856701988, -1.8272614579469995, -2.288820095842219, -4.429844822244165, -21.300735799593262], [7.187737178729768, -0.020900600989724794, -17.027840077927483, -43.339958207427784, 52.32476427259512, 32.222977942843094, -36.15333226641641, 13.849876377264815, -10.80856428896521], [-44.450681081275, -19.888159423540692, -9.59920021492722, -9.601697799340261, -40.90429431003054, 16.42718253712968, 13.569678088381657, 26.63802404298648, -21.602772315311682], [-30.2481901809804, 5.498711016524014, -3.263626504443153, 34.68140447111261, 13.15668967332248, -18.63354834886568, -31.55052647404143, -21.82686075310168, 48.85871217550615], [55.58204764465235, -23.160899428517776, 4.147557008422232, 4.453081711314268, -40.57081244565661, -44.94978964575517, 20.19985988520004, 9.414275213728006, -5.8537809175821565], [-33.74115861660591, -6.646595099377724, -0.6283151648379733, 28.1482872183616, 32.24466266372158, -5.90621220477709, 30.853133076317217, -35.93865801226247, 17.248802531953952], [-10.028208351688182, -4.463402998247655, 11.859023406618475, -5.216006682387431, -14.617490071182353, -19.721720979946035, 80.07563947779073, -77.44316140871918, 18.444277277854194], [23.54975516125679, -2.5463505080011086, 25.753404107866864, 25.631927200816094, -24.884820964133812, -26.647225480661266, -11.452251655725819, -49.19866764346395, -4.69329574963264]]], "networkBiases": [[-2.0926090872548553, 2.782818617624454, 1.8021428610319723, 2.642063105112026, 3.2728087712283465, -1.005619754432172, 2.894402867054502, 7.087067380137313], [-1.3798116113429562, 4.688079289712188, -2.678819476222213, -1.9636558328192135, 6.096451939458447, 2.8985974124700653, -1.526450380048956, 1.4516127527553682, 2.0886735024763667]]}