{"structure": [9, 8, 9], "networkWeights": [[[-1.4051664833238684, -44.075020979181225, -1.3643743489944038, 0.9157857751094355, -0.3229666174254636, 24.65344510816123, 8.997360062665791, 51.99112314734543], [-5.215389244769605, -1.4099980767077773, -14.628560582019977, -13.735820522227039, -7.88149699682746, -20.535428044746077, -18.129161836926745, -23.939678695167835], [-13.671977154720794, -4.046369645556629, 4.244801478118716, -13.66514890409618, -8.539592146019404, -6.194795300107518, 34.75510034721485, -9.445354883859812], [44.30074200800326, 18.575622718894156, 9.606854184140248, -13.442095448637144, 20.331443292933905, -1.3201519474985635, -6.546946532514665, 52.189726278083114], [-34.332602849621324, -6.143612993127966, -37.62880255017206, -2.7659919636495, -16.748639808699025, 18.14088246817859, 3.718203238355703, 31.856718622452703], [1.3772073172700976, -26.0148632273792, 47.08153921530485, -14.598707548034323, 18.977455130554794, -28.974700337280346, 4.198221401302424, 41.1831411202871], [-10.318488645989852, 29.48108043428714, -30.413879518725707, 32.24767211110022, 25.858343931382944, -30.40540254996928, -13.026146877410264, 24.29427396797339], [-35.39759024152211, 43.27340596438275, -22.280213954874668, 28.01840733551591, -1.2805971796632634, -0.3848026555948024, 2.0406144528790175, -18.134348137279346], [-15.782934941447946, 21.739700663482, 69.17576814371682, -20.238056627029057, 7.808176259031747, -22.386389355914094, -16.88886860121893, -23.94067628594944]], [[1.711890216766235, -38.74299611591758, -16.08792486096858, -14.377592796370536, -38.94262856701988, -1.8272614579469995, -2.1800665274139557, -4.5454654356449335, -21.300735799593262], [7.302044312827175, -0.020900600989724794, -17.19335868764781, -43.396464252330134, 52.32476427259512, 32.53661507205786, -36.09932453161022, 13.849876377264815, -10.80856428896521], [-44.556358363527295, -19.888159423540692, -9.59920021492722, -9.601697799340261, -40.90429431003054, 16.42718253712968, 13.71095894791236, 26.63802404298648, -21.602772315311682], [-30.2481901809804, 5.498711016524014, -3.263626504443153, 34.68140447111261, 13.15668967332248, -18.63354834886568, -31.55052647404143, -21.82686075310168, 48.85871217550615], [55.58204764465235, -23.132328497553676, 4.147557008422232, 4.293966721317169, -40.57081244565661, -44.94978964575517, 19.95842866943543, 9.414275213728006, -5.8537809175821565], [-33.74115861660591, -6.646595099377724, -0.6283151648379733, 27.94347782154106, 32.287740867029115, -5.90621220477709, 30.83018408359757, -35.93865801226247, 17.248802531953952], [-10.028208351688182, -4.463402998247655, 12.04021627819586, -5.216006682387431, -14.617490071182353, -19.61392643431101, 80.07563947779073, -77.44316140871918, 18.579238498023926], [23.54975516125679, -2.7554026245230387, 25.753404107866864, 25.631927200816094, -24.884820964133812, -26.647225480661266, -11.452251655725819, -49.19866764346395, -4.69329574963264]]], "networkBiases": [[-2.451174798663149, 2.652051975212451, 1.5492930200387527, 2.4024410953969397, 2.793112391585241, -0.47400741873524177, 2.9775965557489648, 7.114661785204531], [-1.3798116113429562, 4.779792618300746, -2.4360063933230798, -1.7081281367432006, 6.052233051615194, 3.095602575560756, -1.7030715393385982, 1.5293946036759916, 2.2827569136609305]]}