{"structure": [9, 8, 9], "networkWeights": [[[-0.5171630410350637, -43.84008183466277, -1.1442110532224503, 1.7729541732918865, 0.8334840755098737, 25.26133724387672, 9.163068016171316, 51.03572138219081], [-3.927043198958666, -2.0198021848623284, -14.071881486638018, -13.734024331164905, -7.225623681411343, -19.89124229213645, -18.16133611661402, -23.627998078014407], [-12.625369817804932, -4.1716789051340175, 5.02395697510589, -13.577836081243303, -7.843300449676585, -6.364187561074884, 34.873425191962454, -9.55074057150243], [44.60584302678363, 18.748278723817876, 10.819464106620979, -13.8152672546104, 20.30093789053557, -1.0780182741868651, -7.826378851814654, 53.10369866686064], [-34.73066800993212, -4.678728776362514, -36.45144820529686, -2.3432616671142137, -16.285682342870064, 17.59388750378218, 4.05475133016377, 31.057196097314428], [1.8631615374940436, -26.213096615060596, 47.368955233870686, -13.697316429104529, 19.24588031570002, -28.356133866651916, 4.164225234454006, 40.79437626852857], [-11.548417832827605, 29.08501355268307, -30.149576718569634, 32.52236702317066, 26.394557427652593, -30.532001346304543, -13.609394406284933, 24.947505926392925], [-35.16635491530111, 42.42653934471211, -23.6546578200018, 27.927986865887366, -1.1112429306927212, 0.14395607372132196, 2.367962598756516, -18.083459148126753], [-15.37164644164505, 22.402188954238554, 69.76707587216944, -20.95451557966755, 7.719350833732543, -22.049406965860385, -16.46115150435428, -22.768272315425595]], [[2.502474811547404, -39.61044231394424, -15.105955765172007, -14.154776569933183, -41.04475250375413, -1.3409624268039284, -1.762826405171354, -4.539918660148522, -22.39596498920482], [7.754512466432271, -0.6976553362034916, -17.429632164060685, -44.14055517305185, 51.87469231087139, 32.21366350056271, -36.65653324072495, 13.9466904752012, -10.026304601152365], [-45.771184821230946, -20.074325527898075, -10.77782752841172, -10.104824499074077, -40.06547241819689, 16.407419223836186, 15.002376244244829, 27.06858837322494, -21.89694245669784], [-31.601170324198353, 5.102700412843554, -2.282402203741656, 33.98289474702625, 12.2778279807913, -18.77171516339287, -31.90944849689648, -21.3449454173345, 48.7431355576393], [55.59633120208679, -22.30276738334261, 4.674230679699817, 4.819830157902219, -41.34771004412924, -45.02412096233694, 19.54550559288149, 10.22098207621805, -5.348827457039037], [-33.581819806065496, -6.488056525652796, 1.2204011119918492, 28.397919927025278, 33.26689212620727, -6.277779595269632, 30.803671620116923, -35.60112197325654, 17.007368148173562], [-10.722061735795497, -4.872566806576054, 11.493289190213398, -4.660765218918657, -15.149639980096385, -18.276450083139842, 79.28301403851316, -76.17969145850832, 18.71960180583381], [23.594786579808495, -2.7876994320212853, 26.643971739545133, 26.092632371709474, -24.66319336104511, -27.05958946167806, -11.1229069148714, -48.9296087098901, -5.5106784947592695]]], "networkBiases": [[-2.356202711576464, 3.510915992770597, 5.050851769647596, 1.4210839164017133, 4.731165155634763, -1.5696632967449178, 1.9530804116691673, 5.419318484576294], [-4.042072592449419, 6.655681554594855, -2.8423178251622803, -1.6798013017911588, 5.785003768831529, 2.3119874702022165, -1.6945471690375984, 2.895289640516837, 2.4017963646626876]]}