{"structure": [9, 8, 9], "networkWeights": [[[-0.48945622457006627, -43.7975607936214, -1.1442110532224503, 1.717072258633655, 0.8334840755098737, 25.26133724387672, 9.163068016171316, 51.03572138219081], [-3.927043198958666, -2.0198021848623284, -14.071881486638018, -13.734024331164905, -7.225623681411343, -19.880784662937316, -18.16133611661402, -23.627998078014407], [-12.625369817804932, -4.1716789051340175, 5.021010541907373, -13.577836081243303, -7.843300449676585, -6.387468546029803, 34.873425191962454, -9.55074057150243], [44.60584302678363, 18.748278723817876, 10.819464106620979, -13.8152672546104, 20.30093789053557, -1.0780182741868651, -7.826378851814654, 53.10369866686064], [-34.73066800993212, -4.678728776362514, -36.44941099374502, -2.3189650662430257, -16.318572026245715, 17.642505230533, 4.05475133016377, 31.057196097314428], [1.818966861653257, -26.213096615060596, 47.368955233870686, -13.697316429104529, 19.24588031570002, -28.391982374708277, 4.164225234454006, 40.79437626852857], [-11.548417832827605, 29.08501355268307, -30.149576718569634, 32.52236702317066, 26.42050111944718, -30.531036825882605, -13.609394406284933, 24.947505926392925], [-35.12878109095123, 42.49290083269018, -23.6546578200018, 27.887701652992543, -1.1112429306927212, 0.14395607372132196, 2.367962598756516, -18.083459148126753], [-15.37164644164505, 22.402188954238554, 69.76707587216944, -20.95451557966755, 7.719350833732543, -22.049406965860385, -16.46115150435428, -22.768272315425595]], [[2.502474811547404, -39.65879213921817, -15.113622040794358, -14.154776569933183, -41.06355692413451, -1.3409624268039284, -1.7735781151765673, -4.539918660148522, -22.39596498920482], [7.754512466432271, -0.6976553362034916, -17.429632164060685, -44.14055517305185, 51.87469231087139, 32.21366350056271, -36.65653324072495, 13.956339460386543, -10.026304601152365], [-45.771184821230946, -20.06924699996119, -10.77782752841172, -10.104824499074077, -40.06547241819689, 16.407419223836186, 15.002376244244829, 27.054293973603162, -21.906970874603203], [-31.601170324198353, 5.102700412843554, -2.2970921447171353, 33.98289474702625, 12.249423041512742, -18.77171516339287, -31.90944849689648, -21.3449454173345, 48.7431355576393], [55.59633120208679, -22.326776091851116, 4.674230679699817, 4.819830157902219, -41.34771004412924, -44.936236095345706, 19.54550559288149, 10.22098207621805, -5.348827457039037], [-33.581819806065496, -6.488056525652796, 1.2204011119918492, 28.397919927025278, 33.28197233231038, -6.277779595269632, 30.780164471974764, -35.5538753954864, 17.007368148173562], [-10.701903258630267, -4.8346626152546195, 11.493289190213398, -4.643676471914814, -15.122534174442148, -18.276450083139842, 79.28301403851316, -76.17969145850832, 18.71960180583381], [23.575275570583806, -2.7876994320212853, 26.643971739545133, 26.092632371709474, -24.66319336104511, -27.093192735157277, -11.1229069148714, -48.9296087098901, -5.5106784947592695]]], "networkBiases": [[-2.3114810730985162, 3.4807974224051903, 5.004854130223096, 1.4210839164017133, 4.7228188720429385, -1.5771912680824753, 1.856043643779859, 5.402041780460855], [-3.880820991182739, 6.669278993118219, -2.815140675843241, -1.6371422895858514, 5.7389092428137785, 2.3056320690313163, -1.8126841040585047, 2.928277385760785, 2.384192031904005]]}