{"structure": [9, 8, 9], "networkWeights": [[[-0.49727447954215853, -43.7975607936214, -1.1442110532224503, 1.687722916658555, 0.8334840755098737, 25.26133724387672, 9.163068016171316, 51.06210554473292], [-3.927043198958666, -2.0198021848623284, -14.071881486638018, -13.776554901867689, -7.205739170828268, -19.880784662937316, -18.12125200741122, -23.63154352512286], [-12.640721420767933, -4.1716789051340175, 5.036165222676175, -13.577836081243303, -7.843300449676585, -6.364187561074884, 34.873425191962454, -9.55074057150243], [44.60584302678363, 18.76293323274807, 10.819464106620979, -13.862291808147587, 20.285091700186054, -1.0780182741868651, -7.826378851814654, 53.1226881175967], [-34.73066800993212, -4.678728776362514, -36.45144820529686, -2.3189650662430257, -16.274511767808026, 17.642505230533, 4.05475133016377, 31.057196097314428], [1.8631615374940436, -26.213096615060596, 47.348504896465265, -13.697316429104529, 19.24588031570002, -28.391982374708277, 4.175692180039896, 40.78581491892043], [-11.548417832827605, 29.08501355268307, -30.149576718569634, 32.52236702317066, 26.394557427652593, -30.532001346304543, -13.609394406284933, 24.947505926392925], [-35.168316177499776, 42.49290083269018, -23.629486514281616, 27.887701652992543, -1.1112429306927212, 0.14395607372132196, 2.3405537187619445, -18.11414818717134], [-15.343979517732182, 22.356690184295076, 69.78895157656984, -20.915952835723, 7.719350833732543, -22.049406965860385, -16.46115150435428, -22.768272315425595]], [[2.5348340209623403, -39.61044231394424, -15.113622040794358, -14.154776569933183, -41.04475250375413, -1.319686029481431, -1.7735781151765673, -4.497469929623808, -22.39596498920482], [7.754512466432271, -0.7129977975250744, -17.429632164060685, -44.14055517305185, 51.87469231087139, 32.21366350056271, -36.651326995335445, 13.910775837586424, -10.072671196347468], [-45.771184821230946, -20.059334368824366, -10.77782752841172, -10.104824499074077, -40.109930399865966, 16.407419223836186, 15.002376244244829, 27.054293973603162, -21.89694245669784], [-31.601170324198353, 5.102661105781358, -2.282402203741656, 33.98289474702625, 12.249423041512742, -18.77171516339287, -31.876810799318775, -21.37864231279573, 48.7431355576393], [55.59633120208679, -22.30276738334261, 4.674230679699817, 4.819830157902219, -41.34771004412924, -44.975889521367186, 19.558492130286808, 10.22098207621805, -5.348827457039037], [-33.61799603390127, -6.488056525652796, 1.2565012460097917, 28.397919927025278, 33.28197233231038, -6.277779595269632, 30.810592924970035, -35.54420886841577, 17.007368148173562], [-10.753972579069126, -4.8346626152546195, 11.493289190213398, -4.643676471914814, -15.149639980096385, -18.273106445371766, 79.28301403851316, -76.17969145850832, 18.71960180583381], [23.535039641349325, -2.7876994320212853, 26.643971739545133, 26.092632371709474, -24.66319336104511, -27.05958946167806, -11.1229069148714, -48.9296087098901, -5.539657625082623]]], "networkBiases": [[-2.381087931431617, 3.527049669784355, 4.960669130918602, 1.37581738727776, 4.733407244680771, -1.5105420387722472, 1.9745196900928037, 5.419318484576294], [-4.0598765411606585, 6.718120925112677, -2.81805100208203, -1.6289547622325324, 5.850611899333127, 2.3203080015429167, -1.7298602233496223, 2.967563878433166, 2.379992677785773]]}