{"structure": [9, 8, 9], "networkWeights": [[[-0.5355179233786027, -43.64102687892851, -1.124494925573072, 1.524944737938948, 0.8296558984666083, 25.2840245803918, 8.988242374577203, 51.34753628091571], [-3.932973642889881, -1.7615811766692564, -14.24914727995976, -13.5939876456173, -7.482390516655623, -19.77944384627981, -18.147474563660985, -23.955018029148846], [-13.00530712680698, -4.201646117348205, 4.679280031315926, -13.451595650452829, -7.7233135299807, -6.493345313395943, 35.012799335819736, -9.709877009560527], [44.44423853373623, 18.954178920707516, 10.590401370127628, -13.87324348628841, 20.47996750213829, -1.2013354631361115, -7.384212595243185, 53.25460287352315], [-34.8082415904997, -4.814394547466229, -36.318352846018456, -2.473158532895776, -16.631316809183783, 17.771374840748248, 3.7825456804358843, 31.206609639230386], [1.6603719491941997, -26.534781614574783, 47.29754801999502, -13.871885420445388, 19.27376388811686, -28.58225493503671, 4.273460487289815, 40.81489945092709], [-11.354108633983705, 29.13590130853811, -30.112430262672397, 32.1187342389179, 26.45085859862379, -30.680008191780473, -13.892972945308593, 24.626540326771245], [-34.986201915510335, 42.49290083269018, -23.657283832701538, 27.429840532835833, -1.2727265708824547, 0.3192712582858953, 2.1932902849056886, -17.681842421677914], [-15.371226068234073, 21.86273461776973, 69.4987207799601, -20.864917365449678, 7.728426212299672, -22.101085206905484, -16.61050441905576, -22.56838889388586]], [[2.345367033817, -39.44611955426061, -15.022982215255048, -14.108913825287848, -40.70944762382615, -1.739291595457349, -1.5543816269361899, -4.525589968875217, -22.284726786290197], [7.985344183864672, -0.42654297770597377, -17.306468275047806, -44.40279861068642, 51.66939861457504, 32.49551810384381, -36.52119535197379, 13.925853158448577, -9.975225663785068], [-45.19932815644738, -20.130055377692138, -10.616822171219807, -10.421288476300077, -40.1205695840062, 16.229570971658397, 14.909624075269575, 26.976286132855535, -21.874038112295544], [-31.52965523129161, 5.484422790276663, -2.477052799477421, 34.17397657346321, 12.168971307664634, -18.744168031133697, -31.851096455982127, -21.419112415662745, 49.35870144467095], [55.645434818354985, -22.97599578375792, 4.860678264616071, 4.769642517786378, -41.483762554136675, -44.70442420664484, 19.32329465640713, 9.87976595080938, -5.280551993270359], [-33.80427405988893, -6.718119649440597, 0.6854301693696394, 28.566098727774435, 33.26169016608267, -6.1832297737203, 30.777810172856558, -35.98148544404254, 16.975271554220456], [-10.772550538729735, -4.837656743557954, 11.3919598279271, -4.635152806209283, -15.132066131314799, -18.55158982147419, 79.41172690937451, -76.14400718354786, 18.009577894906162], [23.540435661383963, -3.0443470145327205, 26.641089061758745, 25.740111892007718, -25.170085021869856, -27.14878669725963, -11.142955615717577, -48.86995187230815, -5.735983422480674]]], "networkBiases": [[-2.9412791910645026, 2.851096822068054, 4.4333635807666205, 1.9887075734086639, 5.10317033034976, -1.2231410492289914, 2.8544951320996614, 5.423962728298406], [-3.2926548154858812, 6.357118507531042, -2.6124401377038216, -1.4327059525987784, 4.806129340217964, 2.1232164191743665, -2.0018793565815924, 2.9534918669967154, 1.8307626148284237]]}