{"structure": [9, 8, 9], "networkWeights": [[[-0.5355179233786027, -43.64102687892851, -1.2264894812723974, 1.6622980974159791, 0.8296558984666083, 25.2840245803918, 8.946504794342015, 51.34753628091571], [-3.932973642889881, -1.7615811766692564, -14.24914727995976, -13.5939876456173, -7.523771193001057, -19.857127420275095, -18.147474563660985, -23.955018029148846], [-13.00530712680698, -4.1348510175641655, 4.566218307090315, -13.329064489959446, -7.7233135299807, -6.493345313395943, 34.81954884421952, -9.629035606829778], [44.44423853373623, 19.09884292635217, 10.590401370127628, -13.87324348628841, 20.424662746825128, -1.2013354631361115, -7.384212595243185, 53.25460287352315], [-34.8082415904997, -4.814394547466229, -36.318352846018456, -2.473158532895776, -16.631316809183783, 17.811116733327843, 3.959552623249256, 31.206609639230386], [1.7115098581663513, -26.48022524910653, 47.29754801999502, -13.871885420445388, 19.27376388811686, -28.58225493503671, 4.273460487289815, 40.81489945092709], [-11.379797545841896, 28.915583130554204, -30.112430262672397, 32.31968373325262, 26.45085859862379, -30.654945464293483, -13.69241599812461, 24.626540326771245], [-34.986201915510335, 42.49290083269018, -23.657283832701538, 27.429840532835833, -1.2727265708824547, 0.3192712582858953, 2.1932902849056886, -17.681842421677914], [-15.371226068234073, 21.86273461776973, 69.4987207799601, -20.864917365449678, 7.885900784441438, -22.101085206905484, -16.411772738843084, -22.56838889388586]], [[2.5523653735365572, -39.36424925342867, -15.022982215255048, -14.108913825287848, -40.70944762382615, -1.739291595457349, -1.5543816269361899, -4.525589968875217, -22.284726786290197], [7.985344183864672, -0.42654297770597377, -17.306468275047806, -44.40279861068642, 51.66939861457504, 32.49551810384381, -36.52119535197379, 13.925853158448577, -9.975225663785068], [-45.19932815644738, -20.130055377692138, -10.616822171219807, -10.421288476300077, -40.12587141788527, 16.229570971658397, 14.909624075269575, 26.85996881983048, -21.874038112295544], [-31.52965523129161, 5.649752379778359, -2.477052799477421, 33.92733884588333, 12.168971307664634, -18.744168031133697, -31.851096455982127, -21.53469601683443, 49.14344304497036], [55.50092859261055, -22.75180255039536, 4.860678264616071, 4.769642517786378, -41.57063263939339, -44.70442420664484, 19.32329465640713, 10.129584943035773, -5.156901547803358], [-33.80427405988893, -6.718119649440597, 0.6854301693696394, 28.566098727774435, 33.26169016608267, -6.1832297737203, 30.777810172856558, -35.98148544404254, 16.975271554220456], [-10.772550538729735, -4.837656743557954, 11.3919598279271, -4.635152806209283, -15.132066131314799, -18.55158982147419, 79.41172690937451, -76.14400718354786, 18.009577894906162], [23.734915130222515, -3.0443470145327205, 26.641089061758745, 25.740111892007718, -25.170085021869856, -27.14878669725963, -11.142955615717577, -48.86995187230815, -5.735983422480674]]], "networkBiases": [[-3.0559963208673864, 3.0399343155052088, 4.944493798775144, 2.1349883188457977, 4.871631188544221, -0.9911958830606963, 2.3625715729010954, 4.6572856432051415], [-3.4111028980235587, 6.410199303071811, -2.3449718099889854, -1.834119551790144, 5.522813457709996, 1.9320256530187903, -2.049710640905411, 2.7897930746689164, 2.1586797049077986]]}