{"structure": [9, 8, 9], "networkWeights": [[[-0.5355179233786027, -43.64102687892851, -1.2691485705857806, 1.6622980974159791, 0.8296558984666083, 25.2840245803918, 8.946504794342015, 51.34753628091571], [-3.932973642889881, -1.7615811766692564, -14.24914727995976, -13.5939876456173, -7.523771193001057, -19.729818558055353, -18.147474563660985, -23.955018029148846], [-13.00530712680698, -4.201646117348205, 4.566218307090315, -13.329064489959446, -7.7233135299807, -6.493345313395943, 34.81954884421952, -9.629035606829778], [44.386590320870546, 19.09884292635217, 10.590401370127628, -13.87324348628841, 20.424662746825128, -1.2013354631361115, -7.384212595243185, 53.25460287352315], [-34.8082415904997, -4.814394547466229, -36.318352846018456, -2.473158532895776, -16.631316809183783, 17.811116733327843, 3.959552623249256, 31.206609639230386], [1.7115098581663513, -26.48022524910653, 47.30098171985027, -13.871885420445388, 19.27376388811686, -28.58225493503671, 4.273460487289815, 40.77262602899658], [-11.379797545841896, 29.13590130853811, -30.112430262672397, 32.41899418178934, 26.46075105832445, -30.654945464293483, -13.69241599812461, 24.626540326771245], [-34.986201915510335, 42.49290083269018, -23.657283832701538, 27.429840532835833, -1.2727265708824547, 0.3192712582858953, 2.1932902849056886, -17.681842421677914], [-15.371226068234073, 21.86273461776973, 69.4987207799601, -20.864917365449678, 7.885900784441438, -22.101085206905484, -16.61050441905576, -22.56838889388586]], [[2.345367033817, -39.36424925342867, -15.022982215255048, -14.108913825287848, -40.70944762382615, -1.739291595457349, -1.6951511497000937, -4.525589968875217, -22.284726786290197], [7.985344183864672, -0.42654297770597377, -17.306468275047806, -44.40279861068642, 51.66939861457504, 32.49551810384381, -36.52119535197379, 13.925853158448577, -9.975225663785068], [-45.19932815644738, -20.130055377692138, -10.616822171219807, -10.421288476300077, -40.12587141788527, 16.229570971658397, 14.909624075269575, 26.85996881983048, -21.874038112295544], [-31.52965523129161, 5.649752379778359, -2.477052799477421, 33.979989144948156, 12.168971307664634, -18.744168031133697, -31.851096455982127, -21.53469601683443, 49.14344304497036], [55.50092859261055, -22.97599578375792, 4.860678264616071, 4.769642517786378, -41.483762554136675, -44.95384189635114, 19.32329465640713, 10.129584943035773, -5.156901547803358], [-33.999680387285174, -6.718119649440597, 0.6854301693696394, 28.566098727774435, 33.26169016608267, -6.1832297737203, 30.777810172856558, -35.98148544404254, 16.975271554220456], [-10.772550538729735, -4.837656743557954, 11.341019755334873, -4.635152806209283, -15.132066131314799, -18.55158982147419, 79.41172690937451, -76.33536117354808, 18.257269035904965], [23.734915130222515, -3.0443470145327205, 26.641089061758745, 25.740111892007718, -25.170085021869856, -27.14878669725963, -11.142955615717577, -48.86995187230815, -5.735983422480674]]], "networkBiases": [[-2.9447922269155136, 2.9319653187848074, 4.882567246796748, 1.910541124227196, 4.871631188544221, -0.9911958830606963, 2.4122593736206137, 4.927440371794356], [-3.540925771662577, 6.6192613017644755, -2.3449718099889854, -1.714659094839403, 4.844641482453005, 2.060976183934506, -2.1782461335545857, 3.2399878655093226, 1.8338961114417198]]}