{"structure": [9, 8, 9], "networkWeights": [[[-1.4754432753601257, -43.80993250270616, -1.1624526995283493, 1.4246527542481826, 0.5176909936672851, 24.940026010905537, 9.068831991138614, 51.814075957428045], [-4.513234865016768, -1.7159802178155814, -14.42021031595349, -13.588042262364851, -7.662088432715542, -20.144339854834772, -18.41482334555791, -23.845365163700176], [-13.118886468803483, -3.8349535783557576, 4.759819518872891, -13.366527952214444, -8.506750865843232, -6.44524925162997, 35.0760252099882, -9.622069495156556], [44.22815031424926, 18.876277141329226, 10.637287747577853, -13.860333555466374, 20.169990730469262, -1.0430917651066787, -7.278181102298355, 52.890158274947986], [-35.07018480310976, -4.858260047741396, -36.50195683350408, -3.342603731470456, -16.788011139832985, 18.088490063405775, 4.0573598150704795, 31.442125867339623], [1.7559636117676027, -26.725846728887703, 46.95489060720997, -13.790254562137955, 18.946683029449524, -28.768458191686307, 5.086849614128794, 41.63328984241372], [-11.347931277126222, 29.5212904478872, -29.6915536964248, 32.471505315898156, 25.96330997771338, -30.533531349995283, -13.88280812533836, 24.376078796385908], [-34.792439702007734, 42.772763081908955, -23.737410213466422, 27.71898460706934, -1.2932636555097772, -0.06174221339002717, 2.1142579232910768, -17.723027041272594], [-15.385721432120535, 21.93622500619963, 69.8868112316193, -20.81127487963653, 7.630700173114272, -22.21466533858408, -17.008239266653135, -23.186079273662564]], [[2.148740661667259, -39.61781996252953, -15.424807581215884, -14.20265355850399, -39.66972702715066, -1.6837743367380138, -2.1792563122559137, -4.458309585527968, -22.204912532415836], [7.710883159813643, -0.05493831668242366, -17.237732765256954, -43.75720703920097, 51.85890040624148, 31.83188480227462, -36.39240331522076, 13.609243944773354, -10.295099705903601], [-44.648491623197614, -19.546935131759138, -9.98364718103856, -10.298047983728924, -40.373627577748266, 16.230041893572583, 14.747275047932431, 26.892894949767843, -21.29442145359806], [-30.751462258200014, 5.826037954513826, -2.781164335169338, 34.45333772551847, 11.991448916587606, -18.366474602954884, -31.94322074692907, -21.42843363825671, 49.77846249280311], [55.93606376582054, -22.600761568420513, 4.233130668172282, 4.610637344611833, -41.42751856928463, -44.4492752951329, 19.508047755660474, 9.413327941575456, -5.0310087963043], [-33.8002086128549, -6.611398917045904, 0.3421528773217084, 28.442328803903358, 32.91286493583806, -6.193675684174424, 30.68269934787488, -35.74765056085846, 17.26706169344194], [-10.939089550153788, -4.892177577845518, 11.950450114495075, -4.844363249909016, -15.089029884780814, -18.34932847707585, 79.31744169148243, -76.50251499758365, 17.984997699649913], [23.39236939584165, -3.343445958627986, 26.19261999919674, 25.94827342600861, -24.498620235747175, -26.760276049458657, -11.108372524752804, -48.78264214321334, -5.088221862627802]]], "networkBiases": [[-2.805128553505376, 3.6078224117536886, 3.3245581451685946, 2.885754917847676, 3.210674721229986, -1.0357177665972312, 2.0207232229968444, 5.374952693993956], [-3.8534381468928816, 5.758987318951847, -1.617364028778345, -1.7716129495368738, 5.805663578349602, 3.8096111225276132, -2.7549780266776387, 2.0671473707060146, 2.2630514655015266]]}