{"structure": [9, 8, 9], "networkWeights": [[[-0.6558732846642688, -43.7459700042041, -2.0436904598396923, 0.460972738419112, 0.05940121815079946, 20.196373147255496, 8.704056566504539, 48.27876310958195], [-5.571051656723905, -0.9612200800009723, -14.112360703067003, -14.03023969493479, -7.33035353327979, -19.918354508306187, -19.09813077792141, -25.86673781236305], [-14.559042618458431, -4.787147487583998, 4.644115986535514, -14.30768006328238, -7.432376687409383, -6.9245204342149, 32.59985003693374, -10.232054372006994], [44.56717341811206, 17.85656526910537, 8.761371128404887, -12.890743128134602, 21.607642608143177, -1.600480434648525, -3.1153045575807843, 53.00546002387413], [-36.25289736495278, -3.3088000588504176, -33.9323211550816, -1.5935074383773609, -17.55553360791387, 16.969220483141147, 4.286561044444207, 33.42007501901524], [0.8422022605911199, -26.483045137431873, 47.60741883823667, -16.97314465571585, 22.420823497083816, -28.28564524233731, 3.8710312106603846, 41.800159465680814], [-8.635536609633409, 29.70620006583521, -32.97679272820424, 31.40442007821215, 25.53330228585323, -29.407443348062213, -11.770874905601271, 27.834128204704612], [-33.36973122305249, 38.28895347009775, -19.69184046537233, 27.6636552800447, -3.3279131285053265, -4.247249496650224, 0.1450055994650099, -17.751689361183374], [-18.47878977639215, 21.660355758076435, 70.06633062634008, -18.51410404978902, 10.108901274265868, -21.438957459168115, -18.86529175170421, -23.435921468218343]], [[2.584592922413412, -36.82298410887476, -17.664753812878047, -14.093515360406974, -41.78922473094302, -1.0015163749456066, 0.35441657149230066, -5.619911863464289, -22.91885789078532], [6.236437604591468, -1.2882990953259907, -16.503105373387534, -41.61173904378376, 47.57616981392813, 33.726091594837044, -37.60588981445915, 13.206866825285317, -10.942700550936479], [-43.06775942423809, -22.58022354337194, -11.504172474604589, -10.270254230188819, -40.61524411794171, 18.939245033132252, 16.555440520172553, 26.13256220670587, -20.024096946706432], [-30.271419754280245, 6.648653865859667, -2.409956164015739, 35.56011529170696, 12.346661888818284, -17.174558737665954, -34.24379171081106, -16.07114969303564, 49.78212470488401], [56.2555089765645, -24.46332289727423, 3.2734514539799084, 4.260252900248315, -40.76468147871756, -45.049954384143454, 20.396020047993463, 10.963656018800839, -5.339392849640632], [-33.04417539151432, -5.421152489283194, 0.7339916910690745, 29.890606063586574, 33.07515847602215, -2.1381263375034063, 30.383663999667174, -36.507605948258245, 16.92540074523101], [-13.661157631546036, -5.818677465056785, 10.975566327057743, -6.235383611987238, -15.58052218907863, -20.110237889700326, 83.01628026695843, -77.42294972426494, 20.935498022198985], [22.390421745843824, -1.5720877699287688, 23.48340433236674, 21.97276631902577, -26.051263420474804, -23.855802334735046, -15.395210332775477, -48.16091236230312, -2.885474079707948]]], "networkBiases": [[1.0, 1.0, 1.0, 1.0, 1.0, 1.0, 1.0, 1.0], [1.0, 1.0, 1.0, 1.0, 1.0, 1.0, 1.0, 1.0, 1.0]]}