{"structure": [9, 8, 9], "networkWeights": [[[-1.3283417192915465, -43.72948951583779, -1.3053567857044484, 1.4402679731494903, 0.3522803412197121, 24.940026010905537, 9.26873691773178, 52.00857342264702], [-4.513234865016768, -2.0112449749214916, -14.177085533373603, -13.770747190265332, -7.871756706898988, -20.327539232334356, -18.41482334555791, -23.983568932459647], [-13.433381555778439, -3.585132268107063, 4.487880552190686, -13.327197417317468, -8.718462396892054, -6.44524925162997, 34.93505404733585, -9.391651591365532], [44.0532506461264, 18.98789836082461, 10.637287747577853, -13.614847830667298, 20.071730834232806, -1.171122524020018, -7.506729299505567, 52.97639666396307], [-34.71649020478448, -4.969603895522811, -36.82702338840445, -3.2297704954278545, -17.040666318756866, 18.02367443363647, 4.212108232014764, 31.442125867339623], [1.555778338529552, -26.494527643772802, 47.11496114354853, -14.173763969379785, 19.317495261725096, -28.92197417929221, 5.072091333731825, 41.72219385377278], [-11.075794027138935, 29.46999239566034, -29.833112965505872, 32.49440165507491, 25.954085425194, -30.822803987962146, -13.83751483399886, 24.508671014687522], [-34.94911866355622, 43.01797276913627, -23.520855599488524, 27.926110466214645, -1.0324970565940659, -0.06174221339002717, 2.1142579232910768, -17.733348547710857], [-15.238757960315041, 21.93622500619963, 69.75519987520298, -20.374344289774868, 7.753418028933777, -22.31125565538184, -16.75678654244367, -23.416663272961845]], [[2.143847661021758, -39.5362049443924, -15.537405783241478, -14.231335677588143, -39.77889353009522, -1.8865022687529343, -2.09826876804174, -4.458309585527968, -21.972314078462745], [7.807558799532722, 0.15322155035021884, -17.319781450140496, -43.37957551462525, 52.07596544302068, 31.94428317293014, -36.44927314384794, 13.811038803807614, -9.923580809747214], [-44.731835411202226, -19.520452832393254, -9.827695017344753, -10.2024124652015, -40.46290228052737, 16.35482628998372, 14.598672690896308, 26.95590587268207, -21.29442145359806], [-30.74438716351842, 5.397198866242786, -2.781164335169338, 34.35153242205431, 12.029305712358031, -18.76367937434414, -31.286705991135126, -21.274820876618218, 49.370057998155275], [55.94994729767532, -22.295767175909994, 4.019050594232952, 4.61634153568023, -41.33117982565173, -44.57058210762686, 19.95104132108757, 9.170786108445554, -4.795997697414982], [-33.856955189390554, -6.420982943188085, 0.07584262054154883, 28.50051895680188, 32.91286493583806, -6.551489336591097, 30.68269934787488, -35.92714890457256, 17.22728504032143], [-10.827891961714348, -4.641189050975872, 11.950450114495075, -4.783895423042992, -14.650408572842817, -18.46859192453138, 79.28555045262361, -76.62572473621638, 17.984997699649913], [23.279204393907744, -3.7368990586496884, 25.959621374454333, 25.718754248058083, -24.498620235747175, -26.61625842629693, -11.108372524752804, -48.89510052216753, -5.029640816015219]]], "networkBiases": [[-2.4096561282677476, 4.230597146349717, 3.3632169664166143, 2.853445582265018, 2.9194420737576903, -0.2551833385350294, 2.648774222921123, 6.087680691628842], [-4.0927807024927425, 5.651370598885272, -1.553672377173388, -2.824924539506079, 5.355684585271769, 3.955150159642569, -3.2708997309423253, 2.341297479051131, 2.3707793949237352]]}