{"structure": [9, 8, 9], "networkWeights": [[[-1.3283417192915465, -43.72948951583779, -1.3053567857044484, 1.4402679731494903, 0.3522803412197121, 24.940026010905537, 9.092507677523743, 52.00857342264702], [-4.513234865016768, -2.0112449749214916, -14.177085533373603, -13.770747190265332, -7.871756706898988, -20.327539232334356, -18.41482334555791, -23.983568932459647], [-13.433381555778439, -3.585132268107063, 4.432153977634516, -13.327197417317468, -8.718462396892054, -6.44524925162997, 34.93505404733585, -9.391651591365532], [44.0532506461264, 18.98789836082461, 10.637287747577853, -13.659186364332824, 20.218665640542014, -1.171122524020018, -7.506729299505567, 52.890158274947986], [-34.677983262627635, -4.969603895522811, -36.82702338840445, -3.2297704954278545, -17.040666318756866, 18.02367443363647, 4.212108232014764, 31.442125867339623], [1.555778338529552, -26.494527643772802, 47.11496114354853, -14.173763969379785, 19.317495261725096, -28.92197417929221, 5.072091333731825, 41.72219385377278], [-11.075794027138935, 29.46999239566034, -29.833112965505872, 32.49440165507491, 25.954085425194, -30.822803987962146, -13.83751483399886, 24.508671014687522], [-34.94911866355622, 43.01797276913627, -23.58933334252609, 27.926110466214645, -1.0844882149180959, 0.14317021256614576, 2.1142579232910768, -17.733348547710857], [-15.238757960315041, 21.93622500619963, 69.75519987520298, -20.374344289774868, 7.753418028933777, -22.31125565538184, -16.75678654244367, -23.416663272961845]], [[2.143847661021758, -39.430554942666504, -15.537405783241478, -14.231335677588143, -39.77889353009522, -1.8865022687529343, -1.9782015576231338, -4.458309585527968, -21.972314078462745], [7.807558799532722, 0.2962535571256536, -17.319781450140496, -43.37957551462525, 52.07596544302068, 31.94428317293014, -36.44927314384794, 13.811038803807614, -9.923580809747214], [-44.731835411202226, -19.520452832393254, -9.749813327054305, -10.097003148451915, -40.46290228052737, 16.35482628998372, 14.598672690896308, 26.95590587268207, -21.29442145359806], [-30.74438716351842, 5.6274515944507355, -2.781164335169338, 34.35153242205431, 12.029305712358031, -18.76367937434414, -31.286705991135126, -21.274820876618218, 49.370057998155275], [55.94994729767532, -22.295767175909994, 4.019050594232952, 4.5244031804170834, -41.33117982565173, -44.57058210762686, 19.831090689869853, 9.170786108445554, -4.795997697414982], [-33.856955189390554, -6.509956121821556, 0.07584262054154883, 28.50051895680188, 32.840589341100355, -6.551489336591097, 30.68269934787488, -35.92714890457256, 17.22728504032143], [-10.827891961714348, -4.910930636187975, 11.950450114495075, -4.783895423042992, -14.650408572842817, -18.34932847707585, 79.31744169148243, -76.62572473621638, 17.984997699649913], [23.279204393907744, -3.7368990586496884, 25.959621374454333, 25.718754248058083, -24.498620235747175, -26.82148466493382, -11.317237168213541, -48.89510052216753, -4.862915380177382]]], "networkBiases": [[-2.7060014863440016, 4.113372177070142, 3.3632169664166143, 3.010260633429439, 2.95750924151245, -0.48581916533194214, 2.5987768975661547, 6.087680691628842], [-3.8177858083058593, 5.930668118864558, -1.553672377173388, -2.995885407589639, 5.542261107178154, 3.9809795601568414, -3.2708997309423253, 2.215941807578313, 2.3857979168840666]]}