{"structure": [9, 8, 9], "networkWeights": [[[-0.6013489584438602, -43.8624275868353, -1.1450724385746247, 1.9521797438224828, 0.9329323520722159, 25.266776331574818, 9.074692092808606, 51.16802579506066], [-4.035225508793853, -1.72496676081775, -14.049511772172476, -13.745772597849058, -7.216546297244915, -19.83249713321764, -18.17611567992811, -23.61875967736424], [-12.398909563040672, -4.140765748122201, 5.267486741641567, -13.69736531693708, -7.732369676789808, -6.577678075693358, 35.07410992413543, -9.42745587526096], [44.67324155029476, 18.76910331254188, 10.87675808268561, -13.772330923655227, 20.350105652680178, -0.9385617299408204, -7.7220100066182376, 53.00396954991251], [-34.76526378464967, -4.669632611276243, -36.499705854850546, -2.281923475484045, -16.43023336090647, 17.667352844295078, 3.973703911954669, 31.096879189027945], [2.060861103974576, -26.068141723701928, 47.47415301810072, -13.659325516749648, 19.271515596322594, -28.416827672078234, 4.338483630895459, 40.83237997978842], [-11.693846404806061, 29.078732250173502, -30.096017707399746, 32.391822544258346, 26.15195859969557, -30.31549572913013, -13.432580191224265, 25.014597673413835], [-35.22341466638324, 42.48045662813533, -23.708316189421566, 27.98563054526699, -1.1585739062979903, 0.17922984911895978, 2.348920025936756, -18.039334066148992], [-15.40203916643405, 22.54377507194819, 69.75265566245798, -20.9990299919457, 7.70509017612944, -21.93952471882207, -16.464275429107943, -22.80871119429711]], [[2.488019776647218, -39.43684224237706, -15.049054533061442, -14.165543627116925, -41.04926253444896, -1.3628039253838544, -1.5103263074864612, -4.488229840146943, -22.188613042018222], [7.678903653423835, -0.6991743704416254, -17.399120532237408, -44.191374337080205, 51.909018442293956, 32.20048872492627, -36.64759466694497, 14.07383307375163, -9.978524491671253], [-45.94001064454415, -19.759655829060602, -10.744221182131042, -10.027524945624812, -40.06592060601669, 16.5603419146767, 15.166422311692548, 27.00540461832741, -21.875942882722832], [-31.602807257299585, 5.098666272521811, -2.1584576552086547, 34.01969278446488, 12.228153535621871, -18.789778709495547, -31.977637024714795, -21.18072342452186, 48.81338897324165], [55.720652326990255, -22.308093031524113, 4.703219891892926, 4.86297815245353, -41.53175551696266, -44.761545432714044, 19.57048611873311, 10.35774797064307, -5.280828023276104], [-33.5421492820466, -6.523211339203785, 1.4184034668113148, 28.448384539457233, 33.34102315862532, -6.4387896275295295, 30.519219433135973, -35.47012821444516, 16.952880099272342], [-10.772678348779706, -4.822937736238067, 11.455046669045199, -4.529515264019938, -15.068132658591537, -18.09258354144025, 79.34398821313876, -76.31739359884554, 18.77425481631735], [23.548675163606752, -2.94152798887145, 26.668384251211982, 26.15390846384415, -24.503504031674378, -26.946492179453713, -11.024626622589594, -48.87508302317744, -5.596309307227782]]], "networkBiases": [[-2.03814731005644, 3.183628404304641, 4.73588681229716, 1.5808286573187804, 4.705879851588249, -1.9232496101567609, 1.8519713508934823, 5.199513094746157], [-3.7698812208315853, 6.608580394304336, -2.8267305555892754, -2.209463436314486, 5.707632715025847, 2.5958403760124216, -1.4039347055420675, 3.3186821953058727, 2.367962318990682]]}