{"structure": [9, 8, 9], "networkWeights": [[[-0.6013489584438602, -43.90527845719585, -1.1061147872862331, 1.9701482295823127, 0.9197363193739105, 25.250711445826795, 9.124715203230496, 51.195709952806304], [-3.992646574326593, -1.6603811315365422, -14.066535789289068, -13.71964011769836, -7.25877312090703, -19.85499748945235, -18.177203662287237, -23.61875967736424], [-12.379795593783914, -4.182006429544624, 5.22747269087615, -13.69736531693708, -7.732369676789808, -6.577678075693358, 35.11962360828646, -9.42745587526096], [44.67324155029476, 18.75213454558914, 10.869767697480455, -13.772330923655227, 20.329500799417378, -0.9385617299408204, -7.7220100066182376, 53.00396954991251], [-34.753044467448376, -4.6545286050814845, -36.567099360221846, -2.240477613817079, -16.460617079014348, 17.688771526941267, 3.973703911954669, 31.1407520775559], [2.0636201944845123, -26.123439143365584, 47.4062529135778, -13.643584534225965, 19.271515596322594, -28.4667885050386, 4.338483630895459, 40.84983285016702], [-11.693846404806061, 29.10898127438105, -30.096017707399746, 32.41299476264317, 26.20600545952522, -30.26629003037429, -13.43593377142653, 25.003026445415287], [-35.23083691066637, 42.476938714049105, -23.80897484918653, 27.9561052089339, -1.1715339536142615, 0.17660088517612704, 2.3808741094985555, -18.058456303758632], [-15.477352162242386, 22.54377507194819, 69.7975718211196, -20.988423738052493, 7.73868100364595, -21.97624134356371, -16.416707168175698, -22.799411413204407]], [[2.4700108337487015, -39.439281637738226, -15.037706447499142, -14.153054446052248, -41.04236429611337, -1.3774724039238424, -1.529939187436127, -4.471146894618026, -22.188613042018222], [7.723961504390257, -0.6734760787371568, -17.393734327452687, -44.19579243305306, 51.941704482652305, 32.21952059318455, -36.59030557145757, 14.188269725617864, -9.978524491671253], [-45.94001064454415, -19.80868280330771, -10.73336028934863, -9.9584496969896, -40.05986336925379, 16.585174651218814, 15.163528401239713, 27.09379402290524, -21.875942882722832], [-31.602807257299585, 5.064150691561119, -2.163033113628029, 33.985343745992246, 12.266717705320914, -18.758131066592206, -31.977637024714795, -21.203811734546484, 48.819412638888764], [55.720652326990255, -22.32065810762364, 4.703219891892926, 4.891185778584151, -41.49737884811925, -44.7335200632947, 19.51922653120475, 10.35774797064307, -5.231115723604697], [-33.60270792024099, -6.559151622555509, 1.4250946989376443, 28.43462683831146, 33.335340848961664, -6.4387896275295295, 30.526944344442537, -35.411508046157685, 17.003480834834072], [-10.75925740274219, -4.8196240422033405, 11.480108838447027, -4.529515264019938, -15.042885215528894, -18.09258354144025, 79.42195903506871, -76.27827033174022, 18.744976344326428], [23.548675163606752, -2.8970078306082545, 26.751728215054523, 26.12552625801046, -24.503504031674378, -26.931424328468374, -11.024626622589594, -48.87141419885626, -5.596309307227782]]], "networkBiases": [[-2.098066622120484, 3.13287336354996, 4.80749797130974, 1.7928653857554666, 4.728978471537668, -2.02774953435285, 1.7962805221199596, 5.171638211200527], [-3.6280670970394495, 6.686271856901002, -2.8052221835108733, -2.1345782456062143, 5.680259881181465, 2.5728394798950007, -1.2820677457262522, 3.330957498002532, 2.49642290304501]]}