{"structure": [9, 8, 9], "networkWeights": [[[-0.6013489584438602, -43.90527845719585, -1.1450724385746247, 1.9302314502625633, 0.8827469362752015, 25.250711445826795, 9.090368228590462, 51.195709952806304], [-3.992646574326593, -1.6603811315365422, -14.066535789289068, -13.657722235896749, -7.216546297244915, -19.83249713321764, -18.177203662287237, -23.61875967736424], [-12.383366475986863, -4.1369697363608795, 5.22747269087615, -13.69736531693708, -7.732369676789808, -6.577678075693358, 35.11962360828646, -9.42745587526096], [44.67324155029476, 18.75213454558914, 10.884466926524299, -13.772330923655227, 20.356549855291753, -0.9385617299408204, -7.736843486545629, 53.00396954991251], [-34.753044467448376, -4.622126703021686, -36.567099360221846, -2.240477613817079, -16.470581184788664, 17.688771526941267, 3.973703911954669, 31.127369618663067], [2.0704901531765354, -26.123439143365584, 47.4062529135778, -13.643584534225965, 19.271515596322594, -28.4667885050386, 4.326388377321579, 40.80533313968173], [-11.693846404806061, 29.10898127438105, -30.096017707399746, 32.41299476264317, 26.215212333405244, -30.26629003037429, -13.43593377142653, 25.01543524397085], [-35.23083691066637, 42.476938714049105, -23.771974168243982, 27.909950711940244, -1.2425245885603364, 0.17660088517612704, 2.3895168021114075, -18.06033311638139], [-15.477352162242386, 22.54377507194819, 69.76131690126749, -20.983998253017344, 7.691794559554763, -21.97624134356371, -16.416707168175698, -22.799411413204407]], [[2.4700108337487015, -39.439281637738226, -15.037706447499142, -14.153054446052248, -41.04236429611337, -1.3604594939516177, -1.529939187436127, -4.471146894618026, -22.188613042018222], [7.69611460897908, -0.6734760787371568, -17.393734327452687, -44.16638825005958, 51.92167015869269, 32.19997804503055, -36.62481856999048, 14.083172313163987, -9.978524491671253], [-45.94001064454415, -19.759655829060602, -10.780083545622468, -9.998201419117656, -40.10332554632848, 16.585174651218814, 15.158550435546044, 27.09379402290524, -21.875942882722832], [-31.602807257299585, 5.064150691561119, -2.163033113628029, 33.985343745992246, 12.291543850686926, -18.758131066592206, -31.977637024714795, -21.203811734546484, 48.779656796304444], [55.755516080509025, -22.32065810762364, 4.703219891892926, 4.853854407960135, -41.49737884811925, -44.726795642706406, 19.51922653120475, 10.35774797064307, -5.230672975196916], [-33.60270792024099, -6.559151622555509, 1.4250946989376443, 28.45727976850648, 33.335340848961664, -6.4387896275295295, 30.526944344442537, -35.39164631132127, 17.00268344843581], [-10.772678348779706, -4.825162702055944, 11.480108838447027, -4.529515264019938, -15.042885215528894, -18.09258354144025, 79.4113855965407, -76.27827033174022, 18.751503589707777], [23.548675163606752, -2.8970078306082545, 26.71223879060258, 26.11037702111287, -24.503504031674378, -26.931424328468374, -10.990281442520493, -48.88156086725406, -5.596309307227782]]], "networkBiases": [[-2.176133529822014, 3.083960241568083, 4.831440376512164, 1.77319685591695, 4.7721346708314485, -1.9180267110306506, 1.8007966005528109, 5.128204189660864], [-3.703056887868519, 6.629939679738464, -2.810564132127324, -2.1235553171382398, 5.686556203591386, 2.6154974889384492, -1.2869194693196464, 3.4187622340416843, 2.4565433135505184]]}