{"structure": [9, 8, 9], "networkWeights": [[[-0.5618242169132156, -43.870519589556515, -1.2131706973567842, 1.8250245593194188, 0.8615935505402297, 25.234315154615196, 9.13688481543591, 51.03661170309075], [-3.9929217986652836, -1.7621051662902318, -14.090669685254257, -13.73488412849336, -7.341642576869034, -19.886818024474948, -18.134466477919833, -23.60245155585823], [-12.45265860722504, -4.182916735766584, 5.21536633201575, -13.613147029648937, -7.722932683969874, -6.519390762862087, 35.10175973796109, -9.48258286861729], [44.79644734700528, 18.74274333729727, 10.789238247502617, -13.69960613054323, 20.300051574911155, -0.9834049594444155, -7.730510396053386, 53.07117891695238], [-34.73119380770658, -4.781353619416757, -36.46295954371024, -2.247670057924286, -16.45484151422023, 17.66346086770938, 4.0506741216203, 31.04834844055318], [1.93393845820692, -26.175729596492104, 47.440939177509364, -13.697525013666874, 19.283914245400236, -28.354450115163257, 4.305878440819871, 40.75583616741741], [-11.60744888997168, 29.12350861287188, -30.216657743730554, 32.42676176950738, 26.291846549304957, -30.360683155970385, -13.518450657449684, 24.898097707749624], [-35.22986943582576, 42.428745185862205, -23.65792894167535, 27.9757000250718, -1.1813225836802783, 0.1902828563144544, 2.322960819446996, -18.06437596692306], [-15.51676375190419, 22.56497277584371, 69.72816550184724, -20.945099801651498, 7.729263070164473, -21.897815913678855, -16.504648629573172, -22.642930397931583]], [[2.49190578361224, -39.42873738752861, -15.002213424672513, -14.09250294483143, -41.09003913696611, -1.3107222893809904, -1.6014228655367797, -4.586296461463984, -22.247538833089322], [7.719910067317008, -0.7920605008704578, -17.416014038859096, -44.12401864399821, 51.90842982163299, 32.259864123457966, -36.68391435555373, 13.967494475900905, -9.965329137031581], [-45.89677601064784, -19.814047965756544, -10.771804018088345, -9.993118629760113, -40.037172689140625, 16.57048244121531, 15.162582764541321, 27.061282663866667, -21.795634360910526], [-31.52371605615949, 5.037136460384556, -2.2625366476045436, 33.950639118214944, 12.270118768108972, -18.75176465856207, -31.9508336468024, -21.299421800221445, 48.7654062922867], [55.73804529117288, -22.451775155055092, 4.725089831647003, 4.851612579293482, -41.520822557409595, -44.76665450920454, 19.655715388313784, 10.245055410569051, -5.323563309908545], [-33.635592693643, -6.544579409287828, 1.3812159156749213, 28.387275423380636, 33.25590423906676, -6.403352549607215, 30.74378128713469, -35.54697760228267, 16.97291843043855], [-10.73320509558917, -4.769742668045734, 11.430246304563875, -4.566089493055619, -15.131852089244216, -18.105991198630452, 79.33190305350634, -76.31242738339157, 18.813517100275018], [23.520395707546907, -2.8001820021436608, 26.63209030883196, 26.154220367913805, -24.505142950562316, -26.91967321832714, -11.05671745699544, -48.88403749724078, -5.490309819053537]]], "networkBiases": [[-2.217022155200062, 3.3451894765434957, 4.97306703755779, 1.6536449302167693, 4.64053495496216, -1.8453991596082855, 1.6994387460130287, 5.204850165089919], [-3.846311522311528, 6.543156493516144, -2.9618503375191123, -1.7545637757990513, 5.7092925923132976, 2.2721832474712933, -1.4023656767850248, 3.31168977858809, 2.509880047274665]]}