{"structure": [9, 8, 9], "networkWeights": [[[-0.5618242169132156, -43.870519589556515, -1.2131706973567842, 1.8250245593194188, 0.8863051271591494, 25.270042984548503, 9.13688481543591, 51.03661170309075], [-3.9929217986652836, -1.7621051662902318, -14.090669685254257, -13.73488412849336, -7.341642576869034, -19.886818024474948, -18.16470368309675, -23.60245155585823], [-12.45265860722504, -4.182916735766584, 5.21536633201575, -13.613147029648937, -7.722932683969874, -6.519390762862087, 35.10175973796109, -9.48258286861729], [44.82362764908561, 18.76401021848597, 10.789238247502617, -13.69960613054323, 20.300051574911155, -0.9834049594444155, -7.730510396053386, 53.07117891695238], [-34.73119380770658, -4.781353619416757, -36.46295954371024, -2.247670057924286, -16.45484151422023, 17.66346086770938, 4.044569399314952, 31.06070510627845], [1.93393845820692, -26.210126751996906, 47.440939177509364, -13.697525013666874, 19.25908422165096, -28.354450115163257, 4.305878440819871, 40.75583616741741], [-11.598219661992047, 29.12350861287188, -30.197803714963136, 32.42676176950738, 26.291846549304957, -30.360683155970385, -13.518450657449684, 24.898097707749624], [-35.22986943582576, 42.428745185862205, -23.65792894167535, 27.9757000250718, -1.1813225836802783, 0.1902828563144544, 2.322960819446996, -18.06437596692306], [-15.51676375190419, 22.565905010781876, 69.72816550184724, -20.945099801651498, 7.729263070164473, -21.85687627965308, -16.504648629573172, -22.680749714323074]], [[2.49190578361224, -39.42873738752861, -15.002213424672513, -14.09250294483143, -41.10613512348432, -1.3107222893809904, -1.6014228655367797, -4.586296461463984, -22.247538833089322], [7.72979716252278, -0.7920605008704578, -17.416014038859096, -44.130857402649504, 51.90842982163299, 32.259864123457966, -36.68391435555373, 13.967494475900905, -9.965329137031581], [-45.89677601064784, -19.814047965756544, -10.788894320753464, -9.993118629760113, -40.037172689140625, 16.530963182362488, 15.162582764541321, 27.061282663866667, -21.795634360910526], [-31.52371605615949, 5.037136460384556, -2.2625366476045436, 33.94327862876914, 12.270118768108972, -18.75176465856207, -31.9508336468024, -21.299421800221445, 48.7654062922867], [55.73804529117288, -22.451775155055092, 4.725089831647003, 4.851612579293482, -41.520822557409595, -44.76665450920454, 19.655715388313784, 10.245055410569051, -5.313252860406558], [-33.635592693643, -6.544579409287828, 1.3803473465573814, 28.387275423380636, 33.25590423906676, -6.403352549607215, 30.74378128713469, -35.577644120154176, 16.97291843043855], [-10.718803949314957, -4.769742668045734, 11.430246304563875, -4.566089493055619, -15.131852089244216, -18.105991198630452, 79.33190305350634, -76.33632229174852, 18.813517100275018], [23.520395707546907, -2.8210535106520416, 26.63209030883196, 26.154220367913805, -24.463506968303143, -26.91967321832714, -11.099081533445528, -48.88403749724078, -5.490309819053537]]], "networkBiases": [[-2.217022155200062, 3.362631440830113, 4.97306703755779, 1.5809898822856647, 4.605106561139114, -1.8035427205016283, 1.6994387460130287, 5.204850165089919], [-3.8271899797611693, 6.502592463128836, -3.001561941177734, -1.688871409055155, 5.7092925923132976, 2.282068208897537, -1.388982818396441, 3.3330324360145513, 2.465026915745616]]}