{"structure": [9, 8, 9], "networkWeights": [[[-0.5618242169132156, -43.870519589556515, -1.2131706973567842, 1.794345087166597, 0.8863051271591494, 25.270042984548503, 9.118337030152645, 51.03661170309075], [-3.9929217986652836, -1.72496676081775, -14.090669685254257, -13.70510086476545, -7.341642576869034, -19.886818024474948, -18.16470368309675, -23.642933674736216], [-12.45265860722504, -4.182916735766584, 5.219637670657265, -13.613147029648937, -7.722932683969874, -6.519390762862087, 35.10175973796109, -9.436869378771416], [44.79644734700528, 18.76401021848597, 10.789238247502617, -13.69960613054323, 20.300051574911155, -0.9834049594444155, -7.730510396053386, 53.11677799716842], [-34.73119380770658, -4.781353619416757, -36.46295954371024, -2.247670057924286, -16.45484151422023, 17.66346086770938, 4.044569399314952, 31.04834844055318], [1.9800686421064146, -26.175729596492104, 47.440939177509364, -13.697525013666874, 19.25908422165096, -28.354450115163257, 4.305878440819871, 40.75583616741741], [-11.585863359475704, 29.12350861287188, -30.216657743730554, 32.42676176950738, 26.291846549304957, -30.360683155970385, -13.518450657449684, 24.898097707749624], [-35.22986943582576, 42.428745185862205, -23.66374381373862, 27.9757000250718, -1.1813225836802783, 0.1902828563144544, 2.322960819446996, -18.06437596692306], [-15.51676375190419, 22.565905010781876, 69.72816550184724, -20.945099801651498, 7.729263070164473, -21.85687627965308, -16.504648629573172, -22.680749714323074]], [[2.49190578361224, -39.42873738752861, -15.002213424672513, -14.09250294483143, -41.10613512348432, -1.3107222893809904, -1.6014228655367797, -4.586296461463984, -22.247538833089322], [7.719910067317008, -0.7920605008704578, -17.416014038859096, -44.12401864399821, 51.90842982163299, 32.259864123457966, -36.68391435555373, 13.973124682862526, -9.965329137031581], [-45.89677601064784, -19.85868097779655, -10.788894320753464, -9.993118629760113, -40.037172689140625, 16.57048244121531, 15.186557717128625, 27.01595751478272, -21.795634360910526], [-31.484196631350656, 5.037136460384556, -2.2904709459698784, 33.950639118214944, 12.282791062637404, -18.75176465856207, -31.9508336468024, -21.2407759153971, 48.7654062922867], [55.72426275574708, -22.418884867283026, 4.725089831647003, 4.890636776485027, -41.520822557409595, -44.76665450920454, 19.655715388313784, 10.245055410569051, -5.313252860406558], [-33.635592693643, -6.536476316184049, 1.3803473465573814, 28.387275423380636, 33.262801150786956, -6.4147772870659825, 30.74378128713469, -35.54697760228267, 16.97291843043855], [-10.73320509558917, -4.769742668045734, 11.430246304563875, -4.599379665044737, -15.131852089244216, -18.105991198630452, 79.33190305350634, -76.31242738339157, 18.813517100275018], [23.520395707546907, -2.828756892048972, 26.63209030883196, 26.154220367913805, -24.505142950562316, -26.912023211720516, -11.05671745699544, -48.88403749724078, -5.490309819053537]]], "networkBiases": [[-2.217022155200062, 3.3781672746508455, 4.97306703755779, 1.4801198474354742, 4.563570162337728, -1.8099795822355735, 1.7002653898117595, 5.204850165089919], [-3.8536087961002967, 6.535420338741628, -2.947487286800142, -1.6675479477659587, 5.779786887915964, 2.312736747344787, -1.3468604460260225, 3.30526021060722, 2.475272584666986]]}