{"structure": [9, 8, 9], "networkWeights": [[[-0.5821353655997189, -43.85432632313973, -1.1922144572260793, 1.8098631345088425, 0.8306882897204593, 25.29980244186659, 9.112285949530113, 51.03669584408775], [-3.935325348711778, -1.9085959150669118, -14.03692156811995, -13.734024331164905, -7.1829477454428545, -19.881078812485995, -18.217445429740106, -23.627276943579073], [-12.581771166120914, -4.188282110021551, 4.993589778555688, -13.641000762628348, -7.816096464258043, -6.4345870006925665, 34.873425191962454, -9.519969518509434], [44.751936591219085, 18.78369520095752, 10.856897174774332, -13.847500019695886, 20.275722970523237, -1.0731691506020278, -7.85129447202566, 53.10369866686064], [-34.72054176697685, -4.701660045153559, -36.461789915752895, -2.296178388049652, -16.275233864071318, 17.63201044988804, 4.007483616061558, 31.072688894671987], [1.8833456265817883, -26.218643671708307, 47.36798188456471, -13.681939338847505, 19.2071389001343, -28.297393164275757, 4.1879435887045275, 40.827035895100266], [-11.551670857842554, 29.047850950338315, -30.190503854945103, 32.56164251754016, 26.40321568355544, -30.47730700235648, -13.616544637360722, 24.899070252454162], [-35.168947987080436, 42.43994047353326, -23.641581132464516, 27.935017887761184, -1.1112429306927212, 0.15313714657772073, 2.3184463789608305, -18.067746150939108], [-15.458369673461249, 22.472426790831275, 69.74704563039732, -20.974558698015716, 7.71784744045715, -21.99445275285438, -16.49775050297331, -22.723642808093917]], [[2.5087118171704317, -39.56629111122325, -15.027961307607164, -14.13443460841934, -41.020317550307766, -1.2689092256076726, -1.6732951042384547, -4.58860289630126, -22.384464874879917], [7.754512466432271, -0.7081591864294401, -17.432215824851845, -44.14288484677299, 51.88158908252939, 32.23298240292134, -36.66098842137088, 14.011469862257751, -9.970151127641465], [-45.771184821230946, -20.04778486959874, -10.784555123838855, -10.061408256702686, -40.05286953224383, 16.45205497765257, 14.949460355229805, 27.06858837322494, -21.89694245669784], [-31.50948256342286, 5.108451112237139, -2.303185802789323, 34.0054340349381, 12.251831559848647, -18.78602706619884, -31.88509725826282, -21.29709587721765, 48.769600948097015], [55.637998145987886, -22.351114044340424, 4.710855130145091, 4.8128254182410855, -41.428690594182626, -44.98511189446668, 19.59264353498989, 10.289909946189233, -5.348827457039037], [-33.57212767940214, -6.49982532333939, 1.2639397838711077, 28.42445925711509, 33.2855451558408, -6.3558740602432096, 30.756391677591445, -35.58722425631, 16.980969927693753], [-10.69844649825439, -4.902621941340189, 11.463661452017869, -4.678477321449007, -15.141989924125884, -18.232848904304575, 79.28301403851316, -76.2237376555918, 18.678793006014786], [23.51034604592693, -2.731009715865545, 26.62518240372602, 26.200479288508653, -24.620664561751525, -27.049144166628576, -11.04438907297483, -49.04655050326776, -5.454209464207057]]], "networkBiases": [[-2.4097687230853353, 3.171385199192587, 4.927205611192216, 1.323015797950344, 4.586961287175242, -1.4826546381631358, 1.6576104259937599, 5.371258565238992], [-4.017601524594389, 6.706332489638451, -2.78654338887843, -1.454728712707143, 5.600019296557341, 2.4748541220355307, -1.697351969907471, 2.8548454450810836, 2.2521112476654137]]}