{"structure": [9, 8, 9], "networkWeights": [[[-1.600672377361454, -43.80993250270616, -1.2509582143732845, 1.4246527542481826, 0.7317143592260775, 24.940026010905537, 9.068831991138614, 51.814075957428045], [-4.513234865016768, -1.7159802178155814, -14.473973477393942, -13.588042262364851, -7.662088432715542, -19.957715177980514, -18.583236538026856, -23.845365163700176], [-13.118886468803483, -3.75269438026746, 4.759819518872891, -13.158623425997483, -8.65278383876237, -6.4307108248928095, 34.905523644147436, -9.373440023581304], [44.38973958189088, 19.086869390350763, 10.513983334796386, -13.860333555466374, 20.25828504252373, -1.0430917651066787, -7.334528727488624, 52.890158274947986], [-34.99776884777829, -4.858260047741396, -36.50195683350408, -2.993162473906358, -17.01082482295786, 18.088490063405775, 4.11514333359949, 31.303361050163662], [1.7023529104480857, -26.725846728887703, 47.02335367929972, -13.63671758523664, 18.946683029449524, -28.768458191686307, 4.841843168737134, 41.608707143606466], [-11.570413923433588, 29.5212904478872, -29.6915536964248, 32.471505315898156, 26.069698784780414, -30.533531349995283, -13.88280812533836, 24.376078796385908], [-34.589306186181645, 42.803706253678, -23.553946970586917, 27.71898460706934, -1.2932636555097772, 0.0655409328091845, 2.1142579232910768, -17.723027041272594], [-15.385721432120535, 21.93622500619963, 69.8868112316193, -20.81127487963653, 7.630700173114272, -22.21466533858408, -16.99784160737817, -23.186079273662564]], [[2.148740661667259, -39.82431720119019, -15.184693172084618, -14.241786559537319, -39.66908227219834, -1.6837743367380138, -2.1792563122559137, -4.429708312522625, -22.204912532415836], [7.710883159813643, 0.06934891911390711, -17.237732765256954, -43.75720703920097, 51.83123524227481, 32.06994046740335, -36.39240331522076, 13.832896437647715, -9.902639376800094], [-44.94808627106312, -19.546935131759138, -9.98364718103856, -10.147503047762564, -40.14380353238146, 16.230041893572583, 14.747275047932431, 26.892894949767843, -21.29442145359806], [-30.637164378396843, 5.826037954513826, -2.781164335169338, 34.30495804090295, 11.960984511409062, -18.547063929024716, -31.979386658954375, -21.41567744444804, 49.77846249280311], [55.93606376582054, -22.600761568420513, 4.233130668172282, 4.551655254953052, -41.42751856928463, -44.4492752951329, 19.508047755660474, 9.455689056436398, -5.0310087963043], [-33.8002086128549, -6.538522460319597, 0.7547916041857372, 28.442328803903358, 32.91286493583806, -6.193675684174424, 30.68269934787488, -35.74765056085846, 17.26706169344194], [-10.939089550153788, -4.892177577845518, 12.063961166856258, -4.966131871000305, -15.089029884780814, -18.277970624863936, 79.31744169148243, -76.50251499758365, 18.096402438492373], [23.39236939584165, -3.2924024887543206, 26.19261999919674, 26.02356513128816, -24.067091743133336, -26.539382126248615, -11.19217031962862, -48.884671854240956, -5.329655275734669]]], "networkBiases": [[-2.2890621807621523, 3.2316962348319365, 3.5652521395109154, 2.4533346360082082, 3.2709290362877326, -0.7697320417840943, 1.8494829674698732, 5.487460526227134], [-4.687929160819861, 6.356592844190685, -1.5004851214880202, -2.017924615978793, 5.633603193970899, 3.0513189861472334, -2.9797330471061567, 1.9134116338107179, 2.4849479594888755]]}