{"structure": [9, 8, 9], "networkWeights": [[[-0.5691446936102782, -43.85432632313973, -1.1556075280887816, 1.8074544578373422, 0.8181327725418038, 25.283247512239818, 9.14277603601944, 51.05791724200833], [-3.989458085270127, -1.8818907951184642, -13.96890122453239, -13.762990327615181, -7.210772306565607, -19.911565296598162, -18.16470368309675, -23.607702018576724], [-12.59465281825574, -4.177271878246035, 5.039396240637447, -13.641000762628348, -7.737506177124493, -6.448453628108681, 34.92293445926072, -9.535493519425597], [44.84801632269943, 18.814411587059812, 10.783429227910469, -13.855648357149281, 20.234310955947244, -1.0731691506020278, -7.836658543218357, 53.02513979396157], [-34.75466760463866, -4.758535507550263, -36.461789915752895, -2.264567670558394, -16.28697402628094, 17.68369735197881, 4.025074214430875, 31.064239766539902], [1.9681712838640002, -26.269108988867277, 47.416326148386055, -13.666711390740529, 19.2071389001343, -28.297393164275757, 4.180191691468444, 40.82826199081427], [-11.524990038682214, 29.057892578323006, -30.237713350086203, 32.52563607238812, 26.351615995541085, -30.454207057660724, -13.616544637360722, 24.946668613704684], [-35.194067104447456, 42.39053025634684, -23.65871724707409, 27.939163170038277, -1.1011753174143497, 0.15313714657772073, 2.338884825499319, -18.09314339128354], [-15.495358118668525, 22.561117136935597, 69.74704563039732, -20.955227239487424, 7.653062939781438, -21.96609235341039, -16.44336557649092, -22.8021494379634]], [[2.4627132475731415, -39.49960251869129, -14.970987056474835, -14.085284852452704, -41.06789976412567, -1.2802277731702907, -1.6338037342030634, -4.5631553777325315, -22.345929112830806], [7.7246100300447225, -0.691667080952492, -17.40257924253379, -44.154960357776325, 51.87188189613514, 32.23339966414329, -36.687268731038095, 14.040379438674396, -9.98848991812188], [-45.78355957530609, -19.976093315102723, -10.75941145724479, -10.041126463843385, -40.00147229136731, 16.542849444345688, 14.9687837016381, 27.06858837322494, -21.826161035039352], [-31.546387006970303, 5.061788842403389, -2.26812398212838, 33.99471203981596, 12.272318385524164, -18.789885779649982, -31.851637691677237, -21.277216498696852, 48.68521782393833], [55.62443830656147, -22.32865608238141, 4.759436941518613, 4.856321419384912, -41.50416149072769, -44.85563393670997, 19.593412263719802, 10.339233455885251, -5.32078187410272], [-33.594940370719165, -6.5375838028373465, 1.3216422269628763, 28.42445925711509, 33.23070046516398, -6.369517518800712, 30.71761786444997, -35.55545076158603, 16.92833346808876], [-10.659069864997333, -4.86479441256884, 11.463204236527936, -4.595462791482146, -15.126441727636687, -18.144622115444573, 79.31049450742508, -76.31016447361702, 18.713680901290036], [23.4507264394898, -2.7954099282491187, 26.628746986888867, 26.16144454221008, -24.54800517879671, -26.952146364557162, -11.05968916979487, -48.970807826390555, -5.462543825872742]]], "networkBiases": [[-2.260655364605819, 3.205095972103448, 4.854504706784644, 1.4495999015115653, 4.634230552691965, -1.610167116615942, 1.4963742862657077, 5.140826238312245], [-4.120032890905059, 6.736502617224298, -2.7448421275648376, -1.684276654125375, 5.743371528288956, 2.4243016146634515, -1.414358407747586, 2.7160086080622525, 2.3783507802941695]]}