{"structure": [9, 8, 9], "networkWeights": [[[-0.5641685996286011, -43.85432632313973, -1.1922144572260793, 1.8098631345088425, 0.8562034045990286, 25.29980244186659, 9.112285949530113, 51.03669584408775], [-3.935325348711778, -1.9330010166094447, -14.03692156811995, -13.734024331164905, -7.1829477454428545, -19.881078812485995, -18.229016381463275, -23.6104298060494], [-12.625369817804932, -4.188282110021551, 4.993589778555688, -13.641000762628348, -7.816096464258043, -6.4345870006925665, 34.873425191962454, -9.530934555716701], [44.751936591219085, 18.824464116213623, 10.847136854777549, -13.8152672546104, 20.297594061829347, -1.0731691506020278, -7.831993561882073, 53.10369866686064], [-34.674399294872586, -4.701660045153559, -36.45144820529686, -2.3000540868390003, -16.22970028085931, 17.621986387632194, 4.007483616061558, 31.072688894671987], [1.8737422616959662, -26.20186261532107, 47.32069334683475, -13.681939338847505, 19.21177647978948, -28.325543366973843, 4.1918785899623225, 40.827035895100266], [-11.551670857842554, 29.047850950338315, -30.190503854945103, 32.56164251754016, 26.40321568355544, -30.509948546381793, -13.587708291495654, 24.930543509097802], [-35.16839186430182, 42.43994047353326, -23.63973874811562, 27.947963606167928, -1.1112429306927212, 0.179934783099699, 2.367867701654535, -18.07557087744305], [-15.499733641128538, 22.42824514827352, 69.74704563039732, -20.96521638484847, 7.758271759309829, -21.964577018502997, -16.47568891546026, -22.723642808093917]], [[2.5087118171704317, -39.65832449071671, -15.069316160474331, -14.142626962000737, -41.00465626481432, -1.2689092256076726, -1.7083254036801085, -4.557451221598753, -22.34473783199004], [7.754512466432271, -0.7081591864294401, -17.432215824851845, -44.14288484677299, 51.88158908252939, 32.23298240292134, -36.700295959205015, 13.9466904752012, -9.982461218598907], [-45.771184821230946, -19.999372402514435, -10.77907132326737, -10.090765525167273, -40.05286953224383, 16.45205497765257, 14.949460355229805, 27.06858837322494, -21.89694245669784], [-31.50948256342286, 5.108451112237139, -2.254100485134549, 33.98289474702625, 12.251831559848647, -18.779148496231336, -31.90944849689648, -21.34483181907939, 48.77475354721432], [55.63424403401099, -22.30276738334261, 4.710855130145091, 4.8128254182410855, -41.428690594182626, -45.041105125234786, 19.635781083193088, 10.289909946189233, -5.348827457039037], [-33.58777752142631, -6.49982532333939, 1.2639397838711077, 28.444720214312127, 33.307404320252274, -6.35573708045663, 30.756391677591445, -35.63472197186825, 16.980969927693753], [-10.69844649825439, -4.902621941340189, 11.463661452017869, -4.710509750726825, -15.141989924125884, -18.272761221491475, 79.28301403851316, -76.2237376555918, 18.68841421483281], [23.51034604592693, -2.731009715865545, 26.62518240372602, 26.18498172053088, -24.66319336104511, -27.089049822921233, -11.04438907297483, -48.97528281682899, -5.454209464207057]]], "networkBiases": [[-2.266909282817638, 3.305755356957475, 4.930148943795072, 1.2703469583436233, 4.6583485854492634, -1.6031806925144865, 1.6837564830556395, 5.341639223500771], [-4.220511394439998, 6.707167118841145, -2.791253626310329, -1.596092653393732, 5.688533728381898, 2.399526062471201, -1.7743022636035581, 2.7214269982349593, 2.1731235092180623]]}