{"structure": [9, 8, 9], "networkWeights": [[[-0.5618242169132156, -43.82779198742791, -1.1726508849683497, 1.760810514789629, 0.9329323520722159, 25.268236136747333, 9.118337030152645, 51.03661170309075], [-3.999739201214888, -1.72496676081775, -14.029091303756575, -13.727664364527662, -7.298679523737846, -19.857459930373892, -18.146694775368125, -23.61113677678058], [-12.440837782015794, -4.1725289118361015, 5.219637670657265, -13.613147029648937, -7.748595958732447, -6.4938648386234075, 35.10175973796109, -9.436869378771416], [44.82809538301916, 18.76401021848597, 10.844714182002871, -13.69960613054323, 20.295020924152144, -0.9568714094236092, -7.757606184483062, 53.11677799716842], [-34.72458539137382, -4.781353619416757, -36.46295954371024, -2.247670057924286, -16.49632215669957, 17.66346086770938, 4.044569399314952, 31.04834844055318], [1.9800686421064146, -26.175729596492104, 47.40037771909585, -13.733048164609821, 19.269999049944907, -28.354450115163257, 4.313487238937912, 40.78070263096351], [-11.60325956072443, 29.12350861287188, -30.220657427048234, 32.42583417764517, 26.277402371573338, -30.360683155970385, -13.589622670763122, 24.94067538138875], [-35.22986943582576, 42.428745185862205, -23.66374381373862, 27.981763054879277, -1.1813225836802783, 0.19360189791447904, 2.322960819446996, -18.06437596692306], [-15.476739761285975, 22.55094710711195, 69.72816550184724, -20.945099801651498, 7.729263070164473, -21.899803882766097, -16.504648629573172, -22.680749714323074]], [[2.498593714202258, -39.41931732909789, -14.997095661795772, -14.074166180604344, -41.11612560380389, -1.2843816388450824, -1.5888193150344379, -4.602808303396833, -22.282887384016675], [7.719910067317008, -0.7469910466183575, -17.398883712308745, -44.129389232269624, 51.90842982163299, 32.259864123457966, -36.68391435555373, 14.011049096036876, -9.965329137031581], [-45.96988442130183, -19.865722441846007, -10.788894320753464, -9.94852086270733, -40.037172689140625, 16.57048244121531, 15.231815213301171, 27.01595751478272, -21.87380351261601], [-31.484196631350656, 5.0806868846929545, -2.2904709459698784, 33.994004250924576, 12.270118768108972, -18.75176465856207, -31.977095464769544, -21.2407759153971, 48.7654062922867], [55.75807299977253, -22.439061070608513, 4.7158484574184705, 4.890636776485027, -41.520822557409595, -44.723520251887955, 19.624878230656442, 10.245055410569051, -5.313252860406558], [-33.622201606262294, -6.536476316184049, 1.3803473465573814, 28.357694776305266, 33.262801150786956, -6.4147772870659825, 30.74378128713469, -35.52895262233286, 16.927366468764575], [-10.714669890801634, -4.769742668045734, 11.408000477394822, -4.590557850803338, -15.131852089244216, -18.090394570658773, 79.31894339723614, -76.29011416822738, 18.796651715238212], [23.520395707546907, -2.934441172363349, 26.621618227749302, 26.173094638651534, -24.505142950562316, -26.912023211720516, -11.05671745699544, -48.88403749724078, -5.521231664862835]]], "networkBiases": [[-2.1507480410354867, 3.433563624377118, 4.876118010615794, 1.6139026841563022, 4.705969427452677, -1.8452335342893853, 1.681866676669434, 5.198807754913657], [-3.847339927153633, 6.510796679004775, -2.9870342834909436, -1.7320602057344536, 5.705190068076601, 2.355507838173735, -1.2238503871333724, 3.2330775231688387, 2.3746897537305967]]}