{"structure": [9, 8, 9], "networkWeights": [[[-0.5618242169132156, -43.79531719352812, -1.1726508849683497, 1.760810514789629, 0.9329323520722159, 25.270042984548503, 9.118337030152645, 51.03661170309075], [-3.9921377022716316, -1.72496676081775, -14.029091303756575, -13.727664364527662, -7.341642576869034, -19.899767286729396, -18.146694775368125, -23.61113677678058], [-12.440837782015794, -4.1725289118361015, 5.219637670657265, -13.613147029648937, -7.748595958732447, -6.4938648386234075, 35.05638973745994, -9.436869378771416], [44.79644734700528, 18.76401021848597, 10.844714182002871, -13.69960613054323, 20.341900913122185, -0.9568714094236092, -7.757606184483062, 53.11677799716842], [-34.76526378464967, -4.781353619416757, -36.46295954371024, -2.247670057924286, -16.49632215669957, 17.66346086770938, 4.044569399314952, 31.04834844055318], [1.9800686421064146, -26.175729596492104, 47.40037771909585, -13.733048164609821, 19.269999049944907, -28.354450115163257, 4.313487238937912, 40.78070263096351], [-11.60325956072443, 29.12350861287188, -30.220657427048234, 32.42583417764517, 26.277402371573338, -30.360683155970385, -13.568390129160772, 24.94067538138875], [-35.22986943582576, 42.428745185862205, -23.67635761162934, 27.983497958638896, -1.1813225836802783, 0.19360189791447904, 2.3632726785380966, -18.06437596692306], [-15.476739761285975, 22.55094710711195, 69.72816550184724, -20.931200548505593, 7.729263070164473, -21.899803882766097, -16.504648629573172, -22.680749714323074]], [[2.498593714202258, -39.41931732909789, -15.002213424672513, -14.074166180604344, -41.11612560380389, -1.3280162820998767, -1.6199975225651502, -4.602808303396833, -22.282887384016675], [7.719910067317008, -0.7280687933998392, -17.398883712308745, -44.129389232269624, 51.91433376238095, 32.224083849828304, -36.661904629077064, 14.011049096036876, -9.965329137031581], [-45.938062775309916, -19.865722441846007, -10.788894320753464, -9.993118629760113, -40.037172689140625, 16.57048244121531, 15.231815213301171, 27.01595751478272, -21.87380351261601], [-31.484196631350656, 5.0806868846929545, -2.2904709459698784, 33.994004250924576, 12.270118768108972, -18.75176465856207, -31.977095464769544, -21.2407759153971, 48.7654062922867], [55.75807299977253, -22.439061070608513, 4.7329189929366, 4.890636776485027, -41.520822557409595, -44.76665450920454, 19.624878230656442, 10.245055410569051, -5.271837170702445], [-33.606996353802764, -6.536476316184049, 1.3803473465573814, 28.357694776305266, 33.235318639599114, -6.4147772870659825, 30.74378128713469, -35.52895262233286, 16.927366468764575], [-10.758510394596833, -4.769742668045734, 11.408000477394822, -4.590557850803338, -15.131852089244216, -18.090394570658773, 79.31894339723614, -76.31839622323501, 18.838781033224638], [23.484698686071532, -2.934441172363349, 26.664527022465272, 26.173094638651534, -24.52694823223032, -26.912023211720516, -11.05671745699544, -48.88403749724078, -5.521231664862835]]], "networkBiases": [[-2.105739353288324, 3.399285511861807, 4.906428182290241, 1.594307999072311, 4.690849014608146, -1.8141704108728327, 1.662298347828536, 5.228620600901488], [-3.8305618009081766, 6.527714368961665, -2.9870342834909436, -1.7259066561119913, 5.718965740488566, 2.3615186706545286, -1.2036436789064668, 3.2131710993464604, 2.3733305005059013]]}