{"structure": [9, 8, 9], "networkWeights": [[[-0.5124428883755953, -43.82632958007636, -1.1834284910922397, 1.7096052641335422, 0.8340208601164091, 25.16591814780672, 9.134989188621825, 51.03084444635133], [-3.932973642889881, -2.0752622187848973, -14.028457861158806, -13.686320423426924, -7.232899616090471, -19.88520030406424, -18.147474563660985, -23.6717089274663], [-12.659294323652807, -4.186835080539742, 5.040083047960541, -13.576859125665186, -7.8173897897563664, -6.324382874788811, 34.831072183052605, -9.63675370328226], [44.62233890283863, 18.760209110493687, 10.820812583476846, -13.87324348628841, 20.30093789053557, -1.0862849780234238, -7.839564339403652, 53.10369866686064], [-34.76101169518428, -4.678728776362514, -36.47930771929687, -2.4474889209470048, -16.318572026245715, 17.642505230533, 4.130512367209603, 31.057196097314428], [1.8793177766858222, -26.278982634415947, 47.368955233870686, -13.697316429104529, 19.27376388811686, -28.391982374708277, 4.131919950398499, 40.79437626852857], [-11.528149456099625, 29.081260395441216, -30.130136225900028, 32.5974992968505, 26.434205582636135, -30.532001346304543, -13.598170793996047, 24.947505926392925], [-35.16145016527591, 42.49290083269018, -23.649570099315135, 27.887701652992543, -1.1225520134048188, 0.17522259167932358, 2.329959912555298, -18.039040775310472], [-15.359684771578072, 22.38919481688685, 69.75892214099736, -20.937183364098267, 7.746727552704719, -21.96727574769082, -16.388035800006694, -22.768272315425595]], [[2.461751944864027, -39.502852853466045, -15.113622040794358, -14.108913825287848, -41.054507460493, -1.3269068800663564, -1.7953149046584005, -4.497469929623808, -22.39596498920482], [7.752774657762842, -0.5967398546374916, -17.45594564623584, -44.1675469321767, 51.853215481904854, 32.24151819694672, -36.67891224837765, 13.968184359343725, -10.098249001887773], [-45.771184821230946, -20.049180120609854, -10.77782752841172, -10.092534550097206, -40.126504573668235, 16.406026661657506, 15.08651005445843, 27.037639888321355, -21.89694245669784], [-31.601170324198353, 5.175826962951067, -2.282402203741656, 34.03034641068208, 12.249423041512742, -18.744168031133697, -31.876810799318775, -21.3449454173345, 48.7431355576393], [55.52814395603946, -22.338182772538612, 4.675883713189655, 4.770657237924999, -41.344825028942495, -44.975889521367186, 19.54550559288149, 10.244090576480287, -5.35850884459174], [-33.62384901153563, -6.439622136970816, 1.2204011119918492, 28.347913637255225, 33.32266565546703, -6.277779595269632, 30.780164471974764, -35.560776454616565, 17.007368148173562], [-10.737898272534391, -4.8346626152546195, 11.461119169666755, -4.5882512857197595, -15.163417142838163, -18.25845738499834, 79.29225718557069, -76.15462269211073, 18.70275412279066], [23.58892869774119, -2.7761948287344986, 26.676565091659867, 26.04527129027541, -24.66943818554715, -27.092389193203584, -11.147457928353024, -48.88634755372427, -5.553341921223807]]], "networkBiases": [[-2.388875192723357, 3.590462743647531, 4.9362392480431385, 1.4676888590627999, 4.591781033330329, -1.6353383206066854, 2.0259172952158853, 5.564299137470472], [-4.057278243315493, 6.565484081580856, -2.6259983791795998, -1.5539736907009898, 5.960459458887564, 2.267012221287213, -1.6974041147707897, 2.9778970178981483, 2.324736254260263]]}