{"structure": [9, 8, 9], "networkWeights": [[[-0.5124428883755953, -43.86885331119729, -1.1834284910922397, 1.7096052641335422, 0.8340208601164091, 25.16591814780672, 9.134989188621825, 51.07479384795832], [-3.932973642889881, -2.1094732336060553, -14.071881486638018, -13.686320423426924, -7.232899616090471, -19.88520030406424, -18.147474563660985, -23.6717089274663], [-12.631730997104542, -4.186835080539742, 5.02395697510589, -13.576859125665186, -7.8173897897563664, -6.324382874788811, 34.831072183052605, -9.591287263511147], [44.62233890283863, 18.760209110493687, 10.840033427028633, -13.87324348628841, 20.30093789053557, -1.0862849780234238, -7.84595082388102, 53.10369866686064], [-34.76101169518428, -4.678728776362514, -36.47930771929687, -2.4474889209470048, -16.318572026245715, 17.642505230533, 4.094684461675688, 31.057196097314428], [1.8793177766858222, -26.278982634415947, 47.368955233870686, -13.697316429104529, 19.27376388811686, -28.391982374708277, 4.131919950398499, 40.79437626852857], [-11.548417832827605, 29.12114439958888, -30.130136225900028, 32.55601276865434, 26.434205582636135, -30.532001346304543, -13.598170793996047, 24.947505926392925], [-35.16145016527591, 42.49290083269018, -23.649570099315135, 27.887701652992543, -1.1225520134048188, 0.17522259167932358, 2.329959912555298, -18.039040775310472], [-15.359684771578072, 22.38919481688685, 69.75892214099736, -20.937183364098267, 7.71132528566164, -21.96727574769082, -16.388035800006694, -22.768272315425595]], [[2.502474811547404, -39.53341927977811, -15.113622040794358, -14.108913825287848, -41.054507460493, -1.3269068800663564, -1.7953149046584005, -4.497469929623808, -22.39596498920482], [7.774377879620196, -0.6334836290768827, -17.45594564623584, -44.1675469321767, 51.853215481904854, 32.21366350056271, -36.66130958118134, 13.952134287142387, -10.098249001887773], [-45.771184821230946, -20.049180120609854, -10.783629429962218, -10.092534550097206, -40.126504573668235, 16.406026661657506, 15.08651005445843, 27.037639888321355, -21.89694245669784], [-31.601170324198353, 5.175826962951067, -2.282402203741656, 33.98289474702625, 12.249423041512742, -18.744168031133697, -31.876810799318775, -21.3449454173345, 48.7431355576393], [55.52814395603946, -22.338182772538612, 4.675883713189655, 4.819830157902219, -41.33046790916103, -44.975889521367186, 19.54550559288149, 10.244090576480287, -5.35850884459174], [-33.62384901153563, -6.488056525652796, 1.2204011119918492, 28.347913637255225, 33.28197233231038, -6.277779595269632, 30.780164471974764, -35.560776454616565, 17.007368148173562], [-10.737898272534391, -4.8346626152546195, 11.461119169666755, -4.5882512857197595, -15.163417142838163, -18.30342497455087, 79.29225718557069, -76.15462269211073, 18.70275412279066], [23.58892869774119, -2.7876994320212853, 26.676565091659867, 26.04527129027541, -24.66943818554715, -27.092389193203584, -11.147457928353024, -48.88634755372427, -5.553341921223807]]], "networkBiases": [[-2.3855300618874486, 3.628785689170688, 5.003982528011069, 1.4501146022305162, 4.610425108466887, -1.5566309202977227, 2.0257961191612885, 5.6012377262448245], [-4.060312086625014, 6.565484081580856, -2.7615027606327986, -1.5669950551875296, 5.959009203595413, 2.291091118997501, -1.6724976106224807, 2.975921631338685, 2.3774736661045544]]}