{"structure": [9, 8, 9], "networkWeights": [[[-0.5555990508915303, -43.842929922563364, -1.17158846011502, 1.794345087166597, 0.7799970349933062, 25.285350914013456, 9.126919832711295, 50.96847929344472], [-3.994184261441623, -1.82417035772998, -13.973822311205645, -13.797263643471116, -7.27953129224191, -19.8071090072529, -18.16470368309675, -23.639170852457056], [-12.518596440544382, -4.149385041407745, 5.13040166542305, -13.571743247176135, -7.750499047787976, -6.459772492737009, 35.00914014473291, -9.583144127118855], [44.79644734700528, 18.794617816554126, 10.841228191297207, -13.69321410388704, 20.300051574911155, -1.0245037976173825, -7.836658543218357, 53.02824100203305], [-34.77297799733575, -4.781353619416757, -36.50572097098068, -2.232101963726649, -16.376225889066294, 17.68369735197881, 4.007569143023764, 31.028460561151714], [1.93393845820692, -26.248688817372482, 47.46352392646578, -13.684129985068177, 19.281385446499847, -28.297393164275757, 4.280422996169149, 40.795140256074276], [-11.575566318209907, 29.083688370250663, -30.249442150006423, 32.437814589783265, 26.33693602990815, -30.364300327325232, -13.539893139330706, 24.95503901329086], [-35.149702483957796, 42.427501639277594, -23.6344717325974, 27.927226754595672, -1.1460899516484933, 0.1768537776654644, 2.338884825499319, -18.01105102618844], [-15.447769797375098, 22.562728309640143, 69.77567590307842, -20.97324326521395, 7.707839734030704, -21.925203840225265, -16.43653318800846, -22.668673614144915]], [[2.444308968252082, -39.43042496319548, -14.974862856215555, -14.070305395075453, -41.08617085191806, -1.3177793075247053, -1.6338037342030634, -4.586514893532162, -22.27598649345906], [7.672826531122467, -0.6903037087922502, -17.40257924253379, -44.15147556700957, 51.90842982163299, 32.21443337518275, -36.682934045149686, 14.00934162838482, -9.972744944690058], [-45.74962987664001, -19.862690700776376, -10.757728587025127, -9.993118629760113, -40.037172689140625, 16.60742971414636, 15.074305747671518, 26.985568014773392, -21.80138496343183], [-31.482548905769402, 5.061788842403389, -2.265824968272218, 33.92815960161036, 12.270118768108972, -18.74572356982077, -31.877579387107247, -21.233381087893203, 48.76808377931001], [55.64325960841258, -22.37066511211274, 4.775033927441436, 4.856321419384912, -41.49857100038282, -44.85563393670997, 19.655715388313784, 10.262666083691325, -5.277451119109323], [-33.635592693643, -6.5344877833663935, 1.3264183718006144, 28.380248389850195, 33.27990913508963, -6.364730914375885, 30.669302705536516, -35.50128123438512, 16.95721916808136], [-10.759674618572168, -4.778827320648438, 11.430246304563875, -4.595462791482146, -15.126441727636687, -18.09037638060472, 79.31625332966291, -76.33723529757633, 18.71929751753776], [23.520395707546907, -2.7954099282491187, 26.583892147868593, 26.112300872927303, -24.582147912915527, -26.96927618067144, -11.047192702433561, -48.89216770772221, -5.516184870067885]]], "networkBiases": [[-2.2985822241662306, 3.443115540642613, 4.833246106043646, 1.3511525859288358, 4.638463663938375, -1.7948329819710787, 1.4242181983069955, 5.286829047920355], [-4.137831548946694, 6.685388193136622, -2.9743454837769483, -1.6379703084444306, 5.795380483163102, 2.356694592889693, -1.3400299302553635, 2.841821830167432, 2.415685848349723]]}