{"structure": [9, 8, 9], "networkWeights": [[[-0.5355179233786027, -43.8914891897167, -1.1834284910922397, 1.741735618172445, 0.8309332412183129, 25.160162102018504, 8.946504794342015, 51.27295538981897], [-3.932973642889881, -2.0423500328889963, -14.086447961130355, -13.613069852152826, -7.314831188674178, -20.126895996682144, -18.147474563660985, -23.694717015758624], [-12.850114412125796, -4.162265659921793, 4.582366293599163, -13.54242968387181, -7.8173897897563664, -6.382953172566691, 34.82739360063249, -9.64058975650069], [44.652757939677976, 18.8144531668693, 10.987601347668084, -13.87324348628841, 20.28534230829937, -1.2013354631361115, -7.601312424595015, 53.159540237761576], [-34.73311089271438, -4.685808917619812, -36.47930771929687, -2.473158532895776, -16.46917039792125, 17.674407313792, 4.094684461675688, 31.09524236527663], [1.8237857161269748, -26.45687374872498, 47.30583399901875, -13.684420058188831, 19.27376388811686, -28.391982374708277, 4.174315935411859, 40.70779317497233], [-11.553851223236036, 29.011894660614264, -30.112430262672397, 32.55988181110941, 26.4722577991022, -30.502405079104562, -13.542498642750443, 24.947505926392925], [-35.16145016527591, 42.49290083269018, -23.657283832701538, 27.83896709333243, -1.2727265708824547, 0.14258300049513584, 2.3282228012018322, -18.039040775310472], [-15.444858969817176, 22.360031434271626, 69.75892214099736, -20.821441959754363, 7.582870304013947, -22.101878913942084, -16.411772738843084, -22.768272315425595]], [[2.5523653735365572, -39.492044171021774, -15.040044773466906, -14.108913825287848, -40.80771662978972, -1.6914795693787192, -1.5120769647541499, -4.525589968875217, -22.284726786290197], [7.726433197420166, -0.6153904403155668, -17.366023978934216, -44.1675469321767, 51.97061448713711, 32.47352505963775, -36.66019599711145, 13.959406227018729, -10.092358512206774], [-45.728917800696465, -19.94516491985386, -10.733352147905228, -10.092534550097206, -39.9823296465276, 16.275998040148558, 14.909624075269575, 26.85996881983048, -21.94774483930988], [-31.57815745429212, 5.411080918467883, -2.477052799477421, 34.03034641068208, 12.206285696797764, -18.744168031133697, -31.851096455982127, -21.538735785991037, 48.7044203596113], [55.677876283586166, -22.75180255039536, 4.683644437441957, 4.8443145280027515, -41.299197199809186, -45.154798404976525, 19.32329465640713, 10.244090576480287, -5.390692572934562], [-33.64908630312812, -6.472418776852731, 1.0611741966791828, 28.403465995811512, 33.26169016608267, -6.212927103637437, 30.75332791435047, -36.03521548671295, 17.003131994289912], [-10.737898272534391, -4.837656743557954, 11.3919598279271, -4.635152806209283, -15.157815547543574, -18.328251327794188, 79.37032885382816, -76.14400718354786, 18.759134158598123], [23.607111762836038, -2.8129213968308595, 26.644975863311583, 25.740111892007718, -24.86750410637867, -27.092389193203584, -11.142955615717577, -48.90649071915414, -5.519741053868492]]], "networkBiases": [[-2.3794023062620813, 3.9502770157344633, 5.004661876468157, 1.5022671359005189, 4.799443173315821, -1.4131691270523752, 1.8486491909563536, 5.597847442715809], [-3.7879252722273598, 6.396401610667312, -2.3001612605582036, -1.4283326448279827, 6.103491229565095, 2.481842166934233, -1.9136722498411967, 2.987382463322287, 2.4939848630696613]]}