{"structure": [9, 8, 9], "networkWeights": [[[-0.5355179233786027, -43.8914891897167, -1.1834284910922397, 1.741735618172445, 0.8309332412183129, 25.160162102018504, 8.946504794342015, 51.27295538981897], [-3.932973642889881, -2.0423500328889963, -14.086447961130355, -13.613069852152826, -7.314831188674178, -19.924016715661182, -18.147474563660985, -23.694717015758624], [-12.850114412125796, -4.162265659921793, 4.582366293599163, -13.54242968387181, -7.8173897897563664, -6.382953172566691, 34.82739360063249, -9.64058975650069], [44.652757939677976, 18.8144531668693, 10.987601347668084, -13.87324348628841, 20.28534230829937, -1.2013354631361115, -7.601312424595015, 53.159540237761576], [-34.73311089271438, -4.685808917619812, -36.47930771929687, -2.473158532895776, -16.46917039792125, 17.674407313792, 4.094684461675688, 31.09524236527663], [1.8237857161269748, -26.562710859438152, 47.30583399901875, -13.684420058188831, 19.27376388811686, -28.391982374708277, 4.205131547731565, 40.81489945092709], [-11.553851223236036, 29.011894660614264, -30.112430262672397, 32.55988181110941, 26.458760577027846, -30.502405079104562, -13.598170793996047, 24.947505926392925], [-35.16145016527591, 42.49290083269018, -23.657283832701538, 27.83896709333243, -1.2727265708824547, 0.14258300049513584, 2.347584123666288, -18.039040775310472], [-15.444858969817176, 22.360031434271626, 69.75892214099736, -20.937183364098267, 7.71132528566164, -22.101878913942084, -16.411772738843084, -22.768272315425595]], [[2.5523653735365572, -39.492044171021774, -15.040044773466906, -14.108913825287848, -40.99720647602828, -1.6914795693787192, -1.706806151405834, -4.525589968875217, -22.284726786290197], [7.726433197420166, -0.6153904403155668, -17.366023978934216, -44.27360142300346, 51.853215481904854, 32.47352505963775, -36.66019599711145, 13.959406227018729, -10.092358512206774], [-45.728917800696465, -19.94516491985386, -10.632563248156229, -10.092534550097206, -39.9823296465276, 16.275998040148558, 14.909624075269575, 26.85996881983048, -21.89694245669784], [-31.57815745429212, 5.411080918467883, -2.477052799477421, 34.03034641068208, 12.206285696797764, -18.744168031133697, -31.851096455982127, -21.538735785991037, 48.7044203596113], [55.50092859261055, -22.75180255039536, 4.637910082063313, 4.8443145280027515, -41.299197199809186, -45.154798404976525, 19.32329465640713, 10.244090576480287, -5.390692572934562], [-33.64908630312812, -6.472418776852731, 1.0611741966791828, 28.403465995811512, 33.26169016608267, -6.212927103637437, 30.419354824129417, -36.03521548671295, 17.003131994289912], [-10.737898272534391, -4.837656743557954, 11.3919598279271, -4.635152806209283, -15.157815547543574, -18.328251327794188, 79.14075252981141, -76.14400718354786, 18.709257635487084], [23.607111762836038, -2.8129213968308595, 26.644975863311583, 25.740111892007718, -24.624737303106457, -27.159146699371387, -11.142955615717577, -48.92295030836831, -5.519741053868492]]], "networkBiases": [[-2.1252443213123278, 3.686051853156974, 4.946501956957844, 1.4739715413818124, 4.799443173315821, -1.3193243856639145, 2.272713918133235, 5.597847442715809], [-3.6378531626300927, 6.396401610667312, -2.2780214980733797, -1.4283326448279827, 6.103491229565095, 2.481842166934233, -1.7433574739312903, 3.0811922348146292, 2.4939848630696613]]}