{"structure": [9, 8, 9], "networkWeights": [[[-1.426428856632742, -43.72948951583779, -1.3830161089908892, 1.1900670383332135, 0.1763932544460129, 24.933650850973834, 9.593909523890115, 52.077504096056266], [-4.578975450018075, -2.003887838509919, -14.504755541119923, -13.225192474842679, -8.343083575147531, -20.63378570450598, -18.28096707759224, -23.93098381893206], [-13.149358932535451, -3.6314512997521025, 4.432284483460177, -13.446884835125328, -8.548694208503614, -6.534746586070701, 35.20114514143175, -9.364664658012423], [43.94729040397216, 18.73872325818884, 10.762054536002461, -13.338387013463182, 20.185649025352568, -1.0260719151086963, -7.11214669779169, 52.58392710938597], [-34.9415377841418, -5.452827189494471, -37.33143923667289, -3.2297704954278545, -16.797024344090648, 17.899159049921472, 4.212108232014764, 31.720113546810506], [1.5436385102599823, -26.5163523875383, 47.06045511676646, -14.343501189819875, 19.281561499748605, -28.875350336039432, 5.009375070308889, 41.76841946601187], [-10.71885284651031, 29.63860166628926, -29.97079458311792, 32.49576329577561, 26.040893443795152, -30.576860425621007, -13.624477798222822, 23.972156210193987], [-34.95586642817963, 42.8601267896392, -23.371321626434117, 27.96360124841369, -1.202106513615001, -0.06323154777984863, 2.1787339340711016, -17.99348960395608], [-15.605446532593012, 21.956703775452212, 69.5494836411089, -20.63284997991504, 7.753418028933777, -22.829267203863438, -16.897720593158613, -23.28415787617805]], [[2.0622969101259865, -39.33077415881787, -15.540868658432451, -14.684310288164863, -39.62997339329517, -2.1203461613303425, -1.9349830599132143, -4.374836073917394, -21.85805884188356], [7.537371395604004, 0.3638972063507575, -17.040380371677188, -43.37957551462525, 52.03801247818028, 31.919234769928508, -36.58010784212652, 14.018899679375219, -9.90127796647193], [-44.91553229610179, -19.520452832393254, -9.371575548321408, -10.11654335942792, -40.68127350502869, 16.28164712095539, 14.31193898769312, 26.887330485702847, -21.402656467696275], [-30.552177149583166, 6.021968744983947, -3.4606782400189076, 34.53845689591876, 11.692411447972336, -18.84164368444945, -31.105362016484086, -21.148087601427335, 49.3631900347633], [56.02409265022054, -23.121677636846904, 4.42285388891125, 4.358444245802575, -40.82392376736552, -44.59911345000822, 19.82969151426875, 9.12935959127943, -4.421634991541978], [-33.609566177889604, -6.592592401083683, 0.07609474568951696, 28.33619067640013, 32.610391001831154, -6.543199276946247, 30.638483603905634, -36.10589886870281, 17.06221934548996], [-10.652072850730013, -4.044535928459101, 11.761194910548685, -5.062446349074897, -14.370713725768558, -18.498561617818872, 79.23103694512481, -76.70834964691429, 18.278928099268754], [23.555288069804995, -3.778485867617853, 26.290176016041933, 25.718754248058083, -24.704483771283346, -26.690061025672986, -11.16905122567307, -49.078812207314655, -4.401413467415377]]], "networkBiases": [[-2.460605128236144, 3.081800730724021, 4.063949056852524, 1.5981948433169995, 2.495501440742038, -0.32250857399305155, 3.2892808967248492, 7.189121252528631], [-4.1076548866927585, 5.629620874521995, -1.8536942895937114, -2.7111003484720824, 5.019648145460961, 4.234210260698251, -2.3865030984889803, 2.6856379934603063, 2.0330579791301098]]}