{"structure": [9, 8, 9], "networkWeights": [[[-1.5556816340714195, -43.950277267604505, -1.9347003689729823, 1.0942385600919886, -0.4057558674439148, 24.585784107866736, 8.87973459585612, 51.832360846965884], [-5.1386033722466635, -1.3740450166224334, -14.396052780710939, -13.816431550864424, -8.187426878166091, -20.287098348448488, -18.41932838865771, -24.022496992117254], [-13.853644790851373, -4.15507672679365, 4.5015914659438065, -13.528052571661545, -8.90979195029705, -6.194795300107518, 35.02557805153524, -9.493886356151425], [44.275993322742956, 18.618614518714278, 9.245273037325354, -13.381137996246462, 20.155850717417746, -1.1757112309269213, -6.546946532514665, 52.16859498420653], [-34.065301990239064, -6.0229675979999415, -37.45410939819557, -2.65884029610918, -16.83854556805121, 18.46136665938189, 3.7878087391906483, 31.50383612373122], [1.1298643795625474, -25.948231222097608, 47.17166517341056, -14.608273308811635, 18.90340125686807, -29.05961758610677, 4.220979077203269, 41.347740279338744], [-10.243705357734065, 29.55544511073719, -30.373585062134143, 32.379298882341764, 26.069082359456345, -30.636812929662245, -12.883605021641097, 24.21545893020862], [-34.93664101277409, 42.857647309908565, -22.280213954874668, 28.491805335675178, -1.754537845171061, -0.3832849863398593, 2.1736275626439125, -18.302164520114072], [-15.782934941447946, 21.98302886649751, 69.2920253558149, -20.119680816817137, 7.805745722633637, -22.376095061743328, -16.602109251474804, -23.770142310470213]], [[1.9404117156861316, -38.52965454619673, -16.29144005577452, -14.54223368257364, -38.70732447993898, -2.0290471936728087, -1.7149803862980195, -4.130103191916511, -21.54594700553149], [7.187558562376107, -0.26607589310476604, -17.19335868764781, -43.6328519842133, 52.356146039481565, 32.18970861860678, -36.044062344628166, 13.626407000167877, -10.612621616429944], [-44.92577522243877, -20.39651033618794, -9.47407631048568, -9.682072635695995, -40.97765564916083, 16.447598841726403, 14.087086644334933, 26.88728733474909, -21.394381013556924], [-30.10527969550897, 5.794819711755202, -3.336450611582116, 34.574327103280886, 12.741973957840806, -18.45054601695201, -31.778756861617246, -21.895339262463597, 48.99248574461495], [55.790967847087146, -22.560305026696664, 3.901822176704177, 4.3494739852825814, -40.42091071030239, -45.220284743399496, 20.316415967995823, 9.696517549970162, -5.693152679077333], [-33.74115861660591, -6.11087289265827, -0.46867094481272226, 27.932442725461957, 32.36739424466447, -5.630184788512729, 30.87771683300011, -35.642904973488974, 17.165194139613728], [-10.005392434970972, -4.640698266885086, 12.16478273672521, -5.012949203522258, -14.646926659151074, -19.954897310795687, 80.05470107829831, -77.24555258091694, 18.83716634825903], [23.485733089403773, -2.7199901430130513, 25.541595235768863, 25.273483959823775, -25.467154162261334, -26.938343487915397, -11.244679740322232, -49.11011546172279, -4.247042098218593]]], "networkBiases": [[-3.243714952477091, 3.557261124282846, 1.8851393660637812, 2.045778231813931, 2.9684398015307423, -0.2395311185795878, 2.571436310612144, 6.967861043950097], [-1.2848222047791658, 5.718511219987426, -4.056517750120913, -2.00932776292553, 6.509994687473001, 2.189938317201374, -2.4364230745215556, 2.0399525428656786, 2.5241603881830303]]}