{"structure": [9, 8, 9], "networkWeights": [[[-1.4838478217695708, -43.80993250270616, -1.2509582143732845, 1.4246527542481826, 0.88731806857826, 24.940026010905537, 9.068831991138614, 51.814075957428045], [-4.533847076252654, -1.7159802178155814, -14.473973477393942, -13.588042262364851, -7.662088432715542, -19.957715177980514, -18.583236538026856, -23.845365163700176], [-13.146358893342978, -3.75269438026746, 4.5276527330073195, -13.366527952214444, -8.443847320858092, -6.121021246503384, 34.89458652178761, -9.622069495156556], [44.38973958189088, 19.086869390350763, 10.541533100734656, -13.860333555466374, 20.25828504252373, -1.0430917651066787, -7.334528727488624, 53.110418094700314], [-34.7944681335703, -4.858260047741396, -36.47888996175942, -2.993162473906358, -16.92999214301926, 18.088490063405775, 4.286099468224274, 31.303361050163662], [1.7023529104480857, -26.738836318007603, 47.223628470378166, -13.691895346013066, 18.946683029449524, -28.768458191686307, 4.757890904088263, 41.608707143606466], [-11.570413923433588, 29.5212904478872, -29.87499684566083, 32.471505315898156, 26.148465462868515, -30.533531349995283, -13.828141015530058, 24.376078796385908], [-34.7555985412577, 42.89892044885871, -23.553946970586917, 27.71898460706934, -1.2932636555097772, 0.0655409328091845, 2.1142579232910768, -17.723027041272594], [-15.385721432120535, 21.86273461776973, 69.79281593419343, -20.81127487963653, 7.633353666751831, -22.30780717825144, -16.99784160737817, -23.186079273662564]], [[2.3302096520388416, -39.61781996252953, -15.184693172084618, -14.241786559537319, -39.549591141239056, -1.6837743367380138, -2.1792563122559137, -4.715110687356215, -22.204912532415836], [7.869260513788131, -0.150058611715298, -17.39285873948694, -43.75720703920097, 51.85412603211987, 31.83188480227462, -36.39240331522076, 13.832896437647715, -10.028705500439205], [-44.94808627106312, -19.755335201117546, -9.98364718103856, -10.195655131286271, -40.14380353238146, 16.230041893572583, 14.747275047932431, 26.892894949767843, -21.531012289790645], [-30.751462258200014, 5.826037954513826, -2.555522192938161, 34.30495804090295, 12.155398412199409, -18.416123786339977, -31.94322074692907, -21.41567744444804, 49.75387265240768], [55.7147200258904, -22.600761568420513, 4.206992255871288, 4.551655254953052, -41.46582192693487, -44.54182570717041, 19.508047755660474, 9.455689056436398, -5.0310087963043], [-33.8002086128549, -6.568702774719318, 0.5850162673893968, 28.442328803903358, 32.81887171527687, -6.193675684174424, 30.68269934787488, -35.74765056085846, 17.477517304879417], [-10.939089550153788, -4.892177577845518, 12.063961166856258, -4.966131871000305, -15.089029884780814, -18.34932847707585, 79.31744169148243, -76.31533901356084, 18.096402438492373], [23.39236939584165, -3.2924024887543206, 26.19261999919674, 26.02356513128816, -24.241913062105365, -26.760276049458657, -11.19217031962862, -48.884671854240956, -5.329655275734669]]], "networkBiases": [[-2.241652484594558, 2.8992053302357195, 3.8087841675149887, 2.1755631855830915, 3.454544306556494, -0.5388965746342056, 2.164607047837848, 5.321814115902142], [-4.418881584562143, 6.165056474809948, -1.861925132160888, -2.098047898328992, 5.735617719498374, 2.9282829523661333, -2.8592507917919185, 1.885934430497031, 2.64240946470031]]}