{"structure": [9, 8, 9], "networkWeights": [[[-0.801929331269309, -43.383821163225974, -2.893602754867149, -0.33699550062586114, -0.3548157769933533, 23.341400415711128, 8.134564538663366, 50.46393337919914], [-5.097026684852241, -1.0421154260757133, -12.579203533099745, -12.563868125461772, -8.759450660627644, -19.944773896558353, -18.265839918287856, -25.174858773929003], [-13.342074194430849, -4.57369949446178, 3.6342569709312507, -13.295798864482322, -8.50690557381873, -7.615787159928717, 34.63901358843005, -9.949638076876953], [44.66440109756915, 18.582169678275804, 9.46717315608101, -13.571431766889276, 20.377399079795115, -0.3892511860453769, -5.162660502290511, 53.20179605446187], [-35.13292224837745, -5.930994931569307, -37.265941380715624, -3.072204052888426, -17.149120088719943, 16.262678551827346, 4.059763853294061, 32.59387064857202], [1.0994933634126365, -25.087982901255046, 45.92659492085994, -15.212896510007262, 20.266886565270337, -26.09485884482548, 3.9883675956019893, 40.14718615791279], [-8.701417242692793, 28.375662213909663, -30.421713120030493, 32.482034849829276, 25.861058261707623, -29.86894914306826, -12.985984366469982, 25.918186070825243], [-35.461752645395585, 41.89013194504081, -21.409768879424053, 27.40884622231248, -2.2997354800089376, -0.409384437458989, 2.6895403425353837, -18.93528229697927], [-18.43287053556603, 22.35108635545401, 68.73495846555714, -18.002986777577956, 8.392203009740273, -21.03117602387652, -16.621906271308767, -23.89771074116741]], [[2.8708858180321277, -38.438335913153026, -15.648362041783223, -14.709046145449761, -40.25501455447771, -2.1731971095243954, -1.3666478494232983, -3.6139975849541006, -21.703414014402668], [7.367343292648795, -0.36248313131762266, -17.083936399797288, -41.41980232562355, 52.04564259819212, 33.27391294020331, -37.30767252095599, 14.488537671316688, -11.035205682815452], [-44.52929570164636, -19.93850872185609, -8.646381349452412, -9.65234949493645, -40.27368316000106, 16.17760930581883, 15.979300929270163, 26.93522691050729, -22.046624876441175], [-29.856501942266558, 6.089460788040888, -2.9114512047651395, 34.76780439926265, 11.727654171738536, -19.464349792278174, -33.54862686587238, -20.901645127892657, 49.24952771626119], [55.15449840073289, -24.068132908384825, 4.038300147516613, 3.6121709639160056, -41.62309207543931, -45.309841611417376, 20.34757682289297, 9.632648819405519, -4.680126490184774], [-32.83216135836275, -6.258430608245782, 0.9619393054191221, 28.73199641224011, 34.106549593245894, -5.01411766468261, 29.64349135019989, -35.008780425579126, 15.163466665138913], [-11.67346714015404, -5.443718189315864, 11.128126892286149, -4.26485583225187, -15.35428054254814, -20.193168902074778, 80.52674134362735, -78.50892126747776, 19.871500423500088], [23.965768404565523, -0.2543948742757396, 24.206535446205045, 22.39552931780333, -25.2258644737446, -26.16008910550535, -11.309648496314932, -49.48888629130524, -4.181384285881082]]], "networkBiases": [[1.0, 1.0, 1.0, 1.0, 1.0, 1.0, 1.0, 1.0], [1.0, 1.0, 1.0, 1.0, 1.0, 1.0, 1.0, 1.0, 1.0]]}