{"structure": [9, 8, 9], "networkWeights": [[[-0.2526052111944044, -43.383821163225974, -2.893602754867149, 0.5524840112860867, 0.4531032326484974, 23.341400415711128, 7.947719920142883, 50.46393337919914], [-5.15855549521919, -1.0421154260757133, -12.883290886835656, -12.563868125461772, -8.461544224516597, -19.944773896558353, -18.265839918287856, -25.174858773929003], [-13.342074194430849, -4.57369949446178, 3.6927789675019094, -13.295798864482322, -8.50690557381873, -6.762046727877594, 34.63901358843005, -9.949638076876953], [45.14022364504573, 18.582169678275804, 10.021725135746642, -13.571431766889276, 20.377399079795115, -0.3892511860453769, -5.162660502290511, 53.20179605446187], [-35.13292224837745, -5.930994931569307, -37.265941380715624, -3.072204052888426, -17.149120088719943, 16.262678551827346, 4.059763853294061, 32.59387064857202], [1.0994933634126365, -25.087982901255046, 45.92659492085994, -14.931947666672665, 20.266886565270337, -26.09485884482548, 3.9883675956019893, 39.69094894670626], [-8.701417242692793, 28.534775939577298, -30.421713120030493, 32.482034849829276, 25.861058261707623, -29.86894914306826, -12.985984366469982, 25.851390745462478], [-35.461752645395585, 41.89013194504081, -20.468612817046907, 27.40884622231248, -2.2997354800089376, -0.21194793348018726, 2.866258201510089, -18.37018571453991], [-18.43287053556603, 22.35108635545401, 69.13222646813176, -18.002986777577956, 8.042228643050137, -21.03117602387652, -17.605819424830205, -23.363910643858286]], [[3.691547714730884, -38.05940051468717, -15.648362041783223, -14.709046145449761, -40.25501455447771, -2.3959691891979062, -1.3666478494232983, -3.6139975849541006, -21.703414014402668], [7.367343292648795, -0.41766905369155904, -17.083936399797288, -42.212009126615534, 51.82244273542355, 30.757874229089364, -36.825586707314145, 14.488537671316688, -11.035205682815452], [-44.52929570164636, -19.93850872185609, -9.479400805664813, -9.65234949493645, -39.85351539207235, 16.17760930581883, 15.979300929270163, 26.93522691050729, -22.975355005902426], [-30.061087056877227, 6.089460788040888, -2.3624792844800235, 34.967752535378246, 11.901995363524554, -19.464349792278174, -33.29257493450608, -21.815147503750715, 49.24952771626119], [55.15449840073289, -24.502731709218622, 4.097897661120568, 4.456384092120367, -41.980112803440704, -44.9378493259497, 20.34757682289297, 9.632648819405519, -4.680126490184774], [-32.83216135836275, -6.258430608245782, 0.6280231988118838, 28.73199641224011, 34.106549593245894, -5.01411766468261, 30.08847600294797, -35.748400862988404, 15.456583600351125], [-11.336203614685129, -6.037528214183737, 11.128126892286149, -4.119404228696895, -14.384422048102447, -20.193168902074778, 80.52674134362735, -78.11027505361929, 20.655909998142505], [23.965768404565523, -0.2543948742757396, 24.206535446205045, 22.89113891774604, -25.2258644737446, -26.16008910550535, -11.44104072959767, -49.48888629130524, -3.6151960618665426]]], "networkBiases": [[1.0, 1.0, 1.0, 1.0, 1.0, 1.0, 1.0, 1.0], [1.0, 1.0, 1.0, 1.0, 1.0, 1.0, 1.0, 1.0, 1.0]]}