{"structure": [9, 8, 9], "networkWeights": [[[-0.49727447954215853, -43.84603703747532, -1.1888496209085677, 1.7096052641335422, 0.8340208601164091, 25.16591814780672, 9.163068016171316, 51.07479384795832], [-3.9770338940869907, -2.1094732336060553, -14.071881486638018, -13.773944675735809, -7.232899616090471, -19.88520030406424, -18.147474563660985, -23.6717089274663], [-12.640721420767933, -4.186835080539742, 5.061546353676222, -13.568505175789157, -7.8173897897563664, -6.335877886559753, 34.831072183052605, -9.55074057150243], [44.62233890283863, 18.729382535481324, 10.820812583476846, -13.87324348628841, 20.278997213211976, -1.0780182741868651, -7.84595082388102, 53.10369866686064], [-34.76101169518428, -4.678728776362514, -36.47229087544157, -2.404056266541573, -16.318572026245715, 17.642505230533, 4.094684461675688, 31.057196097314428], [1.8793177766858222, -26.213096615060596, 47.368955233870686, -13.697316429104529, 19.27376388811686, -28.391982374708277, 4.128633637072345, 40.79437626852857], [-11.548417832827605, 29.097164931710676, -30.130136225900028, 32.55601276865434, 26.434205582636135, -30.532001346304543, -13.569372050157975, 24.947505926392925], [-35.12878109095123, 42.49290083269018, -23.649570099315135, 27.887701652992543, -1.1225520134048188, 0.12566821781915438, 2.329959912555298, -18.039040775310472], [-15.37164644164505, 22.368260230922797, 69.78895157656984, -20.937183364098267, 7.71132528566164, -22.011198317543204, -16.388035800006694, -22.768272315425595]], [[2.502474811547404, -39.53341927977811, -15.113622040794358, -14.108913825287848, -41.054507460493, -1.3269068800663564, -1.7953149046584005, -4.497469929623808, -22.39596498920482], [7.774377879620196, -0.6334836290768827, -17.45594564623584, -44.14055517305185, 51.87469231087139, 32.21366350056271, -36.66130958118134, 13.95919274966496, -10.120994889847589], [-45.771184821230946, -20.053334022001117, -10.77782752841172, -10.092534550097206, -40.097510064303066, 16.406026661657506, 15.08651005445843, 27.037639888321355, -21.89694245669784], [-31.601170324198353, 5.175826962951067, -2.282402203741656, 33.98289474702625, 12.249423041512742, -18.744168031133697, -31.876810799318775, -21.3449454173345, 48.7431355576393], [55.551855380583596, -22.338182772538612, 4.701803702049688, 4.819830157902219, -41.31922535783125, -44.975889521367186, 19.51077983522515, 10.244090576480287, -5.35850884459174], [-33.60456544019085, -6.488056525652796, 1.2204011119918492, 28.347913637255225, 33.28197233231038, -6.277779595269632, 30.780164471974764, -35.560776454616565, 17.007368148173562], [-10.737898272534391, -4.8346626152546195, 11.461119169666755, -4.5882512857197595, -15.163417142838163, -18.30342497455087, 79.29225718557069, -76.15462269211073, 18.70275412279066], [23.58892869774119, -2.7876994320212853, 26.643971739545133, 26.06130295837561, -24.66319336104511, -27.017183501183087, -11.147457928353024, -48.88634755372427, -5.553341921223807]]], "networkBiases": [[-2.366259451023171, 3.5834636200355687, 5.011467504585594, 1.3734160760018614, 4.598704205763977, -1.5249428658480164, 2.002856232579, 5.535662369232442], [-4.060312086625014, 6.604871726730414, -2.713382154320838, -1.6879695858783852, 5.9132614346878025, 2.3387872677806745, -1.6872246474876063, 3.02431510169846, 2.347306920747586]]}