{"structure": [9, 8, 9], "networkWeights": [[[-0.6412392948283587, -43.945385255780785, -1.0676413565922183, 1.9277204513598427, 0.8827469362752015, 25.207811398097906, 9.046667482014973, 51.16949793190123], [-3.9136400233484756, -1.6777143553277842, -14.097442129724563, -13.602175340138803, -7.216546297244915, -19.82585344882808, -18.19592290105887, -23.61875967736424], [-12.383366475986863, -4.1369697363608795, 5.22747269087615, -13.728072096960794, -7.732369676789808, -6.573727370797607, 35.11962360828646, -9.42745587526096], [44.67324155029476, 18.75213454558914, 10.84997930853994, -13.731753867670573, 20.392187658981825, -0.9630133401306749, -7.7425374170699035, 52.9698693576789], [-34.79159543241957, -4.630720486762859, -36.453809653948014, -2.262339446449919, -16.433484314467744, 17.694657821742705, 4.018426446994858, 31.127369618663067], [2.0893311189089694, -26.10196195088163, 47.37099968017576, -13.643584534225965, 19.339435580174897, -28.345199793512, 4.261338687579304, 40.846247059666815], [-11.751767429545513, 29.078876859803902, -30.060341012298878, 32.44070912142849, 26.17115298346076, -30.29367018049277, -13.397654738312966, 25.04790473362208], [-35.27641989888214, 42.45330596414649, -23.80690759416222, 27.947707187541212, -1.2146240196860583, 0.21508729126089632, 2.3647192027779704, -18.10612177949739], [-15.45742869704232, 22.49585148636794, 69.75567800094161, -20.935670968196813, 7.691794559554763, -21.993977569387567, -16.43205880836469, -22.74767707123577]], [[2.4700108337487015, -39.50287182777565, -14.95119284550445, -14.17882135398175, -41.12108689033762, -1.3604594939516177, -1.4882334179674763, -4.429824694966372, -22.263557935003384], [7.675016935576103, -0.6734760787371568, -17.37843680686339, -44.08326886066111, 51.92167015869269, 32.20254680271061, -36.679844608616094, 14.109447242845796, -10.014607559286292], [-45.972651037404674, -19.783997569420336, -10.75875779100345, -9.927426115064277, -40.13573789312077, 16.589245741398067, 15.158550435546044, 27.120856942957744, -21.85412643108745], [-31.68576884432115, 5.047423717213026, -2.145880797480938, 33.95208835964051, 12.291543850686926, -18.61711953328719, -31.956989816904837, -21.207991984482913, 48.73371847101117], [55.755516080509025, -22.31274390828438, 4.703219891892926, 4.8833303031150885, -41.50394715686318, -44.691799826238686, 19.459951005546618, 10.35774797064307, -5.332021241952323], [-33.63962982134484, -6.579710661845692, 1.4627285593290873, 28.35413631184379, 33.29337973653027, -6.448271630712845, 30.597733142721125, -35.42796208157492, 16.93555082932356], [-10.82203147815104, -4.862964317530435, 11.480108838447027, -4.526288271618837, -15.105045765773077, -18.131180524251132, 79.37408975141277, -76.3095120004144, 18.764418378357874], [23.565875256434698, -2.925025388305746, 26.681723447542137, 26.122795510786915, -24.564065432928505, -27.00853091342469, -10.990281442520493, -48.88156086725406, -5.520228117536028]]], "networkBiases": [[-2.119529711273872, 3.084602070465991, 4.849787755630183, 2.0308580673380945, 4.643415677504879, -1.8778437569903783, 1.9482740979770308, 5.060316365229078], [-3.6722253408861323, 6.468950381722812, -2.8543465897057154, -1.9963587915092451, 5.7001394518017054, 2.5422500980018907, -1.4526635859773442, 3.308186013136186, 2.5429234441074087]]}